<?xml version="1.0" encoding="UTF-8"?>
<smile version="1.0" id="Unnamed" numsamples="10000" discsamples="10000">
	<nodes>
		<cpt id="wind_u">
			<state id="VeryLow" />
			<state id="Low" />
			<state id="Medium" />
			<state id="High" />
			<state id="VeryHigh" />
			<probabilities>0.2657196106854421 0.3465148063781321 0.231633878649824 0.1098446883412715 0.04628701594533029</probabilities>
		</cpt>
		<cpt id="wind_v">
			<state id="VeryLow" />
			<state id="Low" />
			<state id="Medium" />
			<state id="High" />
			<state id="VeryHigh" />
			<probabilities>0.0004058811348105198 0.04974114723545248 0.625272313108304 0.3211099606543798 0.00347069786705322</probabilities>
		</cpt>
		<cpt id="Hs_offshore">
			<state id="VeryLow" />
			<state id="Low" />
			<state id="Medium" />
			<state id="High" />
			<state id="VeryHigh" />
			<probabilities>0.1882294470904949 0.2846800579830193 0.2552909505073514 0.1897701387450818 0.08202940567405261</probabilities>
		</cpt>
		<cpt id="Tm_offshore">
			<state id="VeryLow" />
			<state id="Low" />
			<state id="Medium" />
			<state id="High" />
			<state id="VeryHigh" />
			<probabilities>0.2191095464899565 0.2357672395941189 0.2419134396355353 0.1933153862083247 0.1098943880720646</probabilities>
		</cpt>
		<cpt id="Dir_offshore">
			<state id="N" />
			<state id="ENE" />
			<state id="ESE" />
			<state id="SSE" />
			<state id="SSW" />
			<state id="WSW" />
			<state id="WNW" />
			<state id="NNW" />
			<probabilities>0.2505114930627459 0.2932449782563677 0.1117664112652723 0.1625595361358459 0.1079643818595983 0.04598881756057155 0.01670739283495548 0.01125698902464278</probabilities>
		</cpt>
		<cpt id="TWL_less_Tide">
			<state id="VeryLow" />
			<state id="Low" />
			<state id="Medium" />
			<state id="High" />
			<state id="VeryHigh" />
			<parents>wind_u wind_v Hs_offshore Tm_offshore Dir_offshore</parents>
			<probabilities>0.1214756139032292 0.05623007773360249 0.1516165344834653 0.2055097887125131 0.4651679851671898 0.2 0.2 0.2 0.2 0.2 0.2 0.2 0.2 0.2 0.2 0.2 0.2 0.2 0.2 0.2 0.2 0.2 0.2 0.2 0.2 0.2 0.2 0.2 0.2 0.2 0.2 0.2 0.2 0.2 0.2 0.2 0.2 0.2 0.2 0.2 0.2 0.2 0.2 0.2 0.2 0.2 0.2 0.2 0.2 0.2 0.2 0.2 0.2 0.2 0.2 0.2 0.2 0.2 0.2 0.2 0.2 0.2 0.2 0.2 0.2 0.2 0.2 0.2 0.2 0.2 0.2 0.2 0.2 0.2 0.2 0.2 0.2 0.2 0.2 0.2 0.2 0.2 0.2 0.2 0.2 0.2 0.2 0.2 0.2 0.2 0.2 0.2 0.2 0.2 0.2 0.2 0.2 0.2 0.2 0.2 0.2 0.2 0.2 0.2 0.2 0.2 0.2 0.2 0.2 0.2 0.2 0.2 0.2 0.2 0.2 0.2 0.2 0.2 0.2 0.2 0.2 0.2 0.2 0.2 0.2 0.2 0.2 0.2 0.2 0.2 0.2 0.2 0.2 0.2 0.2 0.2 0.2 0.2 0.2 0.2 0.2 0.2 0.2 0.2 0.2 0.2 0.2 0.2 0.2 0.2 0.2 0.2 0.2 0.2 0.2 0.2 0.2 0.2 0.2 0.2 0.2 0.2 0.2 0.2 0.2 0.2 0.2 0.2 0.2 0.2 0.2 0.2 0.2 0.2 0.2 0.2 0.2 0.2 0.2 0.2 0.2 0.2 0.2 0.2 0.2 0.2 0.2 0.2 0.2 0.2 0.2 0.2 0.2 0.2 0.2 0.2 0.2 0.2 0.2 0.2 0.2 0.2 0.2 0.2 0.2 0.2 0.2 0.2 0.2 0.2 0.2 0.2 0.2 0.2 0.2 0.2 0.2 0.2 0.2 0.2 0.2 0.2 0.2 0.2 0.2 0.2 0.2 0.2 0.2 0.2 0.2 0.2 0.2 0.2 0.2 0.2 0.2 0.2 0.2 0.2 0.2 0.2 0.2 0.2 0.2 0.2 0.2 0.2 0.2 0.2 0.2 0.2 0.2 0.2 0.2 0.2 0.2 0.2 0.2 0.2 0.2 0.2 0.2 0.2 0.2 0.2 0.2 0.2 0.2 0.2 0.2 0.2 0.2 0.2 0.2 0.2 0.2 0.2 0.2 0.2 0.2 0.2 0.2 0.2 0.2 0.2 0.2 0.2 0.2 0.2 0.2 0.2 0.2 0.2 0.2 0.2 0.2 0.2 0.2 0.2 0.2 0.2 0.2 0.2 0.2 0.2 0.2 0.2 0.2 0.2 0.2 0.2 0.2 0.2 0.2 0.2 0.2 0.2 0.2 0.2 0.2 0.2 0.2 0.2 0.2 0.2 0.2 0.2 0.2 0.2 0.2 0.2 0.2 0.2 0.2 0.2 0.2 0.2 0.2 0.2 0.2 0.2 0.2 0.2 0.2 0.2 0.2 0.2 0.2 0.2 0.2 0.2 0.2 0.2 0.2 0.2 0.2 0.2 0.2 0.2 0.2 0.2 0.2 0.2 0.2 0.2 0.2 0.2 0.2 0.2 0.2 0.2 0.2 0.2 0.2 0.2 0.2 0.2 0.2 0.2 0.2 0.2 0.2 0.2 0.2 0.2 0.2 0.2 0.2 0.2 0.2 0.2 0.2 0.2 0.2 0.2 0.2 0.2 0.2 0.2 0.2 0.2 0.2 0.2 0.2 0.2 0.2 0.2 0.2 0.2 0.2 0.2 0.2 0.2 0.2 0.2 0.2 0.2 0.2 0.2 0.2 0.2 0.2 0.2 0.2 0.2 0.2 0.2 0.2 0.2 0.2 0.2 0.2 0.2 0.2 0.2 0.2 0.2 0.2 0.2 0.2 0.2 0.2 0.2 0.2 0.2 0.2 0.2 0.2 0.2 0.2 0.2 0.2 0.2 0.2 0.2 0.2 0.2 0.2 0.2 0.2 0.2 0.2 0.2 0.2 0.2 0.2 0.2 0.2 0.2 0.2 0.2 0.2 0.2 0.2 0.2 0.2 0.2 0.2 0.2 0.2 0.2 0.2 0.2 0.2 0.2 0.2 0.2 0.2 0.2 0.2 0.2 0.2 0.2 0.2 0.2 0.2 0.2 0.2 0.2 0.2 0.2 0.2 0.2 0.2 0.2 0.2 0.2 0.2 0.2 0.2 0.2 0.2 0.2 0.2 0.2 0.2 0.2 0.2 0.2 0.2 0.2 0.2 0.2 0.2 0.2 0.2 0.2 0.2 0.2 0.2 0.2 0.2 0.2 0.2 0.2 0.2 0.2 0.2 0.2 0.2 0.2 0.2 0.2 0.2 0.2 0.2 0.2 0.2 0.2 0.2 0.2 0.2 0.2 0.2 0.2 0.2 0.2 0.2 0.2 0.2 0.2 0.2 0.2 0.2 0.2 0.2 0.2 0.2 0.2 0.2 0.2 0.2 0.2 0.2 0.2 0.2 0.2 0.2 0.2 0.2 0.2 0.2 0.2 0.2 0.2 0.2 0.2 0.2 0.2 0.2 0.2 0.2 0.2 0.2 0.2 0.2 0.2 0.2 0.2 0.2 0.2 0.2 0.2 0.2 0.2 0.2 0.2 0.2 0.2 0.2 0.2 0.2 0.2 0.2 0.2 0.2 0.2 0.2 0.2 0.2 0.2 0.2 0.2 0.2 0.2 0.2 0.2 0.2 0.2 0.2 0.2 0.2 0.2 0.2 0.2 0.2 0.2 0.2 0.2 0.2 0.2 0.2 0.2 0.2 0.2 0.2 0.2 0.2 0.2 0.2 0.2 0.2 0.2 0.2 0.2 0.2 0.2 0.2 0.2 0.2 0.2 0.2 0.2 0.2 0.2 0.2 0.2 0.2 0.2 0.2 0.2 0.2 0.2 0.2 0.2 0.2 0.2 0.2 0.2 0.2 0.2 0.2 0.2 0.2 0.2 0.2 0.2 0.2 0.2 0.2 0.2 0.2 0.2 0.2 0.2 0.2 0.2 0.2 0.2 0.2 0.2 0.2 0.2 0.2 0.2 0.2 0.2 0.2 0.2 0.2 0.2 0.2 0.2 0.2 0.2 0.2 0.2 0.2 0.2 0.2 0.2 0.2 0.2 0.2 0.2 0.2 0.2 0.2 0.2 0.2 0.2 0.2 0.2 0.2 0.2 0.2 0.2 0.2 0.2 0.2 0.2 0.2 0.2 0.2 0.2 0.2 0.2 0.2 0.2 0.2 0.2 0.2 0.2 0.2 0.2 0.2 0.2 0.2 0.2 0.2 0.2 0.2 0.2 0.2 0.2 0.2 0.2 0.2 0.2 0.2 0.2 0.2 0.2 0.2 0.2 0.2 0.2 0.2 0.2 0.2 0.2 0.2 0.2 0.2 0.2 0.2 0.2 0.2 0.2 0.2 0.2 0.2 0.2 0.2 0.2 0.2 0.2 0.2 0.2 0.2 0.2 0.2 0.2 0.2 0.2 0.2 0.2 0.2 0.2 0.2 0.2 0.2 0.2 0.2 0.2 0.2 0.2 0.2 0.2 0.2 0.2 0.2 0.2 0.2 0.2 0.2 0.2 0.2 0.2 0.2 0.2 0.2 0.2 0.2 0.2 0.2 0.2 0.2 0.2 0.2 0.2 0.2 0.2 0.2 0.2 0.2 0.2 0.2 0.2 0.2 0.2 0.2 0.2 0.2 0.2 0.2 0.2 0.2 0.2 0.2 0.2 0.2 0.2 0.2 0.2 0.2 0.2 0.2 0.2 0.2 0.2 0.2 0.2 0.2 0.2 0.2 0.2 0.2 0.2 0.2 0.2 0.2 0.2 0.2 0.2 0.2 0.2 0.2 0.2 0.2 0.2 0.2 0.2 0.2 0.2 0.2 0.2 0.2 0.2 0.2 0.2 0.2 0.2 0.2 0.2 0.2 0.2 0.2 0.2 0.2 0.2 0.2 0.2 0.2 0.2 0.2 0.2 0.2 0.2 0.2 0.2 0.2 0.2 0.2 0.2 0.2 0.2 0.2 0.2 0.2 0.2 0.2 0.2 0.2 0.2 0.2 0.2 0.2 0.2 0.2 0.2 0.2 0.2 0.2 0.2 0.2 0.2 0.2 0.2 0.2 0.2 0.2 0.2 0.2 0.2 0.2 0.2 0.2 0.2 0.2 0.2 0.2 0.2 0.2 0.2 0.2 0.2 0.2 0.2 0.2 0.2 0.2 0.2 0.2 0.2 0.2 0.2 0.2 0.2 0.2 0.2 0.2 0.2 0.2 0.2 0.2 0.2 0.2 0.2 0.2 0.2 0.2 0.2 0.2 0.2 0.2 0.2 0.2 0.2 0.2352941176470588 0.6470588235294118 0.05882352941176471 0 0.05882352941176471 1 0 0 0 0 0 0 0.08163265306122448 0.4897959183673469 0.4285714285714285 0 0 0.09836065573770492 0.459016393442623 0.4426229508196722 0 0 0.3333333333333333 0.3333333333333333 0.3333333333333333 0 0 0.5714285714285714 0.2857142857142857 0.1428571428571428 0.2 0.2 0.2 0.2 0.2 0.5 0.5 0 0 0 0.2 0.2 0.2 0.2 0.2 0.2 0.2 0.2 0.2 0.2 0.2 0.2 0.2 0.2 0.2 0.2 0.2 0.2 0.2 0.2 0.2 0.2 0.2 0.2 0.2 0.2 0.2 0.2 0.2 0.2 0.2 0.2 0.2 0.2 0.2 0.2 0.2 0.2 0.2 0.2 0.2 0.2 0.2 0.2 0.2 0.2 0.2 0.2 0.2 0.2 0.2 0.2 0.2 0.2 0.2 0.2 0.2 0.2 0.2 0.2 0.2 0.2 0.2 0.2 0.2 0.2 0.2 0.2 0.2 0.2 0.2 0.2 0.2 0.2 0.2 0.2 0.2 0.2 0.2 0.2 0.2 0.2 0.2 0.2 0.2 0.2 0.2 0.2 0.2 0.2 0.2 0.2 0.2 0.2 0.2 0.2 0.2 0.2 0.2 0.2 0.2 0.2 0.2 0.2 0.2 0.2 0.2 0.2 0.2 0.2 0.2 0.2 0.2 0.2 0.2 0.2 0.2 0.2 0.2 0.2 0.2 0.2 0.2 0.2 0.2 0.2 0.2 0.2 0.2 0.2 0.2 0.2 0.2 0.2 0.2 0.2 0.2 0.2 0.2 0.2 0.2 0.2 0.2 0.2 0.2 0.2 0.2 0.2 0.2 0.2 0.2 0.2 0.2 0.2 0.2 0.2 0.2 0.2 0.2 0.2 0 0 0 0.5 0.5 0 0 0 0 1 0 0 0.1355932203389831 0.3474576271186441 0.5169491525423728 0 0.02380952380952381 0.1428571428571428 0.3095238095238095 0.5238095238095237 0 0 0.3333333333333333 0.4166666666666666 0.25 0 0 0.5714285714285714 0.1428571428571428 0.2857142857142857 0 0 1 0 0 0 0 0 0.5 0.5 0.2 0.2 0.2 0.2 0.2 0 0 0 0 1 0.2 0.2 0.2 0.2 0.2 0.2 0.2 0.2 0.2 0.2 0 0 1 0 0 0 0 1 0 0 0.2 0.2 0.2 0.2 0.2 0.2 0.2 0.2 0.2 0.2 0.2 0.2 0.2 0.2 0.2 0.2 0.2 0.2 0.2 0.2 0.2 0.2 0.2 0.2 0.2 0.2 0.2 0.2 0.2 0.2 0.2 0.2 0.2 0.2 0.2 0.2 0.2 0.2 0.2 0.2 0.2 0.2 0.2 0.2 0.2 0.2 0.2 0.2 0.2 0.2 0.2 0.2 0.2 0.2 0.2 0.2 0.2 0.2 0.2 0.2 0.2 0.2 0.2 0.2 0.2 0.2 0.2 0.2 0.2 0.2 0.2 0.2 0.2 0.2 0.2 0.2 0.2 0.2 0.2 0.2 0.2 0.2 0.2 0.2 0.2 0.2 0.2 0.2 0.2 0.2 0.2 0.2 0.2 0.2 0.2 0.2 0.2 0.2 0.2 0.2 0.2 0.2 0.2 0.2 0.2 0.2 0.2 0.2 0.2 0.2 0.2 0.2 0.2 0.2 0.2 0.2 0.2 0.2 0.2 0.2 0.2 0.2 0.2 0.2 0.2 0.2 0.2 0.2 0.2 0.2 0 0 0.5 0.5 0 0.2 0.2 0.2 0.2 0.2 0 0 0.06666666666666667 0.2 0.7333333333333333 0 0 0.3333333333333333 0.6666666666666666 0 0 0 0 1 0 0 0 0 1 0 0.2 0.2 0.2 0.2 0.2 0.4 0 0 0.4 0.2 0 0.3333333333333333 0.3333333333333333 0.3333333333333333 0 0 0 0.5 0.4 0.1 0 0 0.06666666666666667 0.7333333333333333 0.2 0 0 0 0.5714285714285714 0.4285714285714285 0 0 0 1 0 0.2 0.2 0.2 0.2 0.2 0.2 0.2 0.2 0.2 0.2 0 0 1 0 0 0.2 0.2 0.2 0.2 0.2 0.2 0.2 0.2 0.2 0.2 0.2 0.2 0.2 0.2 0.2 0.2 0.2 0.2 0.2 0.2 0.2 0.2 0.2 0.2 0.2 0 0 0 1 0 0 0 1 0 0 0.2 0.2 0.2 0.2 0.2 0.2 0.2 0.2 0.2 0.2 0.2 0.2 0.2 0.2 0.2 0.2 0.2 0.2 0.2 0.2 0.2 0.2 0.2 0.2 0.2 0.2 0.2 0.2 0.2 0.2 0.2 0.2 0.2 0.2 0.2 0.2 0.2 0.2 0.2 0.2 0.2 0.2 0.2 0.2 0.2 0.2 0.2 0.2 0.2 0.2 0.2 0.2 0.2 0.2 0.2 0.2 0.2 0.2 0.2 0.2 0.2 0.2 0.2 0.2 0.2 0.2 0.2 0.2 0.2 0.2 0.2 0.2 0.2 0.2 0.2 0.2 0.2 0.2 0.2 0.2 0.2 0.2 0.2 0.2 0.2 0.2 0.2 0.2 0.2 0.2 0.2 0.2 0.2 0.2 0.2 0.2 0.2 0.2 0.2 0.2 0.2 0.2 0.2 0.2 0.2 0.2 0.2 0.2 0.2 0.2 0.2 0.2 0.2 0.2 0.2 0.2 0.2 0.2 0.2 0.2 0.2 0.2 0.2 0.2 0.2 0 0.07142857142857142 0.5 0.1428571428571428 0.2857142857142857 0 0 0.1666666666666667 0.3888888888888888 0.4444444444444444 0 0 0 0.875 0.125 0 0 0.6666666666666666 0 0.3333333333333333 0.2 0.2 0.2 0.2 0.2 0 0 1 0 0 0.2 0.2 0.2 0.2 0.2 0.2 0.2 0.2 0.2 0.2 0 0 0.2777777777777778 0.25 0.4722222222222222 0 0 0.09090909090909091 0.4090909090909091 0.5 0.2 0.2 0.2 0.2 0.2 0.2 0.2 0.2 0.2 0.2 0.2 0.2 0.2 0.2 0.2 0.2 0.2 0.2 0.2 0.2 0.2 0.2 0.2 0.2 0.2 0.2 0.2 0.2 0.2 0.2 0.2 0.2 0.2 0.2 0.2 0.2 0.2 0.2 0.2 0.2 0.2 0.2 0.2 0.2 0.2 0.2 0.2 0.2 0.2 0.2 0.2 0.2 0.2 0.2 0.2 0.2 0.2 0.2 0.2 0.2 0.2 0.2 0.2 0.2 0.2 0.2 0.2 0.2 0.2 0.2 0 0 1 0 0 0.2 0.2 0.2 0.2 0.2 0.2 0.2 0.2 0.2 0.2 0.2 0.2 0.2 0.2 0.2 0.2 0.2 0.2 0.2 0.2 0.2 0.2 0.2 0.2 0.2 0.2 0.2 0.2 0.2 0.2 0.2 0.2 0.2 0.2 0.2 0.2 0.2 0.2 0.2 0.2 0.2 0.2 0.2 0.2 0.2 0.2 0.2 0.2 0.2 0.2 0.2 0.2 0.2 0.2 0.2 0.2 0.2 0.2 0.2 0.2 0.2 0.2 0.2 0.2 0.2 0.2 0.2 0.2 0.2 0.2 0.2 0.2 0.2 0.2 0.2 0.2 0 0.8 0 0 0 0 0.25 0.25 0.5 0.2 0.2 0.2 0.2 0.2 0.2 0.2 0.2 0.2 0.2 0.2 0.2 0.2 0.2 0.2 0.2 0.2 0.2 0.2 0.2 0.2 0.2 0.2 0.2 0.2 0.2 0.2 0.2 0.2 0.2 0 0.04545454545454546 0.1954545454545454 0.3636363636363636 0.3954545454545454 0.01612903225806452 0.01612903225806452 0.1290322580645161 0.5806451612903225 0.2580645161290323 0.2 0.2 0.2 0.2 0.2 0.2 0.2 0.2 0.2 0.2 0.2 0.2 0.2 0.2 0.2 0.2 0.2 0.2 0.2 0.2 0.2 0.2 0.2 0.2 0.2 0.2 0.2 0.2 0.2 0.2 0 0.1063829787234043 0.148936170212766 0.5106382978723404 0.2340425531914894 0 0 0.25 0.75 0 0.2 0.2 0.2 0.2 0.2 0.2 0.2 0.2 0.2 0.2 0.2 0.2 0.2 0.2 0.2 0.2 0.2 0.2 0.2 0.2 0.2 0.2 0.2 0.2 0.2 0.2 0.2 0.2 0.2 0.2 0 0 0 1 0 0.2 0.2 0.2 0.2 0.2 0.2 0.2 0.2 0.2 0.2 0.2 0.2 0.2 0.2 0.2 0.2 0.2 0.2 0.2 0.2 0.2 0.2 0.2 0.2 0.2 0.2 0.2 0.2 0.2 0.2 0.2 0.2 0.2 0.2 0.2 0.3588516746411483 0.3875598086124402 0.02870813397129186 0.1483253588516746 0.07655502392344497 0.3076923076923077 0.4615384615384616 0.04945054945054946 0.1263736263736264 0.05494505494505495 0.2107969151670951 0.01799485861182519 0.1053984575835475 0.4344473007712082 0.2313624678663239 0.01865284974093264 0.004145077720207254 0.1202072538860104 0.5647668393782384 0.2922279792746114 0.004195804195804196 0 0.1202797202797203 0.5748251748251748 0.3006993006993007 0.02409638554216868 0 0.2650602409638554 0.4457831325301205 0.2650602409638554 0.4166666666666666 0.08333333333333333 0.08333333333333333 0.4166666666666666 0 0.4 0.2 0 0.2 0.2 0.2 0.2 0.2 0.2 0.2 0.2 0.2 0.2 0.2 0.2 0 0 0 0 1 0 0 1 0 0 0.2 0.2 0.2 0.2 0.2 0 0 0 1 0 0.2 0.2 0.2 0.2 0.2 0.2 0.2 0.2 0.2 0.2 0.2 0.2 0.2 0.2 0.2 0.2 0.2 0.2 0.2 0.2 0.2 0.2 0.2 0.2 0.2 0.2 0.2 0.2 0.2 0.2 0.2 0.2 0.2 0.2 0.2 0 0 0 1 0 0 0 0 1 0 0.2 0.2 0.2 0.2 0.2 0.2 0.2 0.2 0.2 0.2 0.2 0.2 0.2 0.2 0.2 0.2 0.2 0.2 0.2 0.2 0 0 1 0 0 0.2 0.2 0.2 0.2 0.2 0.2 0.2 0.2 0.2 0.2 0.2 0.2 0.2 0.2 0.2 0.2 0.2 0.2 0.2 0.2 0.2 0.2 0.2 0.2 0.2 0.2 0.2 0.2 0.2 0.2 0.2 0.2 0.2 0.2 0.2 0.2 0.2 0.2 0.2 0.2 0.2 0.2 0.2 0.2 0.2 0.2 0.2 0.2 0.2 0.2 0.2 0.2 0.2 0.2 0.2 0.2 0.2 0.2 0.2 0.2 0 0 0.1196581196581197 0.623931623931624 0.2564102564102564 0 0.02564102564102564 0.2307692307692308 0.5384615384615384 0.2051282051282051 0 0 0.08670143415906127 0.5436766623207301 0.3696219035202086 0 0.001173708920187793 0.1167840375586855 0.5158450704225352 0.3661971830985916 0 0.007339449541284404 0.126605504587156 0.5302752293577981 0.3357798165137615 0 0 0.2439024390243902 0.6463414634146342 0.1097560975609756 0 0 0.3333333333333333 0.4 0.2666666666666667 0 0 0.2962962962962963 0.6296296296296295 0.07407407407407407 0 0.1428571428571428 0.119047619047619 0.5 0.2380952380952381 0 0.05194805194805195 0.2077922077922078 0.6623376623376623 0.07792207792207792 0 0 0.1386861313868613 0.6240875912408759 0.2372262773722628 0 0 0.1280276816608996 0.5501730103806228 0.3217993079584775 0 0 0.2087912087912088 0.5274725274725275 0.2637362637362637 0 0 0.1875 0.625 0.1875 0 0 0.75 0.125 0.125 0 0 0.1666666666666667 0.6666666666666666 0.1666666666666667 0 0.5 0 0.5 0 0 0 1 0 0 0 0 0 0.5 0.5 0 0 0 1 0 0 0 1 0 0 0.2 0.2 0.2 0.2 0.2 0 0 0 1 0 0 0 0 0 1 0 0 0 1 0 0.2 0.2 0.2 0.2 0.2 0.2 0.2 0.2 0.2 0.2 0 0 0 1 0 0.2 0.2 0.2 0.2 0.2 0.2 0.2 0.2 0.2 0.2 0.2 0.2 0.2 0.2 0.2 0.2 0.2 0.2 0.2 0.2 0.2 0.2 0.2 0.2 0.2 0.2 0.2 0.2 0.2 0.2 0.2 0.2 0.2 0.2 0.2 0.2 0.2 0.2 0.2 0.2 0.2 0.2 0.2 0.2 0.2 0.2 0.2 0.2 0.2 0.2 0.2 0.2 0.2 0.2 0.2 0.2 0.2 0.2 0.2 0.2 0 0 0 0 1 0 0 1 0 0 0 0 0.04137931034482759 0.4827586206896551 0.4758620689655172 0 0 0.07746478873239437 0.5140845070422535 0.4084507042253521 0 0 0.06666666666666667 0.7333333333333333 0.2 0 0 0 0.8571428571428571 0.1428571428571428 0 0 0.5 0.5 0 0 0 0.6666666666666666 0.3333333333333333 0 0.002150537634408602 0.0989247311827957 0.1075268817204301 0.5182795698924731 0.2731182795698925 0.001628664495114007 0.02117263843648209 0.1433224755700326 0.6017915309446255 0.2320846905537459 0 0 0.05314799672935405 0.5331152902698283 0.4137367130008177 0 0 0.0906200317965024 0.4340222575516693 0.4753577106518283 0 0.01769911504424779 0.1415929203539823 0.504424778761062 0.3362831858407079 0 0.08 0.5600000000000001 0.32 0.04 0 0 0.8333333333333333 0.1666666666666667 0 0 0 0.75 0 0.25 0 0.07692307692307693 0.08461538461538462 0.5076923076923077 0.3307692307692308 0 0.007782101167315175 0.1284046692607004 0.6186770428015564 0.245136186770428 0 0 0.1111111111111111 0.5 0.3888888888888888 0 0 0.07692307692307693 0.6153846153846154 0.3076923076923077 0 0 0 0.2 0.8 0 0 0.5 0.5 0 0 0 1 0 0 0.2 0.2 0.2 0.2 0.2 0 0 0.3333333333333333 0 0.6666666666666666 0 0 0.2857142857142857 0.5714285714285714 0.1428571428571428 0 0 0 1 0 0 0 0 0 1 0 0 0 1 0 0 0 1 0 0 0.2 0.2 0.2 0.2 0.2 0.2 0.2 0.2 0.2 0.2 0.2 0.2 0.2 0.2 0.2 0 0 0 0 1 0.2 0.2 0.2 0.2 0.2 0.2 0.2 0.2 0.2 0.2 0.2 0.2 0.2 0.2 0.2 0.2 0.2 0.2 0.2 0.2 0.2 0.2 0.2 0.2 0.2 0.2 0.2 0.2 0.2 0.2 0.2 0.2 0.2 0.2 0.2 0.2 0.2 0.2 0.2 0.2 0.2 0.2 0.2 0.2 0.2 0.2 0.2 0.2 0.2 0.2 0.2 0.2 0.2 0.2 0.2 0.2 0.2 0.2 0.2 0.2 0.2 0.2 0.2 0.2 0.2 0.2 0.2 0.2 0.2 0.2 0 0.07580174927113703 0.1545189504373178 0.5626822157434402 0.2069970845481049 0.00223463687150838 0.01005586592178771 0.1418994413407821 0.5877094972067038 0.2581005586592179 0 0 0.01063829787234043 0.4148936170212766 0.5744680851063829 0 0 0.02531645569620253 0.4050632911392405 0.569620253164557 0 0 0.1428571428571428 0.5714285714285714 0.2857142857142857 0 0 1 0 0 0.2 0.2 0.2 0.2 0.2 0.2 0.2 0.2 0.2 0.2 0.001265822784810127 0.06202531645569621 0.1563291139240506 0.5215189873417722 0.2588607594936709 0.001212611156022635 0.0068714632174616 0.08084074373484236 0.6135812449474535 0.2974939369442199 0 0 0.02830188679245283 0.5849056603773585 0.3867924528301886 0 0 0.0625 0.75 0.1875 0 0 0 0.4 0.6000000000000001 0 0 1 0 0 0 0 1 0 0 0.2 0.2 0.2 0.2 0.2 0 0.04950495049504951 0.198019801980198 0.4851485148514851 0.2673267326732673 0 0.0131578947368421 0.1973684210526316 0.4210526315789473 0.3684210526315789 0.2 0.2 0.2 0.2 0.2 0 0 0 1 0 0.2 0.2 0.2 0.2 0.2 0.2 0.2 0.2 0.2 0.2 0.2 0.2 0.2 0.2 0.2 0.2 0.2 0.2 0.2 0.2 0 0 0.4285714285714285 0.5714285714285714 0 0 0 0 0.5 0.5 0.2 0.2 0.2 0.2 0.2 0.2 0.2 0.2 0.2 0.2 0.2 0.2 0.2 0.2 0.2 0 0 1 0 0 0.2 0.2 0.2 0.2 0.2 0.2 0.2 0.2 0.2 0.2 0.2 0.2 0.2 0.2 0.2 0.2 0.2 0.2 0.2 0.2 0.2 0.2 0.2 0.2 0.2 0.2 0.2 0.2 0.2 0.2 0.2 0.2 0.2 0.2 0.2 0.2 0.2 0.2 0.2 0.2 0.2 0.2 0.2 0.2 0.2 0.2 0.2 0.2 0.2 0.2 0 0.07142857142857142 0.3571428571428571 0.4285714285714285 0.1428571428571428 0 0.05882352941176471 0.2941176470588235 0.5882352941176471 0.05882352941176471 0.2 0.2 0.2 0.2 0.2 0.2 0.2 0.2 0.2 0.2 0.2 0.2 0.2 0.2 0.2 0.2 0.2 0.2 0.2 0.2 0.2 0.2 0.2 0.2 0.2 0.2 0.2 0.2 0.2 0.2 0.003725782414307004 0.03353204172876304 0.150521609538003 0.5715350223546944 0.2406855439642325 0.0006863417982155113 0.01578586135895676 0.08785175017158545 0.667124227865477 0.2285518188057652 0 0 0.03846153846153846 0.5384615384615385 0.4230769230769231 0 0 0 0 1 0.2 0.2 0.2 0.2 0.2 0.2 0.2 0.2 0.2 0.2 0.2 0.2 0.2 0.2 0.2 0.2 0.2 0.2 0.2 0.2 0.003891050583657588 0.03242542153047989 0.1478599221789883 0.5680933852140078 0.2477302204928664 0 0.007092198581560284 0.0851063829787234 0.6382978723404256 0.2695035460992908 0 0 0 0.5 0.5 0 0 1 0 0 0.2 0.2 0.2 0.2 0.2 0.2 0.2 0.2 0.2 0.2 0 0 1 0 0 0.2 0.2 0.2 0.2 0.2 0 0.08064516129032258 0.1612903225806452 0.564516129032258 0.1935483870967742 0 0 0.1 0.4 0.5 0 0 0 0 1 0.2 0.2 0.2 0.2 0.2 0.2 0.2 0.2 0.2 0.2 0 0 1 0 0 0 0.25 0.75 0 0 0.2 0.2 0.2 0.2 0.2 0.3076923076923077 0.25 0.0576923076923077 0.3269230769230769 0.0576923076923077 0.4210526315789473 0.4947368421052631 0.04210526315789474 0.03157894736842105 0.01052631578947368 0.25 0.0625 0.1041666666666667 0.3125 0.2708333333333333 0.1478599221789883 0.03501945525291829 0.07003891050583658 0.4630350194552529 0.2840466926070039 0.03139013452914798 0.004484304932735426 0.05829596412556054 0.5067264573991032 0.3991031390134529 0.09090909090909091 0 0.1818181818181818 0.4545454545454546 0.2727272727272727 0 0 1 0 0 0.3333333333333333 0.6666666666666666 0 0 0 0.2 0.2 0.2 0.2 0.2 0.2 0.2 0.2 0.2 0.2 0.2 0.2 0.2 0.2 0.2 0.2 0.2 0.2 0.2 0.2 0.2 0.2 0.2 0.2 0.2 0.2 0.2 0.2 0.2 0.2 0.2 0.2 0.2 0.2 0.2 0.2 0.2 0.2 0.2 0.2 0.2 0.2 0.2 0.2 0.2 0.2 0.2 0.2 0.2 0.2 0.2 0.2 0.2 0.2 0.2 0.2 0.2 0.2 0.2 0.2 0 0 1 0 0 0.2 0.2 0.2 0.2 0.2 0.2 0.2 0.2 0.2 0.2 0.2 0.2 0.2 0.2 0.2 0.2 0.2 0.2 0.2 0.2 0.2 0.2 0.2 0.2 0.2 0.2 0.2 0.2 0.2 0.2 0.2 0.2 0.2 0.2 0.2 0.2 0.2 0.2 0.2 0.2 0.2 0.2 0.2 0.2 0.2 0.2 0.2 0.2 0.2 0.2 0.2 0.2 0.2 0.2 0.2 0.2 0.2 0.2 0.2 0.2 0.2 0.2 0.2 0.2 0.2 0.2 0.2 0.2 0.2 0.2 0.2 0.2 0.2 0.2 0.2 0.2 0.2 0.2 0.2 0.2 0.2 0.2 0.2 0.2 0.2 0.2 0.2 0.2 0.2 0.2 0.2 0.2 0.2 0.2 0.2 0 0 0.1111111111111111 0.5185185185185185 0.3703703703703703 0 0.05555555555555555 0.1111111111111111 0.7222222222222222 0.1111111111111111 0 0 0.05792682926829269 0.6158536585365854 0.326219512195122 0 0 0.09770114942528735 0.5704022988505747 0.3318965517241379 0 0 0.1095100864553314 0.478386167146974 0.4121037463976945 0 0 0.1212121212121212 0.5757575757575758 0.303030303030303 0 0 0.5 0.5 0 0.1818181818181818 0 0.2727272727272727 0.5454545454545454 0 0 0.1111111111111111 0.1481481481481481 0.4444444444444444 0.2962962962962963 0 0.02127659574468085 0.1276595744680851 0.7021276595744681 0.148936170212766 0 0 0.1530612244897959 0.5408163265306122 0.3061224489795918 0 0.01694915254237288 0.05084745762711865 0.5677966101694916 0.3644067796610169 0 0.02941176470588235 0.3529411764705882 0.4117647058823529 0.2058823529411765 0 0 0.125 0.375 0.5 0 0 1 0 0 0 0 0 0.6000000000000001 0.4 0 0 0 1 0 0 0 0 1 0 0.2 0.2 0.2 0.2 0.2 0.2 0.2 0.2 0.2 0.2 0.2 0.2 0.2 0.2 0.2 0.2 0.2 0.2 0.2 0.2 0.2 0.2 0.2 0.2 0.2 0.2 0.2 0.2 0.2 0.2 0.2 0.2 0.2 0.2 0.2 0.2 0.2 0.2 0.2 0.2 0 0 0 1 0 0.2 0.2 0.2 0.2 0.2 0.2 0.2 0.2 0.2 0.2 0.2 0.2 0.2 0.2 0.2 0.2 0.2 0.2 0.2 0.2 0.2 0.2 0.2 0.2 0.2 0.2 0.2 0.2 0.2 0.2 0.2 0.2 0.2 0.2 0.2 0.2 0.2 0.2 0.2 0.2 0.2 0.2 0.2 0.2 0.2 0.2 0.2 0.2 0.2 0.2 0.2 0.2 0.2 0.2 0.2 0.2 0.2 0.2 0.2 0.2 0.2 0.2 0.2 0.2 0.2 0.2 0.2 0.2 0.2 0.2 0 0 1 0 0 0 0 0.06451612903225806 0.4516129032258064 0.4838709677419355 0 0 0.03076923076923077 0.4461538461538462 0.5230769230769231 0 0 0.12 0.52 0.36 0 0 0.4 0.6000000000000001 0 0 0 0 0.5 0.5 0 0 0.3333333333333333 0.6666666666666666 0 0.02 0.1666666666666667 0.1333333333333333 0.44 0.24 0.001438848920863309 0.02877697841726619 0.1007194244604317 0.5611510791366907 0.3079136690647482 0 0 0.04654654654654655 0.4894894894894895 0.4639639639639639 0 0.0017825311942959 0.0463458110516934 0.4438502673796791 0.5080213903743315 0 0.01298701298701299 0.2337662337662338 0.4675324675324676 0.2857142857142858 0 0.1 0.1 0.6000000000000001 0.2 0.2 0.2 0.2 0.2 0.2 0.2 0.2 0.2 0.2 0.2 0 0.04166666666666666 0.04166666666666666 0.3541666666666666 0.5625 0.008849557522123894 0.02654867256637168 0.06194690265486726 0.5752212389380531 0.3274336283185841 0 0 0 0.8 0.2 0 0 0 0.4 0.6000000000000001 0 0 0.5 0 0.5 0.2 0.2 0.2 0.2 0.2 0.2 0.2 0.2 0.2 0.2 0.2 0.2 0.2 0.2 0.2 0 0 0.5 0 0.5 0 0 0.1666666666666667 0.5 0.3333333333333333 0.2 0.2 0.2 0.2 0.2 0.2 0.2 0.2 0.2 0.2 0.2 0.2 0.2 0.2 0.2 0.2 0.2 0.2 0.2 0.2 0.2 0.2 0.2 0.2 0.2 0.2 0.2 0.2 0.2 0.2 0.2 0.2 0.2 0.2 0.2 0 0 0.5 0.5 0 0.2 0.2 0.2 0.2 0.2 0.2 0.2 0.2 0.2 0.2 0.2 0.2 0.2 0.2 0.2 0.2 0.2 0.2 0.2 0.2 0.2 0.2 0.2 0.2 0.2 0.2 0.2 0.2 0.2 0.2 0.2 0.2 0.2 0.2 0.2 0.2 0.2 0.2 0.2 0.2 0.2 0.2 0.2 0.2 0.2 0.2 0.2 0.2 0.2 0.2 0.2 0.2 0.2 0.2 0.2 0.2 0.2 0.2 0.2 0.2 0.2 0.2 0.2 0.2 0.2 0.2 0.2 0.2 0.2 0.2 0 0.1237113402061856 0.2577319587628866 0.3917525773195876 0.2268041237113402 0.001683501683501683 0.01683501683501683 0.1363636363636364 0.5454545454545454 0.2996632996632996 0 0 0.04405286343612335 0.4889867841409692 0.4669603524229075 0 0 0.02040816326530612 0.5102040816326531 0.4693877551020408 0 0 0.1333333333333333 0.4 0.4666666666666667 0.2 0.2 0.2 0.2 0.2 0.2 0.2 0.2 0.2 0.2 0.2 0.2 0.2 0.2 0.2 0.004514672686230248 0.06320541760722347 0.1399548532731377 0.582392776523702 0.2099322799097065 0.002386634844868735 0.008750994431185363 0.06762132060461416 0.6308671439936356 0.2903739061256961 0 0 0.03092783505154639 0.5773195876288659 0.3917525773195876 0 0 0.04761904761904762 0.5714285714285714 0.3809523809523809 0.2 0.2 0.2 0.2 0.2 0.2 0.2 0.2 0.2 0.2 0 0 1 0 0 0.2 0.2 0.2 0.2 0.2 0 0.03703703703703703 0.1481481481481481 0.3703703703703703 0.4444444444444444 0 0.04347826086956522 0.04347826086956522 0.4782608695652174 0.4347826086956522 0 0 0 1 0 0.2 0.2 0.2 0.2 0.2 0.2 0.2 0.2 0.2 0.2 0.2 0.2 0.2 0.2 0.2 0.2 0.2 0.2 0.2 0.2 0.2 0.2 0.2 0.2 0.2 0 0 1 0 0 0.2 0.2 0.2 0.2 0.2 0 0 0 0 1 0.2 0.2 0.2 0.2 0.2 0.2 0.2 0.2 0.2 0.2 0.2 0.2 0.2 0.2 0.2 0.2 0.2 0.2 0.2 0.2 0.2 0.2 0.2 0.2 0.2 0.2 0.2 0.2 0.2 0.2 0.2 0.2 0.2 0.2 0.2 0.2 0.2 0.2 0.2 0.2 0.2 0.2 0.2 0.2 0.2 0.2 0.2 0.2 0.2 0.2 0.2 0.2 0.2 0.2 0.2 0.2 0.2 0.2 0.2 0.2 0.2 0.2 0.2 0.2 0.2 0 0.3333333333333333 0.3333333333333333 0.3333333333333333 0 0 0 0.3 0.6000000000000001 0.1 0 0 0 0.5 0.5 0 0 0 0.5 0.5 0 0 0 1 0 0.2 0.2 0.2 0.2 0.2 0.2 0.2 0.2 0.2 0.2 0.2 0.2 0.2 0.2 0.2 0.006535947712418301 0.03594771241830066 0.1241830065359477 0.6045751633986929 0.2287581699346405 0.00436046511627907 0.00436046511627907 0.1002906976744186 0.6758720930232558 0.2151162790697674 0 0 0 0.66 0.34 0 0 0 0.25 0.75 0.2 0.2 0.2 0.2 0.2 0.2 0.2 0.2 0.2 0.2 0.2 0.2 0.2 0.2 0.2 0.2 0.2 0.2 0.2 0.2 0 0.03463203463203463 0.1471861471861472 0.5324675324675324 0.2857142857142857 0 0.01986754966887417 0.1059602649006623 0.4768211920529801 0.3973509933774834 0 0 0 0 1 0.2 0.2 0.2 0.2 0.2 0.2 0.2 0.2 0.2 0.2 0.2 0.2 0.2 0.2 0.2 0.2 0.2 0.2 0.2 0.2 0.2 0.2 0.2 0.2 0.2 0.05263157894736842 0.1052631578947368 0.4210526315789473 0.2631578947368421 0.1578947368421053 0 0 0.5 0.5 0 0.2 0.2 0.2 0.2 0.2 0.2 0.2 0.2 0.2 0.2 0.2 0.2 0.2 0.2 0.2 0.2 0.2 0.2 0.2 0.2 0.2 0.2 0.2 0.2 0.2 0.2 0.2 0.2 0.2 0.2 0.2 0.2 0.2 0.2 0.2 0.2 0.2 0.2 0.2 0.2 0.2 0.2 0.2 0.2 0.2 0.2 0.2 0.2 0.2 0.2 0.2 0.2 0.2 0.2 0.2 0.2 0.2 0.2 0.2 0.2 0.2 0.2 0.2 0.2 0.2 0.2 0.2 0.2 0.2 0.2 0.2 0.2 0.2 0.2 0.2 0.2 0.2 0.2 0.2 0.2 0.2 0.2 0.2 0.2 0.2 0.2 0.2 0.2 0.2 0.2 0.2 0.2 0.2 0.2 0.2 0.2 0.2 0.2 0.2 0.2 0.2 0.2 0.2 0.2 0.2 0.2 0.2 0.2 0.2 0.2 0.2 0.2 0.2 0.2 0.2 0.2 0.2 0.2 0.2 0.2 0.2 0.2 0.2 0.2 0.2 0.2 0.2 0.2 0.2 0.2 0.2 0.2 0.2 0.2 0.2 0.2 0.2 0.2 0.2 0.2 0.2 0.2 0.2 0.2 0.2 0.2 0.2 0.2 0.2 0.2 0.2 0.2 0.2 0.2 0.2 0.2 0.2 0.2 0.2 0.2 0.2 0.2 0.2 0.2 0.2 0.2 0.2 0.2 0.2 0.2 0.2 0.2 0.2 0.2 0.2 0.2 0.2 0.2 0.2 0.2 0.2 0.2 0.2 0.2 0.2 0.2 0.2 0.2 0.2 0.2 0.2 0.2 0.2 0.2 0.2 0.2 0.2 0.2 0.2 0.2 0.2 0.2 0.2 0.2 0.2 0.2 0.2 0.2 0.2 0.2 0.2 0.2 0.2 0.2 0.2 0.2 0.2 0.2 0.2 0.2 0.2 0.2 0.2 0.2 0.2 0.2 0.2 0.2 0.2 0.2 0 0 0 1 0 0.2 0.2 0.2 0.2 0.2 0.2 0.2 0.2 0.2 0.2 0 0 0.5 0 0.5 0 0 0 1 0 0.2 0.2 0.2 0.2 0.2 0.2 0.2 0.2 0.2 0.2 0.2 0.2 0.2 0.2 0.2 0.2 0.2 0.2 0.2 0.2 0.2 0.2 0.2 0.2 0.2 0.2 0.2 0.2 0.2 0.2 0.2 0.2 0.2 0.2 0.2 0.2 0.2 0.2 0.2 0.2 0.2 0.2 0.2 0.2 0.2 0.2 0.2 0.2 0.2 0.2 0.2 0.2 0.2 0.2 0.2 0.2 0.2 0.2 0.2 0.2 0.2 0.2 0.2 0.2 0.2 0.2 0.2 0.2 0.2 0.2 0.2 0.2 0.2 0.2 0.2 0.2 0.2 0.2 0.2 0.2 0.2 0.2 0.2 0.2 0.2 0.2 0.2 0.2 0.2 0.2 0.2 0.2 0.2 0.2 0.2 0.2 0.2 0.2 0.2 0.2 0.2 0.2 0.2 0.2 0.2 0.2 0.2 0.2 0.2 0.2 0.2 0.2 0.2 0.2 0.2 0.2 0.2 0.2 0.2 0.2 0.2 0.2 0.2 0.2 0.2 0.2 0.2 0.2 0.2 0.2 0.2 0.2 0.2 0.2 0.2 0.2 0.2 0.2 0.2 0.2 0.2 0.2 0.2 0.2 0.2 0.2 0.2 0.2 0.2 0.2 0.2 0.2 0.2 0.2 0.2 0.2 0.2 0.2 0.2 0.2 0.2 0.2 0.2 0.2 0.2 0.2 0.2 0.2 0.2 0.2 0.2 0.2 0.2 0.2 0.2 0.2 0.2 0.2 0.2 0.2 0.2 0.2 0.2 0.2 0.2 0.2 0.2 0.2 0.2 0.2 0.2 0.2 0.2 0.2 0.2 0.2 0.2 0.2 0.2 0.2 0.2 0.2 0.2 0.2 0.2 0.2 0.2 0.2 0.2 0.2 0.2 0.2 0.2 0.2 0.2 0.2 0.2 0.2 0.2 0.2 0 0 0 0.5 0.5 0.2 0.2 0.2 0.2 0.2 0.2 0.2 0.2 0.2 0.2 0.2 0.2 0.2 0.2 0.2 0.2 0.2 0.2 0.2 0.2 0.2 0.2 0.2 0.2 0.2 0.2 0.2 0.2 0.2 0.2 0.2 0.2 0.2 0.2 0.2 0.2 0.2 0.2 0.2 0.2 0.2 0.2 0.2 0.2 0.2 0.2 0.2 0.2 0.2 0.2 0.2 0.2 0.2 0.2 0.2 0.2 0.2 0.2 0.2 0.2 0.2 0.2 0.2 0.2 0.2 0.2 0.2 0.2 0.2 0.2 0.2 0.2 0.2 0.2 0.2 0.2 0.2 0.2 0.2 0.2 0.2 0.2 0.2 0.2 0.2 0.2 0.2 0.2 0.2 0.2 0.2 0.2 0.2 0.2 0.2 0.2 0.2 0.2 0.2 0.2 0.2 0.2 0.2 0.2 0.2 0.2 0.2 0.2 0.2 0.2 0.2 0.2 0.2 0.2 0.2 0.2 0.2 0.2 0.2 0.2 0.2 0.2 0.2 0.2 0.2 0.2 0.2 0.2 0.2 0.2 0.2 0.2 0.2 0.2 0.2 0.2 0.2 0.2 0.2 0.2 0.2 0.2 0.2 0.2 0.2 0.2 0.2 0.2 0.2 0.2 0.2 0.2 0.2 0.2 0.2 0.2 0.2 0.2 0.2 0.2 0.2 0.2 0.2 0.2 0.2 0.2 0.2 0.2 0.2 0.2 0.2 0.2 0.2 0.2 0.2 0.2 0.2 0.2 0.2 0.2 0.2 0.2 0.2 0.2 0.2 0.2 0.2 0.2 0.2 0.2 0.2 0.2 0.2 0.2 0.2 0 0 0 0.5 0.5 0.2 0.2 0.2 0.2 0.2 0 0 0 0.5 0.5 0 0 0 1 0 0.2 0.2 0.2 0.2 0.2 0.2 0.2 0.2 0.2 0.2 0.2 0.2 0.2 0.2 0.2 0 0 0 1 0 0 0 0 1 0 0.2 0.2 0.2 0.2 0.2 0.2 0.2 0.2 0.2 0.2 0.2 0.2 0.2 0.2 0.2 0.2 0.2 0.2 0.2 0.2 0.2 0.2 0.2 0.2 0.2 0.2 0.2 0.2 0.2 0.2 0.2 0.2 0.2 0.2 0.2 0.2 0.2 0.2 0.2 0.2 0.2 0.2 0.2 0.2 0.2 0.2 0.2 0.2 0.2 0.2 0.2 0.2 0.2 0.2 0.2 0.2 0.2 0.2 0.2 0.2 0.2 0.2 0.2 0.2 0.2 0.2 0.2 0.2 0.2 0.2 0.2 0.2 0.2 0.2 0.2 0.2 0.2 0.2 0.2 0.2 0.2 0.2 0.2 0.2 0.2 0.2 0.2 0.2 0.2 0.2 0.2 0.2 0.2 0.2 0.2 0.2 0.2 0.2 0.2 0.2 0.2 0.2 0.2 0.2 0.2 0.2 0.2 0.2 0.2 0.2 0.2 0.2 0.2 0.2 0.2 0.2 0.2 0.2 0.2 0.2 0.2 0.2 0.2 0.2 0.2 0.2 0.2 0.2 0.2 0.2 0.2 0.2 0.2 0.2 0.2 0.2 0.2 0.2 0.2 0.2 0.2 0.2 0.2 0.2 0.2 0.2 0.2 0.2 0.2 0.2 0.2 0.2 0.2 0.2 0.2 0.2 0.2 0.2 0.2 0.2 0.2 0.2 0.2 0.2 0.2 0.2 0.2 0.2 0.2 0.2 0.2 0.2 0.2 0.2 0.2 0.2 0.2 0.2 0.2 0.2 0.2 0.2 0.2 0.2 0.2 0.2 0.2 0.2 0.2 0.2 0.2 0.2 0.2 0.2 0.2 0 0.1666666666666667 0 0.8333333333333333 0 0.2 0.2 0.2 0.2 0.2 0.2 0.2 0.2 0.2 0.2 0.2 0.2 0.2 0.2 0.2 0.2 0.2 0.2 0.2 0.2 0.2 0.2 0.2 0.2 0.2 0.2 0.2 0.2 0.2 0.2 0.2 0.2 0.2 0.2 0.2 0.2 0.2 0.2 0.2 0.2 0.2 0.2 0.2 0.2 0.2 0.2 0.2 0.2 0.2 0.2 0.2 0.2 0.2 0.2 0.2 0.2 0.2 0.2 0.2 0.2 0.2 0.2 0.2 0.2 0.2 0.2 0.2 0.2 0.2 0.2 0.2 0.2 0.2 0.2 0.2 0.2 0.2 0.2 0.2 0.2 0.2 0.2 0.2 0.2 0.2 0.2 0.2 0.2 0.2 0.2 0.2 0.2 0.2 0.2 0.2 0.2 0.2 0.2 0.2 0.2 0.2 0.2 0.2 0.2 0.2 0.2 0.2 0.2 0.2 0.2 0.2 0.2 0.2 0.2 0.2 0.2 0.2 0.2 0.2 0.2 0.2 0.2 0.2 0.2 0.2 0.2 0.2 0.2 0.2 0.2 0.2 0.2 0.2 0.2 0.2 0.2 0.2 0.2 0.2 0.2 0.2 0.2 0.2 0.2 0.2 0.2 0.2 0.2 0.2 0.2 0.2 0.2 0.2 0.2 0.2 0.2 0.2 0.2 0.2 0.2 0.2 0.2 0.2 0.2 0.2 0.2 0.2 0.2 0.2 0.2 0.2 0.2 0.2 0.2 0.2 0.2 0.2 0.2 0.2 0.2 0.2 0.2 0.2 0.2 0.2 0.2 0.2 0.2 0.2 0.2 0.2 0.2 0.2 0.2 0.2 0.2 0.2 0.2 0.2 0.2 0.2 0.2 0.2 0.2 0.2 0.2 0.2 0.2 0.2 0.2 0.2 0.2 0.2 0.2 0.2 0.2 0.2 0.2 0.2 0.2 0.2 0.2 0.2 0.2 0.2 0.2 0.2 0.2 0.2 0.2 0.2 0.2 0.2 0.2 0.2 0.2 0.2 0.2 0.2 0.2 0.2 0.2 0.2 0.2 0.2 0.2 0.2 0.2 0.2 0.2 0.2 0.2 0.2 0.2 0.2 0.2 0.2 0.2 0.2 0.2 0.2 0.2 0.2 0.2 0.2 0.2 0.2 0.2 0.2 0.2 0.2 0.2 0.2 0.2 0.2 0.2 0.2 0.2 0.2 0.2 0.2 0.2 0.2 0.2 0.2 0.2 0.2 0.2 0.2 0.2 0.2 0.2 0.2 0.2 0.2 0.2 0.2 0.2 0.2 0.2 0.2 0.2 0.2 0.2 0.2 0.2 0.2 0.2 0.2 0.2 0.2 0.2 0.2 0.2 0.2 0.2 0.2 0.2 0.2 0.2 0.2 0.2 0.2 0.2 0.2 0.2 0.2 0.2 0.2 0.2 0.2 0.2 0.2 0.2 0.2 0.2 0.2 0.2 0.2 0.2 0.2 0.2 0.2 0.2 0.2 0.2 0.2 0.2 0.2 0.2 0.2 0.2 0.2 0.2 0.2 0.2 0.2 0.2 0.2 0.2 0.2 0.2 0.2 0.2 0.2 0.2 0.2 0.2 0.2 0.2 0.2 0.2 0.2 0.2 0.2 0.2 0.2 0.2 0.2 0.2 0.2 0.2 0.2 0.2 0.2 0.2 0.2 0.2 0.2 0.2 0.2 0.2 0.2 0.2 0.2 0.2 0.2 0.2 0.2 0.2 0.2 0.2 0.2 0.2 0.2 0.2 0.2 0.2 0.2 0.2 0.2 0.2 0.2 0.2 0.2 0.2 0.2 0.2 0.2 0.2 0.2 0.2 0.2 0.2 0.2 0.2 0.2 0.2 0.2 0.2 0.2 0.2 0.2 0.2 0.2 0.2 0.2 0.2 0.2 0.2 0.2 0.2 0.2 0.2 0.2 0.2 0.2 0.2 0.2 0.2 0.2 0.2 0.2 0.2 0.2 0.2 0.2 0.2 0.2 0.2 0.2 0.2 0.2 0.2 0.2 0.2 0.2 0.2 0.2 0.2 0.2 0.2 0.2 0.2 0.2 0.2 0.2 0.2 0.2 0.2 0.2 0.2 0.2 0.2 0.2 0.2 0.2 0.2 0.2 0.2 0.2 0.2 0.2 0.2 0.2 0.2 0.2 0.2 0.2 0.2 0.2 0.2 0.2 0.2 0.2 0.2 0.2 0.2 0.2 0.2 0.2 0.2 0.2 0.2 0.2 0.2 0.2 0.2 0.2 0.2 0.2 0.2 0.2 0.2 0.2 0.2 0.2 0.2 0.2 0.2 0.2 0.2 0.2 0.2 0.2 0.2 0.2 0.2 0.2 0.2 0.2 0.2 0.2 0.2 0.2 0.2 0.2 0.2 0.2 0.2 0.2 0.2 0.2 0.2 0.2 0.2 0.2 0.2 0.2 0.2 0.2 0.2 0.2 0.2 0.2 0.2 0.2 0.2 0.2 0.2 0.2 0.2 0.2 0.2 0.2 0.2 0.2 0.2 0.2 0.2 0.2 0.2 0.2 0.2 0.2 0.2 0.2 0.2 0.2 0.2 0.2 0.2 0.2 0.2 0.2 0.2 0.2 0.2 0.2 0.2 0.2 0.2 0.2 0.2 0.2 0.2 0.2 0.2 0.2 0.2 0.2 0.2 0.2 0.2 0.2 0.2 0.2 0.2 0.2 0.2 0.2 0.2 0.2 0.2 0.2 0.2 0.2 0.2 0.2 0.2 0.2 0.2 0.2 0.2 0.2 0.2 0.2 0.2 0.2 0.2 0.2 0.2 0.2 0.2 0.2 0.2 0.2 0.2 0.2 0.2 0.2 0.2 0.2 0.2 0.2 0.2 0.2 0.2 0.2 0.2 0.2 0.2 0.2 0.2 0.2 0.2 0.2 0.2 0.2 0.2 0.2 0.2 0.2 0.2 0.2 0.2 0.2 0.2 0.2 0.2 0.2 0.2 0.2 0.2 0.2 0.2 0.2 0.2 0.2 0.2 0.2 0.2 0.2 0.2 0.2 0.2 0.2 0.2 0.2 0.2 0.2 0.2 0.2 0.2 0.2 0.2 0.2 0.2 0.2 0.2 0.2 0.2 0.2 0.2 0.2 0.2 0.2 0.2 0.2 0.2 0.2 0.2 0.2 0.2 0.2 0.2 0.2 0.2 0.2 0.2 0.2 0.2 0.2 0.2 0.2 0.2 0.2 0.2 0.2 0.2 0.2 0.2 0.2 0.2 0.2 0.2 0.2 0.2 0.2 0.2 0.2 0.2 0.2 0.2 0.2 0.2 0.2 0.2 0.2 0.2 0.2 0.2 0.2 0.2 0.2 0.2 0.2 0.2 0.2 0.2 0.2 0.2 0.2 0.2 0.2 0.2 0.2 0.2 0.2 0.2 0.2 0.2 0.2 0.2 0.2 0.2 0.2 0.2 0.2 0.2 0.2 0.2 0.2 0.2 0.2 0.2 0.2 0.2 0.2 0.2 0.2 0.2 0.2 0.2 0.2 0.2 0.2 0.2 0.2 0.2 0.2 0.2 0.2 0.2 0.2 0.2 0.2 0.2 0.2 0.2 0.2 0.2 0.2 0.2 0.2 0.2 0.2 0.2 0.2 0.2 0.2 0.2 0.2 0.2 0.2 0.2 0.2 0.2 0.2 0.2 0.2 0.2 0.2 0.2 0.2 0.2 0.2 0.2 0.2 0.2 0.2 0.2 0.2 0.2 0.2 0.2 0.2 0.2 0.2 0.2 0.2 0.2 0.2 0.2 0.2 0.2 0.2 0.2 0.2 0.2 0.2 0.2 0.2 0.2 0.2 0.2 0.2 0.2 0.2 0.2 0.2 0.2 0.2 0.2 0.2 0.2 0.2 0.2 0.2 0.2 0.2 0.2 0.2 0.2 0.2 0.2 0.2 0.2 0.2 0.2 0.2 0.2 0.2 0.2 0.2 0.2 0.2 0.2 0.2 0.2 0.2 0.2 0.2 0.2 0.2 0.2 0.2 0.2 0.2 0.2 0.2 0.2 0.2 0.2 0.2 0.2 0.2 0.2 0.2 0.2 0.2 0.2 0.2 0.2 0.2 0.2 0.2 0.2 0.2 0.2 0.2 0.2 0.2 0.2 0.2 0.2 0.2 0.2 0.2 0.2 0.2 0.2 0.2 0.2 0.2 0.2 0.2 0.2 0.2 0.2 0.2 0.2 0.2 0.2 0.2 0.2 0.2 0.2 0.2 0.2 0.2 0.2 0.2 0.2 0.2 0.2 0.2 0.2 0.2 0.2 0.2 0.2 0.2 0.2 0.2 0.2 0.2 0.2 0.2 0.2 0 0 0.5 0.5 0 0.2 0.2 0.2 0.2 0.2 0.2 0.2 0.2 0.2 0.2 0.2 0.2 0.2 0.2 0.2 0.2 0.2 0.2 0.2 0.2 0.2 0.2 0.2 0.2 0.2 0.2 0.2 0.2 0.2 0.2 0.2 0.2 0.2 0.2 0.2 0.2 0.2 0.2 0.2 0.2 0.2 0.2 0.2 0.2 0.2 0.2 0.2 0.2 0.2 0.2 0.2 0.2 0.2 0.2 0.2 0.2 0.2 0.2 0.2 0.2 0.2 0.2 0.2 0.2 0.2 0.2 0.2 0.2 0.2 0.2 0.2 0.2 0.2 0.2 0.2 0.2 0.2 0.2 0.2 0.2 0.2 0.2 0.2 0.2 0.2 0.2 0.2 0.2 0.2 0.2 0.2 0.2 0.2 0.2 0.2 0.2 0.2 0.2 0.2 0.2 0.2 0.2 0.2 0.2 0.2 0.2 0.2 0.2 0.2 0.2 0.2 0.2 0.2 0.2 0.2 0.4074074074074074 0.3333333333333333 0.07407407407407407 0.1111111111111111 0.07407407407407407 0 0 0 1 0 0 0 0.1229508196721312 0.4918032786885246 0.3852459016393443 0 0 0.2074074074074074 0.4222222222222222 0.3703703703703704 0 0.0198019801980198 0.1188118811881188 0.2772277227722773 0.5841584158415841 0 0 0.3448275862068966 0.3275862068965517 0.3275862068965517 0 0 0.4 0.5 0.1 0.5555555555555556 0.3333333333333333 0.1111111111111111 0 0 0.2 0.2 0.2 0.2 0.2 0.2 0.2 0.2 0.2 0.2 0.2 0.2 0.2 0.2 0.2 0 0 0.3333333333333333 0 0.6666666666666666 0 0 0.6000000000000001 0.2 0.2 0 0 0 1 0 0.2 0.2 0.2 0.2 0.2 0.2 0.2 0.2 0.2 0.2 0.2 0.2 0.2 0.2 0.2 0.2 0.2 0.2 0.2 0.2 0.2 0.2 0.2 0.2 0.2 0.2 0.2 0.2 0.2 0.2 0.2 0.2 0.2 0.2 0.2 0.2 0.2 0.2 0.2 0.2 0.2 0.2 0.2 0.2 0.2 0.2 0.2 0.2 0.2 0.2 0.2 0.2 0.2 0.2 0.2 0.2 0.2 0.2 0.2 0.2 0.2 0.2 0.2 0.2 0.2 0.2 0.2 0.2 0.2 0.2 0.2 0.2 0.2 0.2 0.2 0 0 0 1 0 0.2 0.2 0.2 0.2 0.2 0.2 0.2 0.2 0.2 0.2 0.2 0.2 0.2 0.2 0.2 0.2 0.2 0.2 0.2 0.2 0.2 0.2 0.2 0.2 0.2 0.2 0.2 0.2 0.2 0.2 0.2 0.2 0.2 0.2 0.2 0.2 0.2 0.2 0.2 0.2 0.2 0.2 0.2 0.2 0.2 0.2 0.2 0.2 0.2 0.2 0 0 0.25 0.6666666666666666 0.08333333333333333 0 0 0.5 0.5 0 0 0 0.1944444444444444 0.2708333333333333 0.5347222222222222 0 0 0.1604938271604938 0.1358024691358025 0.7037037037037037 0 0 0.4166666666666666 0.25 0.3333333333333333 0 0 0.25 0.25 0.5 0 0 0.5 0 0.5 0.05 0 0 0.35 0.6000000000000001 0 0.1666666666666667 0.3333333333333333 0.1666666666666667 0.3333333333333333 0 0 1 0 0 0 0 0.2727272727272727 0.3636363636363636 0.3636363636363636 0 0 0.5384615384615385 0.07692307692307693 0.3846153846153846 0 0 0.6000000000000001 0 0.4 0 0 0.6666666666666666 0.08333333333333333 0.25 0 0 0.5 0.3333333333333333 0.1666666666666667 0 0 0 1 0 0 0 0 0 1 0.2 0.2 0.2 0.2 0.2 0.2 0.2 0.2 0.2 0.2 0 0 0 1 0 0.2 0.2 0.2 0.2 0.2 0 1 0 0 0 0 0 1 0 0 0 0 1 0 0 0.2 0.2 0.2 0.2 0.2 0 0 0 0.5 0.5 0.2 0.2 0.2 0.2 0.2 0.2 0.2 0.2 0.2 0.2 0.2 0.2 0.2 0.2 0.2 0.2 0.2 0.2 0.2 0.2 0 0 1 0 0 0.2 0.2 0.2 0.2 0.2 0.2 0.2 0.2 0.2 0.2 0.2 0.2 0.2 0.2 0.2 0.2 0.2 0.2 0.2 0.2 0.2 0.2 0.2 0.2 0.2 0 0 0 0.5 0.5 0.2 0.2 0.2 0.2 0.2 0.2 0.2 0.2 0.2 0.2 0.2 0.2 0.2 0.2 0.2 0.2 0.2 0.2 0.2 0.2 0.2 0.2 0.2 0.2 0.2 0 0 0 0 1 0.2 0.2 0.2 0.2 0.2 0 0 1 0 0 0.2 0.2 0.2 0.2 0.2 0.2 0.2 0.2 0.2 0.2 0 0 0 0 1 0 0.04545454545454546 0.2272727272727273 0.4318181818181818 0.2954545454545455 0 0 0.4339622641509434 0.3396226415094339 0.2264150943396226 0 0 0.08333333333333333 0.3333333333333333 0.5833333333333333 0 0 0.6000000000000001 0.2 0.2 0 0 0 0 1 0 0 1 0 0 0 0 1 0 0 0 0 0.25 0.25 0.5 0 0.07142857142857142 0.2857142857142857 0.3571428571428571 0.2857142857142857 0 0 0.5555555555555556 0.2222222222222222 0.2222222222222222 0.2 0.2 0.2 0.2 0.2 0 0 1 0 0 0.2 0.2 0.2 0.2 0.2 0.2 0.2 0.2 0.2 0.2 0 0 1 0 0 0.2 0.2 0.2 0.2 0.2 0 0 0 0 1 0 0 0 1 0 0.2 0.2 0.2 0.2 0.2 0.2 0.2 0.2 0.2 0.2 0 0 0 0 1 0.2 0.2 0.2 0.2 0.2 0 0 1 0 0 0.2 0.2 0.2 0.2 0.2 0.2 0.2 0.2 0.2 0.2 0.2 0.2 0.2 0.2 0.2 0 0 0 1 0 0.2 0.2 0.2 0.2 0.2 0.2 0.2 0.2 0.2 0.2 0 0 1 0 0 0.2 0.2 0.2 0.2 0.2 0.2 0.2 0.2 0.2 0.2 0.2 0.2 0.2 0.2 0.2 0.2 0.2 0.2 0.2 0.2 0.2 0.2 0.2 0.2 0.2 0.2 0.2 0.2 0.2 0.2 0.2 0.2 0.2 0.2 0.2 0.2 0.2 0.2 0.2 0.2 0.2 0.2 0.2 0.2 0.2 0.2 0.2 0.2 0.2 0.2 0.01694915254237288 0 0.4576271186440678 0.1694915254237288 0.3559322033898305 0 0 0.3636363636363636 0.2424242424242424 0.3939393939393939 0.2 0.2 0.2 0.2 0.2 0.2 0.2 0.2 0.2 0.2 0.2 0.2 0.2 0.2 0.2 0.2 0.2 0.2 0.2 0.2 0.2 0.2 0.2 0.2 0.2 0.2 0.2 0.2 0.2 0.2 0 0.02564102564102564 0.2615384615384616 0.2717948717948718 0.441025641025641 0 0 0.1041666666666667 0.3333333333333333 0.5625 0.2 0.2 0.2 0.2 0.2 0.2 0.2 0.2 0.2 0.2 0 0 0 0 1 0.2 0.2 0.2 0.2 0.2 0.2 0.2 0.2 0.2 0.2 0.2 0.2 0.2 0.2 0.2 0 0.0625 0.125 0.125 0.6875 0 0 0.6000000000000001 0 0.4 0.2 0.2 0.2 0.2 0.2 0.2 0.2 0.2 0.2 0.2 0.2 0.2 0.2 0.2 0.2 0.2 0.2 0.2 0.2 0.2 0.2 0.2 0.2 0.2 0.2 0.2 0.2 0.2 0.2 0.2 0 0 1 0 0 0 0 0 0 1 0.2 0.2 0.2 0.2 0.2 0.2 0.2 0.2 0.2 0.2 0.2 0.2 0.2 0.2 0.2 0.2 0.2 0.2 0.2 0.2 0.2 0.2 0.2 0.2 0.2 0.2 0.2 0.2 0.2 0.2 0.2 0.2 0.2 0.2 0.2 0.2 0.2 0.2 0.2 0.2 0.2 0.2 0.2 0.2 0.2 0.2 0.2 0.2 0.2 0.2 0.2 0.2 0.2 0.2 0.2 0.2 0.2 0.2 0.2 0.2 0.2 0.2 0.2 0.2 0.2 0.2 0.2 0.2 0.2 0.2 0 0 0 0 1 0.2 0.2 0.2 0.2 0.2 0.2 0.2 0.2 0.2 0.2 0.2 0.2 0.2 0.2 0.2 0.2 0.2 0.2 0.2 0.2 0.2 0.2 0.2 0.2 0.2 0.2 0.2 0.2 0.2 0.2 0.2 0.2 0.2 0.2 0.2 0 0.03676470588235294 0.2279411764705882 0.2536764705882353 0.4816176470588235 0 0 0.2105263157894737 0.2105263157894737 0.5789473684210527 0.2 0.2 0.2 0.2 0.2 0.2 0.2 0.2 0.2 0.2 0.2 0.2 0.2 0.2 0.2 0.2 0.2 0.2 0.2 0.2 0.2 0.2 0.2 0.2 0.2 0.2 0.2 0.2 0.2 0.2 0 0.0245398773006135 0.1840490797546012 0.3803680981595092 0.4110429447852761 0 0 0.04761904761904762 0.3809523809523809 0.5714285714285714 0.2 0.2 0.2 0.2 0.2 0.2 0.2 0.2 0.2 0.2 0.2 0.2 0.2 0.2 0.2 0.2 0.2 0.2 0.2 0.2 0.2 0.2 0.2 0.2 0.2 0.2 0.2 0.2 0.2 0.2 0 0 0.125 0.4166666666666666 0.4583333333333333 0 0 0 0.4 0.6000000000000001 0.2 0.2 0.2 0.2 0.2 0.2 0.2 0.2 0.2 0.2 0.2 0.2 0.2 0.2 0.2 0.2 0.2 0.2 0.2 0.2 0.2 0.2 0.2 0.2 0.2 0.2 0.2 0.2 0.2 0.2 0.1954674220963173 0.4872521246458923 0.0963172804532578 0.1444759206798867 0.0764872521246459 0.2372881355932203 0.5508474576271186 0.05084745762711865 0.1186440677966102 0.0423728813559322 0.0361794500723589 0.02749638205499276 0.1924746743849493 0.516642547033285 0.2272069464544139 0.0102827763496144 0.006426735218508997 0.2062982005141388 0.5353470437017994 0.2416452442159383 0.003168567807351077 0.005703422053231938 0.223700887198986 0.5133079847908745 0.2541191381495564 0.009852216748768473 0.006568144499178982 0.2364532019704433 0.5287356321839081 0.2183908045977011 0.2521739130434782 0.1304347826086956 0.2521739130434782 0.3217391304347826 0.04347826086956522 0.2164179104477612 0.291044776119403 0.1567164179104478 0.2164179104477612 0.1194029850746269 0 0.04166666666666666 0.1666666666666667 0.5833333333333333 0.2083333333333333 0 0 0 0 1 0 0 0.196078431372549 0.6274509803921569 0.1764705882352941 0 0 0.25 0.524390243902439 0.225609756097561 0 0 0.3466666666666667 0.4933333333333333 0.16 0 0 0.31 0.51 0.18 0 0 0.4166666666666666 0.5833333333333333 0 0 0 0.3333333333333333 0.6666666666666666 0 0 0 1 0 0 0 0 0.3333333333333333 0.3333333333333333 0.3333333333333333 0 0 0.5 0.5 0 0 0 0.2105263157894737 0.5789473684210527 0.2105263157894737 0 0 0.36 0.4 0.24 0 0 0.4 0.4 0.2 0.2 0 0.4 0.2 0.2 0 0 1 0 0 0 0 0 1 0 0 0 0 0.3333333333333333 0.6666666666666666 0 0 0.25 0.75 0 0 0 0.6153846153846154 0.2307692307692308 0.1538461538461539 0 0 0.2727272727272727 0.5454545454545454 0.1818181818181818 0 0 0.4375 0.5 0.0625 0 0 1 0 0 0.2 0.2 0.2 0.2 0.2 0.2 0.2 0.2 0.2 0.2 0 0 1 0 0 0 0 0 0 1 0 0 0.3333333333333333 0.6666666666666666 0 0 0 0.5 0.5 0 0 0 0.5 0.375 0.125 0.2 0.2 0.2 0.2 0.2 0.2 0.2 0.2 0.2 0.2 0.03448275862068965 0.03448275862068965 0.4482758620689655 0.4137931034482759 0.06896551724137931 0 0 0.5 0.3928571428571428 0.1071428571428571 0 0 0.1139240506329114 0.5284810126582279 0.3575949367088608 0 0 0.1582054309327036 0.4958677685950413 0.345926800472255 0 0.003134796238244514 0.2288401253918495 0.554858934169279 0.213166144200627 0 0 0.2674418604651163 0.5348837209302325 0.1976744186046512 0 0 0.2666666666666667 0.5333333333333333 0.2 0 0 0.2666666666666667 0.5333333333333333 0.2 0.01186943620178042 0.1068249258160237 0.2937685459940653 0.4272997032640949 0.1602373887240356 0.001594896331738437 0.01594896331738437 0.3460925039872408 0.5071770334928229 0.1291866028708134 0 0 0.1829733163913596 0.5781448538754765 0.2388818297331639 0 0 0.2069565217391305 0.4695652173913044 0.3234782608695652 0 0.004366812227074236 0.2641921397379913 0.5021834061135371 0.2292576419213974 0 0.03361344537815126 0.3361344537815126 0.5126050420168067 0.1176470588235294 0 0 0.75 0.25 0 0.04761904761904762 0 0.3333333333333333 0.3333333333333333 0.2857142857142857 0 0.08333333333333334 0.25 0.4621212121212122 0.2045454545454546 0 0 0.2 0.5787234042553192 0.2212765957446809 0 0 0.1728395061728395 0.5925925925925926 0.2345679012345679 0 0 0.2 0.5866666666666667 0.2133333333333333 0 0 0.32 0.5 0.18 0 0 0.3478260869565217 0.5652173913043478 0.08695652173913043 0 0 0.5454545454545454 0.4545454545454546 0 0 0 0.5 0.5 0 0 0.1038961038961039 0.2467532467532468 0.4155844155844156 0.2337662337662338 0 0 0.2935779816513762 0.4954128440366973 0.2110091743119266 0 0 0.375 0.5 0.125 0 0 0.2631578947368421 0.4736842105263158 0.2631578947368421 0 0 0.3225806451612903 0.4838709677419355 0.1935483870967742 0 0 0.5384615384615385 0.2307692307692308 0.2307692307692308 0 0 0.5 0 0.5 0 0 0.3333333333333333 0.6666666666666666 0 0 0 1 0 0 0 0 0.625 0.25 0.125 0 0 0.3333333333333333 0.5 0.1666666666666667 0 0 0.4444444444444444 0.3703703703703703 0.1851851851851852 0 0 0.36 0.4 0.24 0 0 0.6666666666666666 0.3333333333333333 0 0 0 1 0 0 0.2 0.2 0.2 0.2 0.2 0 0 1 0 0 0.2 0.2 0.2 0.2 0.2 0 0 0 1 0 0 0 0.1428571428571428 0.7142857142857142 0.1428571428571428 0.2 0.2 0.2 0.2 0.2 0.2 0.2 0.2 0.2 0.2 0.2 0.2 0.2 0.2 0.2 0 0 0.5 0.5 0 0.004158004158004158 0.06860706860706861 0.3118503118503119 0.41995841995842 0.1954261954261954 0.000946969696969697 0.01325757575757576 0.25 0.540719696969697 0.1950757575757576 0 0 0.1614906832298137 0.531055900621118 0.3074534161490683 0 0 0.148036253776435 0.4561933534743202 0.3957703927492447 0 0 0.136986301369863 0.5753424657534246 0.2876712328767123 0 0.125 0.5 0.375 0 0 0 1 0 0 0 0 1 0 0 0.0009372071227741331 0.04779756326148079 0.204311152764761 0.5135895032802249 0.2333645735707592 0.00165380374862183 0.004961411245865491 0.1736493936052922 0.5589856670341786 0.2607497243660419 0 0 0.1513761467889908 0.5321100917431193 0.3165137614678899 0 0 0.223021582733813 0.5611510791366907 0.2158273381294964 0 0 0.2040816326530612 0.5918367346938775 0.2040816326530612 0 0 0.1428571428571428 0.5714285714285714 0.2857142857142857 0 0 1 0 0 0 0 1 0 0 0.004219409282700422 0.04219409282700422 0.2489451476793249 0.4430379746835443 0.2616033755274261 0 0.01494768310911809 0.1988041853512706 0.554559043348281 0.2316890881913304 0 0 0.1129032258064516 0.6290322580645161 0.2580645161290323 0 0 0.2777777777777778 0.3888888888888888 0.3333333333333333 0 0 0.2222222222222222 0.3888888888888888 0.3888888888888888 0 0 1 0 0 0 0 1 0 0 0 0 1 0 0 0 0.07865168539325842 0.3146067415730337 0.5280898876404494 0.07865168539325842 0 0 0.2205882352941176 0.5735294117647058 0.2058823529411765 0 0 0.2142857142857143 0.5714285714285714 0.2142857142857143 0 0 0.4117647058823529 0.4705882352941176 0.1176470588235294 0 0 0.4545454545454546 0.2727272727272727 0.2727272727272727 0 0 0.6666666666666666 0.3333333333333333 0 0.2 0.2 0.2 0.2 0.2 0.2 0.2 0.2 0.2 0.2 0.2 0.2 0.2 0.2 0.2 0.2 0.2 0.2 0.2 0.2 0.2 0.2 0.2 0.2 0.2 0.2 0.2 0.2 0.2 0.2 0.2 0.2 0.2 0.2 0.2 0.2 0.2 0.2 0.2 0.2 0.2 0.2 0.2 0.2 0.2 0.2 0.2 0.2 0.2 0.2 0.01219512195121951 0.03658536585365854 0.3170731707317073 0.4268292682926829 0.2073170731707317 0 0 0.2333333333333333 0.6222222222222222 0.1444444444444445 0 0 0.3333333333333333 0.6666666666666666 0 0 0 0.125 0.875 0 0 0 0 1 0 0.2 0.2 0.2 0.2 0.2 0.2 0.2 0.2 0.2 0.2 0.2 0.2 0.2 0.2 0.2 0.003241491085899514 0.03565640194489465 0.2455429497568881 0.5048622366288492 0.2106969205834684 0 0.001668056713928273 0.1467889908256881 0.5562969140950792 0.2952460383653044 0 0 0.08450704225352113 0.6338028169014085 0.2816901408450704 0 0 0 0.55 0.45 0 0 0.5 0.5 0 0.2 0.2 0.2 0.2 0.2 0.2 0.2 0.2 0.2 0.2 0.2 0.2 0.2 0.2 0.2 0.0007880220646178094 0.0338849487785658 0.2127659574468085 0.5114263199369583 0.2411347517730497 0 0.008323424494649227 0.1224732461355529 0.5493460166468489 0.3198573127229488 0 0 0.0847457627118644 0.6271186440677966 0.288135593220339 0 0 0 0.5 0.5 0 0 0 1 0 0 0 1 0 0 0 0 1 0 0 0.2 0.2 0.2 0.2 0.2 0 0.0270935960591133 0.2487684729064039 0.4950738916256158 0.229064039408867 0 0.01415094339622642 0.2122641509433962 0.4622641509433962 0.3113207547169811 0 0 0.04761904761904762 0.5714285714285714 0.3809523809523809 0 0 0 0.3333333333333333 0.6666666666666666 0 0 1 0 0 0 0 1 0 0 0.2 0.2 0.2 0.2 0.2 0.2 0.2 0.2 0.2 0.2 0.2 0.2 0.2 0.2 0.2 0.2 0.2 0.2 0.2 0.2 0.2 0.2 0.2 0.2 0.2 0.2 0.2 0.2 0.2 0.2 0.2 0.2 0.2 0.2 0.2 0.2 0.2 0.2 0.2 0.2 0.2 0.2 0.2 0.2 0.2 0.2 0.2 0.2 0.2 0.2 0.2 0.2 0.2 0.2 0.2 0.2 0.2 0.2 0.2 0.2 0.2 0.2 0.2 0.2 0.2 0.2 0.2 0.2 0.2 0.2 0.2 0.2 0.2 0.2 0.2 0.2 0.2 0.2 0.2 0.2 0.2 0.2 0.2 0.2 0.2 0.2 0.2 0.2 0.2 0.2 0 0.04347826086956522 0.2670807453416149 0.4347826086956522 0.2546583850931677 0 0 0.1333333333333333 0.3777777777777778 0.4888888888888889 0 0 0 0.6666666666666666 0.3333333333333333 0 0 0 0 1 0.2 0.2 0.2 0.2 0.2 0.2 0.2 0.2 0.2 0.2 0.2 0.2 0.2 0.2 0.2 0.2 0.2 0.2 0.2 0.2 0.00419287211740042 0.03144654088050314 0.2075471698113208 0.4842767295597484 0.2725366876310273 0 0 0.1666666666666667 0.5222222222222223 0.3111111111111111 0 0 0 0 1 0.2 0.2 0.2 0.2 0.2 0.2 0.2 0.2 0.2 0.2 0.2 0.2 0.2 0.2 0.2 0.2 0.2 0.2 0.2 0.2 0.2 0.2 0.2 0.2 0.2 0 0.03213610586011342 0.2608695652173913 0.5085066162570888 0.1984877126654064 0 0 0.184 0.496 0.32 0 0 0 0.5 0.5 0.2 0.2 0.2 0.2 0.2 0.2 0.2 0.2 0.2 0.2 0.2 0.2 0.2 0.2 0.2 0.2 0.2 0.2 0.2 0.2 0.2 0.2 0.2 0.2 0.2 0.1279069767441861 0.2790697674418605 0.1162790697674419 0.3372093023255814 0.1395348837209302 0.2018348623853211 0.6972477064220184 0.03669724770642202 0.04587155963302753 0.01834862385321101 0.02857142857142857 0.09999999999999999 0.15 0.5785714285714285 0.1428571428571428 0.03063457330415755 0.03938730853391685 0.1991247264770241 0.5164113785557987 0.2144420131291028 0.0185430463576159 0.01721854304635762 0.1629139072847682 0.5602649006622517 0.2410596026490066 0.04232804232804233 0.01587301587301587 0.2698412698412698 0.4708994708994709 0.201058201058201 0.1428571428571428 0.09523809523809523 0.2380952380952381 0.4285714285714285 0.09523809523809523 0.2391304347826087 0.4565217391304348 0.1304347826086956 0.1739130434782609 0 0 0 0.1538461538461539 0.3846153846153846 0.4615384615384616 0 0 0.5 0.5 0 0 0 0.1666666666666667 0.75 0.08333333333333333 0 0 0.2692307692307693 0.6153846153846154 0.1153846153846154 0 0 0.2857142857142857 0.5357142857142857 0.1785714285714285 0 0 0.25 0.5 0.25 0 0 1 0 0 0 0 0.4 0.4 0.2 0.2 0.2 0.2 0.2 0.2 0 0 1 0 0 0 0 1 0 0 0 0 0.5 0.5 0 0 0 0.5 0.5 0 0 0 0 0.75 0.25 0.2 0.2 0.2 0.2 0.2 0.2 0.2 0.2 0.2 0.2 0 0 0 1 0 0 0 1 0 0 0 0 0 1 0 0 0 0.2857142857142857 0.7142857142857142 0 0 0 0.25 0.5 0.25 0 0 0.75 0.25 0 0.2 0.2 0.2 0.2 0.2 0.2 0.2 0.2 0.2 0.2 0 0 1 0 0 0.2 0.2 0.2 0.2 0.2 0.2 0.2 0.2 0.2 0.2 0 0 0 1 0 0 0 0.3333333333333333 0.5 0.1666666666666667 0 0 1 0 0 0.2 0.2 0.2 0.2 0.2 0.2 0.2 0.2 0.2 0.2 0.1666666666666667 0.3333333333333333 0 0.1666666666666667 0.3333333333333333 0 0.1666666666666667 0.125 0.5 0.2083333333333333 0 0 0.1596244131455399 0.5352112676056339 0.3051643192488263 0 0 0.1565891472868217 0.5705426356589147 0.2728682170542636 0 0.002898550724637681 0.191304347826087 0.5507246376811594 0.2550724637681159 0 0 0.2631578947368421 0.381578947368421 0.3552631578947368 0 0 0.5 0.4166666666666666 0.08333333333333333 0 0 0.3333333333333333 0.5 0.1666666666666667 0.03141361256544503 0.1675392670157068 0.2356020942408377 0.4136125654450262 0.1518324607329843 0.006 0.028 0.24 0.5660000000000001 0.16 0 0 0.178343949044586 0.5700636942675159 0.2515923566878981 0 0 0.2011494252873563 0.4727011494252873 0.3261494252873563 0 0.00425531914893617 0.2808510638297873 0.5531914893617021 0.1617021276595745 0 0.01818181818181818 0.3454545454545455 0.4909090909090909 0.1454545454545454 0 0 0.6666666666666666 0.1666666666666667 0.1666666666666667 0 0 0.3 0.6000000000000001 0.1 0 0.1219512195121951 0.2073170731707317 0.524390243902439 0.1463414634146342 0.007518796992481203 0.02255639097744361 0.2556390977443609 0.481203007518797 0.2330827067669173 0 0 0.3 0.45 0.25 0 0 0.358974358974359 0.4615384615384615 0.1794871794871795 0 0 0.4482758620689655 0.4827586206896551 0.06896551724137931 0 0 0.6666666666666666 0.1666666666666667 0.1666666666666667 0 0 1 0 0 0 0 0.6666666666666666 0.3333333333333333 0 0.05263157894736842 0 0.3157894736842105 0.3157894736842105 0.3157894736842105 0 0 0.3157894736842105 0.5526315789473684 0.131578947368421 0 0 0.1428571428571428 0.5714285714285714 0.2857142857142857 0 0 0.1111111111111111 0.4444444444444444 0.4444444444444444 0 0.1111111111111111 0.4444444444444444 0.2222222222222222 0.2222222222222222 0 0 1 0 0 0 0 1 0 0 0.2 0.2 0.2 0.2 0.2 0 0.2 0.6000000000000001 0.2 0 0 0 0.5555555555555556 0.4444444444444444 0 0 0 0.6000000000000001 0.4 0 0 0 0.3333333333333333 0.4166666666666666 0.25 0 0 1 0 0 0 0 0.5 0.5 0 0.2 0.2 0.2 0.2 0.2 0.2 0.2 0.2 0.2 0.2 0.2 0.2 0.2 0.2 0.2 0.2 0.2 0.2 0.2 0.2 0 0 0 1 0 0 0 0.1666666666666667 0.4166666666666666 0.4166666666666666 0 0 0.3333333333333333 0.5 0.1666666666666667 0 0 0 1 0 0.2 0.2 0.2 0.2 0.2 0.2 0.2 0.2 0.2 0.2 0.004716981132075472 0.09433962264150943 0.2216981132075471 0.4528301886792453 0.2264150943396226 0 0.01094091903719912 0.1881838074398249 0.5612691466083151 0.2396061269146608 0 0 0.1148459383753501 0.4621848739495799 0.42296918767507 0 0 0.1159135559921414 0.4695481335952849 0.4145383104125737 0 0 0.2135922330097087 0.5728155339805825 0.2135922330097087 0 0.1111111111111111 0.4444444444444444 0.2222222222222222 0.2222222222222222 0 0 1 0 0 0.2 0.2 0.2 0.2 0.2 0.002202643171806168 0.0748898678414097 0.1982378854625551 0.5176211453744494 0.2070484581497798 0.003292181069958848 0.01234567901234568 0.1563786008230453 0.5481481481481482 0.2798353909465021 0 0 0.1076923076923077 0.5307692307692308 0.3615384615384616 0 0 0.2051282051282051 0.4743589743589743 0.3205128205128205 0 0 0.2 0.76 0.04 0 0 0 1 0 0 0 1 0 0 0.2 0.2 0.2 0.2 0.2 0 0.0736196319018405 0.2269938650306748 0.4355828220858896 0.2638036809815951 0 0.01476014760147601 0.1623616236162362 0.4944649446494465 0.3284132841328413 0 0 0.25 0.5 0.25 0 0 0.1818181818181818 0.6363636363636364 0.1818181818181818 0 0 0.25 0.5 0.25 0 0 1 0 0 0 0 1 0 0 0 1 0 0 0 0 0.07692307692307693 0.4615384615384616 0.4615384615384616 0 0 0 0.2058823529411765 0.3823529411764706 0.4117647058823529 0 0 0.1428571428571428 0.5714285714285714 0.2857142857142857 0 0 0.4285714285714285 0.2857142857142857 0.2857142857142857 0 0 0.25 0.375 0.375 0 0 1 0 0 0.2 0.2 0.2 0.2 0.2 0.2 0.2 0.2 0.2 0.2 0.2 0.2 0.2 0.2 0.2 0.2 0.2 0.2 0.2 0.2 0.2 0.2 0.2 0.2 0.2 0.2 0.2 0.2 0.2 0.2 0.2 0.2 0.2 0.2 0.2 0.2 0.2 0.2 0.2 0.2 0.2 0.2 0.2 0.2 0.2 0.2 0.2 0.2 0.2 0.2 0 0.0625 0.53125 0.34375 0.0625 0.0196078431372549 0.0196078431372549 0.1764705882352941 0.5294117647058824 0.2549019607843137 0 0 0.0625 0.5625 0.375 0 0 0.1481481481481481 0.5555555555555556 0.2962962962962963 0 0 0.125 0.875 0 0.2 0.2 0.2 0.2 0.2 0.2 0.2 0.2 0.2 0.2 0.2 0.2 0.2 0.2 0.2 0.00267379679144385 0.02941176470588235 0.2914438502673797 0.4999999999999999 0.1764705882352941 0 0.0111731843575419 0.1368715083798883 0.5363128491620112 0.3156424581005587 0 0 0.05681818181818182 0.5340909090909091 0.4090909090909091 0 0 0.0625 0.5 0.4375 0 0 0 1 0 0.2 0.2 0.2 0.2 0.2 0 0 1 0 0 0.2 0.2 0.2 0.2 0.2 0.004750593824228029 0.05938242280285036 0.2327790973871734 0.4845605700712589 0.2185273159144893 0 0.01149425287356322 0.09770114942528735 0.5747126436781609 0.3160919540229885 0 0 0.16 0.4 0.44 0 0 0 1 0 0 0 1 0 0 0.2 0.2 0.2 0.2 0.2 0.2 0.2 0.2 0.2 0.2 0.2 0.2 0.2 0.2 0.2 0.008849557522123894 0.05309734513274336 0.2920353982300885 0.4247787610619469 0.2212389380530974 0 0.009708737864077669 0.2038834951456311 0.4854368932038834 0.3009708737864077 0 0 0.2222222222222222 0.3888888888888888 0.3888888888888888 0.2 0.2 0.2 0.2 0.2 0 0 1 0 0 0.2 0.2 0.2 0.2 0.2 0 0.5 0.5 0 0 0.2 0.2 0.2 0.2 0.2 0.2 0.2 0.2 0.2 0.2 0.2 0.2 0.2 0.2 0.2 0.2 0.2 0.2 0.2 0.2 0.2 0.2 0.2 0.2 0.2 0.2 0.2 0.2 0.2 0.2 0.2 0.2 0.2 0.2 0.2 0.2 0.2 0.2 0.2 0.2 0.2 0.2 0.2 0.2 0.2 0.2 0.2 0.2 0.2 0.2 0.2 0.2 0.2 0.2 0.2 0 0 0 0 1 0.2 0.2 0.2 0.2 0.2 0.2 0.2 0.2 0.2 0.2 0.2 0.2 0.2 0.2 0.2 0.2 0.2 0.2 0.2 0.2 0.2 0.2 0.2 0.2 0.2 0 0 0.2093023255813953 0.6744186046511628 0.1162790697674419 0 0.06060606060606061 0.303030303030303 0.4545454545454546 0.1818181818181818 0 0 0 1 0 0 0 0 1 0 0.2 0.2 0.2 0.2 0.2 0.2 0.2 0.2 0.2 0.2 0.2 0.2 0.2 0.2 0.2 0.2 0.2 0.2 0.2 0.2 0.007092198581560284 0.06382978723404255 0.2340425531914894 0.4893617021276596 0.2056737588652482 0.01666666666666667 0.01666666666666667 0.1666666666666667 0.5166666666666666 0.2833333333333333 0 0 0 0.6666666666666666 0.3333333333333333 0.2 0.2 0.2 0.2 0.2 0.2 0.2 0.2 0.2 0.2 0.2 0.2 0.2 0.2 0.2 0.2 0.2 0.2 0.2 0.2 0.2 0.2 0.2 0.2 0.2 0.008547008547008548 0.07692307692307693 0.2222222222222222 0.5470085470085471 0.1452991452991453 0 0.03703703703703703 0.1481481481481481 0.7037037037037037 0.1111111111111111 0.2 0.2 0.2 0.2 0.2 0.2 0.2 0.2 0.2 0.2 0.2 0.2 0.2 0.2 0.2 0 0 1 0 0 0 0 1 0 0 0.2 0.2 0.2 0.2 0.2 0.2 0.2 0.2 0.2 0.2 0.2 0.2 0.2 0.2 0.2 0 1 0 0 0 0.2 0.2 0.2 0.2 0.2 0 0 0 0.3333333333333333 0.6666666666666666 0.2 0.2 0.2 0.2 0.2 0.2 0.2 0.2 0.2 0.2 0.2 0.2 0.2 0.2 0.2 0.2 0.2 0.2 0.2 0.2 0.2 0.2 0.2 0.2 0.2 0.2 0.2 0.2 0.2 0.2 0.2 0.2 0.2 0.2 0.2 0.2 0.2 0.2 0.2 0.2 0.2 0.2 0.2 0.2 0.2 0.2 0.2 0.2 0.2 0.2 0.2 0.2 0.2 0.2 0.2 0.2 0.2 0.2 0.2 0.2 0.2 0.2 0.2 0.2 0.2 0.2 0.2 0.2 0.2 0.2 0.2 0.2 0.2 0.2 0.2 0.2 0.2 0.2 0.2 0.2 0.2 0.2 0.2 0.2 0.2 0.2 0.2 0.2 0.2 0.2 0.2 0.2 0.2 0.2 0.2 0.2 0.2 0.2 0.2 0.2 0.2 0.2 0.2 0.2 0.2 0.2 0.2 0.2 0.2 0.2 0.2 0.2 0.2 0.2 0.2 0.2 0.2 0.2 0.2 0.2 0.2 0.2 0.2 0.2 0.2 0.2 0.2 0.2 0.2 0.2 0.2 0.2 0.2 0.2 0.2 0.2 0.2 0.2 0.2 0.2 0.2 0.2 0.2 0.2 0.2 0.2 0.2 0.2 0.2 0.2 0.2 0.2 0.2 0.2 0.2 0.2 0.2 0.2 0.2 0.2 0.2 0.2 0.2 0.2 0.2 0.2 0.2 0.2 0.2 0.2 0.2 0.2 0.2 0.2 0.2 0.2 0.2 0.2 0.2 0.2 0.2 0.2 0.2 0.2 0.2 0 0 0 0 1 0 0 0.2 0.6000000000000001 0.2 0 0 0.3076923076923077 0.3846153846153846 0.3076923076923077 0 0 1 0 0 0.2 0.2 0.2 0.2 0.2 0.2 0.2 0.2 0.2 0.2 0.2 0.2 0.2 0.2 0.2 0 0 0 1 0 0.2 0.2 0.2 0.2 0.2 0.2 0.2 0.2 0.2 0.2 0.2 0.2 0.2 0.2 0.2 0.2 0.2 0.2 0.2 0.2 0.2 0.2 0.2 0.2 0.2 0.2 0.2 0.2 0.2 0.2 0.2 0.2 0.2 0.2 0.2 0.2 0.2 0.2 0.2 0.2 0.2 0.2 0.2 0.2 0.2 0.2 0.2 0.2 0.2 0.2 0.2 0.2 0.2 0.2 0.2 0.2 0.2 0.2 0.2 0.2 0.2 0.2 0.2 0.2 0.2 0.2 0.2 0.2 0.2 0.2 0.2 0.2 0.2 0.2 0.2 0.2 0.2 0.2 0.2 0.2 0.2 0.2 0.2 0.2 0.2 0.2 0.2 0.2 0.2 0.2 0.2 0.2 0.2 0.2 0.2 0.2 0.2 0.2 0.2 0.2 0.2 0.2 0.2 0.2 0.2 0.2 0.2 0.2 0.2 0.2 0.2 0.2 0.2 0.2 0.2 0.2 0.2 0.2 0.2 0.2 0.2 0.2 0.2 0.2 0.2 0.2 0.2 0.2 0.2 0.2 0.2 0.2 0.2 0.2 0.2 0.2 0.2 0.2 0.2 0.2 0.2 0.2 0.2 0.2 0.2 0.2 0.2 0.2 0.2 0.2 0.2 0.2 0.2 0.2 0.2 0.2 0.2 0.2 0.2 0.2 0.2 0.2 0.2 0.2 0.2 0.2 0.2 0.2 0.2 0.2 0 0 1 0 0 0.2 0.2 0.2 0.2 0.2 0.2 0.2 0.2 0.2 0.2 0.2 0.2 0.2 0.2 0.2 0 0 0 0.6666666666666666 0.3333333333333333 0 0 0.35 0.45 0.2 0 0 0 0.6666666666666666 0.3333333333333333 0 0 0.1666666666666667 0.6666666666666666 0.1666666666666667 0 0 0.2857142857142857 0.4285714285714285 0.2857142857142857 0.2 0.2 0.2 0.2 0.2 0.2 0.2 0.2 0.2 0.2 0.2 0.2 0.2 0.2 0.2 0.2 0.2 0.2 0.2 0.2 0 0 0 1 0 0.2 0.2 0.2 0.2 0.2 0.2 0.2 0.2 0.2 0.2 0.2 0.2 0.2 0.2 0.2 0.2 0.2 0.2 0.2 0.2 0.2 0.2 0.2 0.2 0.2 0.2 0.2 0.2 0.2 0.2 0.2 0.2 0.2 0.2 0.2 0.2 0.2 0.2 0.2 0.2 0.2 0.2 0.2 0.2 0.2 0.2 0.2 0.2 0.2 0.2 0.2 0.2 0.2 0.2 0.2 0.2 0.2 0.2 0.2 0.2 0.2 0.2 0.2 0.2 0.2 0.2 0.2 0.2 0.2 0.2 0.2 0.2 0.2 0.2 0.2 0.2 0.2 0.2 0.2 0.2 0.2 0.2 0.2 0.2 0.2 0.2 0.2 0.2 0.2 0.2 0.2 0.2 0.2 0.2 0.2 0.2 0.2 0.2 0.2 0.2 0.2 0.2 0.2 0.2 0.2 0.2 0.2 0.2 0.2 0.2 0.2 0.2 0.2 0.2 0.2 0.2 0.2 0.2 0.2 0.2 0.2 0.2 0.2 0.2 0.2 0.2 0.2 0.2 0.2 0.2 0.2 0.2 0.2 0.2 0.2 0.2 0.2 0.2 0.2 0.2 0.2 0.2 0.2 0.2 0.2 0.2 0.2 0.2 0.2 0.2 0 0 0 0 1 0 0 0.1666666666666667 0 0.8333333333333333 0 0 0 0.5 0.5 0.2 0.2 0.2 0.2 0.2 0.2 0.2 0.2 0.2 0.2 0.2 0.2 0.2 0.2 0.2 0.2 0.2 0.2 0.2 0.2 0.2 0.2 0.2 0.2 0.2 0 0 0.75 0.25 0 0 0 0.3333333333333333 0.5 0.1666666666666667 0 0 0 1 0 0.2 0.2 0.2 0.2 0.2 0.2 0.2 0.2 0.2 0.2 0.2 0.2 0.2 0.2 0.2 0.2 0.2 0.2 0.2 0.2 0.2 0.2 0.2 0.2 0.2 0 0 0 1 0 0.2 0.2 0.2 0.2 0.2 0.2 0.2 0.2 0.2 0.2 0.2 0.2 0.2 0.2 0.2 0.2 0.2 0.2 0.2 0.2 0.2 0.2 0.2 0.2 0.2 0.2 0.2 0.2 0.2 0.2 0.2 0.2 0.2 0.2 0.2 0 0 0 1 0 0.2 0.2 0.2 0.2 0.2 0.2 0.2 0.2 0.2 0.2 0.2 0.2 0.2 0.2 0.2 0.2 0.2 0.2 0.2 0.2 0.2 0.2 0.2 0.2 0.2 0.2 0.2 0.2 0.2 0.2 0.2 0.2 0.2 0.2 0.2 0.2 0.2 0.2 0.2 0.2 0.2 0.2 0.2 0.2 0.2 0.2 0.2 0.2 0.2 0.2 0.2 0.2 0.2 0.2 0.2 0.2 0.2 0.2 0.2 0.2 0.2 0.2 0.2 0.2 0.2 0.2 0.2 0.2 0.2 0.2 0.2 0.2 0.2 0.2 0.2 0.2 0.2 0.2 0.2 0.2 0.2 0.2 0.2 0.2 0.2 0.2 0.2 0.2 0.2 0.2 0.2 0.2 0.2 0.2 0.2 0.2 0.2 0.2 0.2 0.2 0.2 0.2 0.2 0.2 0.2 0.2 0.2 0.2 0.2 0.2 0.2 0.2 0.2 0.2 0.2 0 0 0 1 0 0 0 0 1 0 0.2 0.2 0.2 0.2 0.2 0.2 0.2 0.2 0.2 0.2 0.2 0.2 0.2 0.2 0.2 0.2 0.2 0.2 0.2 0.2 0.2 0.2 0.2 0.2 0.2 0.2 0.2 0.2 0.2 0.2 0 0 0 1 0 0.2 0.2 0.2 0.2 0.2 0.2 0.2 0.2 0.2 0.2 0.2 0.2 0.2 0.2 0.2 0.2 0.2 0.2 0.2 0.2 0.2 0.2 0.2 0.2 0.2 0.2 0.2 0.2 0.2 0.2 0.2 0.2 0.2 0.2 0.2 0.2 0.2 0.2 0.2 0.2 0.2 0.2 0.2 0.2 0.2 0.2 0.2 0.2 0.2 0.2 0.2 0.2 0.2 0.2 0.2 0.2 0.2 0.2 0.2 0.2 0.2 0.2 0.2 0.2 0.2 0.2 0.2 0.2 0.2 0.2 0.2 0.2 0.2 0.2 0.2 0.2 0.2 0.2 0.2 0.2 0.2 0.2 0.2 0.2 0.2 0.2 0.2 0.2 0.2 0.2 0 0 0 1 0 0.2 0.2 0.2 0.2 0.2 0 0 1 0 0 0 0 1 0 0 1 0 0 0 0 0.2 0.2 0.2 0.2 0.2 0.2 0.2 0.2 0.2 0.2 0.2 0.2 0.2 0.2 0.2 0.2 0.2 0.2 0.2 0.2 0.2 0.2 0.2 0.2 0.2 0.2 0.2 0.2 0.2 0.2 0.2 0.2 0.2 0.2 0.2 0.2 0.2 0.2 0.2 0.2 0.2 0.2 0.2 0.2 0.2 0.2 0.2 0.2 0.2 0.2 0.2 0.2 0.2 0.2 0.2 0.2 0.2 0.2 0.2 0.2 0.2 0.2 0.2 0.2 0.2 0.2 0.2 0.2 0.2 0.2 0.2 0.2 0.2 0.2 0.2 0.2 0.2 0.2 0.2 0.2 0.2 0.2 0.2 0.2 0.2 0.2 0.2 0.2 0.2 0.2 0.2 0.2 0.2 0.2 0.2 0.2 0.2 0.2 0.2 0.2 0.2 0.2 0.2 0.2 0.2 0.2 0.2 0.2 0.2 0.2 0.2 0.2 0.2 0.2 0.2 0.2 0.2 0.2 0.2 0.2 0.2 0.2 0.2 0.2 0.2 0.2 0.2 0.2 0.2 0.2 0.2 0.2 0.2 0.2 0.2 0.2 0.2 0.2 0.2 0.2 0.2 0.2 0.2 0.2 0.2 0.2 0.2 0.2 0.2 0.2 0.2 0.2 0.2 0.2 0.2 0.2 0.2 0.2 0.2 0.2 0.2 0.2 0.2 0.2 0.2 0.2 0.2 0.2 0.2 0.2 0 0 1 0 0 0 0 1 0 0 0.2 0.2 0.2 0.2 0.2 0.2 0.2 0.2 0.2 0.2 0 0 1 0 0 0.2 0.2 0.2 0.2 0.2 0.2 0.2 0.2 0.2 0.2 0.2 0.2 0.2 0.2 0.2 0.2 0.2 0.2 0.2 0.2 0.2 0.2 0.2 0.2 0.2 0.2 0.2 0.2 0.2 0.2 0.2 0.2 0.2 0.2 0.2 0.2 0.2 0.2 0.2 0.2 0.2 0.2 0.2 0.2 0.2 0.2 0.2 0.2 0.2 0.2 0.2 0.2 0.2 0.2 0.2 0.2 0.2 0.2 0.2 0.2 0.2 0.2 0.2 0.2 0.2 0.2 0.2 0.2 0.2 0.2 0.2 0.2 0.2 0.2 0.2 0.2 0.2 0.2 0.2 0.2 0.2 0.2 0.2 0.2 0.2 0.2 0.2 0.2 0.2 0.2 0.2 0.2 0.2 0.2 0.2 0.2 0.2 0.2 0.2 0.2 0.2 0.2 0.2 0.2 0.2 0.2 0.2 0.2 0.2 0.2 0.2 0.2 0.2 0.2 0.2 0.2 0.2 0.2 0.2 0.2 0.2 0.2 0.2 0.2 0.2 0.2 0.2 0.2 0.2 0.2 0.2 0.2 0.2 0.2 0.2 0.2 0.2 0.2 0.2 0.2 0.2 0.2 0.2 0.2 0.2 0.2 0.2 0.2 0.2 0.2 0.2 0.2 0.2 0.2 0.2 0.2 0.2 0.2 0.2 0.2 0.2 0.2 0.2 0.2 0.2 0.2 0.2 0.2 0.2 0.2 0.2 0.2 0.2 0.2 0.2 0.2 0.2 0.2 0.2 0.2 0.2 0.2 0.2 0.2 0.2 0.2 0.2 0.2 0.2 0.2 0.2 0.2 0.2 0.2 0.2 0.2 0.2 0.2 0.2 0.2 0.2 0.2 0.2 0.2 0.2 0.2 0.2 0.2 0.2 0.2 0.2 0.2 0.2 0.2 0.2 0.2 0.2 0.2 0.2 0.2 0.2 0.2 0.2 0.2 0.2 0.2 0.2 0.2 0.2 0.2 0.2 0.2 0.2 0.2 0.2 0.2 0.2 0.2 0.2 0.2 0 0 0 1 0 0.2 0.2 0.2 0.2 0.2 0.2 0.2 0.2 0.2 0.2 0.2 0.2 0.2 0.2 0.2 0.2 0.2 0.2 0.2 0.2 0.2 0.2 0.2 0.2 0.2 0.2 0.2 0.2 0.2 0.2 0.2 0.2 0.2 0.2 0.2 0.2 0.2 0.2 0.2 0.2 0.2 0.2 0.2 0.2 0.2 0.2 0.2 0.2 0.2 0.2 0.2 0.2 0.2 0.2 0.2 0.2 0.2 0.2 0.2 0.2 0.2 0.2 0.2 0.2 0.2 0.2 0.2 0.2 0.2 0.2 0.2 0.2 0.2 0.2 0.2 0.2 0.2 0.2 0.2 0.2 0.2 0.2 0.2 0.2 0.2 0.2 0.2 0.2 0.2 0.2 0.2 0.2 0.2 0.2 0.2 0.2 0.2 0.2 0.2 0.2 0.2 0.2 0.2 0.2 0.2 0.2 0.2 0.2 0.2 0.2 0.2 0.2 0.2 0.2 0.2 0.2 0.2 0.2 0.2 0.2 0.2 0.2 0.2 0.2 0.2 0.2 0.2 0.2 0.2 0.2 0.2 0.2 0.2 0.2 0.2 0.2 0.2 0.2 0.2 0.2 0.2 0.2 0.2 0.2 0.2 0.2 0.2 0.2 0.2 0.2 0.2 0.2 0.2 0.2 0.2 0.2 0.2 0.2 0.2 0.2 0 0 1 0 0 0.2 0.2 0.2 0.2 0.2 0.2 0.2 0.2 0.2 0.2 0.2 0.2 0.2 0.2 0.2 0.2 0.2 0.2 0.2 0.2 0.2 0.2 0.2 0.2 0.2 0.2 0.2 0.2 0.2 0.2 0 0 1 0 0 0.2 0.2 0.2 0.2 0.2 0.2 0.2 0.2 0.2 0.2 0.2 0.2 0.2 0.2 0.2 0.2 0.2 0.2 0.2 0.2 0.2 0.2 0.2 0.2 0.2 0.2 0.2 0.2 0.2 0.2 0.2 0.2 0.2 0.2 0.2 0.2 0.2 0.2 0.2 0.2 0.2 0.2 0.2 0.2 0.2 0.2 0.2 0.2 0.2 0.2 0.2 0.2 0.2 0.2 0.2 0.2 0.2 0.2 0.2 0.2 0.2 0.2 0.2 0.2 0.2 0.2 0.2 0.2 0.2 0.2 0.2 0.2 0.2 0.2 0.2 0.2 0.2 0.2 0.2 0.2 0.2 0.2 0.2 0.2 0.2 0.2 0.2 0.2 0.2 0.2 0.2 0.2 0.2 0.2 0.2 0.2 0.2 0.2 0.2 0.2 0.2 0.2 0.2 0.2 0.2 0.2 0.2 0.2 0.2 0.2 0.2 0.2 0.2 0.2 0.2 0.2 0.2 0.2 0.2 0.2 0.2 0.2 0.2 0.2 0.2 0.2 0.2 0.2 0.2 0.2 0.2 0.2 0.2 0.2 0.2 0.2 0.2 0.2 0.2 0.2 0.2 0.2 0.2 0.2 0.2 0.2 0.2 0.2 0.2 0.2 0.2 0.2 0.2 0.2 0.2 0.2 0.2 0.2 0.2 0.2 0.2 0.2 0.2 0.2 0.2 0.2 0.2 0.2 0.2 0.2 0.2 0.2 0.2 0.2 0.2 0.2 0.2 0.2 0.2 0.2 0.2 0.2 0.2 0.2 0.2 0.2 0.2 0.2 0.2 0.2 0.2 0.2 0.2 0.2 0.2 0.2 0.2 0.2 0.2 0.2 0 0 1 0 0 0 0 1 0 0 0.2 0.2 0.2 0.2 0.2 0.2 0.2 0.2 0.2 0.2 0.2 0.2 0.2 0.2 0.2 0.2 0.2 0.2 0.2 0.2 0.2 0.2 0.2 0.2 0.2 0.2 0.2 0.2 0.2 0.2 0.2 0.2 0.2 0.2 0.2 0.2 0.2 0.2 0.2 0.2 0.2 0.2 0.2 0.2 0.2 0.2 0.2 0.2 0.2 0.2 0.2 0.2 0.2 0.2 0.2 0.2 0.2 0.2 0.2 0.2 0.2 0.2 0.2 0.2 0.2 0.2 0.2 0.2 0.2 0.2 0.2 0.2 0.2 0.2 0.2 0.2 0.2 0.2 0.2 0.2 0.2 0.2 0.2 0.2 0.2 0.2 0.2 0.2 0.2 0.2 0.2 0.2 0.2 0.2 0.2 0.2 0.2 0.2 0.2 0.2 0.2 0.2 0.2 0.2 0.2 0.2 0.2 0.2 0.2 0.2 0.125 0.25 0.25 0.25 0.125 0 0 0 1 0 0 0 0.2169811320754717 0.3584905660377358 0.4245283018867924 0 0.01111111111111111 0.2555555555555556 0.3222222222222222 0.4111111111111111 0 0 0.2934782608695652 0.358695652173913 0.3478260869565217 0 0 0.288135593220339 0.5254237288135594 0.1864406779661017 0.06060606060606061 0 0.6666666666666667 0.1212121212121212 0.1515151515151515 0.3666666666666666 0.3666666666666666 0.1333333333333333 0.1 0.03333333333333333 0.2 0.2 0.2 0.2 0.2 0 0 1 0 0 0 0 0.7777777777777777 0.2222222222222222 0 0 0 0.2941176470588235 0.5294117647058824 0.1764705882352941 0 0 0.5789473684210527 0.2631578947368421 0.1578947368421053 0 0.07142857142857142 0.5714285714285714 0.2857142857142857 0.07142857142857142 0 0 0.6666666666666666 0.3333333333333333 0 0.2 0.2 0.2 0.2 0.2 0 0 1 0 0 0.2 0.2 0.2 0.2 0.2 0.2 0.2 0.2 0.2 0.2 0 0 1 0 0 0 0 0 1 0 0 0 0 1 0 0 0 0 1 0 0.2 0.2 0.2 0.2 0.2 0.2 0.2 0.2 0.2 0.2 0.2 0.2 0.2 0.2 0.2 0.2 0.2 0.2 0.2 0.2 0 0 0 0 1 0 0 0.6000000000000001 0.4 0 0 0 0 1 0 0.2 0.2 0.2 0.2 0.2 0.2 0.2 0.2 0.2 0.2 0.2 0.2 0.2 0.2 0.2 0.2 0.2 0.2 0.2 0.2 0.2 0.2 0.2 0.2 0.2 0.2 0.2 0.2 0.2 0.2 0 0 0 0.5 0.5 0 0 0 1 0 0.2 0.2 0.2 0.2 0.2 0.2 0.2 0.2 0.2 0.2 0 0 0.8 0 0.2 0 0 0 1 0 0 0 0.2105263157894737 0.1842105263157895 0.6052631578947368 0 0 0.1818181818181818 0.1818181818181818 0.6363636363636364 0 0 0.5714285714285714 0.1428571428571428 0.2857142857142857 0 0 0.6923076923076923 0.2307692307692308 0.07692307692307693 0 0.09090909090909091 0.8181818181818182 0.09090909090909091 0 0.06666666666666667 0 0.06666666666666667 0.4666666666666667 0.4 0 0 0.6153846153846154 0.3846153846153846 0 0 0 0.6428571428571428 0.3571428571428571 0 0 0 0.28 0.4 0.32 0 0 0.625 0.125 0.25 0 0 0.3333333333333333 0.4444444444444444 0.2222222222222222 0 0 0.4545454545454546 0.5454545454545454 0 0 0.08333333333333333 0.5833333333333333 0.3333333333333333 0 0 0 1 0 0 0 0 1 0 0 0.1428571428571428 0 0.7142857142857142 0.1428571428571428 0 0 0 0 0.5 0.5 0 0 0.375 0.375 0.25 0 0 0.5 0.25 0.25 0 0 0.75 0.125 0.125 0 0 0.8571428571428571 0.1428571428571428 0 0.2 0.2 0.2 0.2 0.2 0 0 1 0 0 0 0 0.3333333333333333 0.6666666666666666 0 0 0 1 0 0 0 0 0.4 0.4 0.2 0 0 0.6000000000000001 0.2 0.2 0 0 0.5 0 0.5 0.2 0.2 0.2 0.2 0.2 0.2 0.2 0.2 0.2 0.2 0.2 0.2 0.2 0.2 0.2 0 0 1 0 0 0 0 0 0.5 0.5 0 0 1 0 0 0 0 0.25 0.75 0 0 0 0.6666666666666666 0.3333333333333333 0 0.2 0.2 0.2 0.2 0.2 0.2 0.2 0.2 0.2 0.2 0.2 0.2 0.2 0.2 0.2 0.2 0.2 0.2 0.2 0.2 0.2 0.2 0.2 0.2 0.2 0.2 0.2 0.2 0.2 0.2 0.2 0.2 0.2 0.2 0.2 0.2 0.2 0.2 0.2 0.2 0.2 0.2 0.2 0.2 0.2 0 0 0 0.5 0.5 0 0 0.55 0.4 0.05 0.03571428571428571 0 0.5357142857142857 0.2857142857142857 0.1428571428571428 0 0 0.5 0.5 0 0.2 0.2 0.2 0.2 0.2 0 0 1 0 0 0 0.5 0.5 0 0 0 0 0.75 0 0.25 0 0 0.5 0.5 0 0 0.06382978723404255 0.4042553191489361 0.3829787234042553 0.148936170212766 0 0 0.3548387096774194 0.5483870967741935 0.09677419354838709 0 0 0 1 0 0 0 0.3333333333333333 0.6666666666666666 0 0.2 0.2 0.2 0.2 0.2 0 0 0.6666666666666666 0 0.3333333333333333 0 0 0.3333333333333333 0 0.6666666666666666 0.2 0.2 0.2 0.2 0.2 0 0 0.5 0.2 0.3 0 0 0.3043478260869565 0.5217391304347826 0.1739130434782609 0.2 0.2 0.2 0.2 0.2 0 0 0.4 0.4 0.2 0.2 0.2 0.2 0.2 0.2 0.2 0.2 0.2 0.2 0.2 0 0 0.6666666666666666 0.3333333333333333 0 0.2 0.2 0.2 0.2 0.2 0.2 0.2 0.2 0.2 0.2 0 0 0 0.4 0.6000000000000001 0 0 1 0 0 0 0 0.6666666666666666 0 0.3333333333333333 0.2 0.2 0.2 0.2 0.2 0.2 0.2 0.2 0.2 0.2 0.2 0.2 0.2 0.2 0.2 0.2 0.2 0.2 0.2 0.2 0.2 0.2 0.2 0.2 0.2 0.2 0.2 0.2 0.2 0.2 0.2 0.2 0.2 0.2 0.2 0.2 0.2 0.2 0.2 0.2 0.2 0.2 0.2 0.2 0.2 0.2 0.2 0.2 0.2 0.2 0.2 0.2 0.2 0.2 0.2 0.2 0.2 0.2 0.2 0.2 0.04166666666666666 0.04166666666666666 0.5833333333333333 0.1666666666666667 0.1666666666666667 0 0 0.2222222222222222 0 0.7777777777777777 0.2 0.2 0.2 0.2 0.2 0.2 0.2 0.2 0.2 0.2 0.2 0.2 0.2 0.2 0.2 0.2 0.2 0.2 0.2 0.2 0.2 0.2 0.2 0.2 0.2 0 0 1 0 0 0 0.01612903225806452 0.2795698924731183 0.3225806451612904 0.3817204301075269 0 0 0.265625 0.328125 0.40625 0.2 0.2 0.2 0.2 0.2 0.2 0.2 0.2 0.2 0.2 0.2 0.2 0.2 0.2 0.2 0.2 0.2 0.2 0.2 0.2 0.2 0.2 0.2 0.2 0.2 0.2 0.2 0.2 0.2 0.2 0 0.06741573033707865 0.3820224719101123 0.3258426966292135 0.2247191011235955 0 0 0.3888888888888888 0.3888888888888888 0.2222222222222222 0.2 0.2 0.2 0.2 0.2 0.2 0.2 0.2 0.2 0.2 0.2 0.2 0.2 0.2 0.2 0.2 0.2 0.2 0.2 0.2 0.2 0.2 0.2 0.2 0.2 0.2 0.2 0.2 0.2 0.2 0 0.1304347826086956 0.4347826086956522 0.3478260869565217 0.08695652173913043 0 0 0.625 0.25 0.125 0.2 0.2 0.2 0.2 0.2 0.2 0.2 0.2 0.2 0.2 0.2 0.2 0.2 0.2 0.2 0.2 0.2 0.2 0.2 0.2 0.2 0.2 0.2 0.2 0.2 0.2 0.2 0.2 0.2 0.2 0.2 0.2 0.2 0.2 0.2 0.2 0.2 0.2 0.2 0.2 0.2 0.2 0.2 0.2 0.2 0.2 0.2 0.2 0.2 0.2 0.2 0.2 0.2 0.2 0.2 0.2 0.2 0.2 0.2 0.2 0.2 0.2 0.2 0.2 0.2 0.2 0.2 0.2 0.2 0.2 0 0 0 0.5 0.5 0 0 0 1 0 0.2 0.2 0.2 0.2 0.2 0.2 0.2 0.2 0.2 0.2 0.2 0.2 0.2 0.2 0.2 0.2 0.2 0.2 0.2 0.2 0.2 0.2 0.2 0.2 0.2 0.2 0.2 0.2 0.2 0.2 0 0.05 0.34 0.27 0.34 0 0 0.3333333333333333 0.5555555555555556 0.1111111111111111 0.2 0.2 0.2 0.2 0.2 0.2 0.2 0.2 0.2 0.2 0.2 0.2 0.2 0.2 0.2 0.2 0.2 0.2 0.2 0.2 0.2 0.2 0.2 0.2 0.2 0.2 0.2 0.2 0.2 0.2 0 0.0303030303030303 0.2828282828282829 0.3838383838383839 0.303030303030303 0 0 0.3333333333333333 0.1666666666666667 0.5 0.2 0.2 0.2 0.2 0.2 0.2 0.2 0.2 0.2 0.2 0.2 0.2 0.2 0.2 0.2 0.2 0.2 0.2 0.2 0.2 0.2 0.2 0.2 0.2 0.2 0.2 0.2 0.2 0.2 0.2 0 0.03125 0.3125 0.25 0.40625 0 0 0.5 0.25 0.25 0.2 0.2 0.2 0.2 0.2 0.2 0.2 0.2 0.2 0.2 0.2 0.2 0.2 0.2 0.2 0.2 0.2 0.2 0.2 0.2 0.2 0.2 0.2 0.2 0.2 0.2 0.2 0.2 0.2 0.2 0.1710526315789473 0.6052631578947368 0.03947368421052631 0.1184210526315789 0.06578947368421052 0 0.6153846153846154 0.2307692307692308 0.1538461538461539 0 0.005847953216374269 0.01169590643274854 0.2631578947368421 0.5263157894736842 0.1929824561403509 0.006389776357827476 0.003194888178913738 0.3546325878594249 0.4760383386581469 0.1597444089456869 0.00468384074941452 0.00468384074941452 0.3395784543325527 0.4613583138173302 0.189695550351288 0.002754820936639119 0.01928374655647383 0.2892561983471075 0.5316804407713499 0.1570247933884298 0.201219512195122 0.3109756097560976 0.1951219512195122 0.2317073170731707 0.06097560975609756 0.1924686192468619 0.5439330543933054 0.1255230125523012 0.1213389121338912 0.01673640167364017 0 0 0.4102564102564102 0.3076923076923077 0.282051282051282 0 0.05263157894736842 0.4736842105263158 0.4210526315789473 0.05263157894736842 0 0 0.373015873015873 0.5238095238095237 0.1031746031746032 0 0 0.3509316770186335 0.4472049689440993 0.2018633540372671 0 0.002762430939226519 0.3674033149171271 0.4171270718232044 0.212707182320442 0 0 0.35 0.48 0.17 0.02564102564102564 0.05128205128205128 0.5641025641025641 0.3076923076923077 0.05128205128205128 0.07142857142857142 0.1071428571428571 0.4642857142857142 0.3214285714285714 0.03571428571428571 0 0.09375 0.25 0.21875 0.4375 0 0 0.6000000000000001 0.3 0.1 0 0 0.2714285714285714 0.6142857142857142 0.1142857142857143 0 0 0.3216374269005848 0.4502923976608187 0.2280701754385965 0 0.005434782608695652 0.358695652173913 0.4891304347826087 0.1467391304347826 0 0.0202020202020202 0.3232323232323233 0.4545454545454546 0.202020202020202 0 0.06451612903225806 0.4516129032258064 0.4838709677419355 0 0.09090909090909091 0.1818181818181818 0.2727272727272727 0.4545454545454546 0 0 0.1212121212121212 0.5151515151515151 0.303030303030303 0.06060606060606061 0.01886792452830189 0.03773584905660377 0.5660377358490566 0.3018867924528302 0.07547169811320754 0 0 0.4923076923076923 0.4615384615384616 0.04615384615384616 0 0 0.4196891191709844 0.4455958549222798 0.1347150259067358 0 0 0.4568965517241379 0.3620689655172414 0.1810344827586207 0 0.007352941176470588 0.4338235294117647 0.4117647058823529 0.1470588235294118 0 0 0.5925925925925926 0.4074074074074074 0 0.3333333333333333 0 0.3333333333333333 0.3333333333333333 0 0 0 1 0 0 0 0 1 0 0 0 0 1 0 0 0 0 0.3125 0.4375 0.25 0 0 0.4814814814814815 0.3981481481481481 0.1203703703703704 0 0.01333333333333333 0.5600000000000001 0.36 0.06666666666666667 0 0 1 0 0 0.2 0.2 0.2 0.2 0.2 0 0 1 0 0 0 0 0.5 0.5 0 0 0 0.3529411764705882 0.4705882352941176 0.1764705882352941 0 0 0.3846153846153846 0.3076923076923077 0.3076923076923077 0 0 0.2777777777777778 0.5 0.2222222222222222 0 0 0.7142857142857142 0.2857142857142857 0 0 0 0 1 0 0 0 0.6666666666666666 0.1666666666666667 0.1666666666666667 0.01063829787234043 0.06382978723404255 0.4893617021276596 0.3404255319148936 0.09574468085106383 0 0 0.5100671140939598 0.3422818791946309 0.1476510067114094 0 0 0.2733812949640288 0.5539568345323741 0.1726618705035971 0 0 0.3180327868852459 0.3836065573770492 0.2983606557377049 0 0 0.2950819672131147 0.5983606557377049 0.1065573770491803 0 0.02380952380952381 0.3333333333333333 0.5 0.1428571428571428 0 0 0.7692307692307693 0.2307692307692308 0 0 0 0.2222222222222222 0.4444444444444444 0.3333333333333333 0.004366812227074236 0.09170305676855894 0.3668122270742358 0.3755458515283843 0.1615720524017467 0 0.00546448087431694 0.412568306010929 0.4344262295081967 0.1475409836065574 0 0 0.3450704225352113 0.4577464788732394 0.1971830985915493 0 0 0.3109756097560976 0.3780487804878049 0.3109756097560976 0 0 0.3382352941176471 0.4338235294117647 0.2279411764705882 0 0 0.5490196078431373 0.392156862745098 0.05882352941176471 0 0 0.7894736842105263 0.2105263157894737 0 0 0 0.4166666666666666 0.4166666666666666 0.1666666666666667 0.006382978723404256 0.0723404255319149 0.3063829787234043 0.4531914893617021 0.1617021276595745 0 0.01246882793017456 0.3653366583541147 0.4875311720698254 0.1346633416458853 0 0 0.4033149171270718 0.4088397790055248 0.1878453038674033 0 0 0.3671875 0.4192708333333333 0.2135416666666667 0 0 0.4660633484162897 0.4027149321266968 0.1312217194570136 0 0.01666666666666667 0.5333333333333333 0.3833333333333333 0.06666666666666667 0 0.02380952380952381 0.7142857142857142 0.2380952380952381 0.02380952380952381 0 0 0.6000000000000001 0.2 0.2 0.01020408163265306 0.08163265306122448 0.6632653061224489 0.2244897959183673 0.02040816326530612 0.009009009009009009 0.009009009009009009 0.7027027027027027 0.2162162162162162 0.06306306306306306 0 0 0.4473684210526315 0.4736842105263158 0.07894736842105263 0 0 0.3884297520661157 0.4297520661157025 0.1818181818181818 0 0 0.4166666666666667 0.4222222222222222 0.1611111111111111 0 0.06060606060606061 0.4696969696969697 0.3484848484848485 0.1212121212121212 0 0 0.4545454545454546 0.5454545454545454 0 0 0 0.2 0.6000000000000001 0.2 0.2 0.2 0.2 0.2 0.2 0.2 0.2 0.2 0.2 0.2 0.2 0.2 0.2 0.2 0.2 0.2 0.2 0.2 0.2 0.2 0.2 0.2 0.2 0.2 0.2 0.2 0.2 0.2 0.2 0.2 0.2 0.2 0.2 0.2 0.2 0.2 0.2 0.2 0.2 0.2 0 0.03333333333333333 0.4 0.3333333333333333 0.2333333333333333 0.025 0 0.6000000000000001 0.225 0.15 0 0 0.4 0.4 0.2 0 0 0.2307692307692308 0.4615384615384616 0.3076923076923077 0.2 0.2 0.2 0.2 0.2 0 0 0 1 0 0.2 0.2 0.2 0.2 0.2 0 0 0.3333333333333333 0.3333333333333333 0.3333333333333333 0 0.05042016806722689 0.3025210084033613 0.4285714285714285 0.2184873949579832 0 0.01056338028169014 0.3380281690140845 0.5211267605633803 0.1302816901408451 0 0 0.1724137931034483 0.5517241379310345 0.2758620689655172 0 0 0.3928571428571428 0.5357142857142857 0.07142857142857142 0 0 0.25 0.5 0.25 0 0 1 0 0 0 0 1 0 0 0 0 1 0 0 0.001116071428571429 0.05691964285714286 0.2834821428571428 0.4631696428571428 0.1953125 0 0.007272727272727273 0.2290909090909091 0.5323636363636364 0.2312727272727273 0 0 0.2816901408450704 0.4507042253521127 0.2676056338028169 0 0 0.3571428571428571 0.4285714285714285 0.2142857142857143 0 0 0.2857142857142857 0.6190476190476191 0.09523809523809523 0 0 1 0 0 0 0 0.6666666666666666 0.3333333333333333 0 0 0 1 0 0 0.002252252252252252 0.04279279279279279 0.4391891891891892 0.4189189189189189 0.09684684684684684 0 0.009876543209876543 0.3432098765432099 0.4567901234567901 0.1901234567901235 0 0.009708737864077669 0.3009708737864077 0.4660194174757281 0.2233009708737864 0 0 0.328 0.488 0.184 0 0 0.3975903614457831 0.4578313253012049 0.1445783132530121 0 0 0.611111111111111 0.3333333333333333 0.05555555555555555 0.2 0.2 0.2 0.2 0.2 0 0 1 0 0 0.2 0.2 0.2 0.2 0.2 0.2 0.2 0.2 0.2 0.2 0.2 0.2 0.2 0.2 0.2 0.2 0.2 0.2 0.2 0.2 0.2 0.2 0.2 0.2 0.2 0.2 0.2 0.2 0.2 0.2 0.2 0.2 0.2 0.2 0.2 0.2 0.2 0.2 0.2 0.2 0 0 0.3333333333333333 0.6666666666666666 0 0.2 0.2 0.2 0.2 0.2 0.2 0.2 0.2 0.2 0.2 0.2 0.2 0.2 0.2 0.2 0.2 0.2 0.2 0.2 0.2 0.2 0.2 0.2 0.2 0.2 0.2 0.2 0.2 0.2 0.2 0.2 0.2 0.2 0.2 0.2 0 0.0379746835443038 0.3417721518987342 0.5063291139240507 0.1139240506329114 0 0 0.3076923076923077 0.3846153846153846 0.3076923076923077 0 0 0 1 0 0 0 0 0 1 0.2 0.2 0.2 0.2 0.2 0.2 0.2 0.2 0.2 0.2 0.2 0.2 0.2 0.2 0.2 0.2 0.2 0.2 0.2 0.2 0.00404040404040404 0.03434343434343434 0.3595959595959596 0.4141414141414141 0.1878787878787879 0 0.007272727272727273 0.2509090909090909 0.3963636363636364 0.3454545454545455 0 0 0.2222222222222222 0.7777777777777777 0 0.2 0.2 0.2 0.2 0.2 0.2 0.2 0.2 0.2 0.2 0.2 0.2 0.2 0.2 0.2 0 0 1 0 0 0.2 0.2 0.2 0.2 0.2 0.002509410288582183 0.04265997490589711 0.3337515683814303 0.4855708908406524 0.1355081555834379 0.002262443438914027 0.01357466063348416 0.2420814479638009 0.5090497737556562 0.2330316742081448 0 0 0.08163265306122448 0.6326530612244897 0.2857142857142857 0 0 0.4285714285714285 0.4285714285714285 0.1428571428571428 0 0 0.6000000000000001 0.2 0.2 0 0 1 0 0 0.2 0.2 0.2 0.2 0.2 0.2 0.2 0.2 0.2 0.2 0.2 0.2 0.2 0.2 0.2 0.2 0.2 0.2 0.2 0.2 0.2 0.2 0.2 0.2 0.2 0.2 0.2 0.2 0.2 0.2 0.2 0.2 0.2 0.2 0.2 0.2 0.2 0.2 0.2 0.2 0.2 0.2 0.2 0.2 0.2 0.2 0.2 0.2 0.2 0.2 0.2 0.2 0.2 0.2 0.2 0.2 0.2 0.2 0.2 0.2 0.2 0.2 0.2 0.2 0.2 0.2 0.2 0.2 0.2 0.2 0.2 0.2 0.2 0.2 0.2 0.2 0.2 0.2 0.2 0.2 0.2 0.2 0.2 0.2 0.2 0.2 0.2 0.2 0.2 0.2 0 0.2 0.4 0.2 0.2 0.2 0.2 0.2 0.2 0.2 0.2 0.2 0.2 0.2 0.2 0.2 0.2 0.2 0.2 0.2 0.2 0.2 0.2 0.2 0.2 0.2 0.2 0.2 0.2 0.2 0.2 0.2 0.2 0.2 0.2 0.2 0.2 0.2 0.2 0.2 0 0 0.1904761904761905 0.5238095238095237 0.2857142857142857 0 0 0 0.5 0.5 0.2 0.2 0.2 0.2 0.2 0.2 0.2 0.2 0.2 0.2 0.2 0.2 0.2 0.2 0.2 0.2 0.2 0.2 0.2 0.2 0.2 0.2 0.2 0.2 0.2 0.2 0.2 0.2 0.2 0.2 0 0.04054054054054054 0.3918918918918919 0.4351351351351351 0.1324324324324324 0 0.01075268817204301 0.3440860215053764 0.4408602150537635 0.2043010752688172 0 0 0.1428571428571428 0.5714285714285714 0.2857142857142857 0 0 1 0 0 0.2 0.2 0.2 0.2 0.2 0.2 0.2 0.2 0.2 0.2 0.2 0.2 0.2 0.2 0.2 0.2 0.2 0.2 0.2 0.2 0.1304347826086956 0.3478260869565217 0.1739130434782609 0.2173913043478261 0.1304347826086956 0.1739130434782609 0.6086956521739131 0.1739130434782609 0.04347826086956522 0 0.04545454545454546 0.09090909090909091 0.3181818181818182 0.4318181818181818 0.1136363636363636 0 0.02197802197802198 0.2417582417582418 0.631868131868132 0.1043956043956044 0.01186943620178042 0.02670623145400593 0.3026706231454006 0.5074183976261127 0.1513353115727003 0.01824817518248175 0.04744525547445255 0.2627737226277372 0.5510948905109488 0.1204379562043796 0.1449275362318841 0.3043478260869565 0.1884057971014493 0.3043478260869565 0.05797101449275362 0.1686746987951807 0.6265060240963856 0.07228915662650603 0.1204819277108434 0.01204819277108434 0 0.03333333333333333 0.4666666666666667 0.4 0.1 0 0 0.3333333333333333 0.611111111111111 0.05555555555555555 0 0 0.25 0.7250000000000001 0.025 0 0 0.368 0.5600000000000001 0.07200000000000001 0 0 0.4316546762589928 0.4532374100719425 0.1151079136690648 0 0 0.2906976744186047 0.5 0.2093023255813953 0 0 0.6000000000000001 0.4 0 0 0.07142857142857142 0.4285714285714285 0.3571428571428571 0.1428571428571428 0 0 0.7272727272727273 0.1818181818181818 0.09090909090909091 0 0 0.3333333333333333 0.5 0.1666666666666667 0 0 0.5 0.4444444444444444 0.05555555555555555 0 0 0.2068965517241379 0.603448275862069 0.1896551724137931 0 0 0.3333333333333333 0.4705882352941176 0.196078431372549 0 0.03703703703703703 0.5555555555555556 0.2962962962962963 0.1111111111111111 0.07142857142857142 0.1428571428571428 0.5714285714285714 0.2142857142857143 0 0 0.1818181818181818 0.1818181818181818 0.3636363636363636 0.2727272727272727 0 0.125 0.6875 0.125 0.0625 0 0.05263157894736842 0.631578947368421 0.2105263157894737 0.1052631578947368 0 0 0.1666666666666667 0.611111111111111 0.2222222222222222 0 0 0.3529411764705882 0.5441176470588235 0.1029411764705882 0 0 0.4464285714285714 0.3392857142857142 0.2142857142857143 0 0.03333333333333333 0.4 0.4 0.1666666666666667 0 0 0.7777777777777777 0.2222222222222222 0 0 0 0.5 0.5 0 0 0 1 0 0 0 0 1 0 0 0 0 0 1 0 0 0 0.3571428571428571 0.4285714285714285 0.2142857142857143 0 0 0.5333333333333333 0.3666666666666666 0.1 0 0 0.44 0.4 0.16 0 0 0.5 0.5 0 0 0.5 0 0.5 0 0 0.5 0.5 0 0 0 0 0.5 0.5 0 0 0 0.375 0.25 0.375 0 0 0.2696629213483146 0.4719101123595505 0.2584269662921348 0 0 0.2173913043478261 0.6086956521739131 0.1739130434782609 0 0 0.25 0.625 0.125 0 0 0.3333333333333333 0.3333333333333333 0.3333333333333333 0 0 0.25 0.75 0 0.01298701298701299 0.07792207792207792 0.3636363636363636 0.4025974025974026 0.1428571428571429 0 0.02620087336244541 0.3842794759825328 0.4978165938864629 0.09170305676855894 0 0 0.2300884955752212 0.495575221238938 0.2743362831858407 0 0 0.3031914893617021 0.4468085106382979 0.25 0 0 0.2958579881656805 0.4911242603550296 0.2130177514792899 0 0 0.4038461538461539 0.4807692307692308 0.1153846153846154 0 0 0.7142857142857142 0.1428571428571428 0.1428571428571428 0 0 0.6666666666666666 0 0.3333333333333333 0 0.1264367816091954 0.3793103448275862 0.3563218390804598 0.1379310344827586 0.009463722397476341 0.009463722397476341 0.3186119873817035 0.5173501577287066 0.1451104100946372 0 0 0.2592592592592592 0.5061728395061729 0.2345679012345679 0 0 0.2670807453416149 0.5217391304347826 0.2111801242236025 0 0.009523809523809525 0.4190476190476191 0.4 0.1714285714285714 0 0 0.4827586206896551 0.4482758620689655 0.06896551724137931 0 0 0.7857142857142857 0.1428571428571428 0.07142857142857142 0 0 0.3333333333333333 0.6666666666666666 0 0 0.09090909090909091 0.2909090909090909 0.4654545454545455 0.1527272727272727 0 0.006651884700665188 0.3414634146341464 0.5055432372505543 0.1463414634146341 0 0 0.3375 0.5 0.1625 0 0 0.2971428571428572 0.5085714285714286 0.1942857142857143 0 0 0.4942528735632184 0.4367816091954023 0.06896551724137931 0 0 0.5600000000000001 0.36 0.08 0 0 0.8461538461538463 0.1538461538461539 0 0 0 0.5714285714285714 0.4285714285714285 0 0.02127659574468085 0.148936170212766 0.5744680851063829 0.1914893617021277 0.06382978723404255 0.01785714285714286 0 0.5357142857142857 0.3928571428571428 0.05357142857142857 0 0 0.3 0.3 0.4 0 0 0.3423423423423423 0.3783783783783784 0.2792792792792793 0 0 0.4946236559139786 0.3763440860215054 0.1290322580645161 0 0 0.5238095238095237 0.3809523809523809 0.09523809523809523 0 0 0 1 0 0 0 1 0 0 0.2 0.2 0.2 0.2 0.2 0.2 0.2 0.2 0.2 0.2 0.2 0.2 0.2 0.2 0.2 0.2 0.2 0.2 0.2 0.2 0.2 0.2 0.2 0.2 0.2 0.2 0.2 0.2 0.2 0.2 0.2 0.2 0.2 0.2 0.2 0.2 0.2 0.2 0.2 0.2 0 0 0.1333333333333333 0.7333333333333333 0.1333333333333333 0.01219512195121951 0 0.2682926829268293 0.5365853658536586 0.1829268292682927 0 0 0.2580645161290323 0.4838709677419355 0.2580645161290323 0 0 0.3428571428571429 0.4 0.2571428571428571 0 0 0.4090909090909091 0.5 0.09090909090909091 0 0 0.75 0.25 0 0 0 1 0 0 0.2 0.2 0.2 0.2 0.2 0.008264462809917356 0.09090909090909091 0.3305785123966942 0.4462809917355372 0.1239669421487603 0 0.00923076923076923 0.2338461538461538 0.5815384615384616 0.1753846153846154 0 0 0.3181818181818182 0.4393939393939394 0.2424242424242424 0 0 0.25 0.4833333333333333 0.2666666666666667 0 0 0.1363636363636364 0.4545454545454546 0.4090909090909091 0 0 1 0 0 0 0 1 0 0 0.2 0.2 0.2 0.2 0.2 0.00234192037470726 0.04215456674473068 0.2622950819672131 0.5035128805620609 0.189695550351288 0 0.01146131805157593 0.2320916905444126 0.5257879656160458 0.2306590257879656 0 0 0.3043478260869565 0.4927536231884058 0.2028985507246377 0 0 0.3157894736842105 0.5 0.1842105263157895 0 0 0.3888888888888888 0.4444444444444444 0.1666666666666667 0 0 0.6000000000000001 0.2 0.2 0 0 1 0 0 0 0 0 1 0 0 0.03720930232558139 0.4790697674418605 0.4093023255813953 0.07441860465116279 0 0 0.2584745762711864 0.4576271186440678 0.2838983050847458 0 0 0.3265306122448979 0.4081632653061224 0.2653061224489796 0 0 0.4285714285714285 0.4081632653061224 0.163265306122449 0 0 0.4285714285714285 0.4107142857142857 0.1607142857142857 0 0 0.625 0.375 0 0 0 1 0 0 0 0 0 1 0 0.2 0.2 0.2 0.2 0.2 0.2 0.2 0.2 0.2 0.2 0.2 0.2 0.2 0.2 0.2 0.2 0.2 0.2 0.2 0.2 0.2 0.2 0.2 0.2 0.2 0.2 0.2 0.2 0.2 0.2 0.2 0.2 0.2 0.2 0.2 0.2 0.2 0.2 0.2 0.2 0 0 0 1 0 0 1 0 0 0 0 0 0.5 0 0.5 0 0 0 1 0 0 0 0.5 0.5 0 0.2 0.2 0.2 0.2 0.2 0.2 0.2 0.2 0.2 0.2 0.2 0.2 0.2 0.2 0.2 0 0 0.5 0.4583333333333333 0.04166666666666666 0 0 0.1777777777777778 0.4666666666666667 0.3555555555555556 0 0 0 1 0 0 0 0.25 0.75 0 0.2 0.2 0.2 0.2 0.2 0.2 0.2 0.2 0.2 0.2 0.2 0.2 0.2 0.2 0.2 0.2 0.2 0.2 0.2 0.2 0 0.03550295857988166 0.2544378698224852 0.5207100591715976 0.1893491124260355 0 0.01324503311258278 0.1589403973509934 0.5099337748344371 0.3178807947019868 0 0 0.1111111111111111 0.7777777777777777 0.1111111111111111 0 0 0.5 0.5 0 0.2 0.2 0.2 0.2 0.2 0.2 0.2 0.2 0.2 0.2 0.2 0.2 0.2 0.2 0.2 0.2 0.2 0.2 0.2 0.2 0 0.03642384105960265 0.3079470198675497 0.5165562913907285 0.1390728476821192 0 0.005076142131979695 0.248730964467005 0.4619289340101522 0.2842639593908629 0 0 0.3333333333333333 0.2083333333333333 0.4583333333333333 0 0 0 0.6666666666666666 0.3333333333333333 0 0 0 1 0 0.2 0.2 0.2 0.2 0.2 0 0 1 0 0 0.2 0.2 0.2 0.2 0.2 0.2 0.2 0.2 0.2 0.2 0.2 0.2 0.2 0.2 0.2 0.2 0.2 0.2 0.2 0.2 0.2 0.2 0.2 0.2 0.2 0.2 0.2 0.2 0.2 0.2 0.2 0.2 0.2 0.2 0.2 0.2 0.2 0.2 0.2 0.2 0.2 0.2 0.2 0.2 0.2 0.2 0.2 0.2 0.2 0.2 0.2 0.2 0.2 0.2 0.2 0.2 0.2 0.2 0.2 0.2 0.2 0.2 0.2 0.2 0.2 0.2 0.2 0.2 0.2 0.2 0.2 0.2 0.2 0.2 0.2 0.2 0.2 0.2 0.2 0.2 0.2 0.2 0.2 0.2 0.2 0.2 0.2 0.2 0.2 0.2 0 0 0 1 0 0.2 0.2 0.2 0.2 0.2 0.2 0.2 0.2 0.2 0.2 0.2 0.2 0.2 0.2 0.2 0.2 0.2 0.2 0.2 0.2 0.2 0.2 0.2 0.2 0.2 0.2 0.2 0.2 0.2 0.2 0 0 0.125 0.75 0.125 0 0 0.3333333333333333 0.6666666666666666 0 0.2 0.2 0.2 0.2 0.2 0.2 0.2 0.2 0.2 0.2 0.2 0.2 0.2 0.2 0.2 0.2 0.2 0.2 0.2 0.2 0.2 0.2 0.2 0.2 0.2 0.2 0.2 0.2 0.2 0.2 0 0.05035971223021583 0.3237410071942446 0.5539568345323741 0.07194244604316546 0 0.02857142857142857 0.2285714285714286 0.6 0.1428571428571428 0 0 0 0.6666666666666666 0.3333333333333333 0.2 0.2 0.2 0.2 0.2 0.2 0.2 0.2 0.2 0.2 0 0 1 0 0 0 0 1 0 0 0.2 0.2 0.2 0.2 0.2 0.2 0.2 0.2 0.2 0.2 0.2 0.2 0.2 0.2 0.2 0.2 0.2 0.2 0.2 0.2 0.5 0 0 0.5 0 0 0 0 0.5 0.5 0.1666666666666667 0.1666666666666667 0.1666666666666667 0.5 0 0 1 0 0 0 0.2 0.2 0.2 0.2 0.2 0 1 0 0 0 0.2 0.2 0.2 0.2 0.2 0.2 0.2 0.2 0.2 0.2 0.2 0.2 0.2 0.2 0.2 0.2 0.2 0.2 0.2 0.2 0.2 0.2 0.2 0.2 0.2 0.2 0.2 0.2 0.2 0.2 0.2 0.2 0.2 0.2 0.2 0.2 0.2 0.2 0.2 0.2 0.2 0.2 0.2 0.2 0.2 0.2 0.2 0.2 0.2 0.2 0.2 0.2 0.2 0.2 0.2 0.2 0.2 0.2 0.2 0.2 0.2 0.2 0.2 0.2 0.2 0.2 0.2 0.2 0.2 0.2 0.2 0.2 0.2 0.2 0.2 0.2 0.2 0.2 0.2 0.2 0.2 0.2 0.2 0.2 0.2 0.2 0.2 0.2 0.2 0.2 0.2 0.2 0.2 0.2 0.2 0.2 0.2 0.2 0.2 0.2 0.2 0.2 0.2 0.2 0.2 0.2 0.2 0.2 0.2 0.2 0.2 0.2 0.2 0.2 0.2 0.2 0.2 0.2 0.2 0.2 0.2 0.2 0.2 0.2 0.2 0.2 0.2 0.2 0.2 0.2 0.2 0.2 0.2 0.2 0.2 0.2 0.2 0.2 0.2 0.2 0.2 0.2 0.2 0.2 0.2 0.2 0.2 0.2 0.2 0.2 0.2 0.2 0.2 0.2 0.2 0.2 0.2 0.2 0.2 0.2 0 0.5 0 0.5 0 0.2 0.2 0.2 0.2 0.2 0 0 0.5 0.5 0 0 0 0.2 0.6000000000000001 0.2 0 0 0.5 0 0.5 0 0 1 0 0 0 0 0 1 0 0.25 0 0.75 0 0 0 0.1111111111111111 0.2222222222222222 0.6666666666666666 0 0.2 0.2 0.2 0.2 0.2 0 0 0 1 0 0 0 1 0 0 0.2 0.2 0.2 0.2 0.2 0.2 0.2 0.2 0.2 0.2 0.2 0.2 0.2 0.2 0.2 0 0 0 1 0 0 0 0 1 0 0.2 0.2 0.2 0.2 0.2 0.2 0.2 0.2 0.2 0.2 0.2 0.2 0.2 0.2 0.2 0.2 0.2 0.2 0.2 0.2 0.2 0.2 0.2 0.2 0.2 0.2 0.2 0.2 0.2 0.2 0 0 0.5 0.5 0 0 0 0 0 1 0.2 0.2 0.2 0.2 0.2 0.2 0.2 0.2 0.2 0.2 0.2 0.2 0.2 0.2 0.2 0.2 0.2 0.2 0.2 0.2 0.2 0.2 0.2 0.2 0.2 0.2 0.2 0.2 0.2 0.2 0.2 0.2 0.2 0.2 0.2 0.2 0.2 0.2 0.2 0.2 0.2 0.2 0.2 0.2 0.2 0.2 0.2 0.2 0.2 0.2 0 0 1 0 0 0.2 0.2 0.2 0.2 0.2 0.2 0.2 0.2 0.2 0.2 0.2 0.2 0.2 0.2 0.2 0.2 0.2 0.2 0.2 0.2 0.2 0.2 0.2 0.2 0.2 0.2 0.2 0.2 0.2 0.2 0.2 0.2 0.2 0.2 0.2 0 0 0.5 0 0.5 0 0 0 1 0 0.2 0.2 0.2 0.2 0.2 0.2 0.2 0.2 0.2 0.2 0 0 0 0.6666666666666666 0.3333333333333333 0 0 0.25 0.5833333333333333 0.1666666666666667 0 0 0.7142857142857142 0.1428571428571428 0.1428571428571428 0 0 0.2857142857142857 0.4285714285714285 0.2857142857142857 0 0 0 0.6666666666666666 0.3333333333333333 0 0 1 0 0 0.2 0.2 0.2 0.2 0.2 0.2 0.2 0.2 0.2 0.2 0 0 0.5 0.5 0 0 0 0.1818181818181818 0.8181818181818182 0 0 0 0.5 0.5 0 0.2 0.2 0.2 0.2 0.2 0.2 0.2 0.2 0.2 0.2 0.2 0.2 0.2 0.2 0.2 0.2 0.2 0.2 0.2 0.2 0.2 0.2 0.2 0.2 0.2 0 0 0 1 0 0 0 0 1 0 0.2 0.2 0.2 0.2 0.2 0.2 0.2 0.2 0.2 0.2 0.2 0.2 0.2 0.2 0.2 0.2 0.2 0.2 0.2 0.2 0.2 0.2 0.2 0.2 0.2 0.2 0.2 0.2 0.2 0.2 0.2 0.2 0.2 0.2 0.2 0.2 0.2 0.2 0.2 0.2 0.2 0.2 0.2 0.2 0.2 0.2 0.2 0.2 0.2 0.2 0.2 0.2 0.2 0.2 0.2 0.2 0.2 0.2 0.2 0.2 0.2 0.2 0.2 0.2 0.2 0.2 0.2 0.2 0.2 0.2 0.2 0.2 0.2 0.2 0.2 0.2 0.2 0.2 0.2 0.2 0.2 0.2 0.2 0.2 0.2 0.2 0.2 0.2 0.2 0.2 0.2 0.2 0.2 0.2 0.2 0.2 0.2 0.2 0.2 0.2 0.2 0.2 0.2 0.2 0.2 0.2 0.2 0.2 0.2 0.2 0.2 0.2 0.2 0.2 0.2 0 0 1 0 0 0 0 0 1 0 0 0 1 0 0 0 0 0 0.5 0.5 0.2 0.2 0.2 0.2 0.2 0.2 0.2 0.2 0.2 0.2 0.2 0.2 0.2 0.2 0.2 0 0 1 0 0 0.2 0.2 0.2 0.2 0.2 0 0 0 1 0 0.2 0.2 0.2 0.2 0.2 0.2 0.2 0.2 0.2 0.2 0.2 0.2 0.2 0.2 0.2 0.2 0.2 0.2 0.2 0.2 0.2 0.2 0.2 0.2 0.2 0.2 0.2 0.2 0.2 0.2 0 0 0 1 0 0 0 0 1 0 0.2 0.2 0.2 0.2 0.2 0.2 0.2 0.2 0.2 0.2 0.2 0.2 0.2 0.2 0.2 0.2 0.2 0.2 0.2 0.2 0.2 0.2 0.2 0.2 0.2 0 0 0 1 0 0.2 0.2 0.2 0.2 0.2 0 0 0 1 0 0.2 0.2 0.2 0.2 0.2 0.2 0.2 0.2 0.2 0.2 0.2 0.2 0.2 0.2 0.2 0.2 0.2 0.2 0.2 0.2 0.2 0.2 0.2 0.2 0.2 0.2 0.2 0.2 0.2 0.2 0.2 0.2 0.2 0.2 0.2 0.2 0.2 0.2 0.2 0.2 0.2 0.2 0.2 0.2 0.2 0.2 0.2 0.2 0.2 0.2 0.2 0.2 0.2 0.2 0.2 0.2 0.2 0.2 0.2 0.2 0.2 0.2 0.2 0.2 0.2 0.2 0.2 0.2 0.2 0.2 0.2 0.2 0.2 0.2 0.2 0.2 0.2 0.2 0.2 0.2 0.2 0.2 0.2 0.2 0.2 0.2 0.2 0.2 0.2 0.2 0.2 0.2 0.2 0.2 0.2 0.2 0.2 0.2 0.2 0.2 0.2 0.2 0.2 0.2 0.2 0.2 0.2 0.2 0.2 0.2 0.2 0.2 0.2 0.2 0.2 0.2 0.2 0.2 0.2 0.2 0.2 0.2 0.2 0.2 0.2 0.2 0.2 0.2 0.2 0.2 0.2 0.2 0.2 0.2 0.2 0.2 0.2 0.2 0.2 0.2 0.2 0.2 0.2 0.2 0.2 0.2 0.2 0.2 0.2 0.2 0.2 0.2 0.2 0.2 0.2 0.2 0.2 0.2 0.2 0.2 0.2 0.2 0.2 0.2 0.2 0.2 0.2 0.2 0.2 0.2 0.2 0.2 0.2 0.2 0.2 0.2 0.2 0.2 0.2 0.2 0.2 0.2 0.2 0.2 0.2 0 0 0 1 0 0.2 0.2 0.2 0.2 0.2 0.2 0.2 0.2 0.2 0.2 0.2 0.2 0.2 0.2 0.2 0.2 0.2 0.2 0.2 0.2 0.2 0.2 0.2 0.2 0.2 0.2 0.2 0.2 0.2 0.2 0.2 0.2 0.2 0.2 0.2 0.2 0.2 0.2 0.2 0.2 0.2 0.2 0.2 0.2 0.2 0.2 0.2 0.2 0.2 0.2 0.2 0.2 0.2 0.2 0.2 0.2 0.2 0.2 0.2 0.2 0.2 0.2 0.2 0.2 0.2 0.2 0.2 0.2 0.2 0.2 0.2 0.2 0.2 0.2 0.2 0.2 0.2 0.2 0.2 0.2 0.2 0.2 0.2 0.2 0.2 0.2 0.2 0.2 0.2 0.2 0.2 0.2 0.2 0.2 0.2 0.2 0.2 0.2 0.2 0.2 0.2 0.2 0.2 0.2 0.2 0.2 0.2 0.2 0.2 0.2 0.2 0.2 0.2 0.2 0.2 0.2 0.2 0.2 0.2 0.2 0.2 0.2 0.2 0.2 0.2 0.2 0.2 0.2 0.2 0.2 0.2 0.2 0.2 0.2 0.2 0.2 0.2 0.2 0.2 0.2 0.2 0.2 0.2 0.2 0.2 0.2 0.2 0.2 0.2 0.2 0.2 0.2 0.2 0.2 0.2 0.2 0.2 0.2 0.2 0.2 0.2 0.2 0.2 0.2 0.2 0.2 0.2 0.2 0.2 0.2 0.2 0.2 0.2 0.2 0.2 0.2 0.2 0.2 0.2 0.2 0.2 0.2 0.2 0.2 0.2 0.2 0.2 0.2 0.2 0.2 0.2 0.2 0.2 0.2 0.2 0.2 0.2 0.2 0.2 0.2 0.2 0.2 0.2 0.2 0.2 0.2 0.2 0.2 0.2 0.2 0.2 0.2 0.2 0.2 0.2 0.2 0.2 0.2 0.2 0.2 0.2 0.2 0.2 0.2 0.2 0.2 0.2 0.2 0.2 0.2 0.2 0.2 0.2 0.2 0.2 0.2 0.2 0.2 0.2 0.2 0.2 0.2 0.2 0.2 0.2 0.2 0.2 0.2 0.2 0.2 0.2 0.2 0.2 0.2 0.2 0.2 0.2 0.2 0.2 0.2 0 0 1 0 0 0 0 1 0 0 0.2 0.2 0.2 0.2 0.2 0.2 0.2 0.2 0.2 0.2 0.2 0.2 0.2 0.2 0.2 0.2 0.2 0.2 0.2 0.2 0.2 0.2 0.2 0.2 0.2 0.2 0.2 0.2 0.2 0.2 0 0 1 0 0 0.2 0.2 0.2 0.2 0.2 0.2 0.2 0.2 0.2 0.2 0.2 0.2 0.2 0.2 0.2 0.2 0.2 0.2 0.2 0.2 0.2 0.2 0.2 0.2 0.2 0.2 0.2 0.2 0.2 0.2 0.2 0.2 0.2 0.2 0.2 0.2 0.2 0.2 0.2 0.2 0.2 0.2 0.2 0.2 0.2 0.2 0.2 0.2 0.2 0.2 0.2 0.2 0.2 0.2 0.2 0.2 0.2 0.2 0.2 0.2 0.2 0.2 0.2 0.2 0.2 0.2 0.2 0.2 0.2 0.2 0.2 0.2 0.2 0.2 0.2 0.2 0.2 0.2 0.2 0.2 0.2 0.2 0.2 0.2 0.2 0.2 0.2 0.2 0.2 0.2 0.2 0.2 0.2 0.2 0.2 0.2 0.2 0.2 0.2 0.2 0.2 0.2 0.2 0.2 0.2 0.2 0.2 0.2 0.2 0.2 0.2 0.2 0.2 0.2 0.2 0.2 0.2 0.2 0.2 0.2 0.2 0.2 0.2 0.2 0.2 0.2 0.2 0.2 0.2 0.2 0.2 0.2 0.2 0.2 0.2 0.2 0.2 0.2 0.2 0.2 0.2 0.2 0.2 0.2 0.2 0.2 0.2 0.2 0.2 0.2 0.2 0.2 0.2 0.2 0.2 0.2 0.2 0.2 0.2 0.2 0 0 1 0 0 0.2 0.2 0.2 0.2 0.2 0.2 0.2 0.2 0.2 0.2 0.2 0.2 0.2 0.2 0.2 0.2 0.2 0.2 0.2 0.2 0.2 0.2 0.2 0.2 0.2 0.2 0.2 0.2 0.2 0.2 0.2 0.2 0.2 0.2 0.2 0.2 0.2 0.2 0.2 0.2 0.2 0.2 0.2 0.2 0.2 0.2 0.2 0.2 0.2 0.2 0.2 0.2 0.2 0.2 0.2 0.2 0.2 0.2 0.2 0.2 0.2 0.2 0.2 0.2 0.2 0.2 0.2 0.2 0.2 0.2 0.2 0.2 0.2 0.2 0.2 0.2 0.2 0.2 0.2 0.2 0.2 0.2 0.2 0.2 0.2 0.2 0.2 0.2 0.2 0.2 0.2 0.2 0.2 0.2 0.2 0.2 0.2 0.2 0.2 0.2 0.2 0.2 0.2 0.2 0.2 0.2 0.2 0.2 0.2 0.2 0.2 0.2 0.2 0.2 0.2 0.2 0.2 0.2 0.2 0.2 0.2 0.2 0.2 0.2 0.2 0.2 0.2 0.2 0.2 0.2 0.2 0.2 0.2 0.2 0.2 0.2 0.2 0.2 0.2 0.2 0.2 0.2 0.2 0.2 0.2 0.2 0.2 0.2 0.2 0.2 0.2 0.2 0.2 0.2 0.2 0.2 0.2 0.2 0.2 0.2 0.2 0.2 0.2 0.2 0.2 0.2 0.2 0.2 0.2 0.2 0.2 0.2 0.2 0.2 0.2 0.2 0.2 0.2 0.2 0.2 0.2 0.2 0.2 0.2 0.2 0.2 0.2 0.2 0.2 0.2 0.2 0.2 0.2 0.2 0.2 0.2 0.2 0.2 0.2 0.2 0.2 0.2 0.2 0.2 0.2 0.2 0.2 0.2 0.2 0.2 0.2 0.2 0.2 0.2 0.2 0.2 0.2 0.2 0.2 0.2 0.2 0.2 0.2 0.2 0.2 0.2 0.2 0.2 0.2 0.2 0.2 0.2 0.2 0.2 0.2 0.2 0.2 0.2 0.2 0.2 0.2 0.2 0.2 0.2 0.2 0.2 0.2 0.2 0.2 0.2 0.2 0.2 0.2 0.2 0.2 0.2 0.2 0.2 0.2 0.2 0.2 0.2 0.2 0.2 0.2 0.2 0.2 0.2 0.2 0.2 0.2 0.2 0.2 0.2 0.2 0.2 0.2 0.2 0.2 0.2 0.2 0.2 0.2 0.2 0.2 0.2 0.2 0.2 0.2 0.2 0.2 0.2 0.2 0.2 0.2 0.2 0.2 0.2 0.2 0.2 0.2 0.2 0.2 0.2 0.2 0.2 0.2 0.2 0.2 0.2 0.2 0.2 0.2 0.2 0.2 0.2 0.2 0.2 0.2 0.2 0.2 0.2 0.2 0.2 0.2 0.2 0.2 0.2 0.2 0.2 0.2 0.2 0.2 0.2 0.2 0.2 0.2 0.2 0.2 0.2 0.2 0.2 0.2 0.2 0.2 0.2 0.2 0.2 0.2 0.2 0.2 0.2 0.2 0.2 0.2 0.2 0.2 0.2 0.2 0.2 0.2 0.2 0.2 0.2 0.2 0.2 0.2 0.2 0.2 0.2 0.2 0.2 0.2 0.2 0.2 0.2 0.2 0.2 0.2 0.2 0.2 0.2 0.2 0.2 0.2 0.2 0.2 0.2 0.2 0.2 0.2 0.2 0.2 0.2 0.2 0.2 0.2 0.2 0.2 0.2 0.2 0.2 0.2 0.2 0.2 0.2 0.2 0.2 0.2 0.2 0.2 0.2 0.2 0.2 0.2 0.2 0.2 0.2 0.2 0.2 0.2 0.2 0.2 0.2 0.2 0.2 0.2 0.2 0.2 0.2 0.2 0.2 0.2 0.2 0.2 0.2 0.2 0.2 0.2 0.2 0.2 0.2 0.2 0.2 0.2 0 0 1 0 0 0 0 1 0 0 0.2 0.2 0.2 0.2 0.2 0.2 0.2 0.2 0.2 0.2 0.2 0.2 0.2 0.2 0.2 0.2 0.2 0.2 0.2 0.2 0.2 0.2 0.2 0.2 0.2 0.2 0.2 0.2 0.2 0.2 0.2 0.2 0.2 0.2 0.2 0 0 1 0 0 0.2 0.2 0.2 0.2 0.2 0.2 0.2 0.2 0.2 0.2 0.2 0.2 0.2 0.2 0.2 0.2 0.2 0.2 0.2 0.2 0.2 0.2 0.2 0.2 0.2 0.2 0.2 0.2 0.2 0.2 0.2 0.2 0.2 0.2 0.2 0.2 0.2 0.2 0.2 0.2 0.2 0.2 0.2 0.2 0.2 0.2 0.2 0.2 0.2 0.2 0.2 0.2 0.2 0.2 0.2 0.2 0.2 0.2 0.2 0.2 0.2 0.2 0.2 0.2 0.2 0.2 0.2 0.2 0.2 0.2 0 0 0 0 1 0 0 0.75 0 0.25 0 0.05263157894736842 0.4736842105263158 0.1578947368421053 0.3157894736842105 0 0 0.4230769230769231 0.3846153846153846 0.1923076923076923 0 0 0.4375 0.4375 0.125 0 0 0.3076923076923077 0.5576923076923077 0.1346153846153846 0 0.02272727272727273 0.6136363636363636 0.25 0.1136363636363636 0.25 0.4 0.15 0.2 0 0 0 0 0 1 0.2 0.2 0.2 0.2 0.2 0 0 0 0.7142857142857142 0.2857142857142857 0 0 0.4 0.2666666666666667 0.3333333333333333 0 0 0.4 0.45 0.15 0 0 0.7333333333333333 0.2666666666666667 0 0 0 0.6000000000000001 0.4 0 0.2 0.2 0.2 0.2 0.2 0.2 0.2 0.2 0.2 0.2 0.2 0.2 0.2 0.2 0.2 0.2 0.2 0.2 0.2 0.2 0 0 0.5 0.5 0 0.2 0.2 0.2 0.2 0.2 0.2 0.2 0.2 0.2 0.2 0.2 0.2 0.2 0.2 0.2 0 0 0 1 0 0.2 0.2 0.2 0.2 0.2 0.2 0.2 0.2 0.2 0.2 0.2 0.2 0.2 0.2 0.2 0 0 0.25 0.75 0 0 0 1 0 0 0 0 0 1 0 0 0 1 0 0 0.2 0.2 0.2 0.2 0.2 0.2 0.2 0.2 0.2 0.2 0.2 0.2 0.2 0.2 0.2 0.2 0.2 0.2 0.2 0.2 0.2 0.2 0.2 0.2 0.2 0 0 0.3333333333333333 0.6666666666666666 0 0 0 1 0 0 0.2 0.2 0.2 0.2 0.2 0.2 0.2 0.2 0.2 0.2 0 0 0.6666666666666666 0.3333333333333333 0 0 0 1 0 0 0 0 0.5 0 0.5 0 0 0.875 0.125 0 0 0 0.1666666666666667 0.3333333333333333 0.5 0 0.09090909090909091 0.8181818181818182 0.09090909090909091 0 0 0 0.9285714285714285 0.07142857142857142 0 0.1111111111111111 0.1111111111111111 0.2222222222222222 0.4444444444444444 0.1111111111111111 0 0.03703703703703703 0.8148148148148148 0.1481481481481481 0 0 0 0.8125 0.1875 0 0 0 0.5 0 0.5 0 0 0.6666666666666666 0 0.3333333333333333 0 0 0.7333333333333333 0.2666666666666667 0 0 0 0.9130434782608695 0.08695652173913043 0 0 0 0.7857142857142857 0.2142857142857143 0 0 0 0.5 0.5 0 0 0.3333333333333333 0.3333333333333333 0.3333333333333333 0 0 0 0.5 0 0.5 0 0 0.6000000000000001 0 0.4 0 0 0.7142857142857142 0.1428571428571428 0.1428571428571428 0 0 0.8 0.1 0.1 0 0 0.7142857142857142 0.2857142857142857 0 0 0 0.8333333333333333 0.1666666666666667 0 0.2 0.2 0.2 0.2 0.2 0 0 0.6666666666666666 0.3333333333333333 0 0 0 0.75 0.25 0 0.2 0.2 0.2 0.2 0.2 0 0 0.3333333333333333 0.3333333333333333 0.3333333333333333 0 0 1 0 0 0 0 1 0 0 0 0 0.75 0.25 0 0.2 0.2 0.2 0.2 0.2 0 0 1 0 0 0 0 0 1 0 0.2 0.2 0.2 0.2 0.2 0 0 1 0 0 0 0 1 0 0 0 0 0.3333333333333333 0.3333333333333333 0.3333333333333333 0 0 1 0 0 0.2 0.2 0.2 0.2 0.2 0.2 0.2 0.2 0.2 0.2 0.2 0.2 0.2 0.2 0.2 0.2 0.2 0.2 0.2 0.2 0.2 0.2 0.2 0.2 0.2 0.2 0.2 0.2 0.2 0.2 0.2 0.2 0.2 0.2 0.2 0.2 0.2 0.2 0.2 0.2 0 0 0 1 0 0.02272727272727273 0.04545454545454546 0.5454545454545454 0.3409090909090909 0.04545454545454546 0 0 0.9259259259259258 0.03703703703703703 0.03703703703703703 0.2 0.2 0.2 0.2 0.2 0.2 0.2 0.2 0.2 0.2 0 0 0 1 0 0 0 1 0 0 0 0.25 0.75 0 0 0 0.25 0.75 0 0 0.02272727272727273 0.1136363636363636 0.3409090909090909 0.4090909090909091 0.1136363636363636 0 0 0.611111111111111 0.3333333333333333 0.05555555555555555 0 0 1 0 0 0 0 1 0 0 0 0 1 0 0 0 0 0.75 0.25 0 0 0 1 0 0 0.2 0.2 0.2 0.2 0.2 0 0.1111111111111111 0.4444444444444444 0.4444444444444444 0 0 0 0.7333333333333333 0.2 0.06666666666666667 0 0 0.5 0 0.5 0 0 1 0 0 0.2 0.2 0.2 0.2 0.2 0.2 0.2 0.2 0.2 0.2 0 0.2 0.6000000000000001 0.2 0 0.2 0.2 0.2 0.2 0.2 0 0 0.8 0.2 0 0 0 1 0 0 0.2 0.2 0.2 0.2 0.2 0 0 0.5 0.5 0 0.2 0.2 0.2 0.2 0.2 0 0 1 0 0 0.2 0.2 0.2 0.2 0.2 0.2 0.2 0.2 0.2 0.2 0.2 0.2 0.2 0.2 0.2 0.2 0.2 0.2 0.2 0.2 0.2 0.2 0.2 0.2 0.2 0.2 0.2 0.2 0.2 0.2 0.2 0.2 0.2 0.2 0.2 0.2 0.2 0.2 0.2 0.2 0.2 0.2 0.2 0.2 0.2 0.2 0.2 0.2 0.2 0.2 0 0.04545454545454546 0.6818181818181819 0.1818181818181818 0.09090909090909091 0 0 0.5 0 0.5 0.2 0.2 0.2 0.2 0.2 0.2 0.2 0.2 0.2 0.2 0.2 0.2 0.2 0.2 0.2 0.2 0.2 0.2 0.2 0.2 0.2 0.2 0.2 0.2 0.2 0 0 1 0 0 0.009615384615384616 0 0.5384615384615385 0.3269230769230769 0.125 0 0 0.5555555555555556 0.3333333333333333 0.1111111111111111 0.2 0.2 0.2 0.2 0.2 0.2 0.2 0.2 0.2 0.2 0.2 0.2 0.2 0.2 0.2 0.2 0.2 0.2 0.2 0.2 0 0 1 0 0 0.2 0.2 0.2 0.2 0.2 0.02083333333333333 0.04166666666666666 0.3125 0.375 0.25 0 0 0.5 0.2083333333333333 0.2916666666666666 0.2 0.2 0.2 0.2 0.2 0 0 1 0 0 0.2 0.2 0.2 0.2 0.2 0.2 0.2 0.2 0.2 0.2 0.2 0.2 0.2 0.2 0.2 0.2 0.2 0.2 0.2 0.2 0 0.125 0.4166666666666666 0.375 0.08333333333333333 0 0 0.75 0.25 0 0.2 0.2 0.2 0.2 0.2 0.2 0.2 0.2 0.2 0.2 0.2 0.2 0.2 0.2 0.2 0.2 0.2 0.2 0.2 0.2 0.2 0.2 0.2 0.2 0.2 0.2 0.2 0.2 0.2 0.2 0.2 0.2 0.2 0.2 0.2 0.2 0.2 0.2 0.2 0.2 0.2 0.2 0.2 0.2 0.2 0.2 0.2 0.2 0.2 0.2 0.2 0.2 0.2 0.2 0.2 0.2 0.2 0.2 0.2 0.2 0.2 0.2 0.2 0.2 0.2 0.2 0.2 0.2 0.2 0.2 0 0 1 0 0 0.2 0.2 0.2 0.2 0.2 0.2 0.2 0.2 0.2 0.2 0.2 0.2 0.2 0.2 0.2 0.2 0.2 0.2 0.2 0.2 0.2 0.2 0.2 0.2 0.2 0.2 0.2 0.2 0.2 0.2 0.2 0.2 0.2 0.2 0.2 0 0.2962962962962963 0.5555555555555556 0.03703703703703703 0.1111111111111111 0 0.6000000000000001 0.4 0 0 0.2 0.2 0.2 0.2 0.2 0.2 0.2 0.2 0.2 0.2 0.2 0.2 0.2 0.2 0.2 0.2 0.2 0.2 0.2 0.2 0.2 0.2 0.2 0.2 0.2 0.2 0.2 0.2 0.2 0.2 0 0.02631578947368421 0.4473684210526315 0.3421052631578947 0.1842105263157895 0.2 0.2 0.2 0.2 0.2 0.2 0.2 0.2 0.2 0.2 0.2 0.2 0.2 0.2 0.2 0.2 0.2 0.2 0.2 0.2 0.2 0.2 0.2 0.2 0.2 0.2 0.2 0.2 0.2 0.2 0.2 0.2 0.2 0.2 0.2 0 0.02702702702702703 0.5945945945945946 0.3243243243243243 0.05405405405405406 0 0 0.3333333333333333 0.5 0.1666666666666667 0.2 0.2 0.2 0.2 0.2 0.2 0.2 0.2 0.2 0.2 0.2 0.2 0.2 0.2 0.2 0.2 0.2 0.2 0.2 0.2 0.2 0.2 0.2 0.2 0.2 0.2 0.2 0.2 0.2 0.2 0 0 1 0 0 0 0.3333333333333333 0.3333333333333333 0 0.3333333333333333 0 0 0.25 0.75 0 0 0 0.2105263157894737 0.5789473684210527 0.2105263157894737 0 0 0.3636363636363636 0.4545454545454546 0.1818181818181818 0 0 0.3382352941176471 0.4852941176470588 0.1764705882352941 0.1733333333333333 0.24 0.2133333333333333 0.2666666666666667 0.1066666666666667 0.2110091743119266 0.6697247706422018 0.07339449541284404 0.03669724770642202 0.009174311926605505 0 0.2142857142857143 0.3571428571428571 0.2142857142857143 0.2142857142857143 0 0 0.4166666666666666 0.08333333333333333 0.5 0 0 0.4166666666666666 0.5 0.08333333333333333 0 0 0.48 0.4 0.12 0 0 0.4 0.4111111111111111 0.1888888888888889 0 0.01136363636363636 0.4090909090909091 0.4318181818181818 0.1477272727272727 0 0 0.6086956521739131 0.3913043478260869 0 0.07692307692307693 0.4615384615384616 0.1538461538461539 0.3076923076923077 0 0 0.07407407407407407 0.3333333333333333 0.2592592592592592 0.3333333333333333 0 0 0.48 0.44 0.08 0 0 0.3461538461538461 0.6153846153846154 0.03846153846153846 0 0 0.5172413793103449 0.3448275862068966 0.1379310344827586 0 0 0.4945054945054945 0.3846153846153846 0.1208791208791209 0 0 0.4545454545454545 0.4363636363636363 0.1090909090909091 0 0.05882352941176471 0.5588235294117647 0.3235294117647059 0.05882352941176471 0.3636363636363636 0.4545454545454546 0.09090909090909091 0.09090909090909091 0 0 0.2244897959183673 0.4285714285714285 0.3265306122448979 0.02040816326530612 0 0.06557377049180328 0.4262295081967213 0.459016393442623 0.04918032786885246 0 0 0.5636363636363636 0.3818181818181818 0.05454545454545454 0 0 0.4120879120879121 0.4725274725274726 0.1153846153846154 0 0.004347826086956522 0.3869565217391304 0.5086956521739131 0.1 0 0 0.4757281553398058 0.4174757281553398 0.1067961165048544 0 0.05263157894736842 0.631578947368421 0.2631578947368421 0.05263157894736842 0 0.2 0.7000000000000001 0.1 0 0 0 1 0 0 0 0 0.3333333333333333 0.5 0.1666666666666667 0 0 0.6000000000000001 0.2 0.2 0 0 0.3181818181818182 0.5909090909090909 0.09090909090909091 0 0 0.4680851063829787 0.4680851063829787 0.06382978723404255 0 0.02083333333333333 0.4791666666666666 0.4166666666666666 0.08333333333333333 0 0 1 0 0 0 1 0 0 0 0.2 0.2 0.2 0.2 0.2 0.2 0.2 0.2 0.2 0.2 0.2 0.2 0.2 0.2 0.2 0.2 0.2 0.2 0.2 0.2 0 0 0 0 1 0.2 0.2 0.2 0.2 0.2 0 0 0.5 0.5 0 0 0 0 0 1 0 0 0.64 0.24 0.12 0 0 0.5384615384615385 0.3846153846153846 0.07692307692307693 0 0 0.6000000000000001 0.2 0.2 0 0 0.875 0.125 0 0 0 0.3888888888888888 0.4444444444444444 0.1666666666666667 0 0 0.4444444444444444 0.4444444444444444 0.1111111111111111 0 0 0.7142857142857142 0.1904761904761905 0.09523809523809523 0 0 0.6666666666666666 0.1666666666666667 0.1666666666666667 0.01449275362318841 0.04347826086956522 0.4782608695652174 0.3333333333333333 0.1304347826086956 0 0.01234567901234568 0.4074074074074074 0.4691358024691358 0.1111111111111111 0 0 0.3333333333333333 0.5833333333333333 0.08333333333333333 0 0 0.3428571428571429 0.4857142857142857 0.1714285714285714 0 0 0.3947368421052632 0.5 0.1052631578947368 0 0 0.6071428571428571 0.2857142857142857 0.1071428571428571 0 0 0.5714285714285714 0.4285714285714285 0 0 0 0.5 0.25 0.25 0.02127659574468085 0.0729483282674772 0.4012158054711246 0.4224924012158054 0.08206686930091185 0.003838771593090211 0.009596928982725527 0.4568138195777351 0.4222648752399232 0.1074856046065259 0 0 0.4193548387096774 0.4086021505376344 0.1720430107526882 0 0 0.3617886178861789 0.4837398373983741 0.1544715447154472 0 0 0.4253731343283582 0.4253731343283582 0.1492537313432836 0 0 0.4 0.4909090909090909 0.1090909090909091 0 0 0.6666666666666667 0.3333333333333334 0 0 0 0.8 0 0.2 0.009259259259259259 0.06481481481481481 0.6296296296296295 0.2407407407407407 0.05555555555555555 0 0 0.603448275862069 0.2816091954022988 0.1149425287356322 0 0 0.4418604651162791 0.3255813953488372 0.2325581395348837 0 0 0.4796380090497738 0.3846153846153846 0.1357466063348416 0 