<?xml version="1.0" encoding="UTF-8"?>
<smile version="1.0" id="Unnamed" numsamples="10000" discsamples="10000">
	<nodes>
		<cpt id="wind_u">
			<state id="VeryLow" />
			<state id="Low" />
			<state id="Medium" />
			<state id="High" />
			<state id="VeryHigh" />
			<probabilities>0.2602980277816893 0.3501619356067822 0.2350841154008631 0.1095612414787081 0.04489467973195722</probabilities>
		</cpt>
		<cpt id="wind_v">
			<state id="VeryLow" />
			<state id="Low" />
			<state id="Medium" />
			<state id="High" />
			<state id="VeryHigh" />
			<probabilities>0.0004307238645870434 0.06740000165663024 0.6956521739130435 0.235216645820736 0.001300454745003189</probabilities>
		</cpt>
		<cpt id="Hs_offshore">
			<state id="VeryLow" />
			<state id="Low" />
			<state id="Medium" />
			<state id="HighMid" />
			<state id="VeryHigh" />
			<probabilities>0.1951758927166251 0.2862491406230586 0.2528928905712889 0.1862715051314122 0.07941057095761511</probabilities>
		</cpt>
		<cpt id="Tm_offshore">
			<state id="VeryLow" />
			<state id="Low" />
			<state id="Medium" />
			<state id="High" />
			<state id="VeryHigh" />
			<probabilities>0.2182941678332105 0.2347113735949704 0.2412799125299229 0.192193958269484 0.1135205877724121</probabilities>
		</cpt>
		<cpt id="Dir_offshore">
			<state id="N" />
			<state id="ENE" />
			<state id="ESE" />
			<state id="SSE" />
			<state id="SSW" />
			<state id="WSW" />
			<state id="WNW" />
			<state id="NNW" />
			<probabilities>0.2481714943633156 0.2946979548899583 0.112659140043238 0.1625237105204304 0.1078631954740862 0.04650161107291657 0.01596163244344678 0.01162126119260811</probabilities>
		</cpt>
		<cpt id="TWL_less_Tide">
			<state id="VeryLow" />
			<state id="Low" />
			<state id="Medium" />
			<state id="High" />
			<state id="VeryHigh" />
			<parents>wind_u wind_v Hs_offshore Tm_offshore Dir_offshore</parents>
			<probabilities>0.2820302236193118 0.3575114157066681 0.1696231742892227 0.01985637296657348 0.1709788134182238 0 0 0 0 1 0 0 0 1 0 0.2 0.2 0.2 0.2 0.2 0.2 0.2 0.2 0.2 0.2 0.2 0.2 0.2 0.2 0.2 0.2 0.2 0.2 0.2 0.2 0.2 0.2 0.2 0.2 0.2 0.2 0.2 0.2 0.2 0.2 0.2 0.2 0.2 0.2 0.2 0.2 0.2 0.2 0.2 0.2 0.2 0.2 0.2 0.2 0.2 0.2 0.2 0.2 0.2 0.2 0.2 0.2 0.2 0.2 0.2 0.2 0.2 0.2 0.2 0.2 0.2 0.2 0.2 0.2 0.2 0.2 0.2 0.2 0.2 0.2 0.2 0.2 0.2 0.2 0.2 0.2 0.2 0.2 0.2 0.2 0.2 0.2 0.2 0.2 0.2 0.2 0.2 0.2 0.2 0.2 0.2 0.2 0.2 0.2 0.2 0.2 0.2 0.2 0.2 0.2 0.2 0.2 0.2 0.2 0.2 0.2 0.2 0.2 0.2 0.2 0.2 0.2 0.2 0.2 0.2 0.2 0.2 0.2 0.2 0.2 0.2 0.2 0.2 0.2 0.2 0.2 0.2 0.2 0.2 0.2 0.2 0.2 0.2 0.2 0.2 0.2 0.2 0.2 0.2 0.2 0.2 0.2 0.2 0.2 0.2 0.2 0.2 0.2 0.2 0.2 0.2 0.2 0.2 0.2 0.2 0.2 0.2 0.2 0.2 0.2 0.2 0.2 0.2 0.2 0.2 0.2 0.2 0.2 0.2 0.2 0.2 0.2 0.2 0.2 0.2 0.2 0.2 0.2 0.2 0.2 0.2 0.2 0.2 0.2 0.2 0.2 0.2 0.2 0.2 0.2 0.2 0.2 0.2 0.2 0.2 0.2 0.2 0.2 0.2 0.2 0.2 0.2 0.2 0.2 0.2 0.2 0.2 0.2 0.2 0.2 0.2 0.2 0.2 0.2 0.2 0.2 0.2 0.2 0.2 0.2 0.2 0.2 0.2 0.2 0.2 0.2 0.2 0.2 0.2 0.2 0.2 0.2 0.2 0.2 0.2 0.2 0.2 0.2 0.2 0.2 0.2 0.2 0.2 0.2 0.2 0.2 0.2 0.2 0.2 0.2 0.2 0.2 0.2 0.2 0.2 0.2 0.2 0.2 0.2 0.2 0.2 0.2 0.2 0.2 0.2 0.2 0.2 0.2 0.2 0.2 0.2 0.2 0.2 0.2 0.2 0.2 0.2 0.2 0.2 0.2 0.2 0.2 0.2 0.2 0.2 0.2 0.2 0.2 0.2 0.2 0.2 0.2 0.2 0.2 0.2 0.2 0.2 0.2 0.2 0.2 0.2 0.2 0.2 0.2 0.2 0.2 0.2 0.2 0.2 0.2 0.2 0.2 0.2 0.2 0.2 0.2 0.2 0.2 0.2 0.2 0.2 0.2 0.2 0.2 0.2 0.2 0.2 0.2 0.2 0.2 0.2 0.2 0.2 0.2 0.2 0.2 0.2 0.2 0.2 0.2 0.2 0.2 0.2 0.2 0.2 0.2 0.2 0.2 0.2 0.2 0.2 0.2 0.2 0.2 0.2 0.2 0.2 0.2 0.2 0.2 0.2 0.2 0.2 0.2 0.2 0.2 0.2 0.2 0.2 0.2 0.2 0.2 0.2 0.2 0.2 0.2 0.2 0.2 0.2 0.2 0.2 0.2 0.2 0.2 0.2 0.2 0.2 0.2 0.2 0.2 0.2 0.2 0.2 0.2 0.2 0.2 0.2 0.2 0.2 0.2 0.2 0.2 0.2 0.2 0.2 0.2 0.2 0.2 0.2 0.2 0.2 0.2 0.2 0.2 0.2 0.2 0.2 0.2 0.2 0.2 0.2 0.2 0.2 0.2 0.2 0.2 0.2 0.2 0.2 0.2 0.2 0.2 0.2 0.2 0.2 0.2 0.2 0.2 0.2 0.2 0.2 0.2 0.2 0.2 0.2 0.2 0.2 0.2 0.2 0.2 0.2 0.2 0.2 0.2 0.2 0.2 0.2 0.2 0.2 0.2 0.2 0.2 0.2 0.2 0.2 0.2 0.2 0.2 0.2 0.2 0.2 0.2 0.2 0.2 0.2 0.2 0.2 0.2 0.2 0.2 0.2 0.2 0.2 0.2 0.2 0.2 0.2 0.2 0.2 0.2 0.2 0.2 0.2 0.2 0.2 0.2 0.2 0.2 0.2 0.2 0.2 0.2 0.2 0.2 0.2 0.2 0.2 0.2 0.2 0.2 0.2 0.2 0.2 0.2 0.2 0.2 0.2 0.2 0.2 0.2 0.2 0.2 0.2 0.2 0.2 0.2 0.2 0.2 0.2 0.2 0.2 0.2 0.2 0.2 0.2 0.2 0.2 0.2 0.2 0.2 0.2 0.2 0.2 0.2 0.2 0.2 0.2 0.2 0.2 0.2 0.2 0.2 0.2 0.2 0.2 0.2 0.2 0.2 0.2 0.2 0.2 0.2 0.2 0.2 0.2 0.2 0.2 0.2 0.2 0.2 0.2 0.2 0.2 0.2 0.2 0.2 0.2 0.2 0.2 0.2 0.2 0.2 0.2 0.2 0.2 0.2 0.2 0.2 0.2 0.2 0.2 0.2 0.2 0.2 0.2 0.2 0.2 0.2 0.2 0.2 0.2 0.2 0.2 0.2 0.2 0.2 0.2 0.2 0.2 0.2 0.2 0.2 0.2 0.2 0.2 0.2 0.2 0.2 0.2 0.2 0.2 0.2 0.2 0.2 0.2 0.2 0.2 0.2 0.2 0.2 0.2 0.2 0.2 0.2 0.2 0.2 0.2 0.2 0.2 0.2 0.2 0.2 0.2 0.2 0.2 0.2 0.2 0.2 0.2 0.2 0.2 0.2 0.2 0.2 0.2 0.2 0.2 0.2 0.2 0.2 0.2 0.2 0.2 0.2 0.2 0.2 0.2 0.2 0.2 0.2 0.2 0.2 0.2 0.2 0.2 0.2 0.2 0.2 0.2 0.2 0.2 0.2 0.2 0.2 0.2 0.2 0.2 0.2 0.2 0.2 0.2 0.2 0.2 0.2 0.2 0.2 0.2 0.2 0.2 0.2 0.2 0.2 0.2 0.2 0.2 0.2 0.2 0.2 0.2 0.2 0.2 0.2 0.2 0.2 0.2 0.2 0.2 0.2 0.2 0.2 0.2 0.2 0.2 0.2 0.2 0.2 0.2 0.2 0.2 0.2 0.2 0.2 0.2 0.2 0.2 0.2 0.2 0.2 0.2 0.2 0.2 0.2 0.2 0.2 0.2 0.2 0.2 0.2 0.2 0.2 0.2 0.2 0.2 0.2 0.2 0.2 0.2 0.2 0.2 0.2 0.2 0.2 0.2 0.2 0.2 0.2 0.2 0.2 0.2 0.2 0.2 0.2 0.2 0.2 0.2 0.2 0.2 0.2 0.2 0.2 0.2 0.2 0.2 0.2 0.2 0.2 0.2 0.2 0.2 0.2 0.2 0.2 0.2 0.2 0.2 0.2 0.2 0.2 0.2 0.2 0.2 0.2 0.2 0.2 0.2 0.2 0.2 0.2 0.2 0.2 0.2 0.2 0.2 0.2 0.2 0.2 0.2 0.2 0.2 0.2 0.2 0.2 0.2 0.2 0.2 0.2 0.2 0.2 0.2 0.2 0.2 0.2 0.2 0.2 0.2 0.2 0.2 0.2 0.2 0.2 0.2 0.2 0.2 0.2 0.2 0.2 0.2 0.2 0.2 0.2 0.2 0.2 0.2 0.2 0.2 0.2 0.2 0.2 0.2 0.2 0.2 0.2 0.2 0.2 0.2 0.2 0.2 0.2 0.2 0.2 0.2 0.2 0.2 0.2 0.2 0.2 0.2 0.2 0.2 0.2 0.2 0.2 0.2 0.2 0.2 0.2 0.2 0.2 0.2 0.2 0.2 0.2 0.2 0.2 0.2 0.2 0.2 0.2 0.2 0.2 0.2 0.2 0.2 0.2 0.2 0.2 0.2 0.2 0.2 0.2 0.2 0.2 0.2 0.2 0.2 0.2 0.2 0.2 0.2 0.2 0.2 0.2 0.2 0.2 0.2 0.2 0.2 0.2 0.2 0.2 0.2 0.2 0.2 0.2 0.2 0.2 0.2 0.2 0.2 0.2 0.2 0.2 0.2 0.2 0.2 0.2 0.2 0.2 0.2 0.2 0.2 0.2 0.2 0.2 0.2 0.2 0.2 0.2 0.2 0.2 0.2 0.2 0.2 0.2 0.2 0.2 0.2 0.2 0.2 0.2 0.2 0.2 0.2 0.2 0.2 0.2 0.2 0.2 0.2 0.2 0.2 0.2 0.2 0.2 0.2 0.6363636363636364 0.2272727272727273 0 0.09090909090909091 0.04545454545454546 0.6666666666666666 0 0 0 0.3333333333333333 0 0 0.04081632653061224 0.5918367346938775 0.3673469387755102 0 0 0.1758241758241758 0.4505494505494506 0.3736263736263736 0 0 0.3414634146341464 0.3414634146341464 0.3170731707317073 0 0 0.4545454545454546 0.2727272727272727 0.2727272727272727 0.2 0.2 0.2 0.2 0.2 1 0 0 0 0 0.2 0.2 0.2 0.2 0.2 0.2 0.2 0.2 0.2 0.2 0 0 0 0 1 0.2 0.2 0.2 0.2 0.2 0.2 0.2 0.2 0.2 0.2 0 0 0 1 0 0.2 0.2 0.2 0.2 0.2 0.2 0.2 0.2 0.2 0.2 0.2 0.2 0.2 0.2 0.2 0.2 0.2 0.2 0.2 0.2 0.2 0.2 0.2 0.2 0.2 0.2 0.2 0.2 0.2 0.2 0.2 0.2 0.2 0.2 0.2 0.2 0.2 0.2 0.2 0.2 0.2 0.2 0.2 0.2 0.2 0.2 0.2 0.2 0.2 0.2 0.2 0.2 0.2 0.2 0.2 0.2 0.2 0.2 0.2 0.2 0.2 0.2 0.2 0.2 0.2 0.2 0.2 0.2 0.2 0.2 0.2 0.2 0.2 0.2 0.2 0.2 0.2 0.2 0.2 0.2 0.2 0.2 0.2 0.2 0.2 0.2 0.2 0.2 0.2 0.2 0.2 0.2 0.2 0.2 0.2 0.2 0.2 0.2 0.2 0.2 0.2 0.2 0.2 0.2 0.2 0.2 0.2 0.2 0.2 0.2 0.2 0.2 0.2 0.2 0.2 0.2 0.2 0.2 0.2 0.2 0.2 0.2 0.2 0.2 0.2 0.2 0.2 0.2 0.2 0.2 0 0 0 0.7000000000000001 0.3 0 0 0 0.5 0.5 0 0 0.1017964071856288 0.4670658682634731 0.4311377245508982 0 0 0.05555555555555555 0.2962962962962963 0.6481481481481481 0 0 0.32 0.32 0.36 0 0 0.4444444444444444 0.2222222222222222 0.3333333333333333 0.2 0.2 0.2 0.2 0.2 0 0 0.2 0.6000000000000001 0.2 0 0 0 1 0 0 0 0.5 0.5 0 0 0 0.1666666666666667 0.5 0.3333333333333333 0 0 0.1428571428571428 0.7142857142857142 0.1428571428571428 0 0 0 0.5 0.5 0 0 0.5 0.5 0 0.2 0.2 0.2 0.2 0.2 0.2 0.2 0.2 0.2 0.2 0.2 0.2 0.2 0.2 0.2 0.2 0.2 0.2 0.2 0.2 0.2 0.2 0.2 0.2 0.2 0.2 0.2 0.2 0.2 0.2 0.2 0.2 0.2 0.2 0.2 0.2 0.2 0.2 0.2 0.2 0 0 1 0 0 0.2 0.2 0.2 0.2 0.2 0.2 0.2 0.2 0.2 0.2 0.2 0.2 0.2 0.2 0.2 0.2 0.2 0.2 0.2 0.2 0.2 0.2 0.2 0.2 0.2 0 0 0 1 0 0.2 0.2 0.2 0.2 0.2 0.2 0.2 0.2 0.2 0.2 0.2 0.2 0.2 0.2 0.2 0.2 0.2 0.2 0.2 0.2 0.2 0.2 0.2 0.2 0.2 0.2 0.2 0.2 0.2 0.2 0.2 0.2 0.2 0.2 0.2 0.2 0.2 0.2 0.2 0.2 0.2 0.2 0.2 0.2 0.2 0.2 0.2 0.2 0.2 0.2 0.2 0.2 0.2 0.2 0.2 0.2 0.2 0.2 0.2 0.2 0 0 0 0 1 0 0 0.125 0.4375 0.4375 0 0 0.2 0.4 0.4 0 0 0 1 0 0.2 0.2 0.2 0.2 0.2 0.2 0.2 0.2 0.2 0.2 0 0 1 0 0 0 0 0.1 0.6000000000000001 0.3 0 0.07142857142857142 0.4285714285714285 0.5 0 0 0 0.08 0.6 0.32 0 0 0.4615384615384616 0.3076923076923077 0.2307692307692308 0 0 0.5 0.5 0 0.2 0.2 0.2 0.2 0.2 0 0 0 1 0 0 0 0 0 1 0.2 0.2 0.2 0.2 0.2 0 0 1 0 0 0.2 0.2 0.2 0.2 0.2 0.2 0.2 0.2 0.2 0.2 0.2 0.2 0.2 0.2 0.2 0.2 0.2 0.2 0.2 0.2 0.2 0.2 0.2 0.2 0.2 0.2 0.2 0.2 0.2 0.2 0.2 0.2 0.2 0.2 0.2 0.2 0.2 0.2 0.2 0.2 0.2 0.2 0.2 0.2 0.2 0.2 0.2 0.2 0.2 0.2 0.2 0.2 0.2 0.2 0.2 0.2 0.2 0.2 0.2 0.2 0.2 0.2 0.2 0.2 0.2 0.2 0.2 0.2 0.2 0.2 0.2 0.2 0.2 0.2 0.2 0.2 0.2 0.2 0.2 0.2 0.2 0.2 0.2 0.2 0.2 0.2 0.2 0.2 0.2 0.2 0.2 0.2 0.2 0.2 0.2 0.2 0.2 0.2 0.2 0.2 0.2 0.2 0.2 0.2 0.2 0.2 0.2 0.2 0.2 0.2 0.2 0.2 0.2 0.2 0.2 0.2 0.2 0.2 0.2 0.2 0.2 0.2 0.2 0.2 0.2 0.2 0.2 0.2 0.2 0.2 0.2 0.2 0.2 0.2 0.2 0.2 0.2 0.2 0.2 0.2 0.2 0.2 0.2 0.2 0.2 0.2 0.2 0.2 0.2 0.2 0 0 0.375 0.2916666666666666 0.3333333333333333 0 0 0.2258064516129032 0.6451612903225806 0.1290322580645161 0 0 0.1666666666666667 0.8333333333333333 0 0 0 0 0 1 0.2 0.2 0.2 0.2 0.2 0.2 0.2 0.2 0.2 0.2 0.2 0.2 0.2 0.2 0.2 0.2 0.2 0.2 0.2 0.2 0 0.02941176470588235 0.1764705882352941 0.4117647058823529 0.3823529411764706 0 0 0.03773584905660377 0.5849056603773585 0.3773584905660377 0.2 0.2 0.2 0.2 0.2 0.2 0.2 0.2 0.2 0.2 0 0 0 0 1 0.2 0.2 0.2 0.2 0.2 0.2 0.2 0.2 0.2 0.2 0.2 0.2 0.2 0.2 0.2 0 0 0 1 0 0 0 0 0 1 0.2 0.2 0.2 0.2 0.2 0.2 0.2 0.2 0.2 0.2 0.2 0.2 0.2 0.2 0.2 0.2 0.2 0.2 0.2 0.2 0.2 0.2 0.2 0.2 0.2 0.2 0.2 0.2 0.2 0.2 0.2 0.2 0.2 0.2 0.2 0.2 0.2 0.2 0.2 0.2 0.2 0.2 0.2 0.2 0.2 0.2 0.2 0.2 0.2 0.2 0.2 0.2 0.2 0.2 0.2 0.2 0.2 0.2 0.2 0.2 0.2 0.2 0.2 0.2 0.2 0.2 0.2 0.2 0.2 0.2 0.2 0.2 0.2 0.2 0.2 0.2 0.2 0.2 0.2 0.2 0.2 0.2 0.2 0.2 0.2 0.2 0.2 0.2 0.2 0.2 0.2 0.2 0.2 0.2 0.2 0.2 0.2 0.2 0.2 0.2 0.2 0.2 0.2 0.2 0.2 0.2 0.2 0.2 0.2 0.2 0 0 0.7142857142857142 0.2857142857142857 0 0.2 0.2 0.2 0.2 0.2 0.2 0.2 0.2 0.2 0.2 0.2 0.2 0.2 0.2 0.2 0.2 0.2 0.2 0.2 0.2 0.2 0.2 0.2 0.2 0.2 0.2 0.2 0.2 0.2 0.2 0.2 0.2 0.2 0.2 0.2 0 0.04067796610169491 0.1423728813559322 0.4271186440677966 0.3898305084745763 0 0 0.1376146788990826 0.5688073394495413 0.2935779816513762 0.2 0.2 0.2 0.2 0.2 0.2 0.2 0.2 0.2 0.2 0.2 0.2 0.2 0.2 0.2 0.2 0.2 0.2 0.2 0.2 0.2 0.2 0.2 0.2 0.2 0.2 0.2 0.2 0.2 0.2 0.01219512195121951 0.02439024390243903 0.2317073170731707 0.524390243902439 0.2073170731707317 0 0 0.09090909090909091 0.3636363636363636 0.5454545454545454 0.2 0.2 0.2 0.2 0.2 0.2 0.2 0.2 0.2 0.2 0.2 0.2 0.2 0.2 0.2 0.2 0.2 0.2 0.2 0.2 0.2 0.2 0.2 0.2 0.2 0.2 0.2 0.2 0.2 0.2 0 0 0 1 0 0 0 0.5 0.5 0 0.2 0.2 0.2 0.2 0.2 0.2 0.2 0.2 0.2 0.2 0.2 0.2 0.2 0.2 0.2 0.2 0.2 0.2 0.2 0.2 0.2 0.2 0.2 0.2 0.2 0.2 0.2 0.2 0.2 0.2 0.3571428571428571 0.3010204081632653 0.04591836734693877 0.1836734693877551 0.1122448979591837 0.3385826771653543 0.5 0.02755905511811024 0.05118110236220472 0.0826771653543307 0.2031662269129288 0.0237467018469657 0.1266490765171504 0.4432717678100264 0.2031662269129288 0.02532751091703057 0.004366812227074236 0.1013100436681223 0.5493449781659389 0.3196506550218341 0.00258732212160414 0.00129366106080207 0.09961190168175939 0.5420439844760673 0.3544631306597671 0.07216494845360824 0 0.2268041237113402 0.5360824742268041 0.1649484536082474 0.6666666666666666 0 0.1666666666666667 0.1666666666666667 0 0.4285714285714285 0 0.1428571428571428 0.2857142857142857 0.1428571428571428 0.2 0.2 0.2 0.2 0.2 0.2 0.2 0.2 0.2 0.2 0 0 1 0 0 0 0 0.5 0 0.5 0 0 0 0.5 0.5 0 0 0.6000000000000001 0.4 0 0.2 0.2 0.2 0.2 0.2 0.2 0.2 0.2 0.2 0.2 0.2 0.2 0.2 0.2 0.2 0.2 0.2 0.2 0.2 0.2 0.2 0.2 0.2 0.2 0.2 0.2 0.2 0.2 0.2 0.2 0 0 0 1 0 0 0 0 0 1 0.2 0.2 0.2 0.2 0.2 0.2 0.2 0.2 0.2 0.2 0.2 0.2 0.2 0.2 0.2 0.2 0.2 0.2 0.2 0.2 0 0 0 0 1 0.2 0.2 0.2 0.2 0.2 0.2 0.2 0.2 0.2 0.2 0.2 0.2 0.2 0.2 0.2 0.2 0.2 0.2 0.2 0.2 0.2 0.2 0.2 0.2 0.2 0.2 0.2 0.2 0.2 0.2 0.2 0.2 0.2 0.2 0.2 0.2 0.2 0.2 0.2 0.2 0.2 0.2 0.2 0.2 0.2 0.2 0.2 0.2 0.2 0.2 0.2 0.2 0.2 0.2 0.2 0.2 0.2 0.2 0.2 0.2 0.2 0.2 0.2 0.2 0.2 0.009803921568627451 0.0196078431372549 0.1274509803921569 0.6176470588235294 0.2254901960784314 0 0 0.2083333333333333 0.625 0.1666666666666667 0 0 0.08639705882352941 0.5392156862745098 0.3743872549019608 0 0.001671309192200557 0.0935933147632312 0.5259052924791087 0.3788300835654596 0 0.001805054151624549 0.09025270758122744 0.5469314079422383 0.3610108303249098 0 0 0.2522522522522522 0.6126126126126126 0.1351351351351351 0 0 0.6923076923076923 0.2307692307692308 0.07692307692307693 0.02631578947368421 0 0.1052631578947368 0.7894736842105263 0.07894736842105263 0 0.08064516129032258 0.1290322580645161 0.4838709677419355 0.3064516129032258 0 0.03296703296703297 0.2197802197802198 0.6153846153846154 0.1318681318681319 0 0 0.1030927835051546 0.5824742268041238 0.3144329896907216 0 0.009345794392523364 0.09345794392523364 0.5202492211838006 0.3769470404984424 0 0.0202020202020202 0.1717171717171717 0.5050505050505051 0.303030303030303 0 0 0.45 0.4 0.15 0 0 0.2857142857142857 0.7142857142857142 0 0 0 0.2857142857142857 0.5714285714285714 0.1428571428571428 0 0 0 1 0 0 0 0.5 0 0.5 0 0 0 1 0 0 0 0.3333333333333333 0.6666666666666666 0 0 0 0.2 0.4 0.4 0.2 0.2 0.2 0.2 0.2 0 0 1 0 0 0.2 0.2 0.2 0.2 0.2 0.2 0.2 0.2 0.2 0.2 0.2 0.2 0.2 0.2 0.2 0.2 0.2 0.2 0.2 0.2 0 0 0 0 1 0.2 0.2 0.2 0.2 0.2 0 0 0 1 0 0 0 0 1 0 0.2 0.2 0.2 0.2 0.2 0.2 0.2 0.2 0.2 0.2 0.2 0.2 0.2 0.2 0.2 0.2 0.2 0.2 0.2 0.2 0.2 0.2 0.2 0.2 0.2 0.2 0.2 0.2 0.2 0.2 0.2 0.2 0.2 0.2 0.2 0.2 0.2 0.2 0.2 0.2 0.2 0.2 0.2 0.2 0.2 0 0 0 1 0 0.2 0.2 0.2 0.2 0.2 0 0 0.04724409448818898 0.3937007874015748 0.5590551181102362 0 0 0.05511811023622047 0.4645669291338583 0.4803149606299212 0 0 0.103448275862069 0.6551724137931034 0.2413793103448276 0 0 0.3333333333333333 0.1666666666666667 0.5 0 0 0 1 0 0 0 0.6666666666666666 0.3333333333333333 0 0.004201680672268907 0.1092436974789916 0.1659663865546218 0.5084033613445378 0.2121848739495798 0.001410437235543018 0.01763046544428773 0.1410437235543018 0.6071932299012693 0.232722143864598 0 0 0.05812324929971989 0.4866946778711485 0.4551820728291316 0 0 0.07982583454281568 0.4644412191582003 0.455732946298984 0 0 0.1523809523809524 0.5333333333333334 0.3142857142857143 0 0.05263157894736842 0.5789473684210527 0.3684210526315789 0 0 0 1 0 0 0 0 0 1 0 0.007633587786259542 0.05343511450381679 0.1297709923664122 0.5877862595419847 0.2213740458015267 0 0.009316770186335404 0.1055900621118012 0.608695652173913 0.2763975155279503 0 0 0.03448275862068965 0.6551724137931034 0.3103448275862069 0 0 0.5 0.3333333333333333 0.1666666666666667 0 0 0 0.5 0.5 0 0 0.8 0.2 0 0 0 1 0 0 0 0 1 0 0 0 0 0.2 0.6000000000000001 0.2 0 0 0 0.5833333333333333 0.4166666666666666 0 0 0 1 0 0 0 1 0 0 0 0 0 0 1 0.2 0.2 0.2 0.2 0.2 0.2 0.2 0.2 0.2 0.2 0.2 0.2 0.2 0.2 0.2 0.2 0.2 0.2 0.2 0.2 0.2 0.2 0.2 0.2 0.2 0.2 0.2 0.2 0.2 0.2 0.2 0.2 0.2 0.2 0.2 0.2 0.2 0.2 0.2 0.2 0.2 0.2 0.2 0.2 0.2 0.2 0.2 0.2 0.2 0.2 0.2 0.2 0.2 0.2 0.2 0.2 0.2 0.2 0.2 0.2 0.2 0.2 0.2 0.2 0.2 0.2 0.2 0.2 0.2 0.2 0.2 0.2 0.2 0.2 0.2 0.2 0.2 0.2 0.2 0.2 0.2 0.2 0.2 0.2 0.2 0.2 0.2 0.2 0.2 0.2 0.2 0.2 0.2 0.2 0.2 0 0.1047619047619048 0.1809523809523809 0.5714285714285714 0.1428571428571428 0.001060445387062566 0.005302226935312832 0.1537645811240721 0.5758218451749736 0.264050901378579 0 0 0.03731343283582089 0.4514925373134328 0.5111940298507462 0 0 0.04301075268817205 0.4193548387096774 0.5376344086021506 0 0 0.3 0.2 0.5 0 0 1 0 0 0.2 0.2 0.2 0.2 0.2 0.2 0.2 0.2 0.2 0.2 0.003519061583577713 0.05571847507331378 0.1442815249266862 0.5483870967741935 0.2480938416422288 0.001719986240110079 0.007223942208462332 0.08496732026143791 0.631578947368421 0.2745098039215686 0 0 0.02158273381294964 0.539568345323741 0.4388489208633094 0 0 0 0.64 0.36 0.2 0.2 0.2 0.2 0.2 0 0 1 0 0 0 0 1 0 0 0.2 0.2 0.2 0.2 0.2 0.00641025641025641 0.04487179487179487 0.141025641025641 0.5512820512820512 0.2564102564102564 0 0.01098901098901099 0.1648351648351649 0.5384615384615385 0.2857142857142858 0 0 0 1 0 0.2 0.2 0.2 0.2 0.2 0.2 0.2 0.2 0.2 0.2 0.2 0.2 0.2 0.2 0.2 0.2 0.2 0.2 0.2 0.2 0.2 0.2 0.2 0.2 0.2 0 0.1111111111111111 0.3333333333333333 0.5555555555555556 0 0 0 0.375 0.5 0.125 0 0 0 1 0 0.2 0.2 0.2 0.2 0.2 0.2 0.2 0.2 0.2 0.2 0.2 0.2 0.2 0.2 0.2 0.2 0.2 0.2 0.2 0.2 0.2 0.2 0.2 0.2 0.2 0.2 0.2 0.2 0.2 0.2 0.2 0.2 0.2 0.2 0.2 0.2 0.2 0.2 0.2 0.2 0.2 0.2 0.2 0.2 0.2 0.2 0.2 0.2 0.2 0.2 0.2 0.2 0.2 0.2 0.2 0.2 0.2 0.2 0.2 0.2 0.2 0.2 0.2 0.2 0.2 0 0 0.5714285714285714 0.4285714285714285 0 0 0.05 0.2 0.65 0.1 0.2 0.2 0.2 0.2 0.2 0.2 0.2 0.2 0.2 0.2 0.2 0.2 0.2 0.2 0.2 0.2 0.2 0.2 0.2 0.2 0.2 0.2 0.2 0.2 0.2 0.2 0.2 0.2 0.2 0.2 0.003246753246753247 0.0413961038961039 0.1469155844155844 0.551948051948052 0.2564935064935065 0.002419842710223836 0.0133091349062311 0.08287961282516637 0.6666666666666667 0.2347247428917121 0 0 0 0.7250000000000001 0.275 0 0 0 0 1 0.2 0.2 0.2 0.2 0.2 0.2 0.2 0.2 0.2 0.2 0.2 0.2 0.2 0.2 0.2 0.2 0.2 0.2 0.2 0.2 0.00130718954248366 0.04444444444444444 0.138562091503268 0.5647058823529412 0.2509803921568627 0.002857142857142857 0.01428571428571429 0.07714285714285714 0.5914285714285714 0.3142857142857143 0 0 0 0.3333333333333333 0.6666666666666666 0.2 0.2 0.2 0.2 0.2 0.2 0.2 0.2 0.2 0.2 0 0 1 0 0 0 0 1 0 0 0.2 0.2 0.2 0.2 0.2 0 0 0.1276595744680851 0.7234042553191489 0.148936170212766 0 0 0.07692307692307693 0.6153846153846154 0.3076923076923077 0.2 0.2 0.2 0.2 0.2 0.2 0.2 0.2 0.2 0.2 0.2 0.2 0.2 0.2 0.2 0.2 0.2 0.2 0.2 0.2 0 0 1 0 0 0.2 0.2 0.2 0.2 0.2 0.2608695652173913 0.1304347826086956 0.08695652173913043 0.4347826086956522 0.08695652173913043 0.5263157894736842 0.4473684210526315 0 0.02631578947368421 0 0 0.06666666666666667 0.06666666666666667 0.6 0.2666666666666667 0.1557377049180328 0.04098360655737705 0.04918032786885246 0.4508196721311475 0.3032786885245902 0.02923976608187134 0 0.1286549707602339 0.5497076023391813 0.2923976608187134 0 0 0.1428571428571428 0.4285714285714285 0.4285714285714285 0.2 0.2 0.2 0.2 0.2 0 0 0 1 0 0.2 0.2 0.2 0.2 0.2 0.2 0.2 0.2 0.2 0.2 0.2 0.2 0.2 0.2 0.2 0.2 0.2 0.2 0.2 0.2 0 0 1 0 0 0.2 0.2 0.2 0.2 0.2 0 0 1 0 0 0.2 0.2 0.2 0.2 0.2 0.2 0.2 0.2 0.2 0.2 0.2 0.2 0.2 0.2 0.2 0.2 0.2 0.2 0.2 0.2 0.2 0.2 0.2 0.2 0.2 0.2 0.2 0.2 0.2 0.2 0.2 0.2 0.2 0.2 0.2 0.2 0.2 0.2 0.2 0.2 0.2 0.2 0.2 0.2 0.2 0.2 0.2 0.2 0.2 0.2 0.2 0.2 0.2 0.2 0.2 0.2 0.2 0.2 0.2 0.2 0.2 0.2 0.2 0.2 0.2 0.2 0.2 0.2 0.2 0.2 0.2 0.2 0.2 0.2 0.2 0.2 0.2 0.2 0.2 0.2 0.2 0.2 0.2 0.2 0.2 0.2 0.2 0.2 0.2 0.2 0.2 0.2 0.2 0.2 0.2 0.2 0.2 0.2 0.2 0.2 0.2 0.2 0.2 0.2 0.2 0.2 0.2 0.2 0.2 0.2 0.2 0.2 0.2 0.2 0.2 0.2 0.2 0.2 0.2 0.2 0.2 0.2 0.2 0.2 0.2 0.04761904761904762 0 0.04761904761904762 0.5714285714285714 0.3333333333333333 0 0 0.125 0.75 0.125 0 0 0.04419889502762431 0.6298342541436464 0.3259668508287293 0 0 0.1021276595744681 0.5553191489361702 0.3425531914893617 0 0 0.08400000000000001 0.536 0.38 0 0 0.1176470588235294 0.4705882352941176 0.4117647058823529 0 0 0 0 1 0 0.25 0 0.75 0 0 0.1 0.1 0.5 0.3 0 0.0851063829787234 0.1276595744680851 0.6382978723404256 0.148936170212766 0 0 0.04615384615384616 0.5846153846153846 0.3692307692307693 0 0 0.08450704225352113 0.5070422535211268 0.4084507042253521 0 0 0.3846153846153846 0.3846153846153846 0.2307692307692308 0 0 0.3333333333333333 0.3333333333333333 0.3333333333333333 0.2 0.2 0.2 0.2 0.2 0.2 0.2 0.2 0.2 0.2 0.2 0.2 0.2 0.2 0.2 0.2 0.2 0.2 0.2 0.2 0.2 0.2 0.2 0.2 0.2 0.2 0.2 0.2 0.2 0.2 0.2 0.2 0.2 0.2 0.2 0.2 0.2 0.2 0.2 0.2 0.2 0.2 0.2 0.2 0.2 0.2 0.2 0.2 0.2 0.2 0.2 0.2 0.2 0.2 0.2 0 0 0 1 0 0.2 0.2 0.2 0.2 0.2 0.2 0.2 0.2 0.2 0.2 0.2 0.2 0.2 0.2 0.2 0.2 0.2 0.2 0.2 0.2 0.2 0.2 0.2 0.2 0.2 0.2 0.2 0.2 0.2 0.2 0.2 0.2 0.2 0.2 0.2 0.2 0.2 0.2 0.2 0.2 0.2 0.2 0.2 0.2 0.2 0.2 0.2 0.2 0.2 0.2 0.2 0.2 0.2 0.2 0.2 0.2 0.2 0.2 0.2 0.2 0.2 0.2 0.2 0.2 0.2 0.2 0.2 0.2 0.2 0.2 0.2 0.2 0.2 0.2 0.2 0.2 0.2 0.2 0.2 0.2 0 0 0.07692307692307693 0.6153846153846154 0.3076923076923077 0 0 0.09302325581395349 0.4883720930232558 0.4186046511627907 0 0 0.1666666666666667 0.5 0.3333333333333333 0.2 0.2 0.2 0.2 0.2 0 0 0 1 0 0.2 0.2 0.2 0.2 0.2 0 0.1650485436893204 0.174757281553398 0.4174757281553398 0.2427184466019417 0.005617977528089887 0.02059925093632959 0.0898876404494382 0.5599250936329588 0.3239700374531835 0 0 0.0391304347826087 0.4782608695652174 0.4826086956521739 0 0 0.0488997555012225 0.4596577017114915 0.4914425427872861 0 0 0.1846153846153846 0.5076923076923077 0.3076923076923077 0 0 0 0.8 0.2 0.2 0.2 0.2 0.2 0.2 0 0 0 0.5 0.5 0 0.1935483870967742 0.03225806451612903 0.4193548387096774 0.3548387096774194 0 0.0136986301369863 0.0821917808219178 0.547945205479452 0.3561643835616438 0 0 0 0.6000000000000001 0.4 0 0 0 1 0 0.2 0.2 0.2 0.2 0.2 0 0 1 0 0 0.2 0.2 0.2 0.2 0.2 0.2 0.2 0.2 0.2 0.2 0 0 0 0 1 0.2 0.2 0.2 0.2 0.2 0.2 0.2 0.2 0.2 0.2 0.2 0.2 0.2 0.2 0.2 0.2 0.2 0.2 0.2 0.2 0.2 0.2 0.2 0.2 0.2 0.2 0.2 0.2 0.2 0.2 0.2 0.2 0.2 0.2 0.2 0.2 0.2 0.2 0.2 0.2 0.2 0.2 0.2 0.2 0.2 0.2 0.2 0.2 0.2 0.2 0.2 0.2 0.2 0.2 0.2 0.2 0.2 0.2 0.2 0.2 0.2 0.2 0.2 0.2 0.2 0.2 0.2 0.2 0.2 0.2 0.2 0.2 0.2 0.2 0.2 0.2 0.2 0.2 0.2 0.2 0.2 0.2 0.2 0.2 0.2 0.2 0.2 0.2 0.2 0.2 0.2 0.2 0.2 0.2 0.2 0.2 0.2 0.2 0.2 0.2 0.2 0.2 0.2 0.2 0.2 0.2 0.2 0.2 0.2 0.2 0.2 0.2 0.2 0.2 0.2 0.03448275862068965 0.05172413793103448 0.1379310344827586 0.5 0.2758620689655172 0.005305039787798408 0.002652519893899204 0.09549071618037135 0.5968169761273209 0.2997347480106101 0 0 0.02272727272727273 0.4848484848484849 0.4924242424242424 0 0 0.02631578947368421 0.5438596491228069 0.4298245614035088 0 0.06666666666666667 0.2 0.5333333333333333 0.2 0 0 1 0 0 0.2 0.2 0.2 0.2 0.2 0.2 0.2 0.2 0.2 0.2 0.007142857142857143 0.05357142857142857 0.1857142857142857 0.5428571428571428 0.2107142857142857 0.001277139208173691 0.01660280970625798 0.08045977011494253 0.5913154533844189 0.3103448275862069 0 0 0.03703703703703703 0.4691358024691358 0.4938271604938271 0 0 0.1111111111111111 0.4444444444444444 0.4444444444444444 0 0 0 1 0 0.2 0.2 0.2 0.2 0.2 0.2 0.2 0.2 0.2 0.2 0.2 0.2 0.2 0.2 0.2 0 0 0.1176470588235294 0.3529411764705882 0.5294117647058824 0 0 0 0.7692307692307693 0.2307692307692308 0 0 0 1 0 0.2 0.2 0.2 0.2 0.2 0.2 0.2 0.2 0.2 0.2 0.2 0.2 0.2 0.2 0.2 0.2 0.2 0.2 0.2 0.2 0.2 0.2 0.2 0.2 0.2 0 0 1 0 0 0.2 0.2 0.2 0.2 0.2 0.2 0.2 0.2 0.2 0.2 0.2 0.2 0.2 0.2 0.2 0.2 0.2 0.2 0.2 0.2 0.2 0.2 0.2 0.2 0.2 0 1 0 0 0 0.2 0.2 0.2 0.2 0.2 0.2 0.2 0.2 0.2 0.2 0.2 0.2 0.2 0.2 0.2 0.2 0.2 0.2 0.2 0.2 0.2 0.2 0.2 0.2 0.2 0.2 0.2 0.2 0.2 0.2 0.2 0.2 0.2 0.2 0.2 0.2 0.2 0.2 0.2 0.2 0.2 0.2 0.2 0.2 0.2 0 0.3333333333333333 0.3333333333333333 0.3333333333333333 0 0 0 0.4285714285714285 0.5714285714285714 0 0.2 0.2 0.2 0.2 0.2 0 0 0 1 0 0.2 0.2 0.2 0.2 0.2 0.2 0.2 0.2 0.2 0.2 0.2 0.2 0.2 0.2 0.2 0.2 0.2 0.2 0.2 0.2 0.00546448087431694 0.0546448087431694 0.1530054644808743 0.5792349726775956 0.2076502732240437 0 0.009029345372460496 0.1196388261851016 0.6884875846501128 0.182844243792325 0 0 0.03846153846153846 0.6538461538461539 0.3076923076923077 0 0 0 1 0 0.2 0.2 0.2 0.2 0.2 0.2 0.2 0.2 0.2 0.2 0.2 0.2 0.2 0.2 0.2 0.2 0.2 0.2 0.2 0.2 0 0.04968944099378882 0.124223602484472 0.5465838509316769 0.2795031055900621 0 0.01123595505617977 0.2022471910112359 0.4157303370786517 0.3707865168539326 0 0 0 1 0 0.2 0.2 0.2 0.2 0.2 0.2 0.2 0.2 0.2 0.2 0.2 0.2 0.2 0.2 0.2 0.2 0.2 0.2 0.2 0.2 0.2 0.2 0.2 0.2 0.2 0 0.07692307692307693 0.3076923076923077 0.5384615384615385 0.07692307692307693 0 0 0 1 0 0.2 0.2 0.2 0.2 0.2 0.2 0.2 0.2 0.2 0.2 0.2 0.2 0.2 0.2 0.2 0.2 0.2 0.2 0.2 0.2 0.2 0.2 0.2 0.2 0.2 0.2 0.2 0.2 0.2 0.2 0.2 0.2 0.2 0.2 0.2 0.2 0.2 0.2 0.2 0.2 0.2 0.2 0.2 0.2 0.2 0.2 0.2 0.2 0.2 0.2 0.2 0.2 0.2 0.2 0.2 0.2 0.2 0.2 0.2 0.2 0.2 0.2 0.2 0.2 0.2 0.2 0.2 0.2 0.2 0.2 0.2 0.2 0.2 0.2 0.2 0.2 0.2 0.2 0.2 0.2 0.2 0.2 0.2 0.2 0.2 0.2 0.2 0.2 0.2 0.2 0.2 0.2 0.2 0.2 0.2 0.2 0.2 0.2 0.2 0.2 0.2 0.2 0.2 0.2 0.2 0.2 0.2 0.2 0.2 0.2 0.2 0.2 0.2 0.2 0.2 0.2 0.2 0.2 0.2 0.2 0.2 0.2 0.2 0.2 0.2 0.2 0.2 0.2 0.2 0.2 0.2 0.2 0.2 0.2 0.2 0.2 0.2 0.2 0.2 0.2 0.2 0.2 0.2 0.2 0.2 0.2 0.2 0.2 0.2 0.2 0.2 0.2 0.2 0.2 0.2 0.2 0.2 0.2 0.2 0.2 0.2 0.2 0.2 0.2 0.2 0.2 0.2 0.2 0.2 0.2 0.2 0.2 0.2 0.2 0.2 0.2 0.2 0.2 0.2 0.2 0.2 0.2 0.2 0.2 0.2 0.2 0.2 0.2 0.2 0.2 0.2 0.2 0.2 0.2 0.2 0.2 0.2 0.2 0.2 0.2 0.2 0.2 0.2 0.2 0.2 0.2 0.2 0.2 0.2 0.2 0.2 0.2 0.2 0.2 0.2 0.2 0.2 0.2 0.2 0.2 0.2 0.2 0.2 0.2 0.2 0.2 0.2 0.2 0.2 0.2 0.2 0.2 0.2 0.2 0.2 0.2 0.2 0.2 0.2 0.2 0.2 0.2 0.2 0.2 0.2 0.2 0.2 0.2 0.2 0.2 0.2 0.2 0.2 0.2 0.2 0.2 0.2 0.2 0.2 0.2 0.2 0.2 0.2 0.2 0.2 0.2 0.2 0.2 0.2 0.2 0.2 0.2 0.2 0.2 0.2 0.2 0.2 0.2 0.2 0.2 0.2 0.2 0.2 0.2 0.2 0.2 0.2 0.2 0.2 0.2 0.2 0.2 0.2 0.2 0.2 0.2 0.2 0.2 0.2 0.2 0.2 0.2 0.2 0.2 0.2 0.2 0.2 0.2 0.2 0.2 0.2 0.2 0.2 0.2 0.2 0.2 0.2 0.2 0.2 0.2 0.2 0.2 0.2 0.2 0.2 0.2 0.2 0.2 0.2 0.2 0.2 0.2 0.2 0.2 0.2 0.2 0.2 0.2 0.2 0.2 0.2 0.2 0.2 0.2 0.2 0.2 0.2 0.2 0.2 0.2 0.2 0.2 0.2 0.2 0.2 0.2 0.2 0.2 0.2 0.2 0.2 0.2 0.2 0.2 0.2 0.2 0.2 0.2 0.2 0.2 0.2 0.2 0.2 0.2 0.2 0.2 0.2 0.2 0.2 0.2 0.2 0.2 0.2 0.2 0.2 0.2 0.2 0.2 0.2 0.2 0.2 0.2 0.2 0.2 0.2 0.2 0.2 0.2 0.2 0.2 0.2 0.2 0.2 0.2 0.2 0.2 0.2 0.2 0.2 0.2 0.2 0.2 0.2 0.2 0.2 0.2 0.2 0.2 0.2 0.2 0.2 0.2 0.2 0.2 0.2 0.2 0.2 0.2 0.2 0.2 0.2 0.2 0.2 0.2 0.2 0.2 0.2 0.2 0.2 0.2 0.2 0.2 0.2 0.2 0.2 0.2 0.2 0.2 0.2 0.2 0.2 0.2 0.2 0.2 0.2 0.2 0.2 0.2 0.2 0.2 0.2 0.2 0.2 0.2 0.2 0.2 0.2 0.2 0.2 0.2 0.2 0.2 0.2 0.2 0.2 0.2 0.2 0.2 0.2 0.2 0.2 0.2 0.2 0.2 0.2 0 0 0 1 0 0.2 0.2 0.2 0.2 0.2 0.2 0.2 0.2 0.2 0.2 0.2 0.2 0.2 0.2 0.2 0.2 0.2 0.2 0.2 0.2 0.2 0.2 0.2 0.2 0.2 0.2 0.2 0.2 0.2 0.2 0.2 0.2 0.2 0.2 0.2 0.2 0.2 0.2 0.2 0.2 0.2 0.2 0.2 0.2 0.2 0.2 0.2 0.2 0.2 0.2 0.2 0.2 0.2 0.2 0.2 0.2 0.2 0.2 0.2 0.2 0.2 0.2 0.2 0.2 0.2 0.2 0.2 0.2 0.2 0.2 0.2 0.2 0.2 0.2 0.2 0.2 0.2 0.2 0.2 0.2 0.2 0.2 0.2 0.2 0.2 0.2 0.2 0.2 0.2 0.2 0.2 0.2 0.2 0.2 0.2 0.2 0.2 0.2 0.2 0.2 0.2 0.2 0.2 0.2 0.2 0.2 0.2 0.2 0.2 0.2 0.2 0.2 0.2 0.2 0.2 0.2 0.2 0.2 0.2 0.2 0.2 0.2 0.2 0.2 0.2 0.2 0.2 0.2 0.2 0.2 0.2 0.2 0.2 0.2 0.2 0.2 0.2 0.2 0.2 0.2 0.2 0.2 0.2 0.2 0.2 0.2 0.2 0.2 0.2 0.2 0.2 0.2 0.2 0.2 0.2 0.2 0.2 0.2 0.2 0.2 0.2 0.2 0.2 0.2 0.2 0.2 0.2 0.2 0.2 0.2 0.2 0.2 0.2 0.2 0.2 0.2 0.2 0.2 0.2 0.2 0.2 0.2 0.2 0.2 0.2 0.2 0.2 0.2 0.2 0.2 0.2 0.2 0.2 0.2 0.2 0.2 0.2 0.2 0.2 0.2 0.2 0.2 0.2 0.2 0.2 0.2 0.2 0.2 0.2 0.2 0.2 0.2 0.2 0.2 0.2 0.2 0.2 0.2 0.2 0.2 0.2 0.2 0.2 0.2 0.2 0 0 0 1 0 0.2 0.2 0.2 0.2 0.2 0.2 0.2 0.2 0.2 0.2 0.2 0.2 0.2 0.2 0.2 0.2 0.2 0.2 0.2 0.2 0.2 0.2 0.2 0.2 0.2 0.2 0.2 0.2 0.2 0.2 0.2 0.2 0.2 0.2 0.2 0.2 0.2 0.2 0.2 0.2 0.2 0.2 0.2 0.2 0.2 0.2 0.2 0.2 0.2 0.2 0.2 0.2 0.2 0.2 0.2 0.2 0.2 0.2 0.2 0.2 0.2 0.2 0.2 0.2 0.2 0.2 0.2 0.2 0.2 0.2 0.2 0.2 0.2 0.2 0.2 0.2 0.2 0.2 0.2 0.2 0.2 0.2 0.2 0.2 0.2 0.2 0.2 0.2 0.2 0.2 0.2 0.2 0.2 0.2 0.2 0.2 0.2 0.2 0.2 0.2 0.2 0.2 0.2 0.2 0.2 0.2 0.2 0.2 0.2 0.2 0.2 0.2 0.2 0.2 0.2 0.2 0.2 0.2 0.2 0.2 0.2 0.2 0.2 0.2 0.2 0.2 0.2 0.2 0.2 0.2 0.2 0.2 0.2 0.2 0.2 0.2 0.2 0.2 0.2 0.2 0.2 0.2 0.2 0.2 0.2 0.2 0.2 0.2 0.2 0.2 0.2 0.2 0.2 0.2 0.2 0.2 0.2 0.2 0.2 0.2 0.2 0.2 0.2 0.2 0.2 0.2 0.2 0.2 0.2 0.2 0.2 0.2 0.2 0.2 0.2 0.2 0.2 0.2 0.2 0.2 0.2 0.2 0.2 0.2 0.2 0.2 0.2 0.2 0.2 0.2 0.2 0.2 0.2 0.2 0.2 0.2 0.2 0.2 0.2 0.2 0.2 0.2 0.2 0.2 0.2 0.2 0.2 0.2 0.2 0.2 0.2 0.2 0.2 0.2 0.2 0.2 0.2 0.2 0.2 0.2 0.2 0.2 0.2 0.2 0.2 0.2 0.2 0.2 0.2 0.2 0.2 0.2 0.2 0.2 0.2 0.2 0.2 0.2 0.2 0.2 0.2 0.2 0.2 0.2 0.2 0.2 0.2 0.2 0.2 0.2 0.2 0.2 0.2 0.2 0.2 0.2 0.2 0.2 0.2 0.2 0.2 0.2 0.2 0.2 0.2 0.2 0.2 0.2 0.2 0.2 0.2 0.2 0.2 0.2 0.2 0.2 0.2 0.2 0.2 0.2 0.2 0.2 0.2 0.2 0.2 0.2 0.2 0.2 0.2 0.2 0.2 0.2 0.2 0.2 0.2 0.2 0.2 0.2 0.2 0.2 0.2 0.2 0.2 0.2 0.2 0.2 0.2 0.2 0.2 0.2 0.2 0.2 0.2 0.2 0.2 0.2 0.2 0.2 0.2 0.2 0.2 0.2 0.2 0.2 0.2 0.2 0.2 0.2 0.2 0.2 0.2 0.2 0.2 0.2 0.2 0 0 1 0 0 0 0 1 0 0 0.2 0.2 0.2 0.2 0.2 0.2 0.2 0.2 0.2 0.2 0.2 0.2 0.2 0.2 0.2 0.2 0.2 0.2 0.2 0.2 0.2 0.2 0.2 0.2 0.2 0.2 0.2 0.2 0.2 0.2 0.2 0.2 0.2 0.2 0.2 0.2 0.2 0.2 0.2 0.2 0.2 0.2 0.2 0.2 0.2 0.2 0.2 0.2 0.2 0.2 0.2 0.2 0.2 0.2 0.2 0.2 0.2 0.2 0.2 0.2 0.2 0.2 0.2 0.2 0.2 0.2 0.2 0.2 0.2 0.2 0.2 0.2 0.2 0.2 0.2 0.2 0.2 0.2 0.2 0.2 0.2 0.2 0.2 0.2 0.2 0.2 0.2 0.2 0.2 0.2 0.2 0.2 0.2 0.2 0.2 0.2 0.2 0.2 0.2 0.2 0.2 0.2 0.2 0.2 0.2 0.2 0.2 0.2 0.2 0.2 0.2 0.2 0.2 0.2 0.2 0.2 0.2 0.2 0.2 0.2 0.2 0.2 0.2 0.2 0.2 0.2 0.2 0.2 0.2 0.2 0.2 0.2 0.2 0.2 0.2 0.2 0.2 0.2 0.2 0.2 0.2 0.2 0.2 0.2 0.2 0.2 0.2 0.2 0.2 0.2 0.2 0.2 0.2 0.2 0.2 0.2 0.2 0.2 0.2 0.2 0.2 0.2 0.2 0.2 0.2 0.2 0.2 0.2 0.2 0.2 0.2 0.2 0.2 0.2 0.2 0.2 0.2 0.2 0.2 0.2 0.2 0.2 0.2 0.2 0.2 0.2 0.2 0.2 0.2 0.2 0.2 0.2 0.2 0.2 0.2 0.2 0.2 0.2 0.2 0.2 0.2 0.2 0.2 0.2 0.2 0.2 0.2 0.2 0.2 0.2 0.2 0.2 0.2 0.2 0.2 0.2 0.2 0.2 0.2 0.2 0.2 0.2 0.2 0.2 0.2 0.2 0.2 0.2 0.2 0.2 0.2 0.2 0.2 0.2 0.2 0.2 0.2 0.2 0.2 0.2 0.2 0.2 0.2 0.2 0.2 0.2 0.2 0.2 0.2 0.2 0.2 0.2 0.2 0.2 0.2 0.2 0.2 0.2 0.2 0.2 0.2 0.2 0.2 0.2 0.2 0.2 0.2 0.2 0.2 0.2 0.2 0.2 0.2 0.2 0.2 0.2 0.2 0.2 0.2 0.2 0.2 0.2 0.2 0.2 0.2 0.2 0.2 0.2 0.2 0.2 0.2 0.2 0.2 0.2 0.2 0.2 0.2 0.2 0.2 0.2 0.2 0.2 0.2 0.2 0.2 0.2 0.2 0.2 0.2 0.2 0.2 0.2 0.2 0.2 0.2 0.2 0.2 0.2 0.2 0.2 0.2 0.2 0.2 0.2 0.2 0.2 0.2 0.2 0.2 0.2 0.2 0.2 0.2 0.2 0.2 0.2 0.2 0.2 0.2 0.2 0.2 0.2 0.2 0.2 0.2 0.2 0.2 0.2 0.2 0.2 0.2 0.2 0.2 0.2 0.2 0.2 0.2 0.2 0.2 0.2 0.2 0.2 0.2 0.2 0.2 0.2 0.2 0.2 0.2 0.2 0.2 0.2 0.2 0.2 0.2 0.2 0.2 0.2 0.2 0.2 0.2 0.2 0.2 0.2 0.2 0.2 0.2 0.2 0.2 0.2 0.2 0.2 0.2 0.2 0.2 0.2 0.2 0.2 0.2 0.2 0.2 0.2 0.2 0.2 0.2 0.2 0.2 0.2 0.2 0.2 0.2 0.2 0.2 0.2 0.2 0.2 0.2 0.2 0.2 0.2 0.2 0.2 0.2 0.2 0.2 0.2 0.2 0.2 0.2 0.2 0.2 0.2 0.2 0.2 0.2 0.2 0.2 0.2 0.2 0.2 0.2 0.2 0.2 0.2 0.2 0.2 0.2 0.2 0.2 0.2 0.2 0.2 0.2 0.2 0.2 0.2 0.2 0.2 0.2 0.2 0.2 0.2 0.2 0.2 0.2 0.2 0.2 0.2 0.2 0.2 0.2 0.2 0.2 0.2 0.2 0.2 0.2 0.2 0.2 0.2 0.2 0.2 0.2 0.2 0.2 0.2 0.2 0.2 0.2 0.2 0.2 0.2 0.2 0.2 0.2 0.2 0.2 0.2 0.2 0.2 0.2 0.2 0.2 0.2 0.2 0.2 0.2 0.2 0.2 0.2 0.2 0.2 0.2 0.2 0.2 0.2 0.2 0.2 0.2 0.2 0.2 0.2 0.2 0.2 0.2 0.2 0.2 0.2 0.2 0.2 0.2 0.2 0.2 0.2 0.2 0.2 0.2 0.2 0.2 0.2 0.2 0.2 0.2 0.2 0.2 0.2 0.2 0.2 0.2 0.2 0.2 0.2 0.2 0.2 0.2 0.2 0.2 0.2 0.2 0.2 0.2 0.2 0.2 0.2 0.2 0.2 0.2 0.2 0.2 0.2 0.2 0.2 0.2 0.2 0.2 0.2 0.2 0.2 0.2 0.2 0.2 0.2 0.2 0.2 0.2 0.2 0.2 0.2 0.2 0.2 0.2 0.2 0.2 0.2 0.2 0.2 0.2 0.2 0.2 0.2 0.2 0.2 0.2 0.2 0.2 0.2 0.2 0.2 0.2 0.2 0.2 0.2 0.2 0.2 0.2 0.2 0.2 0.2 0.2 0.2 0.2 0.2 0.2 0.2 0.2 0.2 0.2 0.2 0.2 0.2 0.2 0.2 0.2 0.2 0.2 0.2 0.2 0.2 0.2 0.2 0.2 0.2 0.2 0.2 0.2 0.2 0.2 0.2 0.2 0.2 0.2 0.2 0.2 0.2 0.2 0.2 0.2 0.2 0.2 0.2 0.2 0.2 0.2 0.2 0.2 0.2 0.2 0.2 0.2 0.2 0.2 0.2 0.2 0.2 0.2 0.2 0.2 0.2 0.2 0.2 0.2 0.2 0.2 0.2 0.2 0.2 0.2 0.2 0.2 0.2 0.2 0.2 0.2 0.2 0.2 0.2 0.2 0.2 0.2 0.2 0.2 0.2 0.2 0.2 0.2 0.2 0.2 0.2 0.2 0.2 0.2 0.2 0.2 0.2 0.2 0.2 0.2 0.2 0.2 0.2 0.2 0.2 0.2 0.2 0.2 0.2 0.2 0.2 0.2 0.2 0.2 0.2 0.2 0.2 0.2 0.2 0.2 0.2 0.2 0.2 0.2 0.2 0.2 0.2 0.2 0.2 0.2 0.2 0.2 0.2 0.2 0.2 0.2 0.2 0.2 0.2 0.2 0.2 0.2 0.2 0.2 0.2 0.2 0.2 0.2 0.2 0.2 0.2 0.2 0.2 0.2 0.2 0.2 0.2 0.2 0.2 0.2 0.2 0.2 0.2 0.2 0.2 0.2 0.2 0.2 0.2 0.2 0.2 0.2 0.2 0.2 0.2 0.2 0.2 0.2 0.2 0.2 0.2 0.2 0.2 0.2 0.2 0.2 0.2 0.2 0.2 0.2 0.2 0.2 0.2 0.2 0.2 0.2 0.2 0.2 0.2 0.2 0.2 0.2 0.2 0.2 0.2 0.2 0.2 0.2 0.2 0.2 0.2 0.2 0.2 0.2 0.2 0.2 0.2 0.2 0.2 0.2 0.2 0.2 0.2 0.2 0.2 0.2 0.2 0.2 0 0 1 0 0 0.2 0.2 0.2 0.2 0.2 0.2 0.2 0.2 0.2 0.2 0.2 0.2 0.2 0.2 0.2 0.2 0.2 0.2 0.2 0.2 0.2 0.2 0.2 0.2 0.2 0.2 0.2 0.2 0.2 0.2 0.2 0.2 0.2 0.2 0.2 0.2 0.2 0.2 0.2 0.2 0.2 0.2 0.2 0.2 0.2 0.2 0.2 0.2 0.2 0.2 0.2 0.2 0.2 0.2 0.2 0.2 0.2 0.2 0.2 0.2 0.2 0.2 0.2 0.2 0.2 0.2 0.2 0.2 0.2 0.2 0.2 0.2 0.2 0.2 0.2 0.2 0.2 0.2 0.2 0.2 0.2 0.2 0.2 0.2 0.2 0.2 0.2 0.2 0.2 0.2 0.2 0.2 0.2 0.2 0.2 0.2 0.2 0.2 0.2 0.2 0.2 0.2 0.2 0.2 0.2 0.2 0.2 0.2 0.2 0.2 0.2 0.2 0.2 0.2 0.2 0.375 0.4 0.1 0.07500000000000001 0.05 0.2 0.2 0.2 0.2 0.2 0.0053475935828877 0 0.1336898395721925 0.427807486631016 0.4331550802139037 0 0 0.1336633663366337 0.405940594059406 0.4603960396039604 0 0 0.1948051948051948 0.3506493506493507 0.4545454545454546 0 0 0.3043478260869565 0.3623188405797101 0.3333333333333333 0.07142857142857142 0 0.6428571428571428 0.1428571428571428 0.1428571428571428 0.5862068965517241 0.1724137931034483 0.103448275862069 0.06896551724137931 0.06896551724137931 0.2 0.2 0.2 0.2 0.2 0.2 0.2 0.2 0.2 0.2 0 0 0.4 0.4 0.2 0 0 0.25 0.5 0.25 0 0 0.1818181818181818 0.2727272727272727 0.5454545454545454 0 0 0 1 0 0 0 1 0 0 0 0 0 1 0 0.2 0.2 0.2 0.2 0.2 0.2 0.2 0.2 0.2 0.2 0.2 0.2 0.2 0.2 0.2 0 0 1 0 0 0 0 0 1 0 0.2 0.2 0.2 0.2 0.2 0 0 1 0 0 0.2 0.2 0.2 0.2 0.2 0.2 0.2 0.2 0.2 0.2 0.2 0.2 0.2 0.2 0.2 0.2 0.2 0.2 0.2 0.2 0.2 0.2 0.2 0.2 0.2 0 0 1 0 0 0 0 0.5 0.5 0 0 0 1 0 0 0.2 0.2 0.2 0.2 0.2 0.2 0.2 0.2 0.2 0.2 0.2 0.2 0.2 0.2 0.2 0.2 0.2 0.2 0.2 0.2 0.2 0.2 0.2 0.2 0.2 0 0 1 0 0 0.2 0.2 0.2 0.2 0.2 0.2 0.2 0.2 0.2 0.2 0.2 0.2 0.2 0.2 0.2 0 0 0.1428571428571428 0.2857142857142857 0.5714285714285714 0 0 1 0 0 0 0 0.1436170212765957 0.2446808510638298 0.6117021276595744 0 0.01030927835051546 0.1855670103092784 0.1752577319587629 0.6288659793814433 0 0 0.2258064516129032 0.3225806451612903 0.4516129032258064 0 0 0.5714285714285714 0.2142857142857143 0.2142857142857143 0 0 0.4 0.6000000000000001 0 0.07142857142857142 0 0.2857142857142857 0.3571428571428571 0.2857142857142857 0 0.1 0.1 0.6000000000000001 0.2 0 0 0.25 0.4375 0.3125 0 0 0.2272727272727273 0.4545454545454546 0.3181818181818182 0 0 0.3793103448275862 0.2758620689655172 0.3448275862068966 0 0 0.2105263157894737 0.3684210526315789 0.4210526315789473 0 0.07142857142857142 0.5714285714285714 0.07142857142857142 0.2857142857142857 0 0 0.6000000000000001 0.1 0.3 0 0 0 0 1 0.2 0.2 0.2 0.2 0.2 0 0 0 1 0 0 0 0 0.5 0.5 0 0 0.3333333333333333 0.3333333333333333 0.3333333333333333 0 0 0.75 0 0.25 0 0 1 0 0 0 0 1 0 0 0.2 0.2 0.2 0.2 0.2 0.2 0.2 0.2 0.2 0.2 0.2 0.2 0.2 0.2 0.2 0.2 0.2 0.2 0.2 0.2 0 0 0.25 0.25 0.5 0 0 0.3333333333333333 0.3333333333333333 0.3333333333333333 0 0 1 0 0 0 0 0 1 0 0.2 0.2 0.2 0.2 0.2 0.2 0.2 0.2 0.2 0.2 0.2 0.2 0.2 0.2 0.2 0.2 0.2 0.2 0.2 0.2 0 0 0 0 1 0 0 0 0 1 0.2 0.2 0.2 0.2 0.2 0.2 0.2 0.2 0.2 0.2 0.2 0.2 0.2 0.2 0.2 0 0 0 0 1 0.2 0.2 0.2 0.2 0.2 0 0 0.3333333333333333 0 0.6666666666666666 0 0 1 0 0 0.2 0.2 0.2 0.2 0.2 0.2 0.2 0.2 0.2 0.2 0.2 0.2 0.2 0.2 0.2 0.2 0.2 0.2 0.2 0.2 0 0.06944444444444445 0.3888888888888888 0.3611111111111111 0.1805555555555556 0 0 0.3134328358208955 0.5223880597014925 0.1641791044776119 0 0 0.2666666666666667 0.2666666666666667 0.4666666666666667 0 0 0.1666666666666667 0.5 0.3333333333333333 0 0 0 1 0 0 0 0.25 0.25 0.5 0.2 0.2 0.2 0.2 0.2 0 0 0.3333333333333333 0.5 0.1666666666666667 0 0.02631578947368421 0.1578947368421053 0.2368421052631579 0.5789473684210527 0 0 0.2777777777777778 0.2777777777777778 0.4444444444444444 0 0 0 1 0 0.2 0.2 0.2 0.2 0.2 0.2 0.2 0.2 0.2 0.2 0 0 0.25 0 0.75 0.2 0.2 0.2 0.2 0.2 0.2 0.2 0.2 0.2 0.2 0 0.2857142857142857 0.2857142857142857 0.2857142857142857 0.1428571428571428 0 0 0 1 0 0 0 0.5 0.5 0 0 0 1 0 0 0.2 0.2 0.2 0.2 0.2 0.2 0.2 0.2 0.2 0.2 0 0 0.5 0 0.5 0.2 0.2 0.2 0.2 0.2 0.2 0.2 0.2 0.2 0.2 0 0 0 1 0 0.2 0.2 0.2 0.2 0.2 0.2 0.2 0.2 0.2 0.2 0 0 0 1 0 0.2 0.2 0.2 0.2 0.2 0.2 0.2 0.2 0.2 0.2 0.2 0.2 0.2 0.2 0.2 0.2 0.2 0.2 0.2 0.2 0.2 0.2 0.2 0.2 0.2 0.2 0.2 0.2 0.2 0.2 0.2 0.2 0.2 0.2 0.2 0.2 0.2 0.2 0.2 0.2 0.2 0.2 0.2 0.2 0.2 0.2 0.2 0.2 0.2 0.2 0.2 0.2 0.2 0.2 0.2 0 0 0.4074074074074074 0.2777777777777778 0.3148148148148148 0 0 0.26 0.38 0.36 0 0 0 1 0 0 0 0 0 1 0.2 0.2 0.2 0.2 0.2 0.2 0.2 0.2 0.2 0.2 0.2 0.2 0.2 0.2 0.2 0.2 0.2 0.2 0.2 0.2 0 0.01470588235294118 0.2279411764705882 0.3125 0.4448529411764706 0 0 0.224 0.296 0.48 0 0 0 1 0 0.2 0.2 0.2 0.2 0.2 0.2 0.2 0.2 0.2 0.2 0.2 0.2 0.2 0.2 0.2 0.2 0.2 0.2 0.2 0.2 0.2 0.2 0.2 0.2 0.2 0 0.025 0.375 0.3 0.3 0 0 0.0625 0.75 0.1875 0.2 0.2 0.2 0.2 0.2 0.2 0.2 0.2 0.2 0.2 0.2 0.2 0.2 0.2 0.2 0.2 0.2 0.2 0.2 0.2 0.2 0.2 0.2 0.2 0.2 0.2 0.2 0.2 0.2 0.2 0 0 0.5 0.1 0.4 0 0 0.5 0 0.5 0.2 0.2 0.2 0.2 0.2 0.2 0.2 0.2 0.2 0.2 0.2 0.2 0.2 0.2 0.2 0.2 0.2 0.2 0.2 0.2 0.2 0.2 0.2 0.2 0.2 0.2 0.2 0.2 0.2 0.2 0.2 0.2 0.2 0.2 0.2 0.2 0.2 0.2 0.2 0.2 0.2 0.2 0.2 0.2 0.2 0.2 0.2 0.2 0.2 0.2 0.2 0.2 0.2 0.2 0.2 0.2 0.2 0.2 0.2 0.2 0.2 0.2 0.2 0.2 0.2 0.2 0.2 0.2 0.2 0.2 0 0 0 0 1 0 0 0.5 0 0.5 0.2 0.2 0.2 0.2 0.2 0.2 0.2 0.2 0.2 0.2 0.2 0.2 0.2 0.2 0.2 0.2 0.2 0.2 0.2 0.2 0.2 0.2 0.2 0.2 0.2 0.2 0.2 0.2 0.2 0.2 0.003424657534246575 0.0136986301369863 0.1575342465753425 0.3047945205479452 0.5205479452054794 0 0 0.1304347826086956 0.318840579710145 0.5507246376811594 0.2 0.2 0.2 0.2 0.2 0.2 0.2 0.2 0.2 0.2 0.2 0.2 0.2 0.2 0.2 0.2 0.2 0.2 0.2 0.2 0.2 0.2 0.2 0.2 0.2 0.2 0.2 0.2 0.2 0.2 0.004950495049504951 0.01485148514851485 0.198019801980198 0.3960396039603961 0.3861386138613861 0 0.02857142857142857 0 0.2857142857142857 0.6857142857142857 0.2 0.2 0.2 0.2 0.2 0.2 0.2 0.2 0.2 0.2 0.2 0.2 0.2 0.2 0.2 0.2 0.2 0.2 0.2 0.2 0.2 0.2 0.2 0.2 0.2 0.2 0.2 0.2 0.2 0.2 0 0.1136363636363636 0.2045454545454546 0.4090909090909091 0.2727272727272727 0 0 0.2857142857142857 0.7142857142857142 0 0.2 0.2 0.2 0.2 0.2 0.2 0.2 0.2 0.2 0.2 0.2 0.2 0.2 0.2 0.2 0.2 0.2 0.2 0.2 0.2 0.2 0.2 0.2 0.2 0.2 0.2 0.2 0.2 0.2 0.2 0.1777777777777778 0.5027777777777778 0.06944444444444445 0.1777777777777778 0.07222222222222223 0.2857142857142857 0.5510204081632653 0.06122448979591837 0.05442176870748299 0.04761904761904762 0.04667609618104668 0.02263083451202263 0.2022630834512023 0.5035360678925036 0.2248939179632249 0.007215874924834637 0.007215874924834637 0.1984365604329525 0.5177390258568851 0.2693926638604931 0.004983388704318937 0.006644518272425249 0.2104097452934662 0.5127353266888151 0.2652270210409745 0.00764525993883792 0.01070336391437309 0.2737003058103976 0.4770642201834863 0.2308868501529052 0.303030303030303 0.101010101010101 0.1212121212121212 0.393939393939394 0.08080808080808081 0.1884057971014493 0.2391304347826087 0.1449275362318841 0.3043478260869565 0.1231884057971015 0 0.02857142857142857 0.2857142857142857 0.4285714285714285 0.2571428571428571 0 0.1428571428571428 0.5714285714285714 0.2857142857142857 0 0 0 0.2 0.4727272727272727 0.3272727272727273 0 0 0.2538071065989848 0.532994923857868 0.2131979695431472 0 0 0.3179487179487179 0.4820512820512821 0.2 0 0 0.3063063063063063 0.5135135135135135 0.1801801801801802 0 0 0.5555555555555556 0.3888888888888888 0.05555555555555555 0.1111111111111111 0 0.6666666666666666 0.2222222222222222 0 0 0.1666666666666667 0.4166666666666666 0.25 0.1666666666666667 0 0 1 0 0 0 0 0.25 0.25 0.5 0 0 0.2941176470588235 0.2941176470588235 0.4117647058823529 0 0 0.1363636363636364 0.5 0.3636363636363636 0 0 0.3333333333333333 0.5 0.1666666666666667 0 0 0.75 0.25 0 0 0 0 1 0 0 0 0 1 0 0 0 0.4285714285714285 0.5714285714285714 0 0 0 0.6666666666666666 0.3333333333333333 0 0 0 0.3125 0.5 0.1875 0 0 0.3571428571428571 0.4642857142857142 0.1785714285714285 0 0 0.75 0.08333333333333333 0.1666666666666667 0 0 0.75 0.25 0 0 0 1 0 0 0 0 1 0 0 0.2 0.2 0.2 0.2 0.2 0 0 0 0 1 0 0 0.2 0.4 0.4 0 0 0.3529411764705882 0.5294117647058824 0.1176470588235294 0 0 0.2 0.6000000000000001 0.2 0.2 0.2 0.2 0.2 0.2 0.2 0.2 0.2 0.2 0.2 0 0.05882352941176471 0.2352941176470588 0.5882352941176471 0.1176470588235294 0 0.09090909090909091 0.5 0.2727272727272727 0.1363636363636364 0 0 0.1378299120234604 0.5205278592375366 0.3416422287390029 0 0 0.151673640167364 0.5638075313807531 0.2845188284518828 0 0.009803921568627451 0.196078431372549 0.5686274509803921 0.2254901960784314 0 0 0.1530612244897959 0.6122448979591836 0.2346938775510204 0 0 0.375 0.5 0.125 0 0 0.3617021276595744 0.5106382978723404 0.1276595744680851 0.005050505050505051 0.1060606060606061 0.2853535353535354 0.4595959595959596 0.143939393939394 0.001262626262626263 0.01767676767676768 0.351010101010101 0.4936868686868687 0.1363636363636364 0 0 0.1431767337807606 0.6185682326621924 0.238255033557047 0 0 0.2152366863905325 0.5036982248520709 0.2810650887573964 0 0.00396039603960396 0.203960396039604 0.5663366336633664 0.2257425742574257 0 0 0.371900826446281 0.4628099173553719 0.1652892561983471 0 0.0625 0.625 0.25 0.0625 0 0.04 0.36 0.44 0.16 0.006134969325153374 0.1042944785276074 0.2085889570552147 0.4907975460122699 0.1901840490797546 0 0.01677852348993289 0.2516778523489933 0.5570469798657718 0.174496644295302 0 0 0.1379310344827586 0.5747126436781609 0.2873563218390804 0 0 0.2568306010928962 0.4918032786885246 0.2513661202185792 0 0 0.3217391304347826 0.4347826086956522 0.2434782608695652 0 0 0.3125 0.46875 0.21875 0 0 0.8571428571428571 0.1428571428571428 0 0 0 1 0 0 0.01030927835051546 0.1134020618556701 0.2474226804123711 0.4329896907216495 0.1958762886597938 0.007575757575757576 0.01515151515151515 0.2878787878787879 0.5378787878787878 0.1515151515151515 0 0 0.2333333333333333 0.5666666666666667 0.2 0 0 0.3478260869565217 0.4565217391304348 0.1956521739130435 0 0 0.5135135135135136 0.3783783783783784 0.1081081081081081 0 0 0.5 0.5 0 0 0 0.4 0.6000000000000001 0 0.2 0.2 0.2 0.2 0.2 0 0.1 0.8 0.05 0.05 0 0 0.4444444444444444 0.4444444444444444 0.1111111111111111 0 0 0.625 0.25 0.125 0 0 0.3611111111111111 0.5277777777777778 0.1111111111111111 0 0 0.3333333333333333 0.3703703703703703 0.2962962962962963 0 0 1 0 0 0 0 1 0 0 0.2 0.2 0.2 0.2 0.2 0.2 0.2 0.2 0.2 0.2 0.2 0.2 0.2 0.2 0.2 0 0 0 1 0 0 0 0 0.6000000000000001 0.4 0.2 0.2 0.2 0.2 0.2 0.2 0.2 0.2 0.2 0.2 0.2 0.2 0.2 0.2 0.2 0 0 1 0 0 0.01417004048582996 0.07692307692307693 0.2631578947368421 0.4230769230769231 0.2226720647773279 0.001619433198380567 0.007287449392712551 0.2502024291497976 0.545748987854251 0.1951417004048583 0 0 0.1168831168831169 0.5298701298701298 0.3532467532467533 0 0 0.1420911528150134 0.4450402144772118 0.4128686327077748 0 0 0.1979166666666667 0.5 0.3020833333333333 0 0.09090909090909091 0.5454545454545454 0.2727272727272727 0.09090909090909091 0 0 0.75 0 0.25 0 0 0.5 0.5 0 0.0008271298593879239 0.05376344086021505 0.1943755169561621 0.5144747725392886 0.2365591397849462 0.001718213058419244 0.01589347079037801 0.1365979381443299 0.5975085910652921 0.2482817869415808 0 0 0.1862348178137652 0.5748987854251012 0.2388663967611336 0 0 0.1626506024096386 0.5602409638554218 0.2771084337349398 0 0 0.1521739130434783 0.6304347826086957 0.2173913043478261 0 0.25 0.75 0 0 0 0 1 0 0 0 0 1 0 0 0.001834862385321101 0.05137614678899083 0.1963302752293578 0.4917431192660551 0.2587155963302752 0 0.01233045622688039 0.1652281134401973 0.6078914919852034 0.2145499383477189 0 0 0.12 0.6666666666666667 0.2133333333333333 0 0 0.2 0.6 0.2 0 0 0.1666666666666667 0.7777777777777777 0.05555555555555555 0 0 1 0 0 0 0 1 0 0 0 0.5 0.5 0 0 0 0.03296703296703297 0.2857142857142858 0.5384615384615385 0.1428571428571429 0 0 0.2767857142857142 0.5267857142857143 0.1964285714285714 0 0 0.2352941176470588 0.5882352941176471 0.1764705882352941 0 0 0.5 0.3 0.2 0 0 0.4375 0.3125 0.25 0 0 0.75 0.25 0 0 0 1 0 0 0.2 0.2 0.2 0.2 0.2 0.2 0.2 0.2 0.2 0.2 0.2 0.2 0.2 0.2 0.2 0.2 0.2 0.2 0.2 0.2 0.2 0.2 0.2 0.2 0.2 0.2 0.2 0.2 0.2 0.2 0.2 0.2 0.2 0.2 0.2 0.2 0.2 0.2 0.2 0.2 0.2 0.2 0.2 0.2 0.2 0 0.0684931506849315 0.3424657534246575 0.410958904109589 0.1780821917808219 0 0 0.3580246913580247 0.4938271604938271 0.1481481481481481 0 0 0.1428571428571428 0.7142857142857142 0.1428571428571428 0 0 0 1 0 0 0 0 0 1 0.2 0.2 0.2 0.2 0.2 0.2 0.2 0.2 0.2 0.2 0.2 0.2 0.2 0.2 0.2 0.003993610223642172 0.03594249201277955 0.2547923322683706 0.4944089456869009 0.2108626198083067 0.000757002271006813 0.004542013626040878 0.1309613928841787 0.5738077214231643 0.2899318697956094 0 0 0.09999999999999999 0.4428571428571428 0.4571428571428571 0 0 0 0.7619047619047619 0.2380952380952381 0 0 0 1 0 0.2 0.2 0.2 0.2 0.2 0.2 0.2 0.2 0.2 0.2 0.2 0.2 0.2 0.2 0.2 0.003162055335968379 0.0466403162055336 0.241897233201581 0.4901185770750988 0.2181818181818182 0 0.01104417670682731 0.1144578313253012 0.5341365461847389 0.3403614457831325 0 0 0.08823529411764705 0.5441176470588235 0.3676470588235294 0 0 0.4285714285714285 0.2857142857142857 0.2857142857142857 0.2 0.2 0.2 0.2 0.2 0.2 0.2 0.2 0.2 0.2 0.2 0.2 0.2 0.2 0.2 0.2 0.2 0.2 0.2 0.2 0.002267573696145125 0.04761904761904762 0.2267573696145125 0.5124716553287982 0.2108843537414966 0 0 0.1311475409836066 0.5573770491803279 0.3114754098360656 0 0 0.1428571428571428 0.6428571428571428 0.2142857142857143 0 0 0 0 1 0 0 1 0 0 0.2 0.2 0.2 0.2 0.2 0 0 1 0 0 0.2 0.2 0.2 0.2 0.2 0.2 0.2 0.2 0.2 0.2 0.2 0.2 0.2 0.2 0.2 0.2 0.2 0.2 0.2 0.2 0.2 0.2 0.2 0.2 0.2 0.2 0.2 0.2 0.2 0.2 0.2 0.2 0.2 0.2 0.2 0.2 0.2 0.2 0.2 0.2 0.2 0.2 0.2 0.2 0.2 0.2 0.2 0.2 0.2 0.2 0.2 0.2 0.2 0.2 0.2 0.2 0.2 0.2 0.2 0.2 0.2 0.2 0.2 0.2 0.2 0.2 0.2 0.2 0.2 0.2 0.2 0.2 0.2 0.2 0.2 0.2 0.2 0.2 0.2 0.2 0.2 0.2 0.2 0.2 0.2 0 0.02325581395348837 0.310077519379845 0.4728682170542636 0.1937984496124031 0 0 0.2093023255813953 0.6279069767441861 0.1627906976744186 0 0 0 0.3333333333333333 0.6666666666666666 0.2 0.2 0.2 0.2 0.2 0.2 0.2 0.2 0.2 0.2 0.2 0.2 0.2 0.2 0.2 0.2 0.2 0.2 0.2 0.2 0.2 0.2 0.2 0.2 0.2 0.004132231404958678 0.03099173553719008 0.1818181818181818 0.4979338842975207 0.2851239669421488 0 0.01273885350318471 0.1464968152866242 0.535031847133758 0.3057324840764332 0 0 0 0.3333333333333333 0.6666666666666666 0.2 0.2 0.2 0.2 0.2 0.2 0.2 0.2 0.2 0.2 0.2 0.2 0.2 0.2 0.2 0.2 0.2 0.2 0.2 0.2 0.2 0.2 0.2 0.2 0.2 0.003929273084479371 0.03929273084479371 0.2396856581532416 0.5225933202357563 0.1944990176817289 0 0 0.1791044776119403 0.5447761194029851 0.2761194029850746 0 0 0 0.5 0.5 0.2 0.2 0.2 0.2 0.2 0.2 0.2 0.2 0.2 0.2 0.2 0.2 0.2 0.2 0.2 0.2 0.2 0.2 0.2 0.2 0.2 0.2 0.2 0.2 0.2 0.1333333333333333 0.2833333333333333 0.03333333333333333 0.3666666666666666 0.1833333333333333 0.1967213114754098 0.7213114754098361 0.03278688524590164 0.04918032786885246 0 0.0945945945945946 0.0945945945945946 0.1756756756756757 0.4459459459459459 0.1891891891891892 0.04034582132564841 0.04034582132564841 0.1671469740634006 0.5590778097982708 0.1930835734870317 0.02646502835538752 0.01323251417769376 0.2079395085066163 0.5085066162570888 0.2438563327032136 0.02312138728323699 0.02890173410404624 0.2427745664739884 0.5317919075144508 0.1734104046242775 0.24 0 0.28 0.44 0.04 0.2142857142857143 0.25 0.1071428571428571 0.3214285714285714 0.1071428571428571 0 0 0 0.1428571428571428 0.8571428571428571 0 0 0.625 0.25 0.125 0 0 0.2 0.6000000000000001 0.2 0 0 0.2941176470588235 0.4117647058823529 0.2941176470588235 0 0 0.2631578947368421 0.5789473684210527 0.1578947368421053 0 0 0.5 0.375 0.125 0 0 1 0 0 0 0 0 0.6666666666666666 0.3333333333333333 0.2 0.2 0.2 0.2 0.2 0 0 0.5 0.5 0 0.2 0.2 0.2 0.2 0.2 0 0 1 0 0 0 0 0 1 0 0 0 0 1 0 0.2 0.2 0.2 0.2 0.2 0.2 0.2 0.2 0.2 0.2 0 0 1 0 0 0 0 0 1 0 0 0 1 0 0 0 0 0.25 0.75 0 0 0 0.4 0.4 0.2 0 0 0.75 0.25 0 0.2 0.2 0.2 0.2 0.2 0.2 0.2 0.2 0.2 0.2 0.2 0.2 0.2 0.2 0.2 0.2 0.2 0.2 0.2 0.2 0.2 0.2 0.2 0.2 0.2 0.2 0.2 0.2 0.2 0.2 0 0 0 1 0 0 0 0 1 0 0.2 0.2 0.2 0.2 0.2 0.2 0.2 0.2 0.2 0.2 0.1666666666666667 0 0.1666666666666667 0.5 0.1666666666666667 0 0 0.25 0.6785714285714285 0.07142857142857142 0 0 0.07586206896551724 0.6 0.3241379310344827 0 0 0.168724279835391 0.5144032921810699 0.3168724279835391 0 0 0.2114695340501792 0.5089605734767025 0.2795698924731183 0 0 0.2678571428571428 0.4642857142857142 0.2678571428571428 0 0 0.4444444444444444 0.3333333333333333 0.2222222222222222 0 0 0.3333333333333333 0.6666666666666666 0 0.006896551724137931 0.1793103448275862 0.1793103448275862 0.4689655172413793 0.1655172413793103 0.0025 0.025 0.235 0.535 0.2025 0 0.004310344827586207 0.1379310344827586 0.603448275862069 0.2543103448275862 0 0 0.1878453038674033 0.4732965009208103 0.3388581952117864 0 0 0.2941176470588235 0.4705882352941176 0.2352941176470588 0 0 0.5172413793103449 0.3103448275862069 0.1724137931034483 0 0 0.8888888888888888 0.1111111111111111 0 0 0 0.1428571428571428 0.7142857142857142 0.1428571428571428 0 0.1311475409836066 0.1967213114754098 0.459016393442623 0.2131147540983607 0 0.05263157894736842 0.2105263157894737 0.5526315789473684 0.1842105263157895 0 0 0.09090909090909091 0.3636363636363636 0.5454545454545454 0 0 0.2173913043478261 0.4347826086956522 0.3478260869565217 0 0 0.3333333333333333 0.4 0.2666666666666667 0 0 1 0 0 0 0 0.8571428571428571 0 0.1428571428571428 0.2 0.2 0.2 0.2 0.2 0 0 0.4583333333333333 0.4583333333333333 0.08333333333333333 0 0 0.4137931034482759 0.3793103448275862 0.2068965517241379 0 0 0.5 0.25 0.25 0 0 0 0.5 0.5 0 0 0.5 0.25 0.25 0 0 1 0 0 0 0 1 0 0 0.2 0.2 0.2 0.2 0.2 0 0 0.75 0.25 0 0 0 0.6666666666666666 0.3333333333333333 0 0 0 1 0 0 0 0 0.6666666666666666 0 0.3333333333333333 0 0 0.4444444444444444 0.4444444444444444 0.1111111111111111 0 0 1 0 0 0.2 0.2 0.2 0.2 0.2 0.2 0.2 0.2 0.2 0.2 0.2 0.2 0.2 0.2 0.2 0.2 0.2 0.2 0.2 0.2 0.2 0.2 0.2 0.2 0.2 0 0 0.1666666666666667 0.6666666666666666 0.1666666666666667 0 0 0 1 0 0 0 0 1 0 0.2 0.2 0.2 0.2 0.2 0.2 0.2 0.2 0.2 0.2 0 0.0783132530120482 0.2289156626506024 0.4879518072289157 0.2048192771084338 0.005706134094151213 0.01283880171184023 0.174037089871612 0.5791726105563481 0.2282453637660485 0 0 0.1016949152542373 0.4983050847457627 0.4 0 0 0.1421800947867299 0.4739336492890995 0.3838862559241706 0 0 0.1891891891891892 0.6081081081081081 0.2027027027027027 0 0.1818181818181818 0.2727272727272727 0.1818181818181818 0.3636363636363636 0.2 0.2 0.2 0.2 0.2 0 0 1 0 0 0.002958579881656805 0.05917159763313609 0.1479289940828402 0.5295857988165681 0.2603550295857988 0 0.01046511627906977 0.1453488372093023 0.5383720930232558 0.3058139534883721 0 0.0108695652173913 0.07608695652173914 0.4673913043478261 0.4456521739130435 0 0 0.1818181818181818 0.4363636363636363 0.3818181818181818 0 0 0.08333333333333333 0.5833333333333333 0.3333333333333333 0 0 1 0 0 0 0 1 0 0 0.2 0.2 0.2 0.2 0.2 0 0.07339449541284404 0.2385321100917431 0.3944954128440367 0.2935779816513762 0 0.02127659574468085 0.2234042553191489 0.5691489361702128 0.1861702127659574 0 0 0 0.5555555555555556 0.4444444444444444 0 0 0.2 0.5 0.3 0 0 0.2 0.8 0 0 0 1 0 0 0 0 1 0 0 0.2 0.2 0.2 0.2 0.2 0 0.16 0.28 0.44 0.12 0 0.04166666666666666 0.1666666666666667 0.4166666666666666 0.375 0 0 0.6666666666666666 0.3333333333333333 0 0 0 0 1 0 0 0 0 0.6666666666666666 0.3333333333333333 0.2 0.2 0.2 0.2 0.2 0.2 0.2 0.2 0.2 0.2 0.2 0.2 0.2 0.2 0.2 0.2 0.2 0.2 0.2 0.2 0.2 0.2 0.2 0.2 0.2 0.2 0.2 0.2 0.2 0.2 0.2 0.2 0.2 0.2 0.2 0.2 0.2 0.2 0.2 0.2 0.2 0.2 0.2 0.2 0.2 0.2 0.2 0.2 0.2 0.2 0.2 0.2 0.2 0.2 0.2 0 0.08333333333333333 0.25 0.6666666666666666 0 0 0 0.2150537634408602 0.5698924731182796 0.2150537634408602 0 0 0.2727272727272727 0.4545454545454546 0.2727272727272727 0 0 0.03571428571428571 0.5 0.4642857142857142 0 0 0.25 0.5 0.25 0 1 0 0 0 0.2 0.2 0.2 0.2 0.2 0.2 0.2 0.2 0.2 0.2 0 0.0498220640569395 0.2455516014234875 0.5302491103202847 0.1743772241992882 0.003333333333333334 0.015 0.1266666666666667 0.52 0.335 0 0 0.06172839506172839 0.5802469135802468 0.3580246913580247 0 0 0 0.5454545454545454 0.4545454545454546 0 0 0.1666666666666667 0.6666666666666666 0.1666666666666667 0.2 0.2 0.2 0.2 0.2 0 0.5 0.5 0 0 0.2 0.2 0.2 0.2 0.2 0 0.05668016194331984 0.2186234817813765 0.5384615384615384 0.1862348178137652 0.004166666666666667 0.0125 0.1208333333333333 0.5375 0.325 0 0 0.2173913043478261 0.4782608695652174 0.3043478260869565 0 0 0 1 0 0.2 0.2 0.2 0.2 0.2 0 0 1 0 0 0 0 1 0 0 0.2 0.2 0.2 0.2 0.2 0 0.03896103896103896 0.2987012987012987 0.5064935064935066 0.1558441558441558 0 0 0.119047619047619 0.5238095238095237 0.3571428571428571 0 0 0.2307692307692308 0.4615384615384616 0.3076923076923077 0.2 0.2 0.2 0.2 0.2 0.2 0.2 0.2 0.2 0.2 0 0 1 0 0 0 1 0 0 0 0.2 0.2 0.2 0.2 0.2 0.2 0.2 0.2 0.2 0.2 0.2 0.2 0.2 0.2 0.2 0.2 0.2 0.2 0.2 0.2 0.2 0.2 0.2 0.2 0.2 0.2 0.2 0.2 0.2 0.2 0.2 0.2 0.2 0.2 0.2 0.2 0.2 0.2 0.2 0.2 0.2 0.2 0.2 0.2 0.2 0.2 0.2 0.2 0.2 0.2 0.2 0.2 0.2 0.2 0.2 0.2 0.2 0.2 0.2 0.2 0.2 0.2 0.2 0.2 0.2 0.2 0.2 0.2 0.2 0.2 0.2 0.2 0.2 0.2 0.2 0.2 0.2 0.2 0.2 0.2 0.2 0.2 0.2 0.2 0.2 0 0.09375 0.21875 0.53125 0.15625 0 0 0.2727272727272727 0.4545454545454546 0.2727272727272727 0 0 0 0.6666666666666666 0.3333333333333333 0 0 0 1 0 0.2 0.2 0.2 0.2 0.2 0.2 0.2 0.2 0.2 0.2 0.2 0.2 0.2 0.2 0.2 0.2 0.2 0.2 0.2 0.2 0 0.04819277108433735 0.2289156626506024 0.5421686746987953 0.1807228915662651 0 0 0.09615384615384616 0.6346153846153847 0.2692307692307693 0.2 0.2 0.2 0.2 0.2 0.2 0.2 0.2 0.2 0.2 0.2 0.2 0.2 0.2 0.2 0.2 0.2 0.2 0.2 0.2 0.2 0.2 0.2 0.2 0.2 0.2 0.2 0.2 0.2 0.2 0 0.03703703703703703 0.308641975308642 0.5185185185185185 0.1358024691358025 0 0 0.2857142857142857 0.7142857142857142 0 0.2 0.2 0.2 0.2 0.2 0.2 0.2 0.2 0.2 0.2 0.2 0.2 0.2 0.2 0.2 0.2 0.2 0.2 0.2 0.2 0 0 1 0 0 0.2 0.2 0.2 0.2 0.2 0.2 0.2 0.2 0.2 0.2 0.2 0.2 0.2 0.2 0.2 0.2 0.2 0.2 0.2 0.2 0.2 0.2 0.2 0.2 0.2 0.2 0.2 0.2 0.2 0.2 0.2 0.2 0.2 0.2 0.2 0.2 0.2 0.2 0.2 0.2 0.2 0.2 0.2 0.2 0.2 0.2 0.2 0.2 0.2 0.2 0.2 0.2 0.2 0.2 0.2 0.2 0.2 0.2 0.2 0.2 0.2 0.2 0.2 0.2 0.2 0.2 0.2 0.2 0.2 0.2 0.2 0.2 0.2 0.2 0.2 0.2 0.2 0.2 0.2 0.2 0.2 0.2 0.2 0.2 0.2 0.2 0.2 0.2 0.2 0.2 0.2 0.2 0.2 0.2 0.2 0.2 0.2 0.2 0.2 0.2 0.2 0.2 0.2 0.2 0.2 0.2 0.2 0.2 0.2 0.2 0.2 0.2 0.2 0.2 0.2 0.2 0.2 0.2 0.2 0.2 0.2 0.2 0.2 0.2 0.2 0.2 0.2 0.2 0.2 0.2 0.2 0.2 0.2 0.2 0.2 0.2 0.2 0.2 0.2 0.2 0.2 0.2 0.2 0.2 0.2 0.2 0.2 0.2 0.2 0.2 0.2 0.2 0.2 0.2 0.2 0.2 0.2 0.2 0.2 0.2 0.2 0.2 0.2 0.2 0.2 0.2 0.2 0.2 0.2 0.2 0.2 0.2 0.2 0.2 0.2 0.2 0.2 0.2 0.2 0.2 0.2 0.2 0.2 0.2 0.2 0.2 0.2 0.2 0.2 0.2 0.2 0.2 0.2 0.2 0.2 0.2 0.2 0.2 0.2 0.2 0.2 0.2 0.2 0.2 0.2 0.2 0.2 0.2 0.2 0.2 0.2 0.2 0.2 0.2 0.2 0.2 0.2 0.2 0.2 0.2 0 0 1 0 0 0 0 0 0.6666666666666666 0.3333333333333333 0 0 0 1 0 0.2 0.2 0.2 0.2 0.2 0.2 0.2 0.2 0.2 0.2 0.2 0.2 0.2 0.2 0.2 0.2 0.2 0.2 0.2 0.2 0.2 0.2 0.2 0.2 0.2 0.2 0.2 0.2 0.2 0.2 0 0 1 0 0 0.2 0.2 0.2 0.2 0.2 0.2 0.2 0.2 0.2 0.2 0.2 0.2 0.2 0.2 0.2 0.2 0.2 0.2 0.2 0.2 0.2 0.2 0.2 0.2 0.2 0.2 0.2 0.2 0.2 0.2 0.2 0.2 0.2 0.2 0.2 0.2 0.2 0.2 0.2 0.2 0.2 0.2 0.2 0.2 0.2 0.2 0.2 0.2 0.2 0.2 0.2 0.2 0.2 0.2 0.2 0.2 0.2 0.2 0.2 0.2 0.2 0.2 0.2 0.2 0.2 0.2 0.2 0.2 0.2 0.2 0.2 0.2 0.2 0.2 0.2 0.2 0.2 0.2 0.2 0.2 0.2 0.2 0.2 0.2 0.2 0.2 0.2 0.2 0.2 0.2 0.2 0.2 0.2 0.2 0.2 0.2 0.2 0.2 0.2 0.2 0.2 0.2 0.2 0.2 0.2 0.2 0.2 0.2 0.2 0.2 0.2 0.2 0.2 0.2 0.2 0.2 0.2 0.2 0.2 0.2 0.2 0.2 0.2 0.2 0.2 0.2 0.2 0.2 0.2 0.2 0.2 0.2 0.2 0.2 0.2 0.2 0.2 0.2 0.2 0.2 0.2 0.2 0.2 0.2 0.2 0.2 0.2 0.2 0.2 0.2 0.2 0.2 0.2 0.2 0.2 0 0 0 0 1 0.2 0.2 0.2 0.2 0.2 0.2 0.2 0.2 0.2 0.2 0.2 0.2 0.2 0.2 0.2 0.2 0.2 0.2 0.2 0.2 0 0.125 0.625 0.125 0.125 0 0 0 0 1 0 0 0.2 0.6000000000000001 0.2 0 0 0.5 0 0.5 0.2 0.2 0.2 0.2 0.2 0.2 0.2 0.2 0.2 0.2 0.2 0.2 0.2 0.2 0.2 0.2 0.2 0.2 0.2 0.2 0.2 0.2 0.2 0.2 0.2 0.2 0.2 0.2 0.2 0.2 0.2 0.2 0.2 0.2 0.2 0.2 0.2 0.2 0.2 0.2 0.2 0.2 0.2 0.2 0.2 0.2 0.2 0.2 0.2 0.2 0.2 0.2 0.2 0.2 0.2 0.2 0.2 0.2 0.2 0.2 0.2 0.2 0.2 0.2 0.2 0.2 0.2 0.2 0.2 0.2 0.2 0.2 0.2 0.2 0.2 0.2 0.2 0.2 0.2 0.2 0.2 0.2 0.2 0.2 0.2 0.2 0.2 0.2 0.2 0.2 0.2 0.2 0.2 0.2 0.2 0.2 0.2 0.2 0.2 0.2 0.2 0.2 0.2 0.2 0.2 0.2 0.2 0.2 0.2 0.2 0.2 0.2 0.2 0.2 0.2 0.2 0.2 0.2 0.2 0.2 0.2 0.2 0.2 0.2 0.2 0.2 0.2 0.2 0.2 0.2 0.2 0.2 0.2 0.2 0.2 0.2 0.2 0.2 0.2 0.2 0.2 0.2 0.2 0.2 0.2 0.2 0.2 0.2 0.2 0.2 0.2 0.2 0.2 0.2 0.2 0.2 0.2 0.2 0.2 0.2 0.2 0.2 0.2 0.2 0.2 0.2 0.2 0.2 0.2 0.2 0.2 0.2 0.2 0.2 0.2 0.2 0.2 0.2 0.2 0.2 0 0 0.25 0 0.75 0 0 0 1 0 0 0 0 0.5 0.5 0 0 0 1 0 0.2 0.2 0.2 0.2 0.2 0.2 0.2 0.2 0.2 0.2 0.2 0.2 0.2 0.2 0.2 0 0 0 0 1 0.2 0.2 0.2 0.2 0.2 0.2 0.2 0.2 0.2 0.2 0.2 0.2 0.2 0.2 0.2 0.2 0.2 0.2 0.2 0.2 0.2 0.2 0.2 0.2 0.2 0.2 0.2 0.2 0.2 0.2 0.2 0.2 0.2 0.2 0.2 0.2 0.2 0.2 0.2 0.2 0.2 0.2 0.2 0.2 0.2 0.2 0.2 0.2 0.2 0.2 0.2 0.2 0.2 0.2 0.2 0.2 0.2 0.2 0.2 0.2 0.2 0.2 0.2 0.2 0.2 0.2 0.2 0.2 0.2 0.2 0.2 0.2 0.2 0.2 0.2 0.2 0.2 0.2 0.2 0.2 0.2 0.2 0.2 0.2 0.2 0.2 0.2 0.2 0.2 0.2 0.2 0.2 0.2 0.2 0.2 0.2 0.2 0.2 0.2 0.2 0.2 0.2 0.2 0.2 0.2 0.2 0.2 0.2 0.2 0.2 0.2 0.2 0.2 0.2 0.2 0.2 0.2 0.2 0.2 0.2 0.2 0.2 0.2 0.2 0.2 0.2 0.2 0.2 0.2 0.2 0.2 0.2 0.2 0.2 0.2 0.2 0.2 0.2 0.2 0.2 0.2 0.2 0.2 0.2 0.2 0.2 0.2 0.2 0.2 0.2 0.2 0.2 0.2 0.2 0.2 0.2 0.2 0.2 0.2 0.2 0.2 0.2 0.2 0.2 0.2 0.2 0.2 0.2 0.2 0.2 0.2 0.2 0.2 0.2 0.2 0.2 0.2 0.2 0.2 0.2 0.2 0.2 0.2 0.2 0.2 0.2 0.2 0.2 0.2 0.2 0.2 0.2 0.2 0.2 0.2 0.2 0.2 0.2 0.2 0.2 0 0 0 0.6666666666666666 0.3333333333333333 0.2 0.2 0.2 0.2 0.2 0.2 0.2 0.2 0.2 0.2 0.2 0.2 0.2 0.2 0.2 0.2 0.2 0.2 0.2 0.2 0.2 0.2 0.2 0.2 0.2 0.2 0.2 0.2 0.2 0.2 0.2 0.2 0.2 0.2 0.2 0.2 0.2 0.2 0.2 0.2 0.2 0.2 0.2 0.2 0.2 0.2 0.2 0.2 0.2 0.2 0.2 0.2 0.2 0.2 0.2 0.2 0.2 0.2 0.2 0.2 0.2 0.2 0.2 0.2 0.2 0.2 0.2 0.2 0.2 0.2 0.2 0.2 0.2 0.2 0.2 0.2 0.2 0.2 0.2 0.2 0.2 0.2 0.2 0.2 0.2 0.2 0.2 0.2 0.2 0.2 0.2 0.2 0.2 0.2 0.2 0.2 0.2 0.2 0.2 0.2 0.2 0.2 0.2 0.2 0.2 0.2 0.2 0.2 0.2 0.2 0.2 0.2 0.2 0.2 0.2 0.2 0.2 0.2 0.2 0.2 0 0 1 0 0 0.2 0.2 0.2 0.2 0.2 0 0 1 0 0 0.2 0.2 0.2 0.2 0.2 0.2 0.2 0.2 0.2 0.2 0.2 0.2 0.2 0.2 0.2 0.2 0.2 0.2 0.2 0.2 0.2 0.2 0.2 0.2 0.2 0.2 0.2 0.2 0.2 0.2 0.2 0.2 0.2 0.2 0.2 0.2 0.2 0.2 0.2 0.2 0.2 0.2 0.2 0.2 0.2 0.2 0.2 0.2 0.2 0.2 0.2 0.2 0.2 0.2 0.2 0.2 0.2 0.2 0.2 0.2 0.2 0.2 0.2 0.2 0.2 0.2 0.2 0.2 0.2 0.2 0.2 0.2 0.2 0.2 0.2 0.2 0.2 0.2 0.2 0.2 0.2 0.2 0.2 0.2 0.2 0.2 0.2 0.2 0.2 0.2 0.2 0.2 0.2 0.2 0.2 0.2 0.2 0.2 0.2 0.2 0.2 0.2 0.2 0.2 0.2 0.2 0.2 0.2 0.2 0.2 0.2 0.2 0.2 0.2 0.2 0.2 0.2 0.2 0.2 0.2 0.2 0.2 0.2 0.2 0.2 0.2 0.2 0.2 0.2 0.2 0.2 0.2 0.2 0.2 0.2 0.2 0.2 0.2 0.2 0.2 0.2 0.2 0.2 0.2 0.2 0.2 0.2 0.2 0.2 0.2 0.2 0.2 0.2 0.2 0.2 0.2 0.2 0.2 0.2 0.2 0.2 0.2 0.2 0.2 0.2 0.2 0.2 0.2 0.2 0.2 0.2 0.2 0.2 0.2 0.2 0.2 0.2 0.2 0.2 0.2 0.2 0.2 0.2 0.2 0.2 0 0 1 0 0 0 0 1 0 0 0.2 0.2 0.2 0.2 0.2 0 0 1 0 0 0 0 1 0 0 0.2 0.2 0.2 0.2 0.2 0.2 0.2 0.2 0.2 0.2 0.2 0.2 0.2 0.2 0.2 0.2 0.2 0.2 0.2 0.2 0.2 0.2 0.2 0.2 0.2 0.2 0.2 0.2 0.2 0.2 0.2 0.2 0.2 0.2 0.2 0.2 0.2 0.2 0.2 0.2 0.2 0.2 0.2 0.2 0.2 0.2 0.2 0.2 0.2 0.2 0.2 0.2 0.2 0.2 0.2 0.2 0.2 0.2 0.2 0.2 0.2 0.2 0.2 0.2 0.2 0.2 0.2 0.2 0.2 0.2 0.2 0.2 0.2 0.2 0.2 0.2 0.2 0.2 0.2 0.2 0.2 0.2 0.2 0.2 0.2 0.2 0.2 0.2 0.2 0.2 0.2 0.2 0.2 0.2 0.2 0.2 0.2 0.2 0.2 0.2 0.2 0.2 0.2 0.2 0.2 0.2 0.2 0.2 0.2 0.2 0.2 0.2 0.2 0.2 0.2 0.2 0.2 0.2 0.2 0.2 0.2 0.2 0.2 0.2 0.2 0.2 0.2 0.2 0.2 0.2 0.2 0.2 0.2 0.2 0.2 0.2 0.2 0.2 0.2 0.2 0.2 0.2 0.2 0.2 0.2 0.2 0.2 0.2 0.2 0.2 0.2 0.2 0.2 0.2 0.2 0.2 0.2 0.2 0.2 0.2 0.2 0.2 0.2 0.2 0.2 0.2 0.2 0.2 0.2 0.2 0.2 0.2 0.2 0.2 0.2 0.2 0.2 0.2 0.2 0.2 0.2 0.2 0.2 0.2 0.2 0.2 0.2 0.2 0.2 0.2 0.2 0.2 0.2 0.2 0.2 0.2 0.2 0.2 0.2 0.2 0.2 0.2 0.2 0.2 0.2 0 0 1 0 0 0.2 0.2 0.2 0.2 0.2 0.2 0.2 0.2 0.2 0.2 0.2 0.2 0.2 0.2 0.2 0.2 0.2 0.2 0.2 0.2 0.2 0.2 0.2 0.2 0.2 0.2 0.2 0.2 0.2 0.2 0.2 0.2 0.2 0.2 0.2 0.2 0.2 0.2 0.2 0.2 0.2 0.2 0.2 0.2 0.2 0.2 0.2 0.2 0.2 0.2 0.2 0.2 0.2 0.2 0.2 0.2 0.2 0.2 0.2 0.2 0.2 0.2 0.2 0.2 0.2 0.2 0.2 0.2 0.2 0.2 0.2 0.2 0.2 0.2 0.2 0.2 0.2 0.2 0.2 0.2 0.2 0.2 0.2 0.2 0.2 0.2 0.2 0.2 0.2 0.2 0.2 0.2 0.2 0.2 0.2 0.2 0.2 0.2 0.2 0.2 0.2 0.2 0.2 0.2 0.2 0.2 0.2 0.2 0.2 0.2 0.2 0.2 0.2 0.2 0.2 0.2 0.2 0.2 0.2 0.2 0.2 0.2 0.2 0.2 0.2 0.2 0.2 0.2 0.2 0.2 0.2 0.2 0.2 0.2 0.2 0.2 0.2 0.2 0.2 0.2 0.2 0.2 0.2 0.2 0.2 0.2 0.2 0.2 0.2 0.2 0.2 0.2 0.2 0.2 0.2 0.2 0.2 0.2 0.2 0.2 0.2 0.2 0.2 0.2 0.2 0.2 0.2 0.2 0.2 0.2 0.2 0.2 0.2 0.2 0.2 0.2 0.2 0.2 0.2 0.2 0.2 0.2 0.2 0.2 0.2 0.2 0.2 0.2 0.2 0.2 0.2 0.2 0.2 0.2 0.2 0.2 0.2 0.2 0.2 0.2 0.2 0.2 0.2 0.2 0.2 0.2 0.2 0.2 0.2 0.2 0.2 0.2 0.2 0.2 0.2 0.2 0.2 0.2 0.2 0.2 0.2 0.2 0.2 0.2 0.2 0.2 0.2 0.2 0.2 0.2 0.2 0.2 0.2 0.2 0.2 0.2 0.2 0.2 0.2 0.2 0.2 0.2 0.2 0.2 0.2 0.2 0.2 0.2 0.2 0.2 0.2 0.2 0.2 0.2 0.2 0.2 0.2 0.2 0.2 0.2 0.2 0.2 0.2 0.2 0.2 0.2 0.2 0.2 0.2 0.2 0.2 0.2 0.2 0.2 0.2 0.2 0.2 0.2 0.2 0.2 0.2 0.2 0.2 0.2 0.2 0.2 0.2 0.2 0.2 0.2 0.2 0.2 0.2 0.2 0.2 0.2 0.2 0.2 0.2 0.2 0.2 0.2 0.2 0.2 0.2 0.2 0.2 0.2 0.2 0.2 0.2 0.2 0.2 0.2 0.2 0.2 0.2 0.2 0.2 0.2 0.2 0.2 0.2 0.2 0.2 0.2 0.2 0.2 0.2 0.2 0.2 0.2 0.2 0.2 0.2 0.2 0.2 0.2 0.2 0.2 0.2 0.2 0.2 0.2 0.2 0.2 0.2 0.2 0.2 0.2 0.2 0.2 0.2 0.2 0.2 0.2 0.2 0.2 0.2 0.2 0.2 0.2 0.2 0.2 0.2 0.2 0.2 0.2 0.2 0.2 0.2 0.2 0.2 0.2 0.2 0.2 0.2 0.2 0.2 0.2 0.2 0.2 0.2 0.2 0.2 0.2 0.2 0.2 0.2 0.2 0.2 0.2 0.2 0.2 0.2 0.2 0.2 0.2 0.2 0.2 0.2 0.2 0.2 0.2 0.2 0.2 0.2 0.2 0.2 0.2 0.2 0.2 0.2 0.2 0.2 0.2 0.2 0.2 0.2 0.2 0.2 0.2 0.2 0.2 0.2 0.2 0.2 0.2 0.2 0.2 0.2 0.2 0.2 0.2 0.2 0 0.08333333333333333 0.9166666666666666 0 0 0 0 0.75 0.25 0 0.2 0.2 0.2 0.2 0.2 0.2 0.2 0.2 0.2 0.2 0.2 0.2 0.2 0.2 0.2 0.2 0.2 0.2 0.2 0.2 0.2 0.2 0.2 0.2 0.2 0.2 0.2 0.2 0.2 0.2 0.2 0.2 0.2 0.2 0.2 0.2 0.2 0.2 0.2 0.2 0.2 0.2 0.2 0.2 0.2 0.2 0.2 0.2 0.2 0.2 0.2 0.2 0.2 0.2 0.2 0.2 0.2 0.2 0.2 0.2 0.2 0.2 0.2 0.2 0.2 0.2 0.2 0.2 0.2 0.2 0.2 0.2 0.2 0.2 0.2 0.2 0.2 0.2 0.2 0.2 0.2 0.2 0.2 0.2 0.2 0.2 0.2 0.2 0.2 0.2 0.2 0.2 0.2 0.2 0.2 0.2 0.2 0.2 0.2 0.2 0.2 0.2 0.2 0.2 0.2 0.2 0.2 0.2 0.2 0.2 0.2 0.4 0.1 0 0.3 0 0 0.3333333333333333 0.3333333333333333 0.3333333333333333 0 0.008474576271186441 0.2288135593220339 0.2966101694915254 0.4661016949152542 0 0 0.2427184466019417 0.3883495145631067 0.3689320388349514 0 0 0.3307086614173228 0.4251968503937008 0.2440944881889764 0 0 0.3653846153846154 0.375 0.2596153846153846 0.04347826086956522 0.02173913043478261 0.4130434782608696 0.2608695652173913 0.2608695652173913 0.3513513513513514 0.3243243243243243 0.1351351351351351 0.1081081081081081 0.08108108108108109 0.2 0.2 0.2 0.2 0.2 0.2 0.2 0.2 0.2 0.2 0 0 0.4 0.5 0.1 0 0 0.3333333333333333 0.4444444444444444 0.2222222222222222 0 0 0.5 0.3461538461538461 0.1538461538461539 0 0 0.5555555555555556 0.3333333333333333 0.1111111111111111 0 0.5 0 0.5 0 0.2 0.2 0.2 0.2 0.2 0.2 0.2 0.2 0.2 0.2 0.2 0.2 0.2 0.2 0.2 0.2 0.2 0.2 0.2 0.2 0 0 0 1 0 0.2 0.2 0.2 0.2 0.2 0 0 0.5 0.25 0.25 0 0 0 1 0 0.2 0.2 0.2 0.2 0.2 0.2 0.2 0.2 0.2 0.2 0 0 0 0 1 0.2 0.2 0.2 0.2 0.2 0 0 0.75 0 0.25 0 0 0 0 1 0 0 1 0 0 0 0 0 1 0 0.2 0.2 0.2 0.2 0.2 0.2 0.2 0.2 0.2 0.2 0 0 0 0 1 0.2 0.2 0.2 0.2 0.2 0.2 0.2 0.2 0.2 0.2 0 0 0.6666666666666666 0.3333333333333333 0 0 0 0.3333333333333333 0.3333333333333333 0.3333333333333333 0 0 1 0 0 0.2 0.2 0.2 0.2 0.2 0 0 0.75 0.25 0 0 0 0.2 0.4 0.4 0 0 0.1071428571428571 0.3928571428571428 0.5 0 0 0.25 0.25 0.5 0 0 0.6666666666666666 0.1666666666666667 0.1666666666666667 0 0 0.7692307692307693 0.2307692307692308 0 0 0 0.6153846153846154 0.2307692307692308 0.1538461538461539 0 0 0.4375 0.25 0.3125 0 0.125 0.375 0.4166666666666666 0.08333333333333333 0 0.06451612903225806 0.5806451612903225 0.3225806451612903 0.03225806451612903 0 0 0.3888888888888888 0.4444444444444444 0.1666666666666667 0 0 0.4444444444444444 0.1944444444444444 0.3611111111111111 0 0 0.6521739130434783 0.2173913043478261 0.1304347826086956 0 0 0.625 0.25 0.125 0 0 0.9 0.1 0 0 0 0.6666666666666666 0.3333333333333333 0 0 0.1428571428571428 0.4285714285714285 0.4285714285714285 0 0 0 0.25 0.75 0 0 0 0.1428571428571428 0.5714285714285714 0.2857142857142857 0 0 0.5789473684210527 0.2105263157894737 0.2105263157894737 0 0 0.4166666666666666 0.5833333333333333 0 0 0 0.5 0.5 0 0 0.125 0.75 0.125 0 0 0 0 0 1 0 0.1111111111111111 0.3333333333333333 0.3333333333333333 0.2222222222222222 0 0 0.5 0.2 0.3 0 0 0.3333333333333333 0 0.6666666666666666 0 0 0.4444444444444444 0.3333333333333333 0.2222222222222222 0.2 0.2 0.2 0.2 0.2 0 0 0.8 0.2 0 0 0 0.1666666666666667 0.8333333333333333 0 0.2 0.2 0.2 0.2 0.2 0.2 0.2 0.2 0.2 0.2 0 0 0.6666666666666666 0 0.3333333333333333 0 0 0 0 1 0 0 0.3333333333333333 0.6666666666666666 0 0 0 0.2 0.7000000000000001 0.1 0 0 0.5 0.5 0 0.2 0.2 0.2 0.2 0.2 0.2 0.2 0.2 0.2 0.2 0.2 0.2 0.2 0.2 0.2 0.2 0.2 0.2 0.2 0.2 0.2 0.2 0.2 0.2 0.2 0.2 0.2 0.2 0.2 0.2 0.2 0.2 0.2 0.2 0.2 0.2 0.2 0.2 0.2 0.2 0.2 0.2 0.2 0.2 0.2 0 0 0 1 0 0.01754385964912281 0.07017543859649122 0.5438596491228069 0.2631578947368421 0.1052631578947368 0 0 0.5 0.36 0.14 0.2 0.2 0.2 0.2 0.2 0 0 1 0 0 0 0 1 0 0 0 0 1 0 0 0 0 1 0 0 0 0 0.5 0 0.5 0 0.0625 0.328125 0.390625 0.21875 0 0 0.3555555555555556 0.5111111111111112 0.1333333333333333 0 0 0.3333333333333333 0.6666666666666666 0 0 0 0.6666666666666666 0.3333333333333333 0 0 0 0.3333333333333333 0.3333333333333333 0.3333333333333333 0.2 0.2 0.2 0.2 0.2 0 0 0 0.5 0.5 0.2 0.2 0.2 0.2 0.2 0 0.03333333333333333 0.3 0.5333333333333333 0.1333333333333333 0 0.04878048780487805 0.3170731707317073 0.3902439024390244 0.2439024390243902 0 0 0 1 0 0 0 0 0 1 0.2 0.2 0.2 0.2 0.2 0.2 0.2 0.2 0.2 0.2 0 0 0.6666666666666666 0.3333333333333333 0 0.2 0.2 0.2 0.2 0.2 0 0.125 0.25 0.4375 0.1875 0 0 0.1428571428571428 0.7142857142857142 0.1428571428571428 0 0 0.6666666666666666 0.3333333333333333 0 0 0 0.2 0.4 0.4 0 0 0.6666666666666666 0 0.3333333333333333 0 0 1 0 0 0.2 0.2 0.2 0.2 0.2 0.2 0.2 0.2 0.2 0.2 0.2 0.2 0.2 0.2 0.2 0.2 0.2 0.2 0.2 0.2 0.2 0.2 0.2 0.2 0.2 0.2 0.2 0.2 0.2 0.2 0.2 0.2 0.2 0.2 0.2 0.2 0.2 0.2 0.2 0.2 0.2 0.2 0.2 0.2 0.2 0.2 0.2 0.2 0.2 0.2 0 0 0.631578947368421 0.07894736842105263 0.2894736842105263 0 0 0.4 0.1 0.5 0.2 0.2 0.2 0.2 0.2 0.2 0.2 0.2 0.2 0.2 0.2 0.2 0.2 0.2 0.2 0.2 0.2 0.2 0.2 0.2 0.2 0.2 0.2 0.2 0.2 0 0 1 0 0 0.005494505494505495 0.01098901098901099 0.2472527472527473 0.4010989010989011 0.3351648351648352 0 0.01851851851851852 0.3148148148148148 0.2592592592592592 0.4074074074074074 0 0 0 1 0 0.2 0.2 0.2 0.2 0.2 0.2 0.2 0.2 0.2 0.2 0.2 0.2 0.2 0.2 0.2 0.2 0.2 0.2 0.2 0.2 0 0 1 0 0 0 0.02884615384615385 0.4038461538461539 0.3076923076923077 0.2596153846153846 0 0 0.3333333333333333 0.3684210526315789 0.2982456140350877 0 0 0.6666666666666666 0.3333333333333333 0 0.2 0.2 0.2 0.2 0.2 0.2 0.2 0.2 0.2 0.2 0.2 0.2 0.2 0.2 0.2 0.2 0.2 0.2 0.2 0.2 0.2 0.2 0.2 0.2 0.2 0 0.1 0.35 0.475 0.07500000000000001 0 0 0.4 0.4 0.2 0 0 0 1 0 0 0 0 0 1 0.2 0.2 0.2 0.2 0.2 0.2 0.2 0.2 0.2 0.2 0.2 0.2 0.2 0.2 0.2 0.2 0.2 0.2 0.2 0.2 0.2 0.2 0.2 0.2 0.2 0.2 0.2 0.2 0.2 0.2 0.2 0.2 0.2 0.2 0.2 0.2 0.2 0.2 0.2 0.2 0.2 0.2 0.2 0.2 0.2 0.2 0.2 0.2 0.2 0.2 0.2 0.2 0.2 0.2 0.2 0.2 0.2 0.2 0.2 0.2 0 0 0 1 0 0.2 0.2 0.2 0.2 0.2 0.2 0.2 0.2 0.2 0.2 0.2 0.2 0.2 0.2 0.2 0.2 0.2 0.2 0.2 0.2 0.2 0.2 0.2 0.2 0.2 0.2 0.2 0.2 0.2 0.2 0.2 0.2 0.2 0.2 0.2 0.01123595505617977 0.0898876404494382 0.2696629213483146 0.2808988764044944 0.348314606741573 0 0 0.625 0.125 0.25 0.2 0.2 0.2 0.2 0.2 0.2 0.2 0.2 0.2 0.2 0.2 0.2 0.2 0.2 0.2 0.2 0.2 0.2 0.2 0.2 0.2 0.2 0.2 0.2 0.2 0.2 0.2 0.2 0.2 0.2 0 0.03061224489795918 0.2959183673469388 0.3775510204081632 0.2959183673469388 0 0.06666666666666667 0.4666666666666667 0.4 0.06666666666666667 0.2 0.2 0.2 0.2 0.2 0.2 0.2 0.2 0.2 0.2 0.2 0.2 0.2 0.2 0.2 0.2 0.2 0.2 0.2 0.2 0.2 0.2 0.2 0.2 0.2 0.2 0.2 0.2 0.2 0.2 0 0.04838709677419355 0.3870967741935484 0.3064516129032258 0.2580645161290323 0 0 0.2 0.2 0.6000000000000001 0.2 0.2 0.2 0.2 0.2 0.2 0.2 0.2 0.2 0.2 0.2 0.2 0.2 0.2 0.2 0.2 0.2 0.2 0.2 0.2 0.2 0.2 0.2 0.2 0.2 0.2 0.2 0.2 0.2 0.2 0.1692307692307692 0.5846153846153846 0.06153846153846154 0.07692307692307693 0.1076923076923077 0.1538461538461539 0.4615384615384616 0.1538461538461539 0.2307692307692308 0 0.006535947712418301 0.006535947712418301 0.2875816993464053 0.4967320261437909 0.2026143790849673 0.005434782608695652 0.002717391304347826 0.3179347826086956 0.4755434782608696 0.1983695652173913 0.007952286282306162 0 0.3260437375745526 0.4850894632206759 0.1809145129224652 0.007211538461538462 0.01201923076923077 0.3197115384615385 0.5096153846153847 0.1514423076923077 0.2164948453608248 0.2835051546391752 0.1649484536082474 0.2577319587628866 0.07731958762886598 0.1893939393939394 0.5151515151515151 0.1212121212121212 0.1325757575757576 0.04166666666666667 0 0.07894736842105263 0.3684210526315789 0.3421052631578947 0.2105263157894737 0 0.03846153846153846 0.6153846153846154 0.2307692307692308 0.1153846153846154 0 0 0.3384615384615385 0.5307692307692308 0.1307692307692308 0 0 0.2704714640198511 0.5210918114143921 0.2084367245657568 0 0.005 0.37 0.4125 0.2125 0 0.004347826086956522 0.3782608695652174 0.5043478260869565 0.1130434782608696 0.02272727272727273 0 0.5454545454545454 0.3863636363636364 0.04545454545454546 0.1379310344827586 0.1379310344827586 0.2413793103448276 0.4482758620689655 0.03448275862068965 0 0.09302325581395349 0.4186046511627907 0.3023255813953488 0.186046511627907 0 0.125 0.5 0.3125 0.0625 0 0 0.4307692307692308 0.4923076923076923 0.07692307692307693 0 0 0.3370165745856353 0.4751381215469613 0.1878453038674033 0 0 0.3482587064676617 0.4975124378109453 0.154228855721393 0 0.02 0.48 0.43 0.07000000000000001 0.05263157894736842 0 0.631578947368421 0.2631578947368421 0.05263157894736842 0.1363636363636364 0.04545454545454546 0.4545454545454546 0.2272727272727273 0.1363636363636364 0 0.1132075471698113 0.4716981132075472 0.2452830188679245 0.169811320754717 0 0.04761904761904762 0.5079365079365079 0.3809523809523809 0.06349206349206349 0 0 0.2835820895522388 0.6119402985074627 0.1044776119402985 0 0 0.3471074380165289 0.4504132231404959 0.2024793388429752 0 0 0.3805970149253731 0.4701492537313433 0.1492537313432836 0 0 0.5076923076923077 0.3615384615384616 0.1307692307692308 0.07142857142857142 0.07142857142857142 0.5714285714285714 0.2857142857142857 0 0.125 0 0.375 0.375 0.125 0 0 0.75 0.25 0 0 0.1428571428571428 0.8571428571428571 0 0 0 0 0.5 0.375 0.125 0 0 0.4285714285714285 0.4047619047619048 0.1666666666666667 0 0 0.3776223776223776 0.4545454545454545 0.1678321678321678 0 0.01388888888888889 0.5277777777777778 0.375 0.08333333333333333 0 0 0.6666666666666666 0.3333333333333333 0 0.3333333333333333 0 0.6666666666666666 0 0 0 0 0.3333333333333333 0.6666666666666666 0 0 0 0 1 0 0 0 0.08333333333333333 0.6666666666666666 0.25 0 0 0.2692307692307693 0.5 0.2307692307692308 0 0 0.4705882352941176 0.3529411764705882 0.1764705882352941 0 0 0.5 0.5 0 0 0 1 0 0 0 0 0.6666666666666666 0.2222222222222222 0.1111111111111111 0.009009009009009009 0.07207207207207207 0.5225225225225225 0.3063063063063063 0.09009009009009009 0 0.00558659217877095 0.5418994413407822 0.329608938547486 0.1229050279329609 0 0 0.2549019607843137 0.5490196078431373 0.196078431372549 0 0 0.3032069970845481 0.4169096209912536 0.2798833819241983 0 0 0.3387096774193548 0.5 0.1612903225806452 0 0 0.4878048780487805 0.3902439024390244 0.1219512195121951 0 0 0.5625 0.25 0.1875 0 0 0.6875 0.3125 0 0.008695652173913044 0.08695652173913043 0.4695652173913044 0.2739130434782609 0.1608695652173913 0 0.01847575057736721 0.3787528868360277 0.4364896073903002 0.1662817551963048 0 0 0.3272727272727273 0.4606060606060606 0.2121212121212121 0 0 0.3213367609254498 0.416452442159383 0.2622107969151671 0 0.005988023952095809 0.377245508982036 0.4191616766467066 0.1976047904191617 0 0 0.641025641025641 0.282051282051282 0.07692307692307693 0 0 0.8125 0.1875 0 0 0 0.4285714285714285 0.4285714285714285 0.1428571428571428 0.003584229390681004 0.08602150537634409 0.2903225806451613 0.4444444444444444 0.1756272401433692 0.004136504653567736 0.01551189245087901 0.3464322647362978 0.4984488107549122 0.1354705274043433 0 0 0.3165137614678899 0.5275229357798166 0.1559633027522936 0 0 0.3532008830022075 0.4216335540838852 0.2251655629139073 0 0 0.4024896265560166 0.4273858921161826 0.1701244813278008 0 0 0.5737704918032788 0.2950819672131147 0.1311475409836066 0 0 0.5862068965517241 0.4137931034482759 0 0 0 0.625 0.25 0.125 0.006622516556291391 0.06622516556291391 0.6158940397350994 0.2847682119205298 0.02649006622516556 0.005988023952095809 0.01796407185628743 0.5868263473053893 0.2694610778443114 0.1197604790419162 0 0 0.5333333333333333 0.2666666666666667 0.2 0 0 0.4144736842105263 0.4046052631578947 0.1809210526315789 0 0 0.374468085106383 0.4553191489361702 0.1702127659574468 0 0 0.6333333333333333 0.2666666666666667 0.1 0 0 0.5 0.5 0 0 0 0.75 0.25 0 0.2 0.2 0.2 0.2 0.2 0.2 0.2 0.2 0.2 0.2 0.2 0.2 0.2 0.2 0.2 0.2 0.2 0.2 0.2 0.2 0.2 0.2 0.2 0.2 0.2 0.2 0.2 0.2 0.2 0.2 0.2 0.2 0.2 0.2 0.2 0.2 0.2 0.2 0.2 0.2 0 0.04 0.36 0.48 0.12 0 0 0.5555555555555556 0.3611111111111111 0.08333333333333333 0 0 0.3333333333333333 0 0.6666666666666666 0 0 0.1333333333333333 0.7333333333333333 0.1333333333333333 0 0 0 0 1 0.2 0.2 0.2 0.2 0.2 0.2 0.2 0.2 0.2 0.2 0.2 0.2 0.2 0.2 0.2 0.008771929824561403 0.01754385964912281 0.3508771929824561 0.469298245614035 0.1535087719298245 0 0 0.3084745762711864 0.5423728813559322 0.1491525423728814 0 0 0.3529411764705882 0.3235294117647059 0.3235294117647059 0 0 0.2325581395348837 0.5813953488372093 0.186046511627907 0 0 0.2777777777777778 0.4444444444444444 0.2777777777777778 0 0 1 0 0 0 0 0.5 0.25 0.25 0 0 1 0 0 0.0009727626459143969 0.04182879377431907 0.2684824902723735 0.495136186770428 0.193579766536965 0.0006816632583503749 0.009543285616905249 0.2229038854805726 0.5310156782549421 0.2358554873892297 0 0 0.2206896551724138 0.5517241379310345 0.2275862068965517 0 0 0.247191011235955 0.5955056179775281 0.1573033707865168 0 0 0.4285714285714285 0.4285714285714285 0.1428571428571428 0 0 0.5 0.5 0 0 0 1 0 0 0.2 0.2 0.2 0.2 0.2 0.003442340791738382 0.04647160068846816 0.4647160068846816 0.395869191049914 0.08950086058519793 0.001788908765652952 0.005366726296958856 0.3363148479427549 0.4525939177101968 0.2039355992844365 0 0 0.2844036697247707 0.5137614678899083 0.2018348623853211 0 0 0.3333333333333333 0.4693877551020408 0.1972789115646258 0 0 0.3814432989690721 0.4845360824742268 0.134020618556701 0 0 1 0 0 0 0 0.8571428571428571 0 0.1428571428571428 0 0 0 1 0 0.2 0.2 0.2 0.2 0.2 0.2 0.2 0.2 0.2 0.2 0.2 0.2 0.2 0.2 0.2 0.2 0.2 0.2 0.2 0.2 0.2 0.2 0.2 0.2 0.2 0.2 0.2 0.2 0.2 0.2 0.2 0.2 0.2 0.2 0.2 0.2 0.2 0.2 0.2 0.2 0 0 1 0 0 0.2 0.2 0.2 0.2 0.2 0.2 0.2 0.2 0.2 0.2 0.2 0.2 0.2 0.2 0.2 0.2 0.2 0.2 0.2 0.2 0.2 0.2 0.2 0.2 0.2 0.2 0.2 0.2 0.2 0.2 0.2 0.2 0.2 0.2 0.2 0 0.01694915254237288 0.4067796610169492 0.5254237288135594 0.05084745762711865 0 0.04347826086956522 0.2173913043478261 0.4347826086956522 0.3043478260869565 0.2 0.2 0.2 0.2 0.2 0.2 0.2 0.2 0.2 0.2 0.2 0.2 0.2 0.2 0.2 0.2 0.2 0.2 0.2 0.2 0.2 0.2 0.2 0.2 0.2 0.2 0.2 0.2 0.2 0.2 0 0.04 0.2888888888888889 0.5022222222222222 0.1688888888888889 0.00392156862745098 0 0.2156862745098039 0.4509803921568628 0.3294117647058823 0 0 0.3181818181818182 0.5454545454545454 0.1363636363636364 0 0 0 0.6666666666666666 0.3333333333333333 0 0 0 1 0 0.2 0.2 0.2 0.2 0.2 0.2 0.2 0.2 0.2 0.2 0.2 0.2 0.2 0.2 0.2 0.001071811361200429 0.02572347266881029 0.3483386923901393 0.4576634512325831 0.1672025723472669 0.003759398496240601 0.007518796992481203 0.2142857142857143 0.5413533834586466 0.2330827067669173 0 0 0.2461538461538462 0.4153846153846154 0.3384615384615385 0 0 0.2222222222222222 0.5555555555555556 0.2222222222222222 0 0 0.3333333333333333 0 0.6666666666666666 0 0 1 0 0 0 0 1 0 0 0.2 0.2 0.2 0.2 0.2 0.2 0.2 0.2 0.2 0.2 0.2 0.2 0.2 0.2 0.2 0.2 0.2 0.2 0.2 0.2 0.2 0.2 0.2 0.2 0.2 0.2 0.2 0.2 0.2 0.2 0.2 0.2 0.2 0.2 0.2 0.2 0.2 0.2 0.2 0.2 0.2 0.2 0.2 0.2 0.2 0.2 0.2 0.2 0.2 0.2 0.2 0.2 0.2 0.2 0.2 0.2 0.2 0.2 0.2 0.2 0.2 0.2 0.2 0.2 0.2 0.2 0.2 0.2 0.2 0.2 0.2 0.2 0.2 0.2 0.2 0.2 0.2 0.2 0.2 0.2 0.2 0.2 0.2 0.2 0.2 0 0 0 1 0 0.2 0.2 0.2 0.2 0.2 0.2 0.2 0.2 0.2 0.2 0.2 0.2 0.2 0.2 0.2 0.2 0.2 0.2 0.2 0.2 0.2 0.2 0.2 0.2 0.2 0.2 0.2 0.2 0.2 0.2 0.2 0.2 0.2 0.2 0.2 0 0 0.2 0.5 0.3 0 0 0 0.3333333333333333 0.6666666666666666 0.2 0.2 0.2 0.2 0.2 0.2 0.2 0.2 0.2 0.2 0.2 0.2 0.2 0.2 0.2 0.2 0.2 0.2 0.2 0.2 0.2 0.2 0.2 0.2 0.2 0.2 0.2 0.2 0.2 0.2 0.005076142131979695 0.01522842639593909 0.3807106598984771 0.482233502538071 0.116751269035533 0 0.01020408163265306 0.336734693877551 0.5306122448979591 0.1224489795918367 0 0 0 1 0 0 0 1 0 0 0.2 0.2 0.2 0.2 0.2 0.2 0.2 0.2 0.2 0.2 0.2 0.2 0.2 0.2 0.2 0.2 0.2 0.2 0.2 0.2 0.1428571428571428 0.5714285714285714 0.07142857142857142 0.2142857142857143 0 0.16 0.6 0.12 0 0.12 0.03846153846153846 0.09615384615384616 0.2692307692307693 0.4807692307692308 0.1153846153846154 0 0.02702702702702703 0.277027027027027 0.6013513513513514 0.0945945945945946 0.008902077151335312 0.02967359050445104 0.2462908011869436 0.5578635014836796 0.1572700296735905 0.00625 0.0625 0.24375 0.5625 0.125 0.2631578947368421 0.2894736842105263 0.131578947368421 0.2631578947368421 0.05263157894736842 0.2564102564102564 0.5256410256410257 0.08974358974358974 0.1282051282051282 0 0 0.05882352941176471 0.3529411764705882 0.3529411764705882 0.2352941176470588 0 0 0.2380952380952381 0.6666666666666666 0.09523809523809523 0 0 0.12 0.84 0.04 0 0 0.4056603773584905 0.4716981132075472 0.1226415094339623 0 0 0.2989690721649484 0.5979381443298969 0.1030927835051546 0 0 0.3529411764705882 0.5147058823529411 0.1323529411764706 0.09090909090909091 0 0.5454545454545454 0.3636363636363636 0 0 0.1666666666666667 0.1666666666666667 0.5 0.1666666666666667 0 0.1428571428571428 0.2857142857142857 0.5714285714285714 0 0 0 0.5555555555555556 0.4444444444444444 0 0 0 0.1428571428571428 0.7142857142857142 0.1428571428571428 0 0 0.5185185185185185 0.4074074074074074 0.07407407407407407 0 0 0.325 0.5750000000000001 0.1 0 0 0.3809523809523809 0.4761904761904762 0.1428571428571428 0 0 0.8 0.2 0 0 0.2 0.2 0.4 0.2 0 0.1875 0.5625 0.25 0 0 0.1333333333333333 0.5333333333333333 0.2666666666666667 0.06666666666666667 0 0 0.1428571428571428 0.8571428571428571 0 0 0 0.3333333333333334 0.5555555555555556 0.1111111111111111 0 0 0.3913043478260869 0.4782608695652174 0.1304347826086956 0 0 0.611111111111111 0.3333333333333333 0.05555555555555555 0 0 0.3333333333333333 0.6666666666666666 0 0 0.5 0 0.5 0 0 0.3333333333333333 0.6666666666666666 0 0 0.2 0.2 0.2 0.2 0.2 0 0 0 1 0 0 0 0.5 0.375 0.125 0 0 0.4545454545454546 0.4545454545454546 0.09090909090909091 0 0 0.6153846153846154 0.3076923076923077 0.07692307692307693 0.2 0.2 0.2 0.2 0.2 0.2 0.2 0.2 0.2 0.2 0 0 1 0 0 0.1666666666666667 0.1666666666666667 0 0.6666666666666666 0 0 0 0.2727272727272727 0.5454545454545454 0.1818181818181818 0 0 0.1891891891891892 0.5540540540540541 0.2567567567567568 0 0 0.3066666666666667 0.5733333333333334 0.12 0 0 0.3571428571428571 0.5 0.1428571428571428 0 0 0.75 0.25 0 0 0 0.6666666666666666 0 0.3333333333333333 0 0.1694915254237288 0.3559322033898305 0.3898305084745763 0.0847457627118644 0 0.0198019801980198 0.3613861386138614 0.5198019801980198 0.09900990099009901 0 0 0.2912621359223301 0.5533980582524272 0.1553398058252427 0 0 0.2634560906515581 0.4645892351274788 0.2719546742209632 0 0 0.3214285714285714 0.5416666666666666 0.1369047619047619 0 0 0.5365853658536586 0.4146341463414634 0.04878048780487805 0 0 0.4285714285714285 0.5714285714285714 0 0 0 0.4 0.4 0.2 0.007092198581560284 0.09929078014184398 0.3546099290780142 0.4397163120567376 0.09929078014184398 0.007246376811594203 0.01811594202898551 0.3985507246376812 0.4673913043478261 0.108695652173913 0 0 0.1818181818181818 0.4242424242424243 0.3939393939393939 0 0 0.2752293577981652 0.5412844036697249 0.1834862385321101 0 0 0.3731343283582089 0.5074626865671642 0.1194029850746269 0 0 0.45 0.45 0.1 0 0 0.8888888888888888 0.1111111111111111 0 0 0 0.3333333333333333 0.6666666666666666 0 0.004716981132075472 0.05660377358490566 0.3584905660377358 0.410377358490566 0.169811320754717 0 0.01510574018126888 0.2749244712990936 0.56797583081571 0.1419939577039275 0 0 0.4054054054054054 0.5 0.0945945945945946 0 0 0.2545454545454545 0.5181818181818182 0.2272727272727273 0 0 0.3859649122807017 0.5263157894736842 0.08771929824561403 0 0 0.6071428571428571 0.3571428571428571 0.03571428571428571 0 0 0.8 0.2 0 0 0 1 0 0 0 0.09090909090909091 0.7045454545454546 0.1590909090909091 0.04545454545454546 0 0 0.6923076923076923 0.2051282051282051 0.1025641025641026 0 0 0.4705882352941176 0.2941176470588235 0.2352941176470588 0 0 0.3636363636363636 0.4181818181818182 0.2181818181818182 0 0 0.4117647058823529 0.4901960784313725 0.09803921568627451 0 0 0.5384615384615385 0.2307692307692308 0.2307692307692308 0 0 0 1 0 0 0 1 0 0 0.2 0.2 0.2 0.2 0.2 0.2 0.2 0.2 0.2 0.2 0.2 0.2 0.2 0.2 0.2 0.2 0.2 0.2 0.2 0.2 0.2 0.2 0.2 0.2 0.2 0 0 1 0 0 0.2 0.2 0.2 0.2 0.2 0.2 0.2 0.2 0.2 0.2 0 0.0625 0.1875 0.6875 0.0625 0 0 0.3888888888888888 0.5 0.1111111111111111 0 0 0.1428571428571428 0.6428571428571428 0.2142857142857143 0 0 0.2794117647058824 0.4117647058823529 0.3088235294117647 0 0 0.3333333333333333 0.4444444444444444 0.2222222222222222 0 0.25 0.5 0.25 0 0 0 0 1 0 0.2 0.2 0.2 0.2 0.2 0 0.0576923076923077 0.375 0.4519230769230769 0.1153846153846154 0 0.003717472118959108 0.2639405204460966 0.550185873605948 0.1821561338289963 0 0 0.3389830508474576 0.4745762711864407 0.1864406779661017 0 0 0.3272727272727273 0.4727272727272727 0.2 0 0 0.1538461538461539 0.6923076923076923 0.1538461538461539 0 0 0.5 0.5 0 0.2 0.2 0.2 0.2 0.2 0.2 0.2 0.2 0.2 0.2 0 0.06521739130434782 0.2536231884057971 0.4818840579710145 0.1992753623188406 0 0.008620689655172414 0.2586206896551724 0.5323275862068966 0.2004310344827586 0 0 0.2666666666666667 0.6166666666666667 0.1166666666666667 0 0 0.25 0.3333333333333333 0.4166666666666666 0 0 0.2142857142857143 0.5714285714285714 0.2142857142857143 0 0 0.3333333333333333 0.6666666666666666 0 0 0 0.5 0.5 0 0.2 0.2 0.2 0.2 0.2 0.005617977528089887 0.0449438202247191 0.3876404494382023 0.4775280898876405 0.08426966292134831 0.006493506493506494 0 0.2142857142857143 0.5779220779220779 0.2012987012987013 0 0 0.2352941176470588 0.5294117647058824 0.2352941176470588 0 0 0.4571428571428571 0.2 0.3428571428571429 0 0 0.3571428571428571 0.5357142857142857 0.1071428571428571 0 0.1666666666666667 0.8333333333333333 0 0 0 0 1 0 0 0.2 0.2 0.2 0.2 0.2 0.2 0.2 0.2 0.2 0.2 0.2 0.2 0.2 0.2 0.2 0.2 0.2 0.2 0.2 0.2 0.2 0.2 0.2 0.2 0.2 0.2 0.2 0.2 0.2 0.2 0.2 0.2 0.2 0.2 0.2 0.2 0.2 0.2 0.2 0.2 0.2 0.2 0.2 0.2 0.2 0 0 0 1 0 0 0 0.2 0.6000000000000001 0.2 0.2 0.2 0.2 0.2 0.2 0 0 0 0.5 0.5 0 0 1 0 0 0.2 0.2 0.2 0.2 0.2 0.2 0.2 0.2 0.2 0.2 0.2 0.2 0.2 0.2 0.2 0 0.02941176470588235 0.1470588235294118 0.6470588235294118 0.1764705882352941 0 0.04761904761904762 0.1904761904761905 0.3809523809523809 0.3809523809523809 0 0 0.1 0.7000000000000001 0.2 0 0 0.6666666666666666 0 0.3333333333333333 0.2 0.2 0.2 0.2 0.2 0.2 0.2 0.2 0.2 0.2 0 0 1 0 0 0.2 0.2 0.2 0.2 0.2 0 0.06299212598425197 0.2913385826771653 0.4724409448818898 0.1732283464566929 0.009009009009009009 0.02702702702702703 0.09009009009009009 0.5045045045045045 0.3693693693693694 0 0 0 0.6666666666666666 0.3333333333333333 0 0 0 0.5 0.5 0.2 0.2 0.2 0.2 0.2 0.2 0.2 0.2 0.2 0.2 0.2 0.2 0.2 0.2 0.2 0.2 0.2 0.2 0.2 0.2 0 0.055 0.325 0.5 0.12 0 0.01351351351351351 0.1824324324324325 0.4864864864864865 0.3175675675675676 0 0 0.1904761904761905 0.2380952380952381 0.5714285714285714 0 0 0.3333333333333333 0 0.6666666666666666 0 0 1 0 0 0.2 0.2 0.2 0.2 0.2 0 0.5 0.5 0 0 0.2 0.2 0.2 0.2 0.2 0.2 0.2 0.2 0.2 0.2 0.2 0.2 0.2 0.2 0.2 0.2 0.2 0.2 0.2 0.2 0.2 0.2 0.2 0.2 0.2 0.2 0.2 0.2 0.2 0.2 0.2 0.2 0.2 0.2 0.2 0.2 0.2 0.2 0.2 0.2 0.2 0.2 0.2 0.2 0.2 0.2 0.2 0.2 0.2 0.2 0.2 0.2 0.2 0.2 0.2 0.2 0.2 0.2 0.2 0.2 0.2 0.2 0.2 0.2 0.2 0.2 0.2 0.2 0.2 0.2 0.2 0.2 0.2 0.2 0.2 0.2 0.2 0.2 0.2 0.2 0.2 0.2 0.2 0.2 0.2 0.2 0.2 0.2 0.2 0.2 0 0 1 0 0 0.2 0.2 0.2 0.2 0.2 0.2 0.2 0.2 0.2 0.2 0.2 0.2 0.2 0.2 0.2 0.2 0.2 0.2 0.2 0.2 0.2 0.2 0.2 0.2 0.2 0.2 0.2 0.2 0.2 0.2 0 0 0.1428571428571428 0.8571428571428571 0 0 0 0 0 1 0.2 0.2 0.2 0.2 0.2 0.2 0.2 0.2 0.2 0.2 0.2 0.2 0.2 0.2 0.2 0.2 0.2 0.2 0.2 0.2 0.2 0.2 0.2 0.2 0.2 0.2 0.2 0.2 0.2 0.2 0 0.009523809523809525 0.3333333333333334 0.6095238095238096 0.04761904761904762 0 0 0.4782608695652174 0.4347826086956522 0.08695652173913043 0.2 0.2 0.2 0.2 0.2 0.2 0.2 0.2 0.2 0.2 0.2 0.2 0.2 0.2 0.2 0 0 1 0 0 0 0 1 0 0 0.2 0.2 0.2 0.2 0.2 0.2 0.2 0.2 0.2 0.2 0.2 0.2 0.2 0.2 0.2 0.2 0.2 0.2 0.2 0.2 0.2 0.2 0.2 0.2 0.2 0 0.3333333333333333 0.3333333333333333 0.3333333333333333 0 0.2 0.2 0.2 0.2 0.2 0.2 0.2 0.2 0.2 0.2 0.2 0.2 0.2 0.2 0.2 0.2 0.2 0.2 0.2 0.2 0.2 0.2 0.2 0.2 0.2 0.2 0.2 0.2 0.2 0.2 0.2 0.2 0.2 0.2 0.2 0.2 0.2 0.2 0.2 0.2 0.2 0.2 0.2 0.2 0.2 0.2 0.2 0.2 0.2 0.2 0.2 0.2 0.2 0.2 0.2 0.2 0.2 0.2 0.2 0.2 0.2 0.2 0.2 0.2 0.2 0.2 0.2 0.2 0.2 0.2 0.2 0.2 0.2 0.2 0.2 0.2 0.2 0.2 0.2 0.2 0.2 0.2 0.2 0.2 0.2 0.2 0.2 0.2 0.2 0.2 0.2 0.2 0.2 0.2 0.2 0.2 0.2 0.2 0.2 0.2 0.2 0.2 0.2 0.2 0.2 0.2 0.2 0.2 0.2 0.2 0.2 0.2 0.2 0.2 0.2 0.2 0.2 0.2 0.2 0.2 0.2 0.2 0.2 0.2 0.2 0.2 0.2 0.2 0.2 0.2 0.2 0.2 0.2 0.2 0.2 0.2 0.2 0.2 0.2 0.2 0.2 0.2 0.2 0.2 0.2 0.2 0.2 0.2 0.2 0.2 0.2 0.2 0.2 0.2 0.2 0.2 0.2 0.2 0.2 0.2 0.2 0.2 0.2 0.2 0.2 0.2 0.2 0.2 0.2 0.2 0.2 0.2 0.2 0.2 0.2 0.2 0.2 0.2 0.2 0.2 0 0 1 0 0 0.2 0.2 0.2 0.2 0.2 0.2 0.2 0.2 0.2 0.2 0 0 0 1 0 0.2 0.2 0.2 0.2 0.2 0.2 0.2 0.2 0.2 0.2 0.2 0.2 0.2 0.2 0.2 0.2 0.2 0.2 0.2 0.2 0 0.5 0 0.5 0 0.2 0.2 0.2 0.2 0.2 0.2 0.2 0.2 0.2 0.2 0.2 0.2 0.2 0.2 0.2 0.2 0.2 0.2 0.2 0.2 0.2 0.2 0.2 0.2 0.2 0.2 0.2 0.2 0.2 0.2 0.2 0.2 0.2 0.2 0.2 0.2 0.2 0.2 0.2 0.2 0.2 0.2 0.2 0.2 0.2 0.2 0.2 0.2 0.2 0.2 0.2 0.2 0.2 0.2 0.2 0.2 0.2 0.2 0.2 0.2 0.2 0.2 0.2 0.2 0.2 0.2 0.2 0.2 0.2 0.2 0.2 0.2 0.2 0.2 0.2 0.2 0.2 0.2 0.2 0.2 0.2 0.2 0.2 0.2 0.2 0.2 0.2 0.2 0.2 0.2 0.2 0.2 0.2 0.2 0.2 0.2 0.2 0.2 0.2 0.2 0.2 0.2 0.2 0.2 0.2 0.2 0.2 0.2 0.2 0.2 0.2 0.2 0.2 0.2 0.2 0.2 0.2 0.2 0.2 0.2 0.2 0.2 0.2 0.2 0.2 0.2 0.2 0.2 0.2 0.2 0.2 0.2 0.2 0.2 0.2 0.2 0.2 0.2 0.2 0.2 0.2 0.2 0.2 0.2 0.2 0.2 0.2 0.2 0.2 0.2 0.2 0.2 0.2 0.2 0.2 0.2 0.2 0.2 0.2 0.2 0.2 0.2 0.2 0.2 0.2 0.2 0.2 0.2 0.2 0.2 0.2 0.2 0.2 0.2 0.2 0.2 0.2 0.2 0.2 0.2 0.2 0.2 0.2 0.2 0.2 0.2 0.2 0.2 0.2 0.2 0.2 0.2 0.2 0.2 0.2 0 0 0.2 0.8 0 0 0 1 0 0 0 0 0 1 0 0.2 0.2 0.2 0.2 0.2 0.2 0.2 0.2 0.2 0.2 0.2 0.2 0.2 0.2 0.2 0.2 0.2 0.2 0.2 0.2 0.2 0.2 0.2 0.2 0.2 0.25 0 0 0.75 0 0.2 0.2 0.2 0.2 0.2 0.2 0.2 0.2 0.2 0.2 0.2 0.2 0.2 0.2 0.2 0.2 0.2 0.2 0.2 0.2 0.2 0.2 0.2 0.2 0.2 0.2 0.2 0.2 0.2 0.2 0.2 0.2 0.2 0.2 0.2 0.2 0.2 0.2 0.2 0.2 0.2 0.2 0.2 0.2 0.2 0.2 0.2 0.2 0.2 0.2 0.2 0.2 0.2 0.2 0.2 0.2 0.2 0.2 0.2 0.2 0.2 0.2 0.2 0.2 0.2 0.2 0.2 0.2 0.2 0.2 0.2 0.2 0.2 0.2 0.2 0.2 0.2 0.2 0.2 0.2 0.2 0.2 0.2 0.2 0.2 0.2 0.2 0.2 0.2 0.2 0.2 0.2 0.2 0.2 0.2 0.2 0.2 0.2 0.2 0.2 0.2 0.2 0.2 0.2 0.2 0.2 0.2 0.2 0.2 0.2 0.2 0.2 0.2 0.2 0.2 0.2 0.2 0.2 0.2 0.2 0.2 0.2 0.2 0.2 0.2 0.2 0.2 0.2 0.2 0.2 0.2 0.2 0.2 0.2 0.2 0.2 0.2 0.2 0.2 0.2 0.2 0.2 0.2 0.2 0.2 0.2 0.2 0.2 0.2 0.2 0.2 0.2 0.2 0.2 0.2 0.2 0.2 0.2 0.2 0.2 0.2 0.2 0.2 0.2 0.2 0 0 0.5 0.5 0 0.2 0.2 0.2 0.2 0.2 0.2 0.2 0.2 0.2 0.2 0.2 0.2 0.2 0.2 0.2 0.2 0.2 0.2 0.2 0.2 0.2 0.2 0.2 0.2 0.2 0.2 0.2 0.2 0.2 0.2 0 0 0 1 0 0.2 0.2 0.2 0.2 0.2 0 0 1 0 0 0.2 0.2 0.2 0.2 0.2 0.2 0.2 0.2 0.2 0.2 0.2 0.2 0.2 0.2 0.2 0.2 0.2 0.2 0.2 0.2 0.2 0.2 0.2 0.2 0.2 0.2 0.2 0.2 0.2 0.2 0.2 0.2 0.2 0.2 0.2 0.2 0.2 0.2 0.2 0.2 0.2 0.2 0.2 0.2 0.2 0.2 0.2 0.2 0.2 0.2 0.2 0.2 0.2 0.2 0.2 0.2 0.2 0.2 0.2 0.2 0.2 0.2 0.2 0.2 0.2 0.2 0.2 0.2 0.2 0.2 0.2 0.2 0.2 0.2 0.2 0.2 0.2 0.2 0.2 0.2 0.2 0.2 0.2 0.2 0.2 0.2 0.2 0.2 0.2 0.2 0.2 0.2 0.2 0.2 0.2 0.2 0.2 0.2 0.2 0.2 0.2 0.2 0.2 0.2 0.2 0.2 0.2 0.2 0.2 0.2 0.2 0.2 0.2 0.2 0.2 0.2 0.2 0.2 0.2 0.2 0.2 0.2 0.2 0.2 0.2 0.2 0.2 0.2 0.2 0.2 0.2 0.2 0.2 0.2 0.2 0.2 0.2 0.2 0.2 0.2 0.2 0.2 0.2 0.2 0.2 0.2 0.2 0.2 0.2 0.2 0.2 0.2 0.2 0.2 0.2 0.2 0.2 0.2 0.2 0.2 0.2 0.2 0.2 0.2 0.2 0.2 0.2 0.2 0.2 0.2 0.2 0.2 0.2 0.2 0.2 0.2 0.2 0.2 0.2 0.2 0 0 0 1 0 0.2 0.2 0.2 0.2 0.2 0.2 0.2 0.2 0.2 0.2 0 0 1 0 0 0.2 0.2 0.2 0.2 0.2 0.2 0.2 0.2 0.2 0.2 0.2 0.2 0.2 0.2 0.2 0 0 0 1 0 0 0 0 1 0 0.2 0.2 0.2 0.2 0.2 0.2 0.2 0.2 0.2 0.2 0.2 0.2 0.2 0.2 0.2 0.2 0.2 0.2 0.2 0.2 0.2 0.2 0.2 0.2 0.2 0.2 0.2 0.2 0.2 0.2 0.2 0.2 0.2 0.2 0.2 0 0 0 1 0 0.2 0.2 0.2 0.2 0.2 0.2 0.2 0.2 0.2 0.2 0.2 0.2 0.2 0.2 0.2 0.2 0.2 0.2 0.2 0.2 0.2 0.2 0.2 0.2 0.2 0.2 0.2 0.2 0.2 0.2 0.2 0.2 0.2 0.2 0.2 0.2 0.2 0.2 0.2 0.2 0.2 0.2 0.2 0.2 0.2 0.2 0.2 0.2 0.2 0.2 0.2 0.2 0.2 0.2 0.2 0 0 1 0 0 0.2 0.2 0.2 0.2 0.2 0.2 0.2 0.2 0.2 0.2 0.2 0.2 0.2 0.2 0.2 0.2 0.2 0.2 0.2 0.2 0.2 0.2 0.2 0.2 0.2 0.2 0.2 0.2 0.2 0.2 0.2 0.2 0.2 0.2 0.2 0.2 0.2 0.2 0.2 0.2 0.2 0.2 0.2 0.2 0.2 0.2 0.2 0.2 0.2 0.2 0.2 0.2 0.2 0.2 0.2 0.2 0.2 0.2 0.2 0.2 0.2 0.2 0.2 0.2 0.2 0.2 0.2 0.2 0.2 0.2 0.2 0.2 0.2 0.2 0.2 0.2 0.2 0.2 0.2 0.2 0.2 0.2 0.2 0.2 0.2 0.2 0.2 0.2 0.2 0.2 0.2 0.2 0.2 0.2 0.2 0.2 0.2 0.2 0.2 0.2 0.2 0.2 0.2 0.2 0.2 0.2 0.2 0.2 0.2 0.2 0.2 0.2 0.2 0.2 0.2 0.2 0.2 0.2 0.2 0.2 0.2 0.2 0.2 0.2 0.2 0.2 0.2 0.2 0.2 0.2 0.2 0.2 0.2 0.2 0.2 0.2 0.2 0.2 0.2 0.2 0.2 0.2 0.2 0.2 0.2 0.2 0.2 0.2 0.2 0.2 0.2 0.2 0.2 0.2 0.2 0.2 0.2 0.2 0.2 0.2 0.2 0.2 0.2 0.2 0.2 0.2 0.2 0.2 0.2 0.2 0.2 0.2 0.2 0.2 0.2 0.2 0.2 0.2 0.2 0.2 0.2 0.2 0.2 0.2 0.2 0.2 0.2 0.2 0.2 0.2 0.2 0.2 0.2 0.2 0.2 0 0 1 0 0 0 0 1 0 0 0.2 0.2 0.2 0.2 0.2 0.2 0.2 0.2 0.2 0.2 0.2 0.2 0.2 0.2 0.2 0.2 0.2 0.2 0.2 0.2 0.2 0.2 0.2 0.2 0.2 0.2 0.2 0.2 0.2 0.2 0.2 0.2 0.2 0.2 0.2 0.2 0.2 0.2 0.2 0.2 0.2 0.2 0.2 0.2 0.2 0.2 0.2 0.2 0.2 0.2 0.2 0.2 0.2 0.2 0.2 0.2 0.2 0.2 0.2 0.2 0.2 0.2 0.2 0.2 0.2 0.2 0.2 0.2 0.2 0.2 0.2 0.2 0.2 0.2 0.2 0.2 0.2 0.2 0.2 0.2 0.2 0.2 0.2 0.2 0.2 0.2 0.2 0.2 0.2 0.2 0.2 0.2 0.2 0.2 0.2 0.2 0.2 0.2 0.2 0.2 0.2 0.2 0.2 0.2 0.2 0.2 0.2 0.2 0.2 0.2 0.2 0.2 0.2 0.2 0.2 0.2 0.2 0.2 0.2 0.2 0.2 0.2 0.2 0.2 0.2 0.2 0.2 0.2 0.2 0.2 0.2 0.2 0.2 0.2 0.2 0.2 0.2 0.2 0.2 0.2 0.2 0.2 0.2 0.2 0.2 0.2 0.2 0.2 0.2 0.2 0.2 0.2 0.2 0.2 0.2 0.2 0.2 0.2 0.2 0.2 0.2 0.2 0.2 0.2 0.2 0.2 0.2 0.2 0.2 0.2 0.2 0.2 0.2 0.2 0.2 0.2 0.2 0.2 0.2 0.2 0 0 1 0 0 0.2 0.2 0.2 0.2 0.2 0.2 0.2 0.2 0.2 0.2 0.2 0.2 0.2 0.2 0.2 0.2 0.2 0.2 0.2 0.2 0 0 1 0 0 0.2 0.2 0.2 0.2 0.2 0.2 0.2 0.2 0.2 0.2 0.2 0.2 0.2 0.2 0.2 0.2 0.2 0.2 0.2 0.2 0.2 0.2 0.2 0.2 0.2 0 0 1 0 0 0.2 0.2 0.2 0.2 0.2 0.2 0.2 0.2 0.2 0.2 0.2 0.2 0.2 0.2 0.2 0.2 0.2 0.2 0.2 0.2 0.2 0.2 0.2 0.2 0.2 0.2 0.2 0.2 0.2 0.2 0.2 0.2 0.2 0.2 0.2 0.2 0.2 0.2 0.2 0.2 0.2 0.2 0.2 0.2 0.2 0.2 0.2 0.2 0.2 0.2 0.2 0.2 0.2 0.2 0.2 0.2 0.2 0.2 0.2 0.2 0.2 0.2 0.2 0.2 0.2 0.2 0.2 0.2 0.2 0.2 0.2 0.2 0.2 0.2 0.2 0.2 0.2 0.2 0.2 0.2 0.2 0.2 0.2 0.2 0.2 0.2 0.2 0.2 0.2 0.2 0.2 0.2 0.2 0.2 0.2 0.2 0.2 0.2 0.2 0.2 0.2 0.2 0.2 0.2 0.2 0.2 0.2 0.2 0.2 0.2 0.2 0.2 0.2 0.2 0.2 0.2 0.2 0.2 0.2 0.2 0.2 0.2 0.2 0.2 0.2 0.2 0.2 0.2 0.2 0.2 0.2 0.2 0.2 0.2 0.2 0.2 0.2 0.2 0.2 0.2 0.2 0.2 0.2 0.2 0.2 0.2 0.2 0.2 0.2 0.2 0.2 0.2 0.2 0.2 0.2 0.2 0.2 0.2 0.2 0.2 0.2 0.2 0.2 0.2 0.2 0.2 0.2 0.2 0.2 0.2 0.2 0.2 0.2 0.2 0.2 0.2 0.2 0.2 0.2 0.2 0.2 0.2 0.2 0.2 0.2 0.2 0.2 0.2 0.2 0.2 0.2 0.2 0.2 0.2 0.2 0.2 0.2 0.2 0.2 0.2 0 0 1 0 0 0.2 0.2 0.2 0.2 0.2 0.2 0.2 0.2 0.2 0.2 0.2 0.2 0.2 0.2 0.2 0.2 0.2 0.2 0.2 0.2 0.2 0.2 0.2 0.2 0.2 0.2 0.2 0.2 0.2 0.2 0.2 0.2 0.2 0.2 0.2 0.2 0.2 0.2 0.2 0.2 0.2 0.2 0.2 0.2 0.2 0.2 0.2 0.2 0.2 0.2 0.2 0.2 0.2 0.2 0.2 0.2 0.2 0.2 0.2 0.2 0.2 0.2 0.2 0.2 0.2 0.2 0.2 0.2 0.2 0.2 0.2 0.2 0.2 0.2 0.2 0.2 0.2 0.2 0.2 0.2 0.2 0.2 0.2 0.2 0.2 0.2 0.2 0.2 0.2 0.2 0.2 0.2 0.2 0.2 0.2 0.2 0.2 0.2 0.2 0.2 0.2 0.2 0.2 0.2 0.2 0.2 0.2 0.2 0.2 0.2 0.2 0.2 0.2 0.2 0.2 0.2 0.2 0.2 0.2 0.2 0.2 0.2 0.2 0.2 0.2 0.2 0.2 0.2 0.2 0.2 0.2 0.2 0.2 0.2 0.2 0.2 0.2 0.2 0.2 0.2 0.2 0.2 0.2 0.2 0.2 0.2 0.2 0.2 0.2 0.2 0.2 0.2 0.2 0.2 0.2 0.2 0.2 0.2 0.2 0.2 0.2 0.2 0.2 0.2 0.2 0.2 0.2 0.2 0.2 0.2 0.2 0.2 0.2 0.2 0.2 0.2 0.2 0.2 0.2 0.2 0.2 0.2 0.2 0.2 0.2 0.2 0.2 0.2 0.2 0.2 0.2 0.2 0.2 0.2 0.2 0.2 0.2 0.2 0.2 0.2 0 0 1 0 0 0.2 0.2 0.2 0.2 0.2 0.2 0.2 0.2 0.2 0.2 0.2 0.2 0.2 0.2 0.2 0.2 0.2 0.2 0.2 0.2 0.2 0.2 0.2 0.2 0.2 0.2 0.2 0.2 0.2 0.2 0.2 0.2 0.2 0.2 0.2 0 0 1 0 0 0.2 0.2 0.2 0.2 0.2 0.2 0.2 0.2 0.2 0.2 0.2 0.2 0.2 0.2 0.2 0.2 0.2 0.2 0.2 0.2 0.2 0.2 0.2 0.2 0.2 0.2 0.2 0.2 0.2 0.2 0.2 0.2 0.2 0.2 0.2 0.2 0.2 0.2 0.2 0.2 0.2 0.2 0.2 0.2 0.2 0.2 0.2 0.2 0.2 0.2 0.2 0.2 0.2 0.2 0.2 0.2 0.2 0.2 0.2 0.2 0.2 0.2 0.2 0.2 0.2 0.2 0.2 0.2 0.2 0.2 0.2 0.2 0.2 0.2 0.2 0.2 0.2 0.2 0.2 0.2 0 0 0.3333333333333333 0 0.6666666666666666 0 0 0.4545454545454546 0.1818181818181818 0.3636363636363636 0 0 0.3478260869565217 0.4347826086956522 0.2173913043478261 0 0 0.3023255813953488 0.4418604651162791 0.2558139534883721 0 0 0.4307692307692308 0.4769230769230769 0.09230769230769231 0.04545454545454546 0.02272727272727273 0.4318181818181818 0.2954545454545455 0.2045454545454546 0.3428571428571429 0.3714285714285714 0.05714285714285714 0.2 0.02857142857142857 0 0 1 0 0 0 0 0 0 1 0 0 0.25 0.5 0.25 0 0 0.1111111111111111 0.4814814814814815 0.4074074074074074 0 0 0.3928571428571428 0.4642857142857142 0.1428571428571428 0 0 0.5925925925925926 0.3703703703703703 0.03703703703703703 0 0 0.4615384615384616 0.4615384615384616 0.07692307692307693 0 0 0 0 1 0.2 0.2 0.2 0.2 0.2 0.2 0.2 0.2 0.2 0.2 0 0 0 1 0 0 0 0.5 0.5 0 0 0 0.25 0.625 0.125 0 0 0.3333333333333333 0.6666666666666666 0 0 0 0.6666666666666666 0.3333333333333333 0 0.2 0.2 0.2 0.2 0.2 0.2 0.2 0.2 0.2 0.2 0 0 0.5 0.5 0 0 0 0 1 0 0 0 0.5714285714285714 0.4285714285714285 0 0 0 0.4166666666666666 0.3333333333333333 0.25 0 0 0.2857142857142857 0.4285714285714285 0.2857142857142857 0 0 1 0 0 0.2 0.2 0.2 0.2 0.2 0.2 0.2 0.2 0.2 0.2 0.2 0.2 0.2 0.2 0.2 0.2 0.2 0.2 0.2 0.2 0 0 0.5 0 0.5 0 0 0.4285714285714285 0.5714285714285714 0 0 0 0 1 0 0.2 0.2 0.2 0.2 0.2 0.2 0.2 0.2 0.2 0.2 0.2 0 0.8 0 0 0 0 1 0 0 0 0 0.3333333333333333 0 0.6666666666666666 0 0 0.5 0 0.5 0 0 0.5714285714285714 0.4285714285714285 0 0 0 0.6363636363636364 0.3636363636363636 0 0 0 0.8666666666666667 0.1333333333333333 0 0 0 0.3333333333333333 0.3333333333333333 0.3333333333333333 0 0.03225806451612903 0.6774193548387096 0.2903225806451613 0 0.03703703703703703 0 0.7407407407407407 0.1851851851851852 0.03703703703703703 0 0 0.6666666666666666 0 0.3333333333333333 0 0 0.8181818181818182 0.09090909090909091 0.09090909090909091 0 0 0.7058823529411764 0.1176470588235294 0.1764705882352941 0 0 0.8 0.16 0.04 0 0 0.8500000000000001 0.15 0 0.2 0.2 0.2 0.2 0.2 0 0.1111111111111111 0.5555555555555556 0.2222222222222222 0.1111111111111111 0 0 0.6153846153846154 0.3846153846153846 0 0 0 0 0 1 0 0 0.4615384615384616 0.3076923076923077 0.2307692307692308 0 0 0.8095238095238095 0.1904761904761905 0 0 0 0.6842105263157894 0.3157894736842105 0 0 0 0.6666666666666666 0.3333333333333333 0 1 0 0 0 0 0 0.2 0.2 0.6000000000000001 0 0 0 0.5384615384615385 0.4615384615384616 0 0.2 0.2 0.2 0.2 0.2 0 0 0.2 0.6000000000000001 0.2 0 0 0.4 0.2 0.4 0 0 1 0 0 0 0 0.5 0.5 0 0.2 0.2 0.2 0.2 0.2 0 0 1 0 0 0 0 0 1 0 0 0 0.5 0 0.5 0 0 0.5 0.25 0.25 0 0 0 0.75 0.25 0 0 1 0 0 0 0 1 0 0 0.2 0.2 0.2 0.2 0.2 0 0 1 0 0 0.2 0.2 0.2 0.2 0.2 0.2 0.2 0.2 0.2 0.2 0.2 0.2 0.2 0.2 0.2 0.2 0.2 0.2 0.2 0.2 0.2 0.2 0.2 0.2 0.2 0.2 0.2 0.2 0.2 0.2 0.2 0.2 0.2 0.2 0.2 0 0.02173913043478261 0.6521739130434783 0.2391304347826087 0.08695652173913043 0 0 0.6666666666666666 0.2 0.1333333333333333 0 0 1 0 0 0 0 1 0 0 0.2 0.2 0.2 0.2 0.2 0.2 0.2 0.2 0.2 0.2 0 0 0.6666666666666666 0.3333333333333333 0 0 0 0.75 0.25 0 0 0.04081632653061224 0.4081632653061224 0.3877551020408163 0.163265306122449 0 0 0.611111111111111 0.25 0.1388888888888889 0 0 1 0 0 0 0 0.75 0.25 0 0 0 1 0 0 0 0 0.3333333333333333 0.6666666666666666 0 0 0 0.3333333333333333 0.3333333333333333 0.3333333333333333 0 0 1 0 0 0 0.1111111111111111 0.4444444444444444 0.3703703703703703 0.07407407407407407 0 0 0.6785714285714285 0.25 0.07142857142857142 0 0 0.5 0.5 0 0 0 0.75 0.25 0 0 0 1 0 0 0 0 1 0 0 0 0 1 0 0 0.2 0.2 0.2 0.2 0.2 0 0 0.4615384615384616 0.4615384615384616 0.07692307692307693 0 0 0.1428571428571428 0.7142857142857142 0.1428571428571428 0 0 0.5 0 0.5 0 0 0.6666666666666666 0.3333333333333333 0 0 0 1 0 0 0 0 1 0 0 0.2 0.2 0.2 0.2 0.2 0.2 0.2 0.2 0.2 0.2 0.2 0.2 0.2 0.2 0.2 0.2 0.2 0.2 0.2 0.2 0.2 0.2 0.2 0.2 0.2 0.2 0.2 0.2 0.2 0.2 0.2 0.2 0.2 0.2 0.2 0.2 0.2 0.2 0.2 0.2 0.2 0.2 0.2 0.2 0.2 0.2 0.2 0.2 0.2 0.2 0 0 0.7368421052631579 0.05263157894736842 0.2105263157894737 0 0 0 1 0 0.2 0.2 0.2 0.2 0.2 0.2 0.2 0.2 0.2 0.2 0.2 0.2 0.2 0.2 0.2 0.2 0.2 0.2 0.2 0.2 0.2 0.2 0.2 0.2 0.2 0.2 0.2 0.2 0.2 0.2 0.01052631578947368 0.02105263157894737 0.5684210526315789 0.2631578947368421 0.1368421052631579 0 0 0.5 0.25 0.25 0.2 0.2 0.2 0.2 0.2 0.2 0.2 0.2 0.2 0.2 0.2 0.2 0.2 0.2 0.2 0.2 0.2 0.2 0.2 0.2 0.2 0.2 0.2 0.2 0.2 0.2 0.2 0.2 0.2 0.2 0 0.04 0.48 0.4 0.08 0 0 0.4210526315789473 0.2631578947368421 0.3157894736842105 0 0 0 1 0 0.2 0.2 0.2 0.2 0.2 0.2 0.2 0.2 0.2 0.2 0.2 0.2 0.2 0.2 0.2 0.2 0.2 0.2 0.2 0.2 0.2 0.2 0.2 0.2 0.2 0 0.025 0.5 0.35 0.125 0 0 0.7857142857142857 0.2142857142857143 0 0.2 0.2 0.2 0.2 0.2 0 0 0.5 0 0.5 0.2 0.2 0.2 0.2 0.2 0 0 1 0 0 0 0 1 0 0 0.2 0.2 0.2 0.2 0.2 0.2 0.2 0.2 0.2 0.2 0.2 0.2 0.2 0.2 0.2 0.2 0.2 0.2 0.2 0.2 0.2 0.2 0.2 0.2 0.2 0.2 0.2 0.2 0.2 0.2 0.2 0.2 0.2 0.2 0.2 0.2 0.2 0.2 0.2 0.2 0.2 0.2 0.2 0.2 0.2 0.2 0.2 0.2 0.2 0.2 0.2 0.2 0.2 0.2 0.2 0.2 0.2 0.2 0.2 0.2 0.2 0.2 0.2 0.2 0.2 0.2 0.2 0.2 0.2 0.2 0.2 0.2 0.2 0.2 0.2 0.2 0.2 0.2 0.2 0.2 0.2 0.2 0.2 0.2 0.2 0 0.3888888888888888 0.3333333333333333 0.2222222222222222 0.05555555555555555 0 0 1 0 0 0.2 0.2 0.2 0.2 0.2 0.2 0.2 0.2 0.2 0.2 0.2 0.2 0.2 0.2 0.2 0.2 0.2 0.2 0.2 0.2 0.2 0.2 0.2 0.2 0.2 0.2 0.2 0.2 0.2 0.2 0 0.06521739130434782 0.5 0.3043478260869565 0.1304347826086956 0 0 0.75 0.25 0 0.2 0.2 0.2 0.2 0.2 0.2 0.2 0.2 0.2 0.2 0.2 0.2 0.2 0.2 0.2 0.2 0.2 0.2 0.2 0.2 0.2 0.2 0.2 0.2 0.2 0.2 0.2 0.2 0.2 0.2 0 0.03773584905660377 0.5849056603773585 0.2641509433962264 0.1132075471698113 0 0 0.8333333333333333 0.1666666666666667 0 0.2 0.2 0.2 0.2 0.2 0.2 0.2 0.2 0.2 0.2 0.2 0.2 0.2 0.2 0.2 0.2 0.2 0.2 0.2 0.2 0.2 0.2 0.2 0.2 0.2 0.2 0.2 0.2 0.2 0.2 0 0 0.6666666666666666 0.3333333333333333 0 0 0 0.5 0.25 0.25 0 0 0.3333333333333333 0.6666666666666666 0 0 0 0.3 0.5 0.2 0 0 0.3888888888888888 0.4259259259259259 0.1851851851851852 0 0.01351351351351351 0.4324324324324325 0.4864864864864865 0.06756756756756757 0.2162162162162162 0.3243243243243243 0.2567567567567568 0.1216216216216216 0.08108108108108109 0.2264150943396226 0.6320754716981132 0.05660377358490566 0.07547169811320754 0.009433962264150943 0.0625 0.125 0.1875 0.375 0.25 0 0 0.7777777777777777 0 0.2222222222222222 0 0 0.3888888888888888 0.4444444444444444 0.1666666666666667 0 0 0.3818181818181818 0.3636363636363636 0.2545454545454545 0 0 0.5 0.2980769230769231 0.2019230769230769 0 0.01030927835051546 0.4020618556701031 0.4639175257731959 0.1237113402061856 0.0625 0.15625 0.40625 0.375 0 0.1428571428571428 0.1904761904761905 0.3809523809523809 0.1428571428571428 0.1428571428571428 0 0.07692307692307693 0.3846153846153846 0.3076923076923077 0.2307692307692308 0 0 0.3684210526315789 0.3684210526315789 0.2631578947368421 0 0 0.4838709677419355 0.4838709677419355 0.03225806451612903 0 0 0.475 0.3375 0.1875 0 0 0.4827586206896551 0.396551724137931 0.1206896551724138 0 0 0.4683544303797468 0.4430379746835443 0.08860759493670886 0.05714285714285714 0.1142857142857143 0.3428571428571429 0.4285714285714285 0.05714285714285714 0.3125 0.25 0.125 0.25 0.0625 0.01818181818181818 0.1454545454545454 0.509090909090909 0.2363636363636364 0.09090909090909091 0 0.01123595505617977 0.4719101123595505 0.4382022471910112 0.07865168539325842 0 0 0.5066666666666667 0.4533333333333334 0.04 0 0 0.4260869565217391 0.4260869565217391 0.1478260869565217 0 0 0.4224137931034483 0.4267241379310345 0.1508620689655172 0 0 0.528 0.4 0.07200000000000001 0.02702702702702703 0.05405405405405406 0.6216216216216217 0.2702702702702703 0.02702702702702703 0 0.2 0.4 0.3333333333333333 0.06666666666666667 0 0 0.6428571428571428 0.2857142857142857 0.07142857142857142 0 0 0.4 0.2 0.4 0 0 0.4545454545454546 0.3636363636363636 0.1818181818181818 0 0 0.3653846153846154 0.5192307692307693 0.1153846153846154 0 0 0.432 0.48 0.08799999999999999 0 0 0.3421052631578947 0.4736842105263158 0.1842105263157895 0 0.25 0.75 0 0 0 0 0.3333333333333333 0.6666666666666666 0 0 0 0 1 0 0.2 0.2 0.2 0.2 0.2 0.2 0.2 0.2 0.2 0.2 0.2 0.2 0.2 0.2 0.2 0.2 0.2 0.2 0.2 0.2 0.2 0.2 0.2 0.2 0.2 0 0 0.5 0.5 0 0 0 0 1 0 0 0 0.5 0.4166666666666666 0.08333333333333333 0 0 0.6666666666666666 0.1904761904761905 0.1428571428571428 0 0 0.5 0.5 0 0 0 0.1111111111111111 0.5555555555555556 0.3333333333333333 0 0 0.8 0.2 0 0 0 0.6842105263157894 0.3157894736842105 0 0 0 0.6875 0.25 0.0625 0 0 0.3333333333333333 0.6666666666666666 0 0 0.04545454545454546 0.4090909090909091 0.3409090909090909 0.2045454545454546 0 0 0.5294117647058824 0.3382352941176471 0.1323529411764706 0 0 0.3333333333333333 0.5833333333333333 0.08333333333333333 0 0 0.4651162790697674 0.3953488372093023 0.1395348837209302 0 0 0.5128205128205128 0.282051282051282 0.2051282051282051 0 0 0.65 0.35 0 0 0.07692307692307693 0.6923076923076923 0.2307692307692308 0 0 0 0.6666666666666666 0.3333333333333333 0 0.01496259351620948 0.04239401496259351 0.4389027431421446 0.3940149625935162 0.1097256857855362 0.003215434083601286 0.01768488745980707 0.4823151125401929 0.4212218649517685 0.07556270096463022 0 0 0.4299065420560748 0.4205607476635514 0.1495327102803738 0 0 0.4202334630350195 0.4630350194552529 0.1167315175097276 0 0 0.4714285714285714 0.4071428571428571 0.1214285714285714 0 0.01470588235294118 0.5294117647058824 