<?xml version="1.0" encoding="UTF-8"?>
<smile version="1.0" id="Unnamed" numsamples="10000" discsamples="10000">
	<nodes>
		<cpt id="Tm_offshore">
			<state id="Low" />
			<state id="Medium" />
			<state id="High" />
			<probabilities>0.7598146845444921 0.1454740537045327 0.09471126175097525</probabilities>
		</cpt>
		<cpt id="Hs_offshore">
			<state id="Low" />
			<state id="Medium" />
			<state id="High" />
			<probabilities>0.7222541976650821 0.1812225988218826 0.09652320351303532</probabilities>
		</cpt>
		<cpt id="Dir_offshore">
			<state id="N" />
			<state id="E" />
			<state id="S" />
			<state id="W" />
			<probabilities>0.3722225775049207 0.1676507997413542 0.2815046932844464 0.1786219294692787</probabilities>
		</cpt>
		<cpt id="MSL">
			<state id="Low" />
			<state id="Medium" />
			<state id="High" />
			<probabilities>0.1368833180561773 0.5272679471055118 0.3358487348383108</probabilities>
		</cpt>
		<cpt id="Tide">
			<state id="Low" />
			<state id="Medium" />
			<state id="High" />
			<probabilities>0.32785487412334 0.3795556124007873 0.2925895134758728</probabilities>
		</cpt>
		<cpt id="reef_width">
			<state id="Low" />
			<state id="Medium" />
			<state id="High" />
			<probabilities>0.6133884732081317 0.3409079604641413 0.04570356632772697</probabilities>
		</cpt>
		<cpt id="reef_depth">
			<state id="Low" />
			<state id="Medium" />
			<state id="High" />
			<probabilities>0.517973751714239 0.4422061634442526 0.03982008484150839</probabilities>
		</cpt>
		<cpt id="forereef_slope">
			<state id="Low" />
			<state id="Medium" />
			<state id="High" />
			<probabilities>0.2274022439655234 0.5391059666176377 0.233491789416839</probabilities>
		</cpt>
		<cpt id="TWL_less_Tide">
			<state id="Low" />
			<state id="Medium" />
			<state id="High" />
			<parents>Tm_offshore Hs_offshore Dir_offshore reef_width reef_depth forereef_slope</parents>
			<probabilities>0.1390728476821192 0.5386313465783664 0.3222958057395143 0.3324538258575198 0.4905013192612137 0.1770448548812665 0.3443670150987224 0.532520325203252 0.1231126596980256 0.05949656750572083 0.4298245614035088 0.5106788710907705 0.226907973365204 0.370155369643162 0.4029366569916339 0.07203010213223436 0.2449381831213044 0.6830317147464612 0.3333333333333333 0.3333333333333333 0.3333333333333333 0.2410714285714285 0.4821428571428571 0.2767857142857142 0.01866666666666666 0.2986666666666666 0.6826666666666666 0.04913848117421826 0.414167198468411 0.5366943203573709 0.099170288423548 0.5211378901619913 0.3796918214144607 0.01415094339622642 0.2169811320754717 0.7688679245283019 0.03065825067628494 0.3579801623083859 0.6113615870153291 0.1187139323990107 0.4668865072822204 0.4143995603187689 0.3333333333333333 0.3333333333333333 0.3333333333333333 0.3333333333333333 0.3333333333333333 0.3333333333333333 0.3333333333333333 0.3333333333333333 0.3333333333333333 0.3333333333333333 0.3333333333333333 0.3333333333333333 0 0.005128205128205128 0.9948717948717949 0.3333333333333333 0.3333333333333333 0.3333333333333333 0.3333333333333333 0.3333333333333333 0.3333333333333333 0 0.0101010101010101 0.9898989898989899 0.3333333333333333 0.3333333333333333 0.3333333333333333 0.3333333333333333 0.3333333333333333 0.3333333333333333 0 0.1 0.9 0.3333333333333333 0.3333333333333333 0.3333333333333333 0.3333333333333333 0.3333333333333333 0.3333333333333333 0 0.3529411764705882 0.6470588235294118 0.3531669865642995 0.5138048132289975 0.1330282002067031 0.37119503945885 0.5 0.1288049605411499 0.01265822784810127 0.3734177215189873 0.6139240506329113 0.119279598464718 0.3652199586654857 0.5155004428697963 0.2962466487935657 0.3639410187667561 0.3398123324396783 0.3333333333333333 0.3333333333333333 0.3333333333333333 0 0 1 0.1174698795180723 0.4307228915662651 0.4518072289156627 0.02429906542056075 0.2485981308411215 0.7271028037383178 0.1237604125347084 0.503371677905593 0.3728679095596985 0.2019230769230769 0.4423076923076923 0.3557692307692308 0 0.09969481180061038 0.9003051881993896 0.05128205128205128 0.2051282051282051 0.7435897435897436 0.3333333333333333 0.3333333333333333 0.3333333333333333 0.3333333333333333 0.3333333333333333 0.3333333333333333 0.3333333333333333 0.3333333333333333 0.3333333333333333 0.3333333333333333 0.3333333333333333 0.3333333333333333 0 0 1 0.3333333333333333 0.3333333333333333 0.3333333333333333 0.3333333333333333 0.3333333333333333 0.3333333333333333 0 0.002873563218390805 0.9971264367816092 0.3333333333333333 0.3333333333333333 0.3333333333333333 0.3333333333333333 0.3333333333333333 0.3333333333333333 0 0.07954545454545454 0.9204545454545455 0.3333333333333333 0.3333333333333333 0.3333333333333333 0.3333333333333333 0.3333333333333333 0.3333333333333333 0 0.6000000000000001 0.4 0.2152616279069768 0.515843023255814 0.2688953488372093 0.224668501376032 0.5158869151863897 0.2594445834375782 0.09375 0.28125 0.625 0.2429768358797437 0.3787580088713652 0.3782651552488911 0.2358845671267252 0.5319949811794228 0.2321204516938519 0.3333333333333333 0.3333333333333333 0.3333333333333333 0.4545454545454546 0.2121212121212121 0.3333333333333334 0.09271523178807947 0.2748344370860927 0.6324503311258278 0.01149425287356322 0.1829501915708812 0.8055555555555555 0.08851674641148326 0.4262360446570973 0.4852472089314195 0.1093023255813954 0.3930232558139535 0.4976744186046512 0 0.1063964534515516 0.8936035465484484 0.03125 0.40625 0.5625 0.3333333333333333 0.3333333333333333 0.3333333333333333 0.3333333333333333 0.3333333333333333 0.3333333333333333 0.3333333333333333 0.3333333333333333 0.3333333333333333 0.3333333333333333 0.3333333333333333 0.3333333333333333 0 0.003707136237256719 0.9962928637627433 0.3333333333333333 0.3333333333333333 0.3333333333333333 0.3333333333333333 0.3333333333333333 0.3333333333333333 0 0.005993150684931507 0.9940068493150684 0.3333333333333333 0.3333333333333333 0.3333333333333333 0.3333333333333333 0.3333333333333333 0.3333333333333333 0 0.1032745591939547 0.8967254408060453 0.3333333333333333 0.3333333333333333 0.3333333333333333 0.3333333333333333 0.3333333333333333 0.3333333333333333 0.07569721115537849 0.4223107569721116 0.50199203187251 0.222436206066442 0.4824265767934521 0.2951372171401059 0.1610942249240122 0.4901215805471125 0.3487841945288754 0.04714828897338403 0.3787072243346007 0.5741444866920151 0.1630045988758304 0.3635666836995401 0.4734287174246296 0.04329128440366973 0.2706422018348624 0.6860665137614679 0.3333333333333333 0.3333333333333333 0.3333333333333333 0.1516587677725119 0.3364928909952607 0.5118483412322276 0.02120141342756184 0.1837455830388693 0.7950530035335689 0.03134479271991911 0.3023255813953489 0.6663296258847321 0.05481198215423837 0.4047163798597833 0.5404716379859783 0.01818181818181818 0.1490909090909091 0.8327272727272728 0.03747534516765286 0.3412228796844182 0.6213017751479291 0.06146572104018912 0.3812056737588652 0.5573286052009456 0.3333333333333333 0.3333333333333333 0.3333333333333333 0.3333333333333333 0.3333333333333333 0.3333333333333333 0.3333333333333333 0.3333333333333333 0.3333333333333333 0.3333333333333333 0.3333333333333333 0.3333333333333333 0 0.01785714285714286 0.9821428571428571 0.3333333333333333 0.3333333333333333 0.3333333333333333 0.3333333333333333 0.3333333333333333 0.3333333333333333 0 0.03225806451612903 0.967741935483871 0.3333333333333333 0.3333333333333333 0.3333333333333333 0.3333333333333333 0.3333333333333333 0.3333333333333333 0 0 1 0.3333333333333333 0.3333333333333333 0.3333333333333333 0.3333333333333333 0.3333333333333333 0.3333333333333333 0.4285714285714285 0.3333333333333333 0.2380952380952381 0.5443262411347518 0.3599290780141844 0.09574468085106383 0.5353846153846153 0.3630769230769231 0.1015384615384615 0.3591331269349846 0.541795665634675 0.09907120743034056 0.552 0.238 0.21 0.127039627039627 0.4254079254079254 0.4475524475524476 0.3333333333333333 0.3333333333333333 0.3333333333333333 0.3333333333333333 0.3333333333333333 0.3333333333333333 0.06766917293233082 0.3759398496240601 0.556390977443609 0.07189542483660132 0.2254901960784314 0.7026143790849674 0.1926751592356688 0.4315286624203822 0.3757961783439491 0 0.3076923076923077 0.6923076923076923 0.1879699248120301 0.556390977443609 0.2556390977443609 0.4339622641509434 0.4221698113207547 0.1438679245283019 0.3333333333333333 0.3333333333333333 0.3333333333333333 0.3333333333333333 0.3333333333333333 0.3333333333333333 0.3333333333333333 0.3333333333333333 0.3333333333333333 0.3333333333333333 0.3333333333333333 0.3333333333333333 0 0 1 0.3333333333333333 0.3333333333333333 0.3333333333333333 0.3333333333333333 0.3333333333333333 0.3333333333333333 0 0 1 0.3333333333333333 0.3333333333333333 0.3333333333333333 0.3333333333333333 0.3333333333333333 0.3333333333333333 0 0 1 0.3333333333333333 0.3333333333333333 0.3333333333333333 0.3333333333333333 0.3333333333333333 0.3333333333333333 0.3333333333333333 0.3333333333333333 0.3333333333333333 0.7671232876712328 0.2191780821917808 0.0136986301369863 0.3529411764705882 0.446078431372549 0.2009803921568628 0.3333333333333333 0.3333333333333333 0.3333333333333333 0.0541871921182266 0.1379310344827586 0.8078817733990148 0.3333333333333333 0.3333333333333333 0.3333333333333333 0.3333333333333333 0.3333333333333333 0.3333333333333333 0.0124223602484472 0.1614906832298137 0.826086956521739 0.1617161716171617 0.3795379537953795 0.4587458745874587 0.04444444444444445 0.6666666666666667 0.2888888888888889 0.1666666666666667 0.3666666666666667 0.4666666666666667 0 1 0 0 1 0 0.3333333333333333 0.3333333333333333 0.3333333333333333 0.3333333333333333 0.3333333333333333 0.3333333333333333 0.3333333333333333 0.3333333333333333 0.3333333333333333 0.3333333333333333 0.3333333333333333 0.3333333333333333 0.3333333333333333 0.3333333333333333 0.3333333333333333 0 0 1 0.3333333333333333 0.3333333333333333 0.3333333333333333 0.3333333333333333 0.3333333333333333 0.3333333333333333 0 0 1 0.3333333333333333 0.3333333333333333 0.3333333333333333 0.3333333333333333 0.3333333333333333 0.3333333333333333 0 0 1 0.3333333333333333 0.3333333333333333 0.3333333333333333 0.3333333333333333 0.3333333333333333 0.3333333333333333 0 1 0 0.4646464646464647 0.4103535353535354 0.125 0.411660777385159 0.3851590106007067 0.2031802120141343 0.3333333333333333 0.3333333333333333 0.3333333333333333 0.6360544217687074 0.3197278911564626 0.04421768707482993 0.2222222222222222 0.4814814814814815 0.2962962962962963 0.3333333333333333 0.3333333333333333 0.3333333333333333 1 0 0 0.1052631578947368 0.1578947368421053 0.7368421052631579 0.08376963350785341 0.5287958115183247 0.387434554973822 0.1653027823240589 0.5188216039279869 0.3158756137479542 0.1304347826086956 0.6231884057971014 0.2463768115942029 0.025 0.3 0.675 0 0.5 0.5 0.3333333333333333 0.3333333333333333 0.3333333333333333 0.3333333333333333 0.3333333333333333 0.3333333333333333 0.3333333333333333 0.3333333333333333 0.3333333333333333 0.3333333333333333 0.3333333333333333 0.3333333333333333 0 0.0963855421686747 0.9036144578313253 0.3333333333333333 0.3333333333333333 0.3333333333333333 0.3333333333333333 0.3333333333333333 0.3333333333333333 0 0.03267973856209151 0.9673202614379085 0.3333333333333333 0.3333333333333333 0.3333333333333333 0.3333333333333333 0.3333333333333333 0.3333333333333333 0 0.2857142857142857 0.7142857142857142 0.3333333333333333 0.3333333333333333 0.3333333333333333 0.3333333333333333 0.3333333333333333 0.3333333333333333 0.25 0.3125 0.4375 0.1818181818181818 0.4145454545454546 0.4036363636363636 0.08588957055214724 0.401840490797546 0.5122699386503068 0.1801801801801802 0.5855855855855856 0.2342342342342342 0.4460093896713615 0.3943661971830986 0.1596244131455399 0.1 0.3488888888888889 0.5511111111111111 0.3333333333333333 0.3333333333333333 0.3333333333333333 0.1842105263157895 0.4736842105263158 0.3421052631578947 0.01388888888888889 0.125 0.861111111111111 0.08666666666666667 0.3066666666666667 0.6066666666666667 0.1666666666666667 0.440251572327044 0.3930817610062893 0 0.2403846153846154 0.7596153846153847 0.15 0.5166666666666666 0.3333333333333333 0.1761658031088083 0.4196891191709844 0.4041450777202072 0.3333333333333333 0.3333333333333333 0.3333333333333333 0.3333333333333333 0.3333333333333333 0.3333333333333333 0.3333333333333333 0.3333333333333333 0.3333333333333333 0.3333333333333333 0.3333333333333333 0.3333333333333333 0 0.1538461538461539 0.8461538461538463 0.3333333333333333 0.3333333333333333 0.3333333333333333 0.3333333333333333 0.3333333333333333 0.3333333333333333 0 0.05555555555555555 0.9444444444444444 0.3333333333333333 0.3333333333333333 0.3333333333333333 0.3333333333333333 0.3333333333333333 0.3333333333333333 0.3333333333333333 0.3333333333333333 0.3333333333333333 0.3333333333333333 0.3333333333333333 0.3333333333333333 0.3333333333333333 0.3333333333333333 0.3333333333333333 0.3333333333333333 0.3333333333333333 0.3333333333333333 0.3333333333333333 0.3333333333333333 0.3333333333333333 0.3333333333333333 0.3333333333333333 0.3333333333333333 0.3333333333333333 0.3333333333333333 0.3333333333333333 0.3333333333333333 0.3333333333333333 0.3333333333333333 0.3333333333333333 0.3333333333333333 0.3333333333333333 0.3333333333333333 0.3333333333333333 0.3333333333333333 0.3333333333333333 0.3333333333333333 0.3333333333333333 0.3333333333333333 0.3333333333333333 0.3333333333333333 0.3333333333333333 0.3333333333333333 0.3333333333333333 0.3333333333333333 0.3333333333333333 0.3333333333333333 0.3333333333333333 0.3333333333333333 0.3333333333333333 0.3333333333333333 0.3333333333333333 0.3333333333333333 0.3333333333333333 0.3333333333333333 0.3333333333333333 0.3333333333333333 0.3333333333333333 0.3333333333333333 0.3333333333333333 0.3333333333333333 0.3333333333333333 0.3333333333333333 0.3333333333333333 0.3333333333333333 0.3333333333333333 0.3333333333333333 0.3333333333333333 0.3333333333333333 0.3333333333333333 0.3333333333333333 0.3333333333333333 0.3333333333333333 0.3333333333333333 0.3333333333333333 0.3333333333333333 0.3333333333333333 0.3333333333333333 0.3333333333333333 0.3333333333333333 0.3333333333333333 0.3333333333333333 0.3333333333333333 0.3333333333333333 0.3333333333333333 0.3333333333333333 0.3333333333333333 0.3333333333333333 0.3333333333333333 0.3333333333333333 0.3333333333333333 0.3333333333333333 0.3333333333333333 0.3333333333333333 0.3333333333333333 0.3333333333333333 0.3333333333333333 0.3333333333333333 0.3333333333333333 0.3333333333333333 0.3333333333333333 0.3333333333333333 0.3333333333333333 0.3333333333333333 0.3333333333333333 0.3333333333333333 0.3333333333333333 0.3333333333333333 0.3333333333333333 0.3333333333333333 0.3333333333333333 0.3333333333333333 0.3333333333333333 0.3333333333333333 0.3333333333333333 0.3333333333333333 0.3333333333333333 0.3333333333333333 0.3333333333333333 0 1 0 0.3333333333333333 0.3333333333333333 0.3333333333333333 0.3333333333333333 0.3333333333333333 0.3333333333333333 0.3333333333333333 0.3333333333333333 0.3333333333333333 0.3333333333333333 0.3333333333333333 0.3333333333333333 0.3333333333333333 0.3333333333333333 0.3333333333333333 0.3333333333333333 0.3333333333333333 0.3333333333333333 0.3333333333333333 0.3333333333333333 0.3333333333333333 0.3333333333333333 0.3333333333333333 0.3333333333333333 0.3333333333333333 0.3333333333333333 0.3333333333333333 0.3333333333333333 0.3333333333333333 0.3333333333333333 0.3333333333333333 0.3333333333333333 0.3333333333333333 0.3333333333333333 0.3333333333333333 0.3333333333333333 0.3333333333333333 0.3333333333333333 0.3333333333333333 0.3333333333333333 0.3333333333333333 0.3333333333333333 0.3333333333333333 0.3333333333333333 0.3333333333333333 0.3333333333333333 0.3333333333333333 0.3333333333333333 0.3333333333333333 0.3333333333333333 0.3333333333333333 0.3333333333333333 0.3333333333333333 0.3333333333333333 0.3333333333333333 0.3333333333333333 0.3333333333333333 0.3333333333333333 0.3333333333333333 0.3333333333333333 0.3333333333333333 0.3333333333333333 0.3333333333333333 0.3333333333333333 0.3333333333333333 0.3333333333333333 0.3333333333333333 0.3333333333333333 0.3333333333333333 0.3333333333333333 0.3333333333333333 0.3333333333333333 0.3333333333333333 0.3333333333333333 0.3333333333333333 0.3333333333333333 0.3333333333333333 0.3333333333333333 0.3333333333333333 0.3333333333333333 0.3333333333333333 0.3333333333333333 0.3333333333333333 0.3333333333333333 0.3333333333333333 0.3333333333333333 0.3333333333333333 0.3333333333333333 0.3333333333333333 0.3333333333333333 0.3333333333333333 0.3333333333333333 0.3333333333333333 0.3333333333333333 0.3333333333333333 0.3333333333333333 0.3333333333333333 0.3333333333333333 0.3333333333333333 0.3333333333333333 0.3333333333333333 0.3333333333333333 0.3333333333333333 0.3333333333333333 0.3333333333333333 0.3333333333333333 0.3333333333333333 0.3333333333333333 0.3333333333333333 0.3333333333333333 0.3333333333333333 0.3333333333333333 0.3333333333333333 0.3333333333333333 0.3333333333333333 0.3333333333333333 0.3333333333333333 0.3333333333333333 0.3333333333333333 0.3333333333333333 0.3333333333333333 0.3333333333333333 0.3333333333333333 0.3333333333333333 0.3333333333333333 0.3333333333333333 0.3333333333333333 0.3333333333333333 0.3333333333333333 0.3333333333333333 0.3333333333333333 0.3333333333333333 0.3333333333333333 0.3333333333333333 0.3333333333333333 0.3333333333333333 0.3333333333333333 0.3333333333333333 0.3333333333333333 0.3333333333333333 0.3333333333333333 0.3333333333333333 0.3333333333333333 0.3333333333333333 0.3333333333333333 0.3333333333333333 0.3333333333333333 0.3333333333333333 0.3333333333333333 0.3333333333333333 0.3333333333333333 0.3333333333333333 0.3333333333333333 0.3333333333333333 0.3333333333333333 0.3333333333333333 0.3333333333333333 0.3333333333333333 0.3333333333333333 0.3333333333333333 0.3333333333333333 0.3333333333333333 0.3333333333333333 0.3333333333333333 0.3333333333333333 0.3333333333333333 0.3333333333333333 0.3333333333333333 0.3333333333333333 0.3333333333333333 0.3333333333333333 0.3333333333333333 0.3333333333333333 0.3333333333333333 0.3333333333333333 0.3333333333333333 0.3333333333333333 0.3333333333333333 0.3333333333333333 0.3333333333333333 0.3333333333333333 0.3333333333333333 0.3333333333333333 0.3333333333333333 0.3333333333333333 0.3333333333333333 0.3333333333333333 0.3333333333333333 0.3333333333333333 0.3333333333333333 0.3333333333333333 0.3333333333333333 0.3333333333333333 0.3333333333333333 0.3333333333333333 0.3333333333333333 0.3333333333333333 0.3333333333333333 0.3333333333333333 0.3333333333333333 0.3333333333333333 0.3333333333333333 0.3333333333333333 0.3333333333333333 0.3333333333333333 0.3333333333333333 0.3333333333333333 0.3333333333333333 0.3333333333333333 0.3333333333333333 0.3333333333333333 0.3333333333333333 0.3333333333333333 0.3333333333333333 0.3333333333333333 0.3333333333333333 0.3333333333333333 0.3333333333333333 0.3333333333333333 0 0 1 0.3333333333333333 0.3333333333333333 0.3333333333333333 0.3333333333333333 0.3333333333333333 0.3333333333333333 0.3333333333333333 0.3333333333333333 0.3333333333333333 0.01020408163265306 0.2142857142857143 0.7755102040816326 0.3333333333333333 0.3333333333333333 0.3333333333333333 0.3333333333333333 0.3333333333333333 0.3333333333333333 0.3333333333333333 0.3333333333333333 0.3333333333333333 0 0 1 0 0 1 0.3333333333333333 0.3333333333333333 0.3333333333333333 0.3333333333333333 0.3333333333333333 0.3333333333333333 0 0.6666666666666666 0.3333333333333333 0.3333333333333333 0.3333333333333333 0.3333333333333333 0.3333333333333333 0.3333333333333333 0.3333333333333333 0.3333333333333333 0.3333333333333333 0.3333333333333333 0.3333333333333333 0.3333333333333333 0.3333333333333333 0 0 1 0.3333333333333333 0.3333333333333333 0.3333333333333333 0.3333333333333333 0.3333333333333333 0.3333333333333333 0.3333333333333333 0.3333333333333333 0.3333333333333333 0.3333333333333333 0.3333333333333333 0.3333333333333333 0.3333333333333333 0.3333333333333333 0.3333333333333333 0.3333333333333333 0.3333333333333333 0.3333333333333333 0.3333333333333333 0.3333333333333333 0.3333333333333333 0.3333333333333333 0.3333333333333333 0.3333333333333333 0.3333333333333333 0.3333333333333333 0.3333333333333333 0.3333333333333333 0.3333333333333333 0.3333333333333333 0.3333333333333333 0.3333333333333333 0.3333333333333333 0.3333333333333333 0.3333333333333333 0.3333333333333333 0 0 1 0.3333333333333333 0.3333333333333333 0.3333333333333333 0.3333333333333333 0.3333333333333333 0.3333333333333333 0 0 1 0 0.09090909090909091 0.9090909090909092 0.3333333333333333 0.3333333333333333 0.3333333333333333 0 0.1666666666666667 0.8333333333333333 0.3333333333333333 0.3333333333333333 0.3333333333333333 0.3333333333333333 0.3333333333333333 0.3333333333333333 0.3333333333333333 0.3333333333333333 0.3333333333333333 0.3333333333333333 0.3333333333333333 0.3333333333333333 0.3333333333333333 0.3333333333333333 0.3333333333333333 0.3333333333333333 0.3333333333333333 0.3333333333333333 0.3333333333333333 0.3333333333333333 0.3333333333333333 0 0 1 0.3333333333333333 0.3333333333333333 0.3333333333333333 0.3333333333333333 0.3333333333333333 0.3333333333333333 0.3333333333333333 0.3333333333333333 0.3333333333333333 0.3333333333333333 0.3333333333333333 0.3333333333333333 0.3333333333333333 0.3333333333333333 0.3333333333333333 0.3333333333333333 0.3333333333333333 0.3333333333333333 0.3333333333333333 0.3333333333333333 0.3333333333333333 0.3333333333333333 0.3333333333333333 0.3333333333333333 0.3333333333333333 0.3333333333333333 0.3333333333333333 0.1237458193979933 0.5267558528428093 0.3494983277591973 0.0946372239747634 0.5488958990536278 0.3564668769716088 0.3333333333333333 0.3333333333333333 0.3333333333333333 0.125 0.3977272727272728 0.4772727272727273 0.1785714285714285 0.4285714285714285 0.3928571428571428 0.3333333333333333 0.3333333333333333 0.3333333333333333 0 0.3333333333333333 0.6666666666666666 0.2333333333333333 0.2 0.5666666666666667 0.007633587786259542 0.1679389312977099 0.8244274809160305 0.05122950819672131 0.3422131147540984 0.6065573770491803 0 0.34375 0.65625 0 0.2204301075268817 0.7795698924731184 0.3333333333333333 0.3333333333333333 0.3333333333333333 0.3333333333333333 0.3333333333333333 0.3333333333333333 0.3333333333333333 0.3333333333333333 0.3333333333333333 0.3333333333333333 0.3333333333333333 0.3333333333333333 0.3333333333333333 0.3333333333333333 0.3333333333333333 0 0.03977272727272727 0.9602272727272727 0.3333333333333333 0.3333333333333333 0.3333333333333333 0.3333333333333333 0.3333333333333333 0.3333333333333333 0 0.03977272727272727 0.9602272727272727 0.3333333333333333 0.3333333333333333 0.3333333333333333 0.3333333333333333 0.3333333333333333 0.3333333333333333 0 0.3214285714285714 0.6785714285714285 0.3333333333333333 0.3333333333333333 0.3333333333333333 0.3333333333333333 0.3333333333333333 0.3333333333333333 0.07692307692307693 0.5384615384615385 0.3846153846153846 0.05072463768115942 0.4565217391304348 0.4927536231884058 0.06481481481481481 0.3518518518518519 0.5833333333333333 0.02409638554216868 0.5060240963855422 0.4698795180722892 0.1619047619047619 0.4285714285714286 0.4095238095238096 0.05535055350553506 0.2656826568265683 0.6789667896678967 0.3333333333333333 0.3333333333333333 0.3333333333333333 0.125 0.21875 0.65625 0.1538461538461539 0.3846153846153846 0.4615384615384616 0.05970149253731343 0.1641791044776119 0.7761194029850746 0.02797202797202797 0.3426573426573427 0.6293706293706294 0 0.09090909090909091 0.9090909090909092 0 0.4482758620689655 0.5517241379310345 0.05607476635514018 0.3925233644859813 0.5514018691588785 0.3333333333333333 0.3333333333333333 0.3333333333333333 0.3333333333333333 0.3333333333333333 0.3333333333333333 0.3333333333333333 0.3333333333333333 0.3333333333333333 0.3333333333333333 0.3333333333333333 0.3333333333333333 0 0.1666666666666667 0.8333333333333333 0.3333333333333333 0.3333333333333333 0.3333333333333333 0.3333333333333333 0.3333333333333333 0.3333333333333333 0 0 1 0.3333333333333333 0.3333333333333333 0.3333333333333333 0.3333333333333333 0.3333333333333333 0.3333333333333333 0.3333333333333333 0.3333333333333333 0.3333333333333333 0.3333333333333333 0.3333333333333333 0.3333333333333333 0.3333333333333333 0.3333333333333333 0.3333333333333333 0 0.2061855670103093 0.7938144329896907 0.009803921568627451 0.2450980392156863 0.7450980392156863 0.6666666666666666 0.3333333333333333 0 0.01111111111111111 0.1222222222222222 0.8666666666666667 1 0 0 0.03056768558951965 0.3187772925764192 0.6506550218340612 0.3333333333333333 0.3333333333333333 0.3333333333333333 0.3333333333333333 0.3333333333333333 0.3333333333333333 0 0 1 0 0.1372549019607843 0.8627450980392157 0.004282655246252677 0.1434689507494647 0.8522483940042827 0.3333333333333333 0.3333333333333333 0.3333333333333333 0 0.09012131715771229 0.9098786828422877 0.01661129568106312 0.1461794019933555 0.8372093023255814 0.3333333333333333 0.3333333333333333 0.3333333333333333 0.3333333333333333 0.3333333333333333 0.3333333333333333 0.3333333333333333 0.3333333333333333 0.3333333333333333 0.3333333333333333 0.3333333333333333 0.3333333333333333 0.3333333333333333 0.3333333333333333 0.3333333333333333 0.3333333333333333 0.3333333333333333 0.3333333333333333 0.3333333333333333 0.3333333333333333 0.3333333333333333 0.3333333333333333 0.3333333333333333 0.3333333333333333 0.3333333333333333 0.3333333333333333 0.3333333333333333 0.3333333333333333 0.3333333333333333 0.3333333333333333 0 0.02666666666666667 0.9733333333333334 0.3333333333333333 0.3333333333333333 0.3333333333333333 0.3333333333333333 0.3333333333333333 0.3333333333333333 0.3333333333333333 0.3333333333333333 0.3333333333333333 0.3333333333333333 0.3333333333333333 0.3333333333333333 0 1 0 0.3333333333333333 0.3333333333333333 0.3333333333333333 0.00625 0.46875 0.525 0 1 0 0.3333333333333333 0.3333333333333333 0.3333333333333333 0.1271186440677966 0.4124293785310734 0.4604519774011299 0.4125 0.40625 0.18125 0.3333333333333333 0.3333333333333333 0.3333333333333333 0 0.4615384615384616 0.5384615384615385 0.3333333333333333 0.3333333333333333 0.3333333333333333 0.3333333333333333 0.3333333333333333 0.3333333333333333 0.3333333333333333 0.3333333333333333 0.3333333333333333 0.3333333333333333 0.3333333333333333 0.3333333333333333 0.3333333333333333 0.3333333333333333 0.3333333333333333 0.3333333333333333 0.3333333333333333 0.3333333333333333 0.3333333333333333 0.3333333333333333 0.3333333333333333 0.3333333333333333 0.3333333333333333 0.3333333333333333 0.3333333333333333 0.3333333333333333 0.3333333333333333 0.3333333333333333 0.3333333333333333 0.3333333333333333 0.3333333333333333 0.3333333333333333 0.3333333333333333 0.3333333333333333 0.3333333333333333 0.3333333333333333 0.3333333333333333 0.3333333333333333 0.3333333333333333 0.3333333333333333 0.3333333333333333 0.3333333333333333 0.3333333333333333 0.3333333333333333 0.3333333333333333 0.3333333333333333 0.3333333333333333 0.3333333333333333 0.3333333333333333 0.3333333333333333 0.3333333333333333 0.2837837837837838 0.472972972972973 0.2432432432432433 0.2185970636215334 0.5513866231647635 0.2300163132137031 0.3333333333333333 0.3333333333333333 0.3333333333333333 0.3727272727272727 0.4109090909090909 0.2163636363636364 0.1923076923076923 0.6538461538461539 0.1538461538461539 0.3333333333333333 0.3333333333333333 0.3333333333333333 0 0.6000000000000001 0.4 0.1030927835051546 0.3298969072164948 0.5670103092783505 0.03461538461538462 0.4153846153846154 0.55 0.1009743135518158 0.4402125775022144 0.4588131089459699 0.125 0.3888888888888888 0.4861111111111111 0.0625 0.5 0.4375 0.3333333333333333 0.3333333333333333 0.3333333333333333 0.3333333333333333 0.3333333333333333 0.3333333333333333 0.3333333333333333 0.3333333333333333 0.3333333333333333 0.3333333333333333 0.3333333333333333 0.3333333333333333 0.3333333333333333 0.3333333333333333 0.3333333333333333 0 0.1818181818181818 0.8181818181818182 0.3333333333333333 0.3333333333333333 0.3333333333333333 0.3333333333333333 0.3333333333333333 0.3333333333333333 0 0.1186440677966102 0.8813559322033898 0.3333333333333333 0.3333333333333333 0.3333333333333333 0.3333333333333333 0.3333333333333333 0.3333333333333333 0 0.5 0.5 0.3333333333333333 0.3333333333333333 0.3333333333333333 0.3333333333333333 0.3333333333333333 0.3333333333333333 0 0 1 0.1256281407035176 0.507537688442211 0.3668341708542713 0.09375 0.375 0.53125 0.1666666666666667 0.5490196078431373 0.2843137254901961 0.3144876325088339 0.3780918727915195 0.3074204946996467 0.04316546762589928 0.3093525179856115 0.6474820143884892 0.3333333333333333 0.3333333333333333 0.3333333333333333 0.293103448275862 0.396551724137931 0.3103448275862069 0.08928571428571427 0.375 0.5357142857142857 0.008474576271186441 0.2203389830508475 0.771186440677966 0.05416666666666667 0.3458333333333333 0.6 0 0.2586206896551724 0.7413793103448276 0.1666666666666667 0.5 0.3333333333333333 0.2173913043478261 0.4173913043478261 0.3652173913043478 0.3333333333333333 0.3333333333333333 0.3333333333333333 0.3333333333333333 0.3333333333333333 0.3333333333333333 0.3333333333333333 0.3333333333333333 0.3333333333333333 0.3333333333333333 0.3333333333333333 0.3333333333333333 0 0 1 0.3333333333333333 0.3333333333333333 0.3333333333333333 0.3333333333333333 0.3333333333333333 0.3333333333333333 0 0.5 0.5 0.3333333333333333 0.3333333333333333 0.3333333333333333 0.3333333333333333 0.3333333333333333 0.3333333333333333 0.3333333333333333 0.3333333333333333 0.3333333333333333 0.3333333333333333 0.3333333333333333 0.3333333333333333 0.3333333333333333 0.3333333333333333 0.3333333333333333 0 0.2427983539094651 0.7572016460905351 0.00352112676056338 0.2112676056338028 0.7852112676056339 0.3333333333333333 0.3333333333333333 0.3333333333333333 0 0.03174603174603174 0.9682539682539681 0.3333333333333333 0.3333333333333333 0.3333333333333333 0.08615384615384615 0.3876923076923077 0.5261538461538462 0.3333333333333333 0.3333333333333333 0.3333333333333333 0.3333333333333333 0.3333333333333333 0.3333333333333333 0.3333333333333333 0.3333333333333333 0.3333333333333333 0.0007993605115907274 0.1286970423661071 0.8705035971223022 0.001947419668938656 0.1022395326192795 0.8958130477117819 0.3333333333333333 0.3333333333333333 0.3333333333333333 0.001557632398753894 0.05996884735202492 0.9384735202492211 0 0.06888068880688807 0.931119311193112 0.3333333333333333 0.3333333333333333 0.3333333333333333 0.3333333333333333 0.3333333333333333 0.3333333333333333 0.3333333333333333 0.3333333333333333 0.3333333333333333 0.3333333333333333 0.3333333333333333 0.3333333333333333 0.3333333333333333 0.3333333333333333 0.3333333333333333 0.3333333333333333 0.3333333333333333 0.3333333333333333 0.3333333333333333 0.3333333333333333 0.3333333333333333 0.3333333333333333 0.3333333333333333 0.3333333333333333 0.3333333333333333 0.3333333333333333 0.3333333333333333 0.3333333333333333 0.3333333333333333 0.3333333333333333 0 0.06711409395973154 0.9328859060402684 0.3333333333333333 0.3333333333333333 0.3333333333333333 0.3333333333333333 0.3333333333333333 0.3333333333333333 0.3333333333333333 0.3333333333333333 0.3333333333333333 0.3333333333333333 0.3333333333333333 0.3333333333333333 0.3333333333333333 0.3333333333333333 0.3333333333333333 0.3333333333333333 0.3333333333333333 0.3333333333333333 0.2828282828282829 0.7070707070707072 0.0101010101010101 0.3333333333333333 0.3333333333333333 0.3333333333333333 0.3333333333333333 0.3333333333333333 0.3333333333333333 0.6818181818181819 0.3068181818181818 0.01136363636363636 0.75 0.25 0 0 0 1 0.3333333333333333 0.3333333333333333 0.3333333333333333 0.3333333333333333 0.3333333333333333 0.3333333333333333 0 0 1 0.3333333333333333 0.3333333333333333 0.3333333333333333 0.3333333333333333 0.3333333333333333 0.3333333333333333 0.3333333333333333 0.3333333333333333 0.3333333333333333 0.3333333333333333 0.3333333333333333 0.3333333333333333 0.3333333333333333 0.3333333333333333 0.3333333333333333 0.3333333333333333 0.3333333333333333 0.3333333333333333 0.3333333333333333 0.3333333333333333 0.3333333333333333 0.3333333333333333 0.3333333333333333 0.3333333333333333 0.3333333333333333 0.3333333333333333 0.3333333333333333 0.3333333333333333 0.3333333333333333 0.3333333333333333 0.3333333333333333 0.3333333333333333 0.3333333333333333 0.3333333333333333 0.3333333333333333 0.3333333333333333 0.3333333333333333 0.3333333333333333 0.3333333333333333 0.3333333333333333 0.3333333333333333 0.3333333333333333 0.3333333333333333 0.3333333333333333 0.3333333333333333 0.2407407407407407 0.3888888888888888 0.3703703703703703 0.08333333333333333 0.5833333333333333 0.3333333333333333 0.3333333333333333 0.3333333333333333 0.3333333333333333 0.2727272727272727 0.4545454545454546 0.2727272727272727 0.4 0.6000000000000001 0 0.3333333333333333 0.3333333333333333 0.3333333333333333 0 1 0 0.3448275862068966 0.6206896551724138 0.03448275862068965 0 0.625 0.375 0.03703703703703703 0.4814814814814815 0.4814814814814815 0.25 0.5 0.25 0.3333333333333333 0.3333333333333333 0.3333333333333333 0.3333333333333333 0.3333333333333333 0.3333333333333333 0.3333333333333333 0.3333333333333333 0.3333333333333333 0.3333333333333333 0.3333333333333333 0.3333333333333333 0.3333333333333333 0.3333333333333333 0.3333333333333333 0.3333333333333333 0.3333333333333333 0.3333333333333333 0.3333333333333333 0.3333333333333333 0.3333333333333333 0.3333333333333333 0.3333333333333333 0.3333333333333333 0.3333333333333333 0.3333333333333333 0.3333333333333333 0 0.5 0.5 0.3333333333333333 0.3333333333333333 0.3333333333333333 0.3333333333333333 0.3333333333333333 0.3333333333333333 0.3333333333333333 0.3333333333333333 0.3333333333333333 0.3333333333333333 0.3333333333333333 0.3333333333333333 0.3333333333333333 0.3333333333333333 0.3333333333333333 0.3333333333333333 0.3333333333333333 0.3333333333333333 0 0.4545454545454546 0.5454545454545454 0.07142857142857142 0.5 0.4285714285714285 0.3333333333333333 0.3333333333333333 0.3333333333333333 0.3333333333333333 0.6666666666666666 0 0.1774193548387097 0.532258064516129 0.2903225806451613 0.3333333333333333 0.3333333333333333 0.3333333333333333 0.8333333333333333 0.1666666666666667 0 0 0 1 0 1 0 0 0.5 0.5 0 0.625 0.375 0.3333333333333333 0.3333333333333333 0.3333333333333333 1 0 0 0.3333333333333333 0.3333333333333333 0.3333333333333333 0.3333333333333333 0.3333333333333333 0.3333333333333333 0.3333333333333333 0.3333333333333333 0.3333333333333333 0.3333333333333333 0.3333333333333333 0.3333333333333333 0.3333333333333333 0.3333333333333333 0.3333333333333333 0.3333333333333333 0.3333333333333333 0.3333333333333333 0.3333333333333333 0.3333333333333333 0.3333333333333333 0.3333333333333333 0.3333333333333333 0.3333333333333333 0.3333333333333333 0.3333333333333333 0.3333333333333333 0.3333333333333333 0.3333333333333333 0.3333333333333333 0.3333333333333333 0.3333333333333333 0.3333333333333333 0.3333333333333333 0.3333333333333333 0.3333333333333333 0.3333333333333333 0.3333333333333333 0.3333333333333333 0.3333333333333333 0.3333333333333333 0.3333333333333333 0 0 1 0.3333333333333333 0.3333333333333333 0.3333333333333333 0.3333333333333333 0.3333333333333333 0.3333333333333333 0.3333333333333333 0.3333333333333333 0.3333333333333333 0.03846153846153846 0.3461538461538461 0.6153846153846154 0.3333333333333333 0.3333333333333333 0.3333333333333333 0.3333333333333333 0.3333333333333333 0.3333333333333333 0.3333333333333333 0.3333333333333333 0.3333333333333333 0 0 1 0 0 1 0.3333333333333333 0.3333333333333333 0.3333333333333333 0 0 1 0 0.5 0.5 0.3333333333333333 0.3333333333333333 0.3333333333333333 0.3333333333333333 0.3333333333333333 0.3333333333333333 0.3333333333333333 0.3333333333333333 0.3333333333333333 0.3333333333333333 0.3333333333333333 0.3333333333333333 0 0.5 0.5 0.3333333333333333 0.3333333333333333 0.3333333333333333 0.3333333333333333 0.3333333333333333 0.3333333333333333 0.3333333333333333 0.3333333333333333 0.3333333333333333 0.3333333333333333 0.3333333333333333 0.3333333333333333 0.3333333333333333 0.3333333333333333 0.3333333333333333 0.3333333333333333 0.3333333333333333 0.3333333333333333 0.3333333333333333 0.3333333333333333 0.3333333333333333 0.3333333333333333 0.3333333333333333 0.3333333333333333 0.3333333333333333 0.3333333333333333 0.3333333333333333 0 0 1 0.3333333333333333 0.3333333333333333 0.3333333333333333 0.3333333333333333 0.3333333333333333 0.3333333333333333 0 0 1 0.3333333333333333 0.3333333333333333 0.3333333333333333 0.3333333333333333 0.3333333333333333 0.3333333333333333 0 0 1 0.3333333333333333 0.3333333333333333 0.3333333333333333 0.3333333333333333 0.3333333333333333 0.3333333333333333 0 0 1 0.3333333333333333 0.3333333333333333 0.3333333333333333 0 0 1 0.3333333333333333 0.3333333333333333 0.3333333333333333 0.3333333333333333 0.3333333333333333 0.3333333333333333 0.3333333333333333 0.3333333333333333 0.3333333333333333 0.3333333333333333 0.3333333333333333 0.3333333333333333 0.3333333333333333 0.3333333333333333 0.3333333333333333 0 0 1 0.3333333333333333 0.3333333333333333 0.3333333333333333 0.3333333333333333 0.3333333333333333 0.3333333333333333 0.3333333333333333 0.3333333333333333 0.3333333333333333 0.3333333333333333 0.3333333333333333 0.3333333333333333 0.3333333333333333 0.3333333333333333 0.3333333333333333 0.3333333333333333 0.3333333333333333 0.3333333333333333 0.3333333333333333 0.3333333333333333 0.3333333333333333 0.3333333333333333 0.3333333333333333 0.3333333333333333 0.3333333333333333 0.3333333333333333 0.3333333333333333 0.1167883211678832 0.4744525547445255 0.4087591240875912 0.03225806451612903 0.4623655913978495 0.5053763440860215 0.3333333333333333 0.3333333333333333 0.3333333333333333 0.06593406593406594 0.478021978021978 0.4560439560439561 0.09090909090909091 0.4545454545454546 0.4545454545454546 0.3333333333333333 0.3333333333333333 0.3333333333333333 0.3333333333333333 0.3333333333333333 0.3333333333333333 0.1666666666666667 0.5 0.3333333333333333 0 0.1951219512195122 0.8048780487804879 0.02 0.26 0.72 0 0.6666666666666666 0.3333333333333333 0 0.2232142857142857 0.7767857142857142 0.3333333333333333 0.3333333333333333 0.3333333333333333 0.3333333333333333 0.3333333333333333 0.3333333333333333 0.3333333333333333 0.3333333333333333 0.3333333333333333 0.3333333333333333 0.3333333333333333 0.3333333333333333 0.3333333333333333 0.3333333333333333 0.3333333333333333 0 0.01538461538461539 0.9846153846153847 0.3333333333333333 0.3333333333333333 0.3333333333333333 0.3333333333333333 0.3333333333333333 0.3333333333333333 0 0.06521739130434782 0.9347826086956521 0.3333333333333333 0.3333333333333333 0.3333333333333333 0.3333333333333333 0.3333333333333333 0.3333333333333333 0 0.3636363636363636 0.6363636363636364 0.3333333333333333 0.3333333333333333 0.3333333333333333 0.3333333333333333 0.3333333333333333 0.3333333333333333 0 0.25 0.75 0.0625 0.390625 0.546875 0 0.5 0.5 0.02 0.36 0.62 0.1 0.4111111111111111 0.4888888888888889 0.06315789473684211 0.3157894736842105 0.6210526315789473 0.3333333333333333 0.3333333333333333 0.3333333333333333 0.09090909090909091 0.3636363636363636 0.5454545454545454 0 0.3636363636363636 0.6363636363636364 0 0.2173913043478261 0.7826086956521738 0.04545454545454546 0.3181818181818182 0.6363636363636364 0 0.25 0.75 0 0.2727272727272727 0.7272727272727273 0 0.3544303797468354 0.6455696202531646 0.3333333333333333 0.3333333333333333 0.3333333333333333 0.3333333333333333 0.3333333333333333 0.3333333333333333 0.3333333333333333 0.3333333333333333 0.3333333333333333 0.3333333333333333 0.3333333333333333 0.3333333333333333 0 0 1 0.3333333333333333 0.3333333333333333 0.3333333333333333 0.3333333333333333 0.3333333333333333 0.3333333333333333 0.3333333333333333 0.3333333333333333 0.3333333333333333 0.3333333333333333 0.3333333333333333 0.3333333333333333 0.3333333333333333 0.3333333333333333 0.3333333333333333 0.3333333333333333 0.3333333333333333 0.3333333333333333 0.3333333333333333 0.3333333333333333 0.3333333333333333 0.3333333333333333 0.3333333333333333 0.3333333333333333 0 0.1935483870967742 0.8064516129032259 0 0.2385321100917431 0.761467889908257 0.3333333333333333 0.3333333333333333 0.3333333333333333 0 0.05405405405405406 0.9459459459459459 0.3333333333333333 0.3333333333333333 0.3333333333333333 0.01886792452830189 0.2767295597484277 0.7044025157232705 0.3333333333333333 0.3333333333333333 0.3333333333333333 0.3333333333333333 0.3333333333333333 0.3333333333333333 0.3333333333333333 0.3333333333333333 0.3333333333333333 0 0.1175373134328358 0.8824626865671642 0 0.1031175059952038 0.8968824940047961 0.3333333333333333 0.3333333333333333 0.3333333333333333 0 0.06751824817518248 0.9324817518248175 0 0.1091445427728614 0.8908554572271387 0.3333333333333333 0.3333333333333333 0.3333333333333333 0.3333333333333333 0.3333333333333333 0.3333333333333333 0.3333333333333333 0.3333333333333333 0.3333333333333333 0.3333333333333333 0.3333333333333333 0.3333333333333333 0.3333333333333333 0.3333333333333333 0.3333333333333333 0.3333333333333333 0.3333333333333333 0.3333333333333333 0.3333333333333333 0.3333333333333333 0.3333333333333333 0.3333333333333333 0.3333333333333333 0.3333333333333333 0.3333333333333333 0.3333333333333333 0.3333333333333333 0.3333333333333333 0.3333333333333333 0.3333333333333333 0 0.02127659574468085 0.9787234042553191 0.3333333333333333 0.3333333333333333 0.3333333333333333 0.3333333333333333 0.3333333333333333 0.3333333333333333 0.3333333333333333 0.3333333333333333 0.3333333333333333 0 0 1 0.3333333333333333 0.3333333333333333 0.3333333333333333 0.3333333333333333 0.3333333333333333 0.3333333333333333 0.0303030303030303 0.3939393939393939 0.5757575757575758 0.3333333333333333 0.3333333333333333 0.3333333333333333 0.3333333333333333 0.3333333333333333 0.3333333333333333 0.1276595744680851 0.3546099290780142 0.5177304964539007 0.2142857142857143 0.7142857142857142 0.07142857142857142 0 0 1 0.1 0.2 0.7000000000000001 0.3333333333333333 0.3333333333333333 0.3333333333333333 0 0.2 0.8 0 0 1 0.3333333333333333 0.3333333333333333 0.3333333333333333 0.3333333333333333 0.3333333333333333 0.3333333333333333 0.3333333333333333 0.3333333333333333 0.3333333333333333 0.3333333333333333 0.3333333333333333 0.3333333333333333 0.3333333333333333 0.3333333333333333 0.3333333333333333 0.3333333333333333 0.3333333333333333 0.3333333333333333 0.3333333333333333 0.3333333333333333 0.3333333333333333 0.3333333333333333 0.3333333333333333 0.3333333333333333 0.3333333333333333 0.3333333333333333 0.3333333333333333 0.3333333333333333 0.3333333333333333 0.3333333333333333 0.3333333333333333 0.3333333333333333 0.3333333333333333 0.3333333333333333 0.3333333333333333 0.3333333333333333 0.3333333333333333 0.3333333333333333 0.3333333333333333 0.3333333333333333 0.3333333333333333 0.3333333333333333 0.1735294117647059 0.4735294117647059 0.3529411764705882 0.1675977653631285 0.4581005586592179 0.3743016759776536 0.3333333333333333 0.3333333333333333 0.3333333333333333 0.2647058823529412 0.3823529411764706 0.3529411764705882 0.07692307692307693 0.6923076923076923 0.2307692307692308 0.3333333333333333 0.3333333333333333 0.3333333333333333 0.3333333333333333 0.3333333333333333 0.3333333333333333 0.1612903225806452 0.2903225806451613 0.5483870967741935 0.04651162790697674 0.4069767441860465 0.5465116279069767 0.1246458923512748 0.4107648725212465 0.4645892351274788 0.03636363636363636 0.3818181818181818 0.5818181818181818 0 0.6666666666666666 0.3333333333333333 0.3333333333333333 0.3333333333333333 0.3333333333333333 0.3333333333333333 0.3333333333333333 0.3333333333333333 0.3333333333333333 0.3333333333333333 0.3333333333333333 0.3333333333333333 0.3333333333333333 0.3333333333333333 0.3333333333333333 0.3333333333333333 0.3333333333333333 0 0.1944444444444444 0.8055555555555555 0.3333333333333333 0.3333333333333333 0.3333333333333333 0.3333333333333333 0.3333333333333333 0.3333333333333333 0 0.1290322580645161 0.870967741935484 0.3333333333333333 0.3333333333333333 0.3333333333333333 0.3333333333333333 0.3333333333333333 0.3333333333333333 0.3333333333333333 0.3333333333333333 0.3333333333333333 0.3333333333333333 0.3333333333333333 0.3333333333333333 0.3333333333333333 0.3333333333333333 0.3333333333333333 0.3333333333333333 0.3333333333333333 0.3333333333333333 0 0.4313725490196079 0.5686274509803921 0.02173913043478261 0.4782608695652174 0.5 0.1111111111111111 0.5555555555555556 0.3333333333333333 0.05128205128205128 0.5128205128205128 0.4358974358974359 0.04733727810650887 0.3846153846153846 0.5680473372781065 0.3333333333333333 0.3333333333333333 0.3333333333333333 0.4285714285714285 0.3571428571428571 0.2142857142857143 0 0.5714285714285714 0.4285714285714285 0 0.28 0.72 0 0.1555555555555556 0.8444444444444444 0 0.3913043478260869 0.6086956521739131 0 0 1 0 0.1666666666666667 0.8333333333333333 0.3333333333333333 0.3333333333333333 0.3333333333333333 0.3333333333333333 0.3333333333333333 0.3333333333333333 0.3333333333333333 0.3333333333333333 0.3333333333333333 0.3333333333333333 0.3333333333333333 0.3333333333333333 0 0.1818181818181818 0.8181818181818182 0.3333333333333333 0.3333333333333333 0.3333333333333333 0.3333333333333333 0.3333333333333333 0.3333333333333333 0.3333333333333333 0.3333333333333333 0.3333333333333333 0.3333333333333333 0.3333333333333333 0.3333333333333333 0.3333333333333333 0.3333333333333333 0.3333333333333333 0.3333333333333333 0.3333333333333333 0.3333333333333333 0.3333333333333333 0.3333333333333333 0.3333333333333333 0.3333333333333333 0.3333333333333333 0.3333333333333333 0 0.1521739130434783 0.8478260869565217 0.003225806451612903 0.1129032258064516 0.8838709677419355 0.3333333333333333 0.3333333333333333 0.3333333333333333 0.003021148036253776 0.03021148036253776 0.9667673716012084 0.3333333333333333 0.3333333333333333 0.3333333333333333 0.07865168539325842 0.348314606741573 0.5730337078651685 0.3333333333333333 0.3333333333333333 0.3333333333333333 0.3333333333333333 0.3333333333333333 0.3333333333333333 0.3333333333333333 0.3333333333333333 0.3333333333333333 0.001246882793017456 0.08541147132169576 0.9133416458852868 0.003028009084027252 0.05526116578349735 0.9417108251324754 0.3333333333333333 0.3333333333333333 0.3333333333333333 0.0025756600128783 0.03992273019961365 0.957501609787508 0.006198347107438017 0.05268595041322315 0.9411157024793388 0.3333333333333333 0.3333333333333333 0.3333333333333333 0.3333333333333333 0.3333333333333333 0.3333333333333333 0.3333333333333333 0.3333333333333333 0.3333333333333333 0.3333333333333333 0.3333333333333333 0.3333333333333333 0.3333333333333333 0.3333333333333333 0.3333333333333333 0.3333333333333333 0.3333333333333333 0.3333333333333333 0.3333333333333333 0.3333333333333333 0.3333333333333333 0.3333333333333333 0.3333333333333333 0.3333333333333333 0.3333333333333333 0.3333333333333333 0.3333333333333333 0.3333333333333333 0.3333333333333333 0.3333333333333333 0 0.06626506024096386 0.9337349397590362 0.3333333333333333 0.3333333333333333 0.3333333333333333 0.3333333333333333 0.3333333333333333 0.3333333333333333 0.3333333333333333 0.3333333333333333 0.3333333333333333 0.3333333333333333 0.3333333333333333 0.3333333333333333 0.3333333333333333 0.3333333333333333 0.3333333333333333 0.3333333333333333 0.3333333333333333 0.3333333333333333 0.2857142857142857 0.6666666666666666 0.04761904761904762 0.3333333333333333 0.3333333333333333 0.3333333333333333 0.3333333333333333 0.3333333333333333 0.3333333333333333 0.6190476190476191 0.3809523809523809 0 0.3333333333333333 0.3333333333333333 0.3333333333333333 0 0 1 0.3333333333333333 0.3333333333333333 0.3333333333333333 0.3333333333333333 0.3333333333333333 0.3333333333333333 0.3333333333333333 0.3333333333333333 0.3333333333333333 0.3333333333333333 0.3333333333333333 0.3333333333333333 0.3333333333333333 0.3333333333333333 0.3333333333333333 0.3333333333333333 0.3333333333333333 0.3333333333333333 0.3333333333333333 0.3333333333333333 0.3333333333333333 0.3333333333333333 0.3333333333333333 0.3333333333333333 0.3333333333333333 0.3333333333333333 0.3333333333333333 0.3333333333333333 0.3333333333333333 0.3333333333333333 0.3333333333333333 0.3333333333333333 0.3333333333333333 0.3333333333333333 0.3333333333333333 0.3333333333333333 0.3333333333333333 0.3333333333333333 0.3333333333333333 0.3333333333333333 0.3333333333333333 0.3333333333333333 0.3333333333333333 0.3333333333333333 0.3333333333333333 0.3333333333333333 0.3333333333333333 0.3333333333333333 0.3333333333333333 0.3333333333333333 0.3333333333333333 0.3333333333333333 0.3333333333333333 0.3333333333333333 0.4615384615384615 0.3974358974358974 0.141025641025641 0.3396226415094339 0.4905660377358491 0.169811320754717 0.3333333333333333 0.3333333333333333 0.3333333333333333 0.32 0.3733333333333334 0.3066666666666667 0.3 0.3 0.4 0.3333333333333333 0.3333333333333333 0.3333333333333333 1 0 0 0.375 0.4375 0.1875 0.125 0.53125 0.34375 0.3809523809523809 0.4126984126984127 0.2063492063492063 0.3684210526315789 0.2631578947368421 0.3684210526315789 0.3333333333333333 0.3333333333333333 0.3333333333333333 0.3333333333333333 0.3333333333333333 0.3333333333333333 0.3333333333333333 0.3333333333333333 0.3333333333333333 0.3333333333333333 0.3333333333333333 0.3333333333333333 0.3333333333333333 0.3333333333333333 0.3333333333333333 0.3333333333333333 0.3333333333333333 0.3333333333333333 0.3333333333333333 0.3333333333333333 0.3333333333333333 0.3333333333333333 0.3333333333333333 0.3333333333333333 0.3333333333333333 0.3333333333333333 0.3333333333333333 0 0 1 0.3333333333333333 0.3333333333333333 0.3333333333333333 0.3333333333333333 0.3333333333333333 0.3333333333333333 0.3333333333333333 0.3333333333333333 0.3333333333333333 0.3333333333333333 0.3333333333333333 0.3333333333333333 0.3333333333333333 0.3333333333333333 0.3333333333333333 0.3333333333333333 0.3333333333333333 0.3333333333333333 0 0 1 0.2 0.4 0.4 0.3333333333333333 0.3333333333333333 0.3333333333333333 0.3333333333333333 0.3333333333333333 0.3333333333333333 0.04347826086956522 0.5652173913043478 0.3913043478260869 0.3333333333333333 0.3333333333333333 0.3333333333333333 0 1 0 0.3333333333333333 0.3333333333333333 0.3333333333333333 0 0.5 0.5 0 0.4 0.6000000000000001 0 1 0 0.3333333333333333 0.3333333333333333 0.3333333333333333 0.3333333333333333 0.3333333333333333 0.3333333333333333 0.3333333333333333 0.3333333333333333 0.3333333333333333 0.3333333333333333 0.3333333333333333 0.3333333333333333 0.3333333333333333 0.3333333333333333 0.3333333333333333 0.3333333333333333 0.3333333333333333 0.3333333333333333 0.3333333333333333 0.3333333333333333 0.3333333333333333 0.3333333333333333 0.3333333333333333 0.3333333333333333 0.3333333333333333 0.3333333333333333 0.3333333333333333 0.3333333333333333 0.3333333333333333 0.3333333333333333 0.3333333333333333 0.3333333333333333 0.3333333333333333 0.3333333333333333 0.3333333333333333 0.3333333333333333 0.3333333333333333 0.3333333333333333 0.3333333333333333 0.3333333333333333 0.3333333333333333 0.3333333333333333 0.3333333333333333 0.3333333333333333 0.3333333333333333</probabilities>
		</cpt>
		<cpt id="TWL">
			<state id="VeryLow" />
			<state id="Low" />
			<state id="Medium" />
			<state id="High" />
			<state id="VeryHigh" />
			<parents>MSL Tide TWL_less_Tide</parents>
			<probabilities>0 0.4090909090909091 0.5835777126099707 0.007331378299120235 0 0.04166666666666666 0.8744588744588745 0.08387445887445888 0 0 0.3753619373519347 0.6246380626480652 0 0 0 0 0 0.5805142083897159 0.4167794316644114 0.002706359945872801 0 0.05953533397870281 0.9269119070667958 0.01355275895450145 0 0.0002238638907544213 0.57062905753302 0.4291470785762257 0 0 0 0 0 0.654357459379616 0.3456425406203841 0 0 0.2138728323699422 0.7589595375722544 0.02716763005780347 0 0.001535626535626536 0.7487714987714987 0.2496928746928747 0 0 0.4229328723710746 0.5704407951598963 0.006626332469029098 0 0.03869303525365434 0.8791303279695368 0.08217663677680874 0 0 0.2642616793176305 0.7357383206823694 0 0 0 0 0 0.5539757767245919 0.4394418114797261 0.006582411795681938 0 0.06195652173913044 0.9220652173913044 0.01597826086956522 0 0 0.4667508977257614 0.5332491022742386 0 0 0 0 0 0.6684938658313757 0.3315061341686244 0 0 0.2013815090329437 0.7703241232731136 0.02829436769394261 0 0 0.69178345171818 0.3082165482818199 0 0 0.3565101860053144 0.6324180690876883 0.01107174490699734 0 0.05117674932870005 0.881535302479861 0.06728794819143895 0 0 0.2238325281803543 0.7761674718196457 0 0 0 0 0 0.5152922957801006 0.4777390631049168 0.006968641114982578 0 0.07450353192056511 0.9129681460749034 0.01252832200453152 0 0 0.3962852156569434 0.6037147843430566 0 0 0 0 0 0.6528893991580559 0.3471106008419441 0 0 0.2310659186535764 0.744039270687237 0.02489481065918654 0 0 0.6306273062730627 0.3693726937269373 0</probabilities>
		</cpt>
	</nodes>
	<extensions>
		<genie version="1.0" app="SMILE 1.6.2@b061b4f1f63d " name="Unnamed">
			<node id="Tm_offshore">
				<name>Tm_offshore</name>
				<interior color="e5f6f7" />
				<outline color="0000bb" />
				<font color="000000" name="MS Sans Serif" size="8" />
				<position>-38 -18 38 18</position>
			</node>
			<node id="Hs_offshore">
				<name>Hs_offshore</name>
				<interior color="e5f6f7" />
				<outline color="0000bb" />
				<font color="000000" name="MS Sans Serif" size="8" />
				<position>-38 -18 38 18</position>
			</node>
			<node id="Dir_offshore">
				<name>Dir_offshore</name>
				<interior color="e5f6f7" />
				<outline color="0000bb" />
				<font color="000000" name="MS Sans Serif" size="8" />
				<position>-38 -18 38 18</position>
			</node>
			<node id="MSL">
				<name>MSL</name>
				<interior color="e5f6f7" />
				<outline color="0000bb" />
				<font color="000000" name="MS Sans Serif" size="8" />
				<position>-38 -18 38 18</position>
			</node>
			<node id="Tide">
				<name>Tide</name>
				<interior color="e5f6f7" />
				<outline color="0000bb" />
				<font color="000000" name="MS Sans Serif" size="8" />
				<position>-38 -18 38 18</position>
			</node>
			<node id="TWL">
				<name>TWL</name>
				<interior color="e5f6f7" />
				<outline color="0000bb" />
				<font color="000000" name="MS Sans Serif" size="8" />
				<position>-38 -18 38 18</position>
			</node>
			<node id="TWL_less_Tide">
				<name>TWL_less_Tide</name>
				<interior color="e5f6f7" />
				<outline color="0000bb" />
				<font color="000000" name="MS Sans Serif" size="8" />
				<position>-38 -18 38 18</position>
			</node>
			<node id="reef_width">
				<name>reef_width</name>
				<interior color="e5f6f7" />
				<outline color="0000bb" />
				<font color="000000" name="MS Sans Serif" size="8" />
				<position>-38 -18 38 18</position>
			</node>
			<node id="reef_depth">
				<name>reef_depth</name>
				<interior color="e5f6f7" />
				<outline color="0000bb" />
				<font color="000000" name="MS Sans Serif" size="8" />
				<position>-38 -18 38 18</position>
			</node>
			<node id="forereef_slope">
				<name>forereef_slope</name>
				<interior color="e5f6f7" />
				<outline color="0000bb" />
				<font color="000000" name="MS Sans Serif" size="8" />
				<position>-38 -18 38 18</position>
			</node>
		</genie>
	</extensions>
</smile>
