<?xml version="1.0" encoding="UTF-8"?>
<!-- This file was created by ACADEMIC version of SMILE -->
<smile version="1.0" id="Unnamed" numsamples="10000" discsamples="10000">
	<nodes>
		<cpt id="Hs_point_218">
			<state id="S0" />
			<state id="S1" />
			<state id="S2" />
			<state id="S3" />
			<probabilities>0.2790253791069924 0.3936394271272114 0.2582183726481325 0.06911682111766358</probabilities>
		</cpt>
		<cpt id="Tm_point_218">
			<state id="S0" />
			<state id="S1" />
			<state id="S2" />
			<state id="S3" />
			<parents>Hs_point_218</parents>
			<probabilities>0.8122847572769731 0.1436524036420248 0.02454749885990156 0.01951534022110047 0.7607789370429819 0.1967852684144819 0.03028580345996076 0.01214999108257535 0.1369097180920661 0.808119084436439 0.04533636935207055 0.00963482811942429 1.586999301720307e-05 0.7469212213546627 0.2498095600837936 0.00325334856852663</probabilities>
		</cpt>
		<cpt id="MSL">
			<state id="S0" />
			<state id="S1" />
			<state id="S2" />
			<state id="S3" />
			<parents>Hs_point_218 Tm_point_218</parents>
			<probabilities>0.08367212606961706 0.3798737755062531 0.3920315948426066 0.1444225035815232 0.03721948549534757 0.2459770114942529 0.4149972632731254 0.3018062397372742 0.009609224855861628 0.1332479180012812 0.4080717488789238 0.4490711082639334 0.008863819500402902 0.2046736502820306 0.4343271555197422 0.3521353746978244 0.0884236128408375 0.4125067764574878 0.3766684737219967 0.122401136979678 0.09119746233148295 0.2839016653449643 0.3341452362070919 0.2907556361164609 0.02024291497975709 0.1030548398969452 0.3154214206845786 0.5612808244387192 0.01834862385321101 0.136697247706422 0.2688073394495413 0.5761467889908257 0.04319225518182947 0.4221174134293161 0.4066029539530843 0.1280873774357701 0.09481254074058498 0.3930020817124714 0.3437979687532856 0.1683874087936581 0.02998500749625187 0.1502998500749625 0.2544977511244378 0.5652173913043478 0.0004401408450704225 0.190580985915493 0.2345950704225352 0.5743838028169014 0.25 0.25 0.25 0.25 0.1110827808941016 0.267805541390447 0.3703042665306816 0.2508074111847697 0.08767471410419314 0.1870393900889454 0.2899618805590851 0.4353240152477764 0.004807692307692308 0.1586538461538461 0.1778846153846154 0.6586538461538461</probabilities>
		</cpt>
		<cpt id="TWL_point_218">
			<state id="S0" />
			<state id="S1" />
			<state id="S2" />
			<state id="S3" />
			<parents>Tm_point_218</parents>
			<probabilities>0.2874681546083994 0.3355996311404948 0.2589987652584361 0.1179334489926697 0.1582241731698253 0.3077968227424749 0.3174122073578595 0.2165667967298402 0.1245289954967374 0.2367429464203658 0.3542872897711608 0.284440768311736 0.2566971854866056 0.2882332994235334 0.3004408273991184 0.1546286876907426</probabilities>
		</cpt>
		<cpt id="Tide">
			<state id="S0" />
			<state id="S1" />
			<state id="S2" />
			<state id="S3" />
			<parents>MSL Hs_point_218 Tm_point_218 TWL_point_218</parents>
			<probabilities>0.5940553745928339 0.4056731813246471 0.0001357220412595005 0.0001357220412595005 0.02966101694915254 0.4850773765659543 0.4850773765659543 0.0001842299189388357 0.0002805836139169473 0.01150392817059484 0.569304152637486 0.4189113355780023 0.001059322033898305 0.001059322033898305 0.03495762711864406 0.9629237288135594 0.6825 0.3125 0.0025 0.0025 0.04047619047619048 0.4023809523809524 0.5547619047619048 0.002380952380952381 0.002777777777777778 0.025 0.4805555555555556 0.4916666666666666 0.00510204081632653 0.00510204081632653 0.00510204081632653 0.9846938775510204 0.7083333333333334 0.2083333333333333 0.04166666666666666 0.04166666666666666 0.125 0.125 0.625 0.125 0.04166666666666666 0.04166666666666666 0.2083333333333333 0.7083333333333334 0.05 0.05 0.05 0.85 0.75 0.2045454545454546 0.02272727272727273 0.02272727272727273 0.125 0.625 0.125 0.125 0.25 0.25 0.25 0.25 0.25 0.25 0.25 0.25 0.6494536940686785 0.3502861602497399 0.0001300728407908429 0.0001300728407908429 0.04560219890054973 0.5738380809595203 0.3804347826086957 0.0001249375312343828 0.0001607717041800643 0.02202572347266881 0.5969453376205788 0.3808681672025723 0.000445632798573975 0.000445632798573975 0.05213903743315508 0.946969696969697 0.7489690721649485 0.25 0.0005154639175257732 0.0005154639175257732 0.0625 0.6903195488721805 0.2467105263157895 0.0004699248120300752 0.004694835680751174 0.06572769953051644 0.687793427230047 0.2417840375586854 0.001470588235294118 0.001470588235294118 0.06029411764705882 0.9367647058823529 0.25 0.7205882352941176 0.01470588235294118 0.01470588235294118 0.0119047619047619 0.5357142857142857 0.4404761904761905 0.0119047619047619 0.03125 0.03125 0.40625 0.53125 0.01923076923076923 0.01923076923076923 0.01923076923076923 0.9423076923076923 0.125 0.625 0.125 0.125 0.04166666666666666 0.375 0.5416666666666666 0.04166666666666666 0.01923076923076923 0.01923076923076923 0.25 0.7115384615384616 0.08333333333333333 0.08333333333333333 0.08333333333333333 0.75 0.5492424242424242 0.4431818181818182 0.003787878787878788 0.003787878787878788 0.1221804511278195 0.5582706766917294 0.3176691729323308 0.001879699248120301 0.002173913043478261 0.04565217391304348 0.6543478260869565 0.2978260869565217 0.006578947368421052 0.006578947368421052 0.03289473684210526 0.9539473684210527 0.8273809523809523 0.1719924812030075 0.0003132832080200501 0.0003132832080200501 0.151377688172043 0.6762432795698925 0.1722110215053763 0.0001680107526881721 0.002758620689655172 0.1144827586206897 0.7413793103448276 0.1413793103448276 0.0003221649484536082 0.0003221649484536082 0.1420747422680412 0.8572809278350515 0.25 0.25 0.25 0.25 0.078125 0.453125 0.453125 0.015625 0.005434782608695652 0.005434782608695652 0.4402173913043478 0.5489130434782609 0.0119047619047619 0.0119047619047619 0.1071428571428571 0.8690476190476191 0.25 0.25 0.25 0.25 0.25 0.25 0.25 0.25 0.25 0.25 0.25 0.25 0.25 0.25 0.25 0.25 0.25 0.25 0.25 0.25 0.25 0.25 0.25 0.25 0.25 0.25 0.25 0.25 0.25 0.25 0.25 0.25 0.8155172413793104 0.1810344827586207 0.001724137931034483 0.001724137931034483 0.1810109289617486 0.7274590163934426 0.09084699453551913 0.0006830601092896175 0.006355932203389831 0.1991525423728814 0.690677966101695 0.1038135593220339 0.0007645259938837921 0.006880733944954129 0.1995412844036697 0.7928134556574924 0.375 0.6083333333333333 0.008333333333333333 0.008333333333333333 0.1691176470588235 0.5024509803921569 0.3259803921568628 0.002450980392156863 0.002173913043478261 0.2369565217391304 0.6804347826086956 0.08043478260869565 0.002450980392156863 0.002450980392156863 0.4338235294117647 0.5612745098039216 0.25 0.25 0.25 0.25 0.25 0.25 0.25 0.25 0.25 0.25 0.25 0.25 0.25 0.25 0.25 0.25 0.6643316019682887 0.3356000546746856 3.417167851284855e-05 3.417167851284855e-05 0.03487368586223129 0.6217244625764946 0.3433626235681783 3.922799309587322e-05 0.001960357220649096 0.02940535830973644 0.6737094314964061 0.2949248529732085 0.0001858736059479554 0.001672862453531599 0.05446096654275093 0.9436802973977695 0.5473856209150327 0.4515250544662309 0.0005446623093681918 0.0005446623093681918 0.02184139784946237 0.5608198924731183 0.417002688172043 0.0003360215053763441 0.00129366106080207 0.01681759379042691 0.6235446313065977 0.3583441138421734 0.0009124087591240876 0.004562043795620438 0.05200729927007299 0.9425182481751825 0.6613924050632911 0.3322784810126582 0.003164556962025316 0.003164556962025316 0.005 0.625 0.365 0.005 0.004464285714285714 0.004464285714285714 0.4330357142857143 0.5580357142857143 0.009259259259259259 0.009259259259259259 0.009259259259259259 0.9722222222222222 0.7225 0.2725 0.0025 0.0025 0.003289473684210526 0.5164473684210527 0.4769736842105263 0.003289473684210526 0.003787878787878788 0.003787878787878788 0.5340909090909091 0.4583333333333333 0.015625 0.015625 0.015625 0.953125 0.7194055944055944 0.2805296555296555 3.237503237503238e-05 3.237503237503238e-05 0.06996487119437939 0.663961038961039 0.2660474771130509 2.661273153076432e-05 0.0009070882467280031 0.05351820655695218 0.7136192821044447 0.2319554230918751 7.521058965102287e-05 0.0006768953068592057 0.08130264741275571 0.9179452466907341 0.8128378378378378 0.1867117117117117 0.0002252252252252252 0.0002252252252252252 0.1290462427745665 0.6937861271676301 0.1770231213872832 0.0001445086705202312 0.002756719503790489 0.1006202618883529 0.7195037904893177 0.1771192281185389 0.0003453038674033149 0.0003453038674033149 0.137085635359116 0.8622237569060773 0.509493670886076 0.4841772151898734 0.003164556962025316 0.003164556962025316 0.002941176470588235 0.5794117647058824 0.4147058823529412 0.002941176470588235 0.003012048192771084 0.003012048192771084 0.6415662650602409 0.3524096385542169 0.006756756756756757 0.006756756756756757 0.006756756756756757 0.9797297297297297 0.6192307692307693 0.3730769230769231 0.003846153846153846 0.003846153846153846 0.02976190476190476 0.5773809523809523 0.3869047619047619 0.005952380952380952 0.00641025641025641 0.00641025641025641 0.4935897435897436 0.4935897435897436 0.03571428571428571 0.03571428571428571 0.03571428571428571 0.8928571428571429 0.8258865248226951 0.1734042553191489 0.0003546099290780142 0.0003546099290780142 0.1045652173913044 0.7106521739130435 0.1845652173913044 0.0002173913043478261 0.0002448579823702253 0.1060235063663075 0.705435847208619 0.1882957884427032 0.0004725897920604915 0.002362948960302457 0.08742911153119093 0.9097353497164461 0.8659598948060486 0.1338757396449704 8.21827744904668e-05 8.21827744904668e-05 0.2020878920495988 0.675282640408461 0.1225838803792852 4.558716265499635e-05 0.004229402808323465 0.1811876163085772 0.7147690746066655 0.09981390627643377 5.87406015037594e-05 0.004288063909774436 0.1875587406015038 0.8080944548872181 0.5863636363636363 0.4045454545454545 0.004545454545454545 0.004545454545454545 0.001724137931034483 0.3948275862068966 0.6017241379310345 0.001724137931034483 0.001712328767123288 0.001712328767123288 0.5633561643835616 0.4332191780821918 0.00423728813559322 0.00423728813559322 0.00423728813559322 0.9872881355932204 0.625 0.125 0.125 0.125 0.007352941176470588 0.3014705882352941 0.6838235294117647 0.007352941176470588 0.004901960784313725 0.004901960784313725 0.5735294117647058 0.4166666666666667 0.01 0.01 0.01 0.97 0.25 0.25 0.25 0.25 0.25 0.25 0.25 0.25 0.25 0.25 0.25 0.25 0.25 0.25 0.25 0.25 0.7858255451713395 0.2126168224299065 0.000778816199376947 0.000778816199376947 0.2561063218390804 0.5980603448275862 0.1454741379310345 0.0003591954022988506 0.01706161137440758 0.2843601895734597 0.6199052132701421 0.07867298578199051 0.0002310536044362292 0.01132162661737523 0.2636321626617375 0.7248151571164511 0.7168367346938775 0.2780612244897959 0.002551020408163265 0.002551020408163265 0.05674846625766871 0.5904907975460123 0.3512269938650307 0.001533742331288344 0.01067615658362989 0.04626334519572953 0.5266903914590747 0.4163701067615658 0.001269035532994924 0.001269035532994924 0.06725888324873096 0.9302030456852792 0.25 0.25 0.25 0.25 0.25 0.25 0.25 0.25 0.0625 0.0625 0.0625 0.8125 0.04166666666666666 0.04166666666666666 0.04166666666666666 0.875 0.7658912943344081 0.2340319361277445 3.838476892369108e-05 3.838476892369108e-05 0.09586902860461739 0.6951139828662698 0.2089806882532307 3.63002758820967e-05 0.002113271344040575 0.08284023668639054 0.7214708368554522 0.1935756551141166 0.0001178689297501179 0.001532296086751532 0.1194012258368694 0.878948609146629 0.7684956843403206 0.2308877928483354 0.0003082614056720099 0.0003082614056720099 0.08546462063086104 0.6796675191815856 0.2346547314578005 0.0002131287297527707 0.0008818342151675485 0.05908289241622575 0.7248677248677249 0.2151675485008818 0.0003698224852071006 0.0003698224852071006 0.1009615384615385 0.8982988165680473 0.7582872928176796 0.2389502762430939 0.00138121546961326 0.00138121546961326 0.05952380952380952 0.7314814814814815 0.2076719576719577 0.001322751322751323 0.001497005988023952 0.0374251497005988 0.6961077844311377 0.2649700598802395 0.002403846153846154 0.002403846153846154 0.07932692307692307 0.9158653846153846 0.7247807017543859 0.2730263157894737 0.001096491228070175 0.001096491228070175 0.03834355828220859 0.6947852760736196 0.2653374233128835 0.001533742331288344 0.002525252525252525 0.04292929292929293 0.6388888888888888 0.3156565656565656 0.004716981132075472 0.004716981132075472 0.02358490566037736 0.9669811320754716 0.8109233305853256 0.1889942291838417 4.122011541632317e-05 4.122011541632317e-05 0.1168030391583869 0.7169199298655757 0.1662478082992402 2.922267679719462e-05 0.004863137418368765 0.1050437682367653 0.7494789495623176 0.1406141447825483 6.420133538777607e-05 0.004173086800205444 0.1420775552131484 0.8536851566512583 0.8065711462450593 0.1929347826086956 0.0002470355731225296 0.0002470355731225296 0.1180555555555556 0.7171121593291404 0.1647012578616352 0.0001310272536687631 0.006256517205422315 0.1220020855057351 0.7419186652763295 0.129822732012513 0.0002349624060150376 0.004934210526315789 0.1524906015037594 0.8423402255639098 0.7521551724137931 0.2435344827586207 0.002155172413793103 0.002155172413793103 0.01940639269406393 0.6221461187214612 0.3573059360730594 0.001141552511415525 0.0007575757575757576 0.03712121212121212 0.6977272727272728 0.2643939393939394 0.001275510204081633 0.001275510204081633 0.05739795918367347 0.9400510204081632 0.7202380952380952 0.2678571428571428 0.005952380952380952 0.005952380952380952 0.003289473684210526 0.6611842105263158 0.3322368421052632 0.003289473684210526 0.002083333333333333 0.02708333333333333 0.6604166666666667 0.3104166666666667 0.00423728813559322 0.00423728813559322 0.03813559322033899 0.9533898305084746 0.8603646833013435 0.1386756238003839 0.0004798464491362764 0.0004798464491362764 0.130830223880597 0.7567630597014925 0.1121735074626866 0.0002332089552238806 0.008720930232558139 0.1356589147286822 0.7674418604651163 0.08817829457364341 0.000382262996941896 0.003440366972477064 0.1563455657492355 0.8398318042813455 0.8872365339578454 0.1125292740046838 0.000117096018735363 0.000117096018735363 0.2372608356110894 0.6749804763764155 0.08770987895353377 4.880905896134323e-05 0.01339712918660287 0.1938755980861244 0.7247846889952153 0.06794258373205742 6.458279514337381e-05 0.006522862309480754 0.2434125548953759 0.75 0.6620879120879121 0.3324175824175824 0.002747252747252747 0.002747252747252747 0.02195945945945946 0.6368243243243243 0.339527027027027 0.001689189189189189 0.0009960159362549801 0.01693227091633466 0.6862549800796812 0.2958167330677291 0.001295336787564767 0.001295336787564767 0.07383419689119171 0.9235751295336787 0.4375 0.5208333333333334 0.02083333333333333 0.02083333333333333 0.005319148936170213 0.6223404255319149 0.3670212765957447 0.005319148936170213 0.004545454545454545 0.004545454545454545 0.6772727272727272 0.3136363636363637 0.0108695652173913 0.0108695652173913 0.0108695652173913 0.9673913043478261 0.25 0.25 0.25 0.25 0.25 0.25 0.25 0.25 0.25 0.25 0.25 0.25 0.25 0.25 0.25 0.25 0.8511730205278593 0.1473607038123167 0.0007331378299120235 0.0007331378299120235 0.2249754661432777 0.7048577036310107 0.06992149165848871 0.0002453385672227674 0.01607717041800643 0.2610932475884244 0.6688102893890675 0.05401929260450161 0.0001730103806228374 0.007785467128027681 0.2998269896193771 0.6922145328719723 0.7901785714285714 0.2008928571428572 0.004464285714285714 0.004464285714285714 0.1205357142857143 0.5014880952380952 0.3764880952380952 0.001488095238095238 0.02036199095022624 0.1470588235294118 0.5927601809954751 0.2398190045248869 0.0005230125523012552 0.01098326359832636 0.2076359832635983 0.7808577405857741 0.25 0.25 0.25 0.25 0.125 0.125 0.625 0.125 0.04166666666666666 0.04166666666666666 0.2083333333333333 0.7083333333333334 0.0625 0.0625 0.0625 0.8125 0.8512067395264117 0.1485655737704918 0.0001138433515482696 0.0001138433515482696 0.1563488924050633 0.7251780063291139 0.1183742088607595 9.889240506329114e-05 0.01343033016228316 0.1158365976496922 0.7498601007274762 0.1208729714605484 0.0002626050420168067 0.005514705882352942 0.1546743697478992 0.8395483193277311 0.8417030567685589 0.1575691411935953 0.000363901018922853 0.000363901018922853 0.1270120724346077 0.732645875251509 0.1400905432595573 0.0002515090543259558 0.008995502248875561 0.09595202398800599 0.7856071964017991 0.1094452773613193 0.0006067961165048543 0.005461165048543689 0.1268203883495146 0.8671116504854369 0.8866120218579235 0.110655737704918 0.001366120218579235 0.001366120218579235 0.0712719298245614 0.7554824561403509 0.1721491228070176 0.001096491228070175 0.001506024096385542 0.07379518072289157 0.7183734939759037 0.2063253012048193 0.001953125 0.009765625 0.103515625 0.884765625 0.8681818181818182 0.1287878787878788 0.001515151515151515 0.001515151515151515 0.1221804511278195 0.768796992481203 0.1071428571428571 0.001879699248120301 0.002840909090909091 0.07102272727272728 0.7755681818181818 0.1505681818181818 0.004545454545454545 0.004545454545454545 0.05909090909090909 0.9318181818181818 0.8846478873239436 0.1150704225352113 0.0001408450704225352 0.0001408450704225352 0.1875399872040947 0.7086532309660909 0.1037268074216251 7.99744081893794e-05 0.008605072463768116 0.1798007246376812 0.7355072463768116 0.07608695652173914 0.0002003205128205128 0.009815705128205128 0.2614182692307692 0.7285657051282052 0.8508064516129032 0.1486559139784946 0.0002688172043010753 0.0002688172043010753 0.1212162905888828 0.7530269675288938 0.1256191524490919 0.0001375894331315355 0.01335113484646195 0.1528704939919893 0.7263017356475301 0.1074766355140187 0.0002805836139169473 0.01262626262626263 0.1820987654320988 0.8049943883277216 0.7763761467889908 0.2213302752293578 0.001146788990825688 0.001146788990825688 0.05080482897384306 0.7429577464788732 0.2057344064386318 0.0005030181086519115 0.0004664179104477612 0.03031716417910448 0.8213619402985075 0.1478544776119403 0.0008992805755395684 0.008093525179856115 0.1447841726618705 0.8462230215827338 0.8326923076923077 0.1634615384615385 0.001923076923076923 0.001923076923076923 0.04322429906542056 0.7628504672897196 0.1927570093457944 0.00116822429906542 0.001282051282051282 0.02692307692307692 0.7653846153846153 0.2064102564102564 0.002688172043010753 0.002688172043010753 0.1209677419354839 0.8736559139784946 0.9107142857142857 0.08603896103896104 0.001623376623376623 0.001623376623376623 0.2006578947368421 0.7322368421052632 0.06644736842105263 0.0006578947368421052 0.006666666666666667 0.2266666666666667 0.71 0.05666666666666666 0.001243781094527363 0.006218905472636816 0.2898009950248756 0.7027363184079602 0.8718684759916493 0.1276096033402923 0.0002609603340292275 0.0002609603340292275 0.1914450178642318 0.7253870583564906 0.08306867804684398 9.924573243350536e-05 0.008020415603353991 0.1961356179365658 0.7349617207437112 0.06088224571636894 0.0001395868230039084 0.004048017867113345 0.2631211613623674 0.7326912339475153 0.8430851063829787 0.1515957446808511 0.002659574468085106 0.002659574468085106 0.0211864406779661 0.7567796610169492 0.2211864406779661 0.000847457627118644 0.0003930817610062893 0.04441823899371069 0.7613993710691824 0.1937893081761006 0.000513347022587269 0.000513347022587269 0.1052361396303901 0.8937371663244353 0.9318181818181818 0.02272727272727273 0.02272727272727273 0.02272727272727273 0.01923076923076923 0.7423076923076923 0.2346153846153846 0.003846153846153846 0.001655629139072848 0.008278145695364239 0.7764900662251656 0.2135761589403974 0.002427184466019417 0.002427184466019417 0.03155339805825243 0.9635922330097088 0.25 0.25 0.25 0.25 0.25 0.25 0.25 0.25 0.25 0.25 0.25 0.25 0.25 0.25 0.25 0.25 0.8965798045602605 0.1017915309446254 0.0008143322475570033 0.0008143322475570033 0.2418082524271845 0.6847694174757282 0.07311893203883495 0.0003033980582524272 0.02070393374741201 0.2939958592132505 0.6532091097308489 0.03209109730848862 0.0002917152858809801 0.007292882147024504 0.3433488914819137 0.6490665110851809 0.8395522388059702 0.1529850746268657 0.003731343283582089 0.003731343283582089 0.09943181818181818 0.709280303030303 0.1903409090909091 0.000946969696969697 0.03005008347245409 0.1435726210350584 0.7445742904841403 0.08180300500834725 0.0003180661577608143 0.004134860050890585 0.1987913486005089 0.7967557251908397 0.25 0.25 0.25 0.25 0.08333333333333333 0.75 0.08333333333333333 0.08333333333333333 0.02083333333333333 0.02083333333333333 0.8541666666666666 0.1041666666666667 0.01136363636363636 0.01136363636363636 0.01136363636363636 0.9659090909090909</probabilities>
		</cpt>
	</nodes>
	<extensions>
		<genie version="1.0" app="SMILE_ACADEMIC 1.6.0" name="Unnamed">
			<node id="Tide">
				<name>Tide</name>
				<interior color="e5f6f7" />
				<outline color="0000bb" />
				<font color="000000" name="MS Sans Serif" size="8" />
				<position>-38 -18 38 18</position>
			</node>
			<node id="MSL">
				<name>MSL</name>
				<interior color="e5f6f7" />
				<outline color="0000bb" />
				<font color="000000" name="MS Sans Serif" size="8" />
				<position>-38 -18 38 18</position>
			</node>
			<node id="Hs_point_218">
				<name>Hs_point_218</name>
				<interior color="e5f6f7" />
				<outline color="0000bb" />
				<font color="000000" name="MS Sans Serif" size="8" />
				<position>-38 -18 38 18</position>
			</node>
			<node id="Tm_point_218">
				<name>Tm_point_218</name>
				<interior color="e5f6f7" />
				<outline color="0000bb" />
				<font color="000000" name="MS Sans Serif" size="8" />
				<position>-38 -18 38 18</position>
			</node>
			<node id="TWL_point_218">
				<name>TWL_point_218</name>
				<interior color="e5f6f7" />
				<outline color="0000bb" />
				<font color="000000" name="MS Sans Serif" size="8" />
				<position>-38 -18 38 18</position>
			</node>
		</genie>
	</extensions>
</smile>
