<?xml version="1.0" encoding="UTF-8"?>
<!-- This file was created by ACADEMIC version of SMILE -->
<smile version="1.0" id="Unnamed" numsamples="10000" discsamples="10000">
	<nodes>
		<cpt id="Wind">
			<state id="S0" />
			<state id="S1" />
			<state id="S2" />
			<state id="S3" />
			<probabilities>0.25 0.2499912243751755 0.25 0.2500087756248245</probabilities>
		</cpt>
		<cpt id="WindDir">
			<state id="S0" />
			<state id="S1" />
			<state id="S2" />
			<state id="S3" />
			<probabilities>0.2499868365627633 0.2499912243751755 0.249982448750351 0.2500394903117102</probabilities>
		</cpt>
		<cpt id="Hs_offshore">
			<state id="S0" />
			<state id="S1" />
			<state id="S2" />
			<state id="S3" />
			<parents>Wind WindDir</parents>
			<probabilities>0.4404706249026025 0.2154043945769051 0.1703288140875799 0.1737961664329126 0.5163733570951214 0.2415905546892404 0.1513700155936734 0.0906660726219648 0.512987012987013 0.2474158494566658 0.1463026769149218 0.09329446064139942 0.4965503246753247 0.225784632034632 0.1551001082251082 0.1225649350649351 0.3166116759814154 0.2372230826206989 0.190492222745943 0.2556730186519426 0.3693335228080148 0.3097911041637061 0.200866846667614 0.1200085263606651 0.3653255528255528 0.3119625307125307 0.2063882063882064 0.1163237100737101 0.3414309484193012 0.3084193011647254 0.2043926788685524 0.145757071547421 0.1442873361544019 0.2428527195789039 0.2362472907420786 0.3766126535246155 0.1731242312423124 0.3187576875768758 0.3110086100861009 0.1971094710947109 0.1609767388033792 0.3566138178451568 0.2918065038768661 0.1906029394745979 0.1363404874499818 0.3169152419061477 0.3245543834121499 0.2221898872317206 0.02305986696230599 0.1210643015521064 0.2164079822616408 0.6394678492239468 0.02077907371758578 0.1772732419884498 0.3679085041331672 0.4340391801607972 0.02133891213389121 0.1839435146443515 0.3773535564853556 0.4173640167364017 0.01734792643883553 0.1466756012210558 0.3280470553197826 0.5079294170203261</probabilities>
		</cpt>
		<cpt id="Tm_offshore">
			<state id="S0" />
			<state id="S1" />
			<state id="S2" />
			<state id="S3" />
			<parents>Wind WindDir</parents>
			<probabilities>0.09965716066697834 0.07881408757986598 0.1430964625214275 0.6784322892317283 0.2394742704388505 0.14791713076409 0.1983738026286478 0.4142347961684117 0.2316459051152929 0.1492181288099655 0.2152133580705009 0.4039226080042407 0.15625 0.1149215367965368 0.1885146103896104 0.5403138528138528 0.2560770318497071 0.1559490943370817 0.1869234394990236 0.4010504343141876 0.4401733693335228 0.2307801620008526 0.2000852636066505 0.128961205058974 0.4382678132678133 0.2208230958230958 0.2089219901719902 0.1319871007371007 0.3373044925124792 0.2206988352745424 0.2364725457570716 0.2055241264559068 0.2581277737640623 0.2215914955103726 0.1883579316750955 0.3319227990504696 0.4141451414514145 0.3531980319803198 0.1912054120541205 0.04145141451414514 0.444740192107395 0.3291285730818193 0.1822705705358176 0.04386066427496817 0.3374317933794107 0.3281193161149509 0.24496180429247 0.08948708621316842 0.08233555062823356 0.2134515890613451 0.2453806356245381 0.4588322246858832 0.1055939304722002 0.4002944173932737 0.4476276752349677 0.04648397689955838 0.1148012552301255 0.4291317991631799 0.4217050209205021 0.03436192468619247 0.09329163874618419 0.315613133794952 0.4593105502196411 0.1317846772392227</probabilities>
		</cpt>
		<cpt id="Dir_offshore">
			<state id="S0" />
			<state id="S1" />
			<state id="S2" />
			<state id="S3" />
			<parents>Wind WindDir</parents>
			<probabilities>0.01437587657784011 0.05080255571139162 0.4611968209443665 0.4736247467664018 0.04912007128536423 0.1328803742481622 0.5149253731343284 0.3030741813321453 0.057381394116088 0.129075006626027 0.4893983567452955 0.3241452425125895 0.0403814935064935 0.08130411255411256 0.463474025974026 0.4148403679653679 0.02518348932731803 0.1457140933270487 0.3646892465153861 0.4644131708302471 0.1188006252664488 0.3335938610203212 0.3793519965894557 0.1682535171237743 0.1938728501228501 0.2979883292383292 0.3211762899262899 0.1869625307125307 0.1800332778702163 0.1613311148086523 0.291846921797005 0.3667886855241265 0.04665084116007844 0.2881618330065022 0.2578181442873362 0.4073691815460832 0.2410824108241083 0.5299507995079951 0.16230012300123 0.06666666666666667 0.4082860780002315 0.393878023376924 0.1138757088299965 0.08396018979284806 0.4507821025827574 0.1864678064750818 0.1081847944707166 0.2545652964714442 0.04035476718403547 0.379009608277901 0.1089430894308943 0.4716925351071692 0.3914052768655871 0.5563922545578077 0.03623598686445476 0.01596648171215038 0.6920502092050209 0.2602510460251046 0.02102510460251046 0.02667364016736402 0.7308465490283672 0.07393343756980121 0.02062392971483881 0.1745960836869928</probabilities>
		</cpt>
		<cpt id="Tide">
			<state id="S0" />
			<state id="S1" />
			<state id="S2" />
			<state id="S3" />
			<probabilities>0.2499956121875878 0.2500043878124122 0.2499956121875878 0.2500043878124122</probabilities>
		</cpt>
		<cpt id="MSL">
			<state id="S0" />
			<state id="S1" />
			<state id="S2" />
			<state id="S3" />
			<probabilities>0.25 0.25 0.2499956121875878 0.2500043878124122</probabilities>
		</cpt>
		<cpt id="Hs_point_110">
			<state id="S0" />
			<state id="S1" />
			<state id="S2" />
			<state id="S3" />
			<parents>Tm_offshore Hs_offshore Dir_offshore</parents>
			<probabilities>0.1611953320972843 0.3360235576398735 0.3245719271458175 0.1782091831170247 0.2521351419241397 0.3686259733735243 0.2789500125596584 0.1002888721426777 0.4116267381470933 0.3503099346624225 0.177584184955604 0.06047914223488021 0.4198280222559433 0.3753161355589277 0.1254425897824987 0.07941325240263025 0.03465955701394586 0.2143150123051682 0.4279122231337162 0.3231132075471698 0.06117104849691003 0.3244998428825809 0.4021158479103383 0.2122132607101707 0.2184075967859752 0.408327246165084 0.2921840759678597 0.08108108108108109 0.1592039800995025 0.4195688225538972 0.2437810945273632 0.1774461028192371 0.01435045317220544 0.1185800604229607 0.4750755287009064 0.3919939577039275 0.01591289782244556 0.1758793969849246 0.4522613065326633 0.3559463986599665 0.06930693069306931 0.3267326732673267 0.4752475247524752 0.1287128712871287 0.07692307692307693 0.05128205128205128 0.6410256410256411 0.2307692307692308 0.25 0.25 0.25 0.25 0.125 0.625 0.125 0.125 0.25 0.25 0.25 0.25 0.25 0.25 0.25 0.25 0.2795698924731183 0.178494623655914 0.2236559139784946 0.3182795698924731 0.3992431409649952 0.2781456953642384 0.2071901608325449 0.1154210028382214 0.4570113829014289 0.3221118914991523 0.1821264228626786 0.03875030273674013 0.4523809523809524 0.3133997785160576 0.1605758582502768 0.07364341085271318 0.0415424739195231 0.1371087928464978 0.2624813710879285 0.5588673621460507 0.07464539007092198 0.300531914893617 0.3780141843971631 0.2468085106382979 0.2922434629751703 0.4091408481652384 0.2261041529334212 0.07251153592617007 0.2312276519666269 0.3837902264600715 0.2594358363130711 0.1255462852602304 0.009167492566897919 0.1022464486290056 0.3143376280145359 0.5742484307895607 0.01831057157309054 0.1810824481537683 0.4074860900354072 0.3931208902377339 0.1739492301290054 0.3986683312526009 0.3433208489388265 0.08406158967956721 0.1124929338609384 0.3459581684567553 0.3951384963256077 0.1464104013566987 8.409014463504877e-05 0.04246552304069963 0.2627817019845274 0.6946686848301379 0.003225806451612903 0.1172043010752688 0.4026881720430108 0.4768817204301075 0.04724409448818898 0.562992125984252 0.2834645669291339 0.1062992125984252 0.04639175257731959 0.2783505154639175 0.4845360824742268 0.1907216494845361 0.6622516556291391 0.2384105960264901 0.03973509933774835 0.05960264900662252 0.4788359788359788 0.3253968253968254 0.1111111111111111 0.08465608465608465 0.5283882783882784 0.2909798534798535 0.1428571428571428 0.03777472527472527 0.496900826446281 0.2680785123966942 0.1828512396694215 0.05216942148760331 0.1084070796460177 0.06637168141592921 0.1747787610619469 0.6504424778761062 0.1613636363636364 0.2045454545454546 0.2113636363636364 0.4227272727272727 0.4562922868741542 0.3109607577807849 0.1967523680649526 0.03599458728010826 0.4476038338658147 0.2821086261980831 0.2089456869009585 0.06134185303514377 0.008763388510223954 0.0508763388510224 0.1222005842259007 0.8181596884128529 0.0622356495468278 0.1546827794561934 0.3093655589123867 0.4737160120845921 0.2766186276618628 0.4218111421811142 0.2305872230587223 0.07098300709830072 0.272262935820564 0.3875194314901177 0.2462802576060404 0.09393737508327782 0.00157775367320777 0.02553988758505078 0.1325313085494527 0.8403510501922887 0.004914715235617231 0.05926568372361955 0.281584272911246 0.6542353281295172 0.0995260663507109 0.3253554502369668 0.4305687203791469 0.1445497630331753 0.08775376555337262 0.2322636978825584 0.3804846103470858 0.2994979262169832 0.7642857142857142 0.05952380952380952 0.1738095238095238 0.002380952380952381 0.6532663316582915 0.2763819095477387 0.04020100502512563 0.03015075376884422 0.5567986230636833 0.2994836488812392 0.110671256454389 0.03304647160068847 0.5768468723464478 0.2830455703368242 0.09227285592980469 0.04783470138692329 0.25 0.25 0.25 0.25 0.7115384615384616 0.1730769230769231 0.09615384615384616 0.01923076923076923 0.5681575005349883 0.2781938797346458 0.1313931093515943 0.02225551037877167 0.5403750478377344 0.2818599311136625 0.1333716035208573 0.04439341752774589 0.01666666666666667 0.01666666666666667 0.01666666666666667 0.95 0.3125 0.0625 0.0625 0.5625 0.5940060370849504 0.2826649417852523 0.1030616645105649 0.02026735661923243 0.5707274826789839 0.2384526558891455 0.1348152424942263 0.05600461893764434 0.000295159386068477 0.01446280991735537 0.08884297520661157 0.8963990554899646 0.001644736842105263 0.01973684210526316 0.1019736842105263 0.8766447368421053 0.391021470396877 0.3100195185426155 0.2225113858165257 0.07644762524398178 0.527118179325473 0.2200164518782561 0.1340828077872224 0.1187825610090485</probabilities>
		</cpt>
		<cpt id="TWL_point_110">
			<state id="S0" />
			<state id="S1" />
			<state id="S2" />
			<state id="S3" />
			<parents>Tide MSL Hs_point_110</parents>
			<probabilities>0.999591280653951 0.0001362397820163488 0.0001362397820163488 0.0001362397820163488 0.9997611464968152 7.961783439490445e-05 7.961783439490445e-05 7.961783439490445e-05 0.9998298933998639 5.670220004536176e-05 5.670220004536176e-05 5.670220004536176e-05 0.9998452651124407 5.157829585310501e-05 5.157829585310501e-05 5.157829585310501e-05 0.9918083782662795 0.007984238905018665 0.0001036914143508917 0.0001036914143508917 0.9970904207699194 0.00276037003879439 7.460459564309162e-05 7.460459564309162e-05 0.9984848484848485 0.001383399209486166 6.587615283267457e-05 6.587615283267457e-05 0.9998428990364474 5.236698785085882e-05 5.236698785085882e-05 5.236698785085882e-05 0.9205685618729097 0.07930280421919218 6.431695394906098e-05 6.431695394906098e-05 0.9297504025764896 0.0701154052603328 6.709608158883521e-05 6.709608158883521e-05 0.946034282393957 0.05382045322486926 7.26321905868681e-05 7.26321905868681e-05 0.9645782766990292 0.03527002427184466 7.584951456310679e-05 7.584951456310679e-05 0.765375 0.2345416666666667 4.166666666666667e-05 4.166666666666667e-05 0.7892116748499727 0.2106519367157665 6.819421713038734e-05 6.819421713038734e-05 0.7980769230769231 0.2017288267288267 9.712509712509713e-05 9.712509712509713e-05 0.8238574537540805 0.1758705114254625 0.0001360174102285093 0.0001360174102285093 0.1757617728531856 0.8228531855955679 0.001246537396121884 0.0001385041551246538 0.2094741754822651 0.7903702551337897 7.778469197261979e-05 7.778469197261979e-05 0.2285828206880839 0.7713032581453634 5.696058327637275e-05 5.696058327637275e-05 0.2500513980263158 0.7498458059210527 5.139802631578947e-05 5.139802631578947e-05 0.03270738753611226 0.9592447379281882 0.007944696657036732 0.0001031778786628147 0.03822432587492829 0.9593373493975904 0.002366609294320138 7.171543316121629e-05 0.04950557809330629 0.9498605476673428 0.0005704868154158215 6.338742393509128e-05 0.06533564814814814 0.9345486111111111 5.787037037037037e-05 5.787037037037037e-05 6.787944610371979e-05 0.9267580776540864 0.07310616345370621 6.787944610371979e-05 0.0008534663865546219 0.9441307773109243 0.05495010504201681 6.565126050420168e-05 0.001243053524422346 0.9532758116408306 0.04540801403919275 7.312079555425563e-05 0.006336045056320401 0.9694148936170213 0.02417083854818523 7.822277847309137e-05 3.930199654142431e-05 0.7540088036472253 0.2459125923596919 3.930199654142431e-05 6.517205422314912e-05 0.7977711157455682 0.2020985401459854 6.517205422314912e-05 0.0001003210272873194 0.8054775280898876 0.1943218298555377 0.0001003210272873194 0.0001426126640045636 0.8124643468339988 0.187250427837992 0.0001426126640045636 0.0001397428731134712 0.1728619340413639 0.8268585802124092 0.0001397428731134712 7.841907151819322e-05 0.1986355081555835 0.8012076537013801 7.841907151819322e-05 5.582849486377847e-05 0.2135439928539526 0.7863443501563198 5.582849486377847e-05 5.227938101212881e-05 0.2440924299456294 0.7558030112923463 5.227938101212881e-05 0.0001038205980066445 0.03083471760797342 0.9618978405315615 0.007163621262458472 7.008690776562938e-05 0.04857022708158116 0.9490468180543874 0.002312867956265769 6.273525721455458e-05 0.0595357590966123 0.9403387703889586 6.273525721455458e-05 5.939653124257543e-05 0.07513661202185792 0.924744594915657 5.939653124257543e-05 6.77323218639935e-05 0.0003386616093199675 0.9298970468707667 0.0696965591980493 6.431695394906098e-05 0.001093388217134036 0.9450090043735528 0.05383329045536404 7.290755322251386e-05 0.001531058617672791 0.9586614173228346 0.03973461650627005 7.911392405063291e-05 0.00545886075949367 0.96875 0.0257120253164557 3.992334717342702e-05 3.992334717342702e-05 0.7641727882465665 0.2357473650590866 6.248437890527369e-05 6.248437890527369e-05 0.7886153461634592 0.2112596850787303 0.000102880658436214 0.000102880658436214 0.7869341563786009 0.2128600823045267 0.0001449275362318841 0.0001449275362318841 0.802463768115942 0.1972463768115942 0.0001349163518618457 0.0001349163518618457 0.1690501888828926 0.8306799784133837 7.76156473144986e-05 7.76156473144986e-05 0.2021887612542689 0.7976560074511021 5.617977528089888e-05 5.617977528089888e-05 0.2130898876404494 0.7867977528089888 5.287648054145516e-05 5.287648054145516e-05 0.2244606598984772 0.77543358714044 0.0001011326860841424 0.0001011326860841424 0.04014967637540453 0.9596480582524272 7.392075694855116e-05 7.392075694855116e-05 0.05802779420461265 0.9418243642814902 6.503642039542144e-05 6.503642039542144e-05 0.06692247658688866 0.9329474505723205 5.410084397316598e-05 5.410084397316598e-05 0.07081800476087427 0.9290737935511794 6.322711178553364e-05 6.322711178553364e-05 0.0005690440060698028 0.9993045017703591 6.565126050420168e-05 6.565126050420168e-05 0.001378676470588235 0.9984900210084033 7.198387561186294e-05 7.198387561186294e-05 0.002087532392744025 0.9977684998560322 7.982120051085569e-05 7.982120051085569e-05 0.00646551724137931 0.9933748403575989 4.060419035244437e-05 4.060419035244437e-05 4.060419035244437e-05 0.9998781874289426 6.742179072276159e-05 6.742179072276159e-05 6.742179072276159e-05 0.9997977346278317 0.0001025010250102501 0.0001025010250102501 0.0001025010250102501 0.9996924969249692 0.0001427755568246716 0.0001427755568246716 0.0001427755568246716 0.999571673329526</probabilities>
		</cpt>
	</nodes>
	<extensions>
		<genie version="1.0" app="SMILE_ACADEMIC 1.6.0" name="Unnamed">
			<node id="Hs_offshore">
				<name>Hs_offshore</name>
				<interior color="e5f6f7" />
				<outline color="0000bb" />
				<font color="000000" name="MS Sans Serif" size="8" />
				<position>-38 -18 38 18</position>
			</node>
			<node id="Tm_offshore">
				<name>Tm_offshore</name>
				<interior color="e5f6f7" />
				<outline color="0000bb" />
				<font color="000000" name="MS Sans Serif" size="8" />
				<position>-38 -18 38 18</position>
			</node>
			<node id="Dir_offshore">
				<name>Dir_offshore</name>
				<interior color="e5f6f7" />
				<outline color="0000bb" />
				<font color="000000" name="MS Sans Serif" size="8" />
				<position>-38 -18 38 18</position>
			</node>
			<node id="Wind">
				<name>Wind</name>
				<interior color="e5f6f7" />
				<outline color="0000bb" />
				<font color="000000" name="MS Sans Serif" size="8" />
				<position>-38 -18 38 18</position>
			</node>
			<node id="WindDir">
				<name>WindDir</name>
				<interior color="e5f6f7" />
				<outline color="0000bb" />
				<font color="000000" name="MS Sans Serif" size="8" />
				<position>-38 -18 38 18</position>
			</node>
			<node id="Tide">
				<name>Tide</name>
				<interior color="e5f6f7" />
				<outline color="0000bb" />
				<font color="000000" name="MS Sans Serif" size="8" />
				<position>-38 -18 38 18</position>
			</node>
			<node id="MSL">
				<name>MSL</name>
				<interior color="e5f6f7" />
				<outline color="0000bb" />
				<font color="000000" name="MS Sans Serif" size="8" />
				<position>-38 -18 38 18</position>
			</node>
			<node id="Hs_point_110">
				<name>Hs_point_110</name>
				<interior color="e5f6f7" />
				<outline color="0000bb" />
				<font color="000000" name="MS Sans Serif" size="8" />
				<position>-38 -18 38 18</position>
			</node>
			<node id="TWL_point_110">
				<name>TWL_point_110</name>
				<interior color="e5f6f7" />
				<outline color="0000bb" />
				<font color="000000" name="MS Sans Serif" size="8" />
				<position>-38 -18 38 18</position>
			</node>
		</genie>
	</extensions>
</smile>
