<?xml version="1.0" encoding="UTF-8"?>
<!-- This file was created by ACADEMIC version of SMILE -->
<smile version="1.0" id="Unnamed" numsamples="10000" discsamples="10000">
	<nodes>
		<cpt id="Tide">
			<state id="S0" />
			<state id="S1" />
			<state id="S2" />
			<state id="S3" />
			<probabilities>0.2169641603482168 0.3050538823364223 0.2950277309744454 0.1829542263409155</probabilities>
		</cpt>
		<cpt id="MSL">
			<state id="S0" />
			<state id="S1" />
			<state id="S2" />
			<state id="S3" />
			<probabilities>0.08335527239539456 0.3616478868295422 0.3682208298230834 0.1867760109519798</probabilities>
		</cpt>
		<cpt id="Hs_point_218">
			<state id="S0" />
			<state id="S1" />
			<state id="S2" />
			<state id="S3" />
			<probabilities>0.2790253791069924 0.3936394271272114 0.2582183726481325 0.06911682111766358</probabilities>
		</cpt>
		<cpt id="Tm_point_218">
			<state id="S0" />
			<state id="S1" />
			<state id="S2" />
			<state id="S3" />
			<probabilities>0.561473251895535 0.377843302443134 0.04774378685762426 0.01293965880370682</probabilities>
		</cpt>
		<cpt id="TWL_point_218">
			<state id="S0" />
			<state id="S1" />
			<state id="S2" />
			<state id="S3" />
			<parents>Tide MSL Hs_point_218 Tm_point_218</parents>
			<probabilities>0.9640969162995595 0.03546255506607929 0.0002202643171806167 0.0002202643171806167 0.934931506849315 0.05821917808219178 0.003424657534246575 0.003424657534246575 0.85 0.05 0.05 0.05 0.9166666666666666 0.02777777777777778 0.02777777777777778 0.02777777777777778 0.9315298507462687 0.06809701492537314 0.0001865671641791045 0.0001865671641791045 0.9104010025062657 0.08333333333333333 0.005639097744360902 0.0006265664160401002 0.85 0.05 0.05 0.05 0.25 0.25 0.25 0.25 0.6839622641509434 0.3066037735849056 0.004716981132075472 0.004716981132075472 0.7418539325842697 0.2530898876404494 0.004775280898876405 0.0002808988764044944 0.125 0.625 0.125 0.125 0.25 0.25 0.25 0.25 0.25 0.25 0.25 0.25 0.6289893617021277 0.3523936170212766 0.01728723404255319 0.001329787234042553 0.3879310344827586 0.5948275862068966 0.008620689655172414 0.008620689655172414 0.25 0.25 0.25 0.25 0.954487431264729 0.04364689709347997 0.001816575019638649 4.909662215239592e-05 0.9340148698884758 0.0604089219330855 0.004646840148698885 0.0009293680297397769 0.9858490566037735 0.004716981132075472 0.004716981132075472 0.004716981132075472 0.9897260273972602 0.003424657534246575 0.003424657534246575 0.003424657534246575 0.8931270096463022 0.1056672025723473 0.001165594855305466 4.019292604501608e-05 0.7984513274336283 0.1975663716814159 0.003761061946902655 0.0002212389380530973 0.9817073170731707 0.006097560975609756 0.006097560975609756 0.006097560975609756 0.9583333333333334 0.02976190476190476 0.005952380952380952 0.005952380952380952 0.8282361308677099 0.1710526315789474 0.0003556187766714083 0.0003556187766714083 0.6991109341825902 0.2941215498938429 0.006701167728237792 6.634819532908705e-05 0.9772727272727273 0.007575757575757576 0.007575757575757576 0.007575757575757576 0.625 0.125 0.125 0.125 0.25 0.25 0.25 0.25 0.561804008908686 0.3969933184855234 0.04064587973273942 0.0005567928730512249 0.8463855421686747 0.1114457831325301 0.0391566265060241 0.003012048192771084 0.25 0.25 0.25 0.25 0.881471991517936 0.1166725569888673 0.001811274076691995 4.417741650468281e-05 0.8596551724137931 0.1382758620689655 0.001724137931034483 0.0003448275862068965 0.9211409395973155 0.07550335570469799 0.001677852348993289 0.001677852348993289 0.9607558139534884 0.03633720930232558 0.001453488372093023 0.001453488372093023 0.8261800772719637 0.1678565429195364 0.005921384176045691 4.199563245422476e-05 0.7744307400379506 0.2137096774193548 0.01162239089184061 0.0002371916508538899 0.9483695652173914 0.04619565217391304 0.002717391304347826 0.002717391304347826 0.9758064516129032 0.008064516129032258 0.008064516129032258 0.008064516129032258 0.7495819397993311 0.2345317725752508 0.01546822742474916 0.0004180602006688963 0.5956761006289308 0.3821540880503145 0.02209119496855346 7.861635220125786e-05 0.94140625 0.05078125 0.00390625 0.00390625 0.875 0.04166666666666666 0.04166666666666666 0.04166666666666666 0.25 0.25 0.25 0.25 0.5325688073394496 0.4206422018348624 0.0463302752293578 0.0004587155963302753 0.597972972972973 0.2736486486486486 0.125 0.003378378378378379 0.25 0.25 0.25 0.25 0.8166229794670161 0.1726736566186108 0.01059414591524683 0.000109217999126256 0.8132911392405063 0.1775668073136427 0.008790436005625879 0.0003516174402250352 0.9064245810055865 0.09078212290502793 0.001396648044692737 0.001396648044692737 0.8953125 0.1015625 0.0015625 0.0015625 0.7216222426470589 0.2694163602941176 0.008846507352941176 0.0001148897058823529 0.7667151162790697 0.2134205426356589 0.01962209302325581 0.0002422480620155039 0.867948717948718 0.1294871794871795 0.001282051282051282 0.001282051282051282 0.9173728813559322 0.07838983050847458 0.00211864406779661 0.00211864406779661 0.6404109589041096 0.3481735159817352 0.01027397260273973 0.001141552511415525 0.623320895522388 0.3598880597014925 0.0166044776119403 0.0001865671641791045 0.9215116279069767 0.07267441860465117 0.002906976744186046 0.002906976744186046 0.8541666666666666 0.1041666666666667 0.02083333333333333 0.02083333333333333 0.25 0.25 0.25 0.25 0.556060606060606 0.4025252525252525 0.04090909090909091 0.0005050505050505051 0.556930693069307 0.2599009900990099 0.1806930693069307 0.002475247524752475 0.25 0.25 0.25 0.25 0.5277189265536724 0.4648658192090395 0.007238700564971751 0.0001765536723163842 0.4111842105263158 0.555921052631579 0.02960526315789474 0.003289473684210526 0.625 0.125 0.125 0.125 0.5625 0.3125 0.0625 0.0625 0.3627424568965517 0.6186691810344828 0.01845366379310345 0.000134698275862069 0.2345261121856866 0.710348162475822 0.054642166344294 0.0004835589941972921 0.5104166666666666 0.46875 0.01041666666666667 0.01041666666666667 0.3125 0.5625 0.0625 0.0625 0.268348623853211 0.6811926605504587 0.0481651376146789 0.002293577981651376 0.1047709923664122 0.7681297709923665 0.1269083969465649 0.0001908396946564885 0.03125 0.90625 0.03125 0.03125 0.25 0.25 0.25 0.25 0.25 0.25 0.25 0.25 0.06701030927835051 0.6855670103092784 0.2422680412371134 0.005154639175257732 0.1881443298969072 0.5283505154639175 0.2809278350515464 0.002577319587628866 0.25 0.25 0.25 0.25 0.374580408910589 0.6045163259078425 0.0205981080256332 0.0003051571559353067 0.3244514106583072 0.6536050156739812 0.02037617554858934 0.001567398119122257 0.4525862068965517 0.5387931034482759 0.004310344827586207 0.004310344827586207 0.4067164179104478 0.585820895522388 0.003731343283582089 0.003731343283582089 0.2456339305965071 0.7073032433658426 0.04683601723746882 0.000226808800181447 0.1333655083655084 0.7723616473616474 0.09411196911196912 0.0001608751608751609 0.4346590909090909 0.5596590909090909 0.002840909090909091 0.002840909090909091 0.4948979591836735 0.4948979591836735 0.00510204081632653 0.00510204081632653 0.116412213740458 0.7795801526717557 0.1030534351145038 0.0009541984732824427 0.07828428543950759 0.7122523562223505 0.20600115406809 0.003462204270051933 0.278125 0.715625 0.003125 0.003125 0.02272727272727273 0.9318181818181818 0.02272727272727273 0.02272727272727273 0.25 0.25 0.25 0.25 0.08542713567839195 0.5226130653266332 0.3768844221105528 0.01507537688442211 0.1989051094890511 0.7025547445255474 0.09671532846715329 0.001824817518248175 0.25 0.25 0.25 0.25 0.2272591708917387 0.7138383537130928 0.05845511482254697 0.000447360572621533 0.1779942965779468 0.7578422053231939 0.06392585551330798 0.0002376425855513308 0.2300531914893617 0.7353723404255319 0.03324468085106383 0.001329787234042553 0.3458333333333333 0.6291666666666667 0.02361111111111111 0.001388888888888889 0.1423425661408521 0.7617687243820643 0.09390137871071917 0.001987330766364427 0.1082130965593785 0.7591564927857936 0.1298557158712542 0.002774694783573807 0.1596045197740113 0.769774011299435 0.0692090395480226 0.001412429378531073 0.1730769230769231 0.7730769230769231 0.05 0.003846153846153846 0.0702439024390244 0.791219512195122 0.1365853658536585 0.001951219512195122 0.05068637803590285 0.7300950369588173 0.2139387539598733 0.005279831045406547 0.2344961240310078 0.7306201550387597 0.03294573643410853 0.001937984496124031 0.1736111111111111 0.8125 0.006944444444444444 0.006944444444444444 0.25 0.25 0.25 0.25 0.04219409282700422 0.6059071729957806 0.3426160337552743 0.009282700421940928 0.06666666666666667 0.509090909090909 0.3939393939393939 0.0303030303030303 0.25 0.25 0.25 0.25 0.1374947279628849 0.7730915225643189 0.08730493462673977 0.002108814846056516 0.1197339246119734 0.8070953436807096 0.07095343680709534 0.002217294900221729 0.0975609756097561 0.8390243902439024 0.05853658536585366 0.004878048780487805 0.1634615384615385 0.7865384615384615 0.04807692307692308 0.001923076923076923 0.07213578500707214 0.7832390381895332 0.1403818953323904 0.004243281471004243 0.07903780068728522 0.7835051546391752 0.1311569301260023 0.006300114547537228 0.1103448275862069 0.8482758620689655 0.0367816091954023 0.004597701149425287 0.1118421052631579 0.8592105263157894 0.02763157894736842 0.00131578947368421 0.03611111111111111 0.7722222222222223 0.1888888888888889 0.002777777777777778 0.04891740176423416 0.7325581395348837 0.2157177225340818 0.002806736166800321 0.05357142857142857 0.8392857142857143 0.106203007518797 0.0009398496240601503 0.005 0.965 0.025 0.005 0.25 0.25 0.25 0.25 0.03502824858757062 0.6372881355932203 0.3209039548022599 0.006779661016949152 0.03496503496503497 0.6538461538461539 0.3006993006993007 0.01048951048951049 0.08333333333333333 0.75 0.08333333333333333 0.08333333333333333 0.0002129471890971039 0.5606899488926746 0.4320698466780238 0.00702725724020443 0.002450980392156863 0.571078431372549 0.4240196078431372 0.002450980392156863 0.08333333333333333 0.4166666666666667 0.4166666666666667 0.08333333333333333 0.25 0.25 0.25 0.25 0.0001454333915066899 0.4428446771378708 0.5399941826643397 0.01701570680628272 0.0005747126436781609 0.3017241379310345 0.6741379310344827 0.0235632183908046 0.01923076923076923 0.7115384615384616 0.25 0.01923076923076923 0.03571428571428571 0.4642857142857143 0.4642857142857143 0.03571428571428571 0.002100840336134454 0.3550420168067227 0.6323529411764706 0.01050420168067227 0.000173370319001387 0.1777045769764216 0.7456657420249653 0.07645631067961164 0.008333333333333333 0.2416666666666667 0.675 0.075 0.25 0.25 0.25 0.25 0.25 0.25 0.25 0.25 0.000588235294117647 0.07823529411764706 0.7676470588235295 0.1535294117647059 0.001602564102564103 0.2131410256410256 0.5016025641025641 0.2836538461538461 0.25 0.25 0.25 0.25 4.668534080298786e-05 0.4086367880485527 0.5776377217553688 0.01367880485527544 0.0003097893432465923 0.3844485749690211 0.5975836431226765 0.01765799256505576 0.005813953488372093 0.4244186046511628 0.563953488372093 0.005813953488372093 0.003472222222222222 0.5034722222222222 0.4895833333333333 0.003472222222222222 3.020418025854778e-05 0.3019511900447022 0.6653678869155492 0.03265071885949015 0.0001724137931034483 0.2112068965517241 0.7201724137931035 0.06844827586206896 0.002808988764044944 0.3960674157303371 0.598314606741573 0.002808988764044944 0.006944444444444444 0.4513888888888889 0.5347222222222222 0.006944444444444444 0.0002553626149131767 0.216802860061287 0.7356996935648621 0.04724208375893769 4.389044943820225e-05 0.1180214185393258 0.7417924859550562 0.1401422050561798 0.001470588235294118 0.513235294117647 0.4838235294117647 0.001470588235294118 0.004716981132075472 0.4386792452830189 0.5518867924528302 0.004716981132075472 0.25 0.25 0.25 0.25 0.0002401536983669548 0.09726224783861671 0.6284822286263209 0.2740153698366955 0.001141552511415525 0.2614155251141553 0.6769406392694064 0.06050228310502283 0.25 0.25 0.25 0.25 4.895241824946152e-05 0.28181907186215 0.668543176032896 0.04958879968670452 0.0002144082332761578 0.2360634648370497 0.7051886792452831 0.05853344768439108 0.001524390243902439 0.2393292682926829 0.7088414634146342 0.05030487804878049 0.002314814814814815 0.400462962962963 0.5856481481481481 0.01157407407407407 3.3921302578019e-05 0.1929782903663501 0.7319199457259159 0.07506784260515603 0.000131578947368421 0.1653947368421053 0.7490789473684211 0.08539473684210526 0.00078125 0.24453125 0.71953125 0.03515625 0.002336448598130841 0.235981308411215 0.7406542056074766 0.02102803738317757 0.0002463054187192118 0.1184729064039409 0.7805418719211823 0.1007389162561576 4.827186715582159e-05 0.08674454527901139 0.7312705155435413 0.1819366673102916 0.001054852320675105 0.2120253164556962 0.7267932489451476 0.06012658227848101 0.004545454545454545 0.3136363636363637 0.6772727272727272 0.004545454545454545 0.25 0.25 0.25 0.25 0.0001618122977346278 0.04611650485436893 0.6733009708737864 0.2804207119741101 0.000588235294117647 0.1488235294117647 0.6170588235294118 0.2335294117647059 0.08333333333333333 0.4166666666666667 0.4166666666666667 0.08333333333333333 0.0001398992725237829 0.1674594292109681 0.75 0.08240067151650811 0.0003491620111731844 0.1944832402234637 0.7321927374301676 0.07297486033519553 0.001453488372093023 0.2281976744186046 0.6933139534883721 0.07703488372093023 0.002906976744186046 0.1656976744186046 0.7936046511627907 0.0377906976744186 0.0001098901098901099 0.1425274725274725 0.713956043956044 0.1434065934065934 0.0001690331304935767 0.1543272481406356 0.7358012170385395 0.1097025016903313 0.0004288164665523156 0.1753859348198971 0.7551457975986278 0.06903945111492281 0.001237623762376238 0.2042079207920792 0.7388613861386139 0.05569306930693069 0.0008417508417508417 0.08501683501683502 0.718013468013468 0.1961279461279461 9.269558769002595e-05 0.07758620689655173 0.7475899147200593 0.1747311827956989 0.000415973377703827 0.1085690515806988 0.8057404326123128 0.08527454242928452 0.001838235294117647 0.1121323529411765 0.8621323529411765 0.02389705882352941 0.25 0.25 0.25 0.25 0.0002535496957403651 0.06110547667342799 0.6402129817444219 0.2984279918864097 0.0003828483920367535 0.07695252679938744 0.6833843797856048 0.2392802450229709 0.02272727272727273 0.02272727272727273 0.9318181818181818 0.02272727272727273 0.000415973377703827 0.000415973377703827 0.6210482529118136 0.3781198003327787 0.002688172043010753 0.002688172043010753 0.4758064516129032 0.5188172043010753 0.02777777777777778 0.02777777777777778 0.4722222222222222 0.4722222222222222 0.25 0.25 0.25 0.25 0.0002224199288256228 0.0002224199288256228 0.5269128113879004 0.4726423487544484 0.0009505703422053232 0.0009505703422053232 0.3925855513307985 0.6055133079847909 0.01470588235294118 0.01470588235294118 0.25 0.7205882352941176 0.02083333333333333 0.02083333333333333 0.7708333333333334 0.1875 0.00352112676056338 0.00352112676056338 0.4823943661971831 0.5105633802816901 0.0002870264064293915 0.0002870264064293915 0.2356486796785304 0.7637772675086107 0.005681818181818182 0.005681818181818182 0.5738636363636364 0.4147727272727273 0.25 0.25 0.25 0.25 0.25 0.25 0.25 0.25 0.0008090614886731392 0.0008090614886731392 0.1593851132686084 0.8389967637540453 0.003731343283582089 0.003731343283582089 0.1380597014925373 0.8544776119402985 0.25 0.25 0.25 0.25 9.527439024390244e-05 9.527439024390244e-05 0.5161013719512195 0.4837080792682927 0.0004664179104477612 0.0004664179104477612 0.5172574626865671 0.4818097014925373 0.004310344827586207 0.004310344827586207 0.5387931034482759 0.4525862068965517 0.005434782608695652 0.005434782608695652 0.6576086956521739 0.3315217391304348 5.163155720776539e-05 5.163155720776539e-05 0.3697335811648079 0.6301631557207765 0.0002834467120181406 0.0002834467120181406 0.2916666666666667 0.7077664399092971 0.003787878787878788 0.003787878787878788 0.4431818181818182 0.5492424242424242 0.009615384615384616 0.009615384615384616 0.7403846153846154 0.2403846153846154 0.000370919881305638 0.000370919881305638 0.2852373887240356 0.7140207715133531 6.203473945409429e-05 6.203473945409429e-05 0.1464640198511166 0.8534119106699752 0.002049180327868853 0.002049180327868853 0.5184426229508197 0.4774590163934426 0.005434782608695652 0.005434782608695652 0.4619565217391304 0.5271739130434783 0.25 0.25 0.25 0.25 0.0002880184331797235 0.0002880184331797235 0.09591013824884792 0.9035138248847926 0.0008305647840531562 0.0008305647840531562 0.3895348837209303 0.6088039867109635 0.02777777777777778 0.02777777777777778 0.3611111111111111 0.5833333333333334 8.989572096368213e-05 8.989572096368213e-05 0.329467817331895 0.6703523912261776 0.0002934272300469484 0.0002934272300469484 0.2866784037558686 0.7127347417840375 0.001785714285714286 0.001785714285714286 0.3160714285714286 0.6803571428571429 0.003012048192771084 0.003012048192771084 0.3765060240963856 0.6174698795180723 5.764353239566521e-05 5.764353239566521e-05 0.2333986626700484 0.7664860502651603 0.0002181500872600349 0.0002181500872600349 0.2174956369982548 0.7820680628272252 0.0009191176470588235 0.0009191176470588235 0.3207720588235294 0.6773897058823529 0.002659574468085106 0.002659574468085106 0.3962765957446808 0.598404255319149 0.000390015600624025 0.000390015600624025 0.1423556942277691 0.8568642745709828 7.671064743786438e-05 7.671064743786438e-05 0.1090058300092053 0.890840748695919 0.0009881422924901185 0.0009881422924901185 0.2934782608695652 0.7045454545454546 0.00625 0.00625 0.43125 0.55625 0.25 0.25 0.25 0.25 0.0002304147465437788 0.0002304147465437788 0.07764976958525345 0.9218894009216589 0.0005208333333333333 0.0005208333333333333 0.2213541666666667 0.7776041666666667 0.03125 0.03125 0.53125 0.40625 0.0002460629921259842 0.0002460629921259842 0.2128444881889764 0.7866633858267716 0.000580046403712297 0.000580046403712297 0.169953596287703 0.8288863109048724 0.001689189189189189 0.001689189189189189 0.2314189189189189 0.7652027027027027 0.003846153846153846 0.003846153846153846 0.2038461538461538 0.7884615384615384 0.0002319109461966605 0.0002319109461966605 0.1560760667903525 0.8434601113172542 0.0002844141069397042 0.0002844141069397042 0.1834470989761092 0.8159840728100114 0.0007936507936507937 0.0007936507936507937 0.2515873015873016 0.7468253968253968 0.002049180327868853 0.002049180327868853 0.3299180327868853 0.6659836065573771 0.001572327044025157 0.001572327044025157 0.1084905660377359 0.8883647798742138 0.0001689189189189189 0.0001689189189189189 0.1130067567567568 0.8866554054054054 0.0004472271914132379 0.0004472271914132379 0.2204830053667263 0.7786225402504472 0.001893939393939394 0.001893939393939394 0.2443181818181818 0.7518939393939394 0.25 0.25 0.25 0.25 0.0004251700680272109 0.0004251700680272109 0.05314625850340136 0.9460034013605442 0.0003698224852071006 0.0003698224852071006 0.07285502958579881 0.926405325443787 0.0108695652173913 0.0108695652173913 0.05434782608695652 0.9239130434782609</probabilities>
		</cpt>
	</nodes>
	<extensions>
		<genie version="1.0" app="SMILE_ACADEMIC 1.6.0" name="Unnamed">
			<node id="Tide">
				<name>Tide</name>
				<interior color="e5f6f7" />
				<outline color="0000bb" />
				<font color="000000" name="MS Sans Serif" size="8" />
				<position>-38 -18 38 18</position>
			</node>
			<node id="MSL">
				<name>MSL</name>
				<interior color="e5f6f7" />
				<outline color="0000bb" />
				<font color="000000" name="MS Sans Serif" size="8" />
				<position>-38 -18 38 18</position>
			</node>
			<node id="Hs_point_218">
				<name>Hs_point_218</name>
				<interior color="e5f6f7" />
				<outline color="0000bb" />
				<font color="000000" name="MS Sans Serif" size="8" />
				<position>-38 -18 38 18</position>
			</node>
			<node id="Tm_point_218">
				<name>Tm_point_218</name>
				<interior color="e5f6f7" />
				<outline color="0000bb" />
				<font color="000000" name="MS Sans Serif" size="8" />
				<position>-38 -18 38 18</position>
			</node>
			<node id="TWL_point_218">
				<name>TWL_point_218</name>
				<interior color="e5f6f7" />
				<outline color="0000bb" />
				<font color="000000" name="MS Sans Serif" size="8" />
				<position>-38 -18 38 18</position>
			</node>
		</genie>
	</extensions>
</smile>
