<?xml version="1.0" encoding="UTF-8"?>
<smile version="1.0" id="Unnamed" numsamples="10000" discsamples="10000">
	<nodes>
		<cpt id="Wind">
			<state id="VeryLow" />
			<state id="Low" />
			<state id="LowMid" />
			<state id="Mid" />
			<state id="HighMid" />
			<state id="High" />
			<state id="VeryHigh" />
			<probabilities>0.09281878863335948 0.1490212425201428 0.1868771356329152 0.1985816380818657 0.1851713716865124 0.1357426106415537 0.05178721280365067</probabilities>
		</cpt>
		<cpt id="WindDir">
			<state id="WNW" />
			<state id="NNW" />
			<state id="NNE" />
			<state id="ENE" />
			<state id="ESE" />
			<state id="SSE" />
			<state id="SSW" />
			<state id="WSW" />
			<probabilities>0.02864696171080994 0.03008945662368434 0.0329415378202421 0.02451692874733303 0.05502322800743735 0.3486778958222495 0.4047432304207368 0.0753607608475069</probabilities>
		</cpt>
		<cpt id="Hs_offshore">
			<state id="VeryLow" />
			<state id="Low" />
			<state id="LowMid" />
			<state id="Mid" />
			<state id="HighMid" />
			<state id="High" />
			<state id="VeryHigh" />
			<probabilities>0.1494380851565628 0.2460742747760842 0.2489757189164285 0.1942925467439654 0.1090811362252705 0.04474476615676574 0.007393472024922802</probabilities>
		</cpt>
		<cpt id="Tm_offshore">
			<state id="VeryLow" />
			<state id="Low" />
			<state id="LowMid" />
			<state id="Mid" />
			<state id="HighMid" />
			<state id="High" />
			<state id="VeryHigh" />
			<probabilities>0.310098012867274 0.3703043499723019 0.1501894988564251 0.07283228117132781 0.0412125732902596 0.03718126621435584 0.0181820176280557</probabilities>
		</cpt>
		<cpt id="Dir_offshore">
			<state id="NNE" />
			<state id="ENE" />
			<state id="ESE" />
			<state id="SSE" />
			<state id="SSW" />
			<state id="WSW" />
			<state id="WNW" />
			<state id="NNW" />
			<probabilities>0.08354403997301492 0.09369635207845417 0.1611809810062362 0.1976382573783889 0.2128804374653774 0.08550758818141431 0.08074680649177558 0.08480553742533854</probabilities>
		</cpt>
		<cpt id="Hs_point_110">
			<state id="VeryLow" />
			<state id="Low" />
			<state id="LowMid" />
			<state id="Mid" />
			<state id="HighMid" />
			<state id="High" />
			<state id="VeryHigh" />
			<probabilities>0.08848581912320443 0.1728416052829319 0.2183706937687511 0.2164949019048611 0.167153897204412 0.1030917657124992 0.03356131700334022</probabilities>
		</cpt>
		<cpt id="MSL">
			<state id="VeryLow" />
			<state id="Low" />
			<state id="LowMid" />
			<state id="Mid" />
			<state id="HighMid" />
			<state id="High" />
			<state id="VeryHigh" />
			<parents>Wind WindDir Hs_offshore Tm_offshore Dir_offshore</parents>
			<probabilities>0 0 0 0 0 1 0 0.1428571428571428 0.1428571428571428 0.1428571428571428 0.1428571428571428 0.1428571428571428 0.1428571428571428 0.1428571428571428 0.1428571428571428 0.1428571428571428 0.1428571428571428 0.1428571428571428 0.1428571428571428 0.1428571428571428 0.1428571428571428 0 0 0.3076923076923077 0.3846153846153846 0.1923076923076923 0.1153846153846154 0 0.1176470588235294 0 0.2941176470588235 0.2352941176470588 0.1176470588235294 0.1764705882352941 0.05882352941176471 0 0 0.1666666666666667 0.5 0 0.1666666666666667 0.1666666666666667 0 0 0 1 0 0 0 0.1666666666666667 0.1666666666666667 0 0 0.5 0.1666666666666667 0 0 0 0 0 0 1 0 0 0 0 0 0 1 0 0 0 0 0 1 0 0 0 0.25 0.3333333333333333 0.08333333333333333 0 0.3333333333333333 0 0.02857142857142857 0.09999999999999999 0.2428571428571429 0.04285714285714286 0.1857142857142857 0.2571428571428571 0.1428571428571428 0.07142857142857142 0.1428571428571428 0.1428571428571428 0.1428571428571428 0.07142857142857142 0.1428571428571428 0.2857142857142857 0.2857142857142857 0 0 0 0 0.5714285714285714 0.1428571428571428 0 0 0 0.75 0.25 0 0 0 0 0 0 1 0 0 0.1428571428571428 0.1428571428571428 0.1428571428571428 0.1428571428571428 0.1428571428571428 0.1428571428571428 0.1428571428571428 0 0 0 0 1 0 0 0 0.4 0.2 0.4 0 0 0 0.06521739130434782 0.0108695652173913 0.2934782608695652 0.07608695652173914 0.3152173913043478 0.1304347826086956 0.108695652173913 0 0 0 0.2307692307692308 0.3846153846153846 0.2307692307692308 0.1538461538461539 0 0 0 0.5 0 0.5 0 0.09090909090909091 0 0 0.6363636363636364 0.1818181818181818 0.09090909090909091 0 0 0 0 0 0.5 0 0.5 0.1428571428571428 0.1428571428571428 0.1428571428571428 0.1428571428571428 0.1428571428571428 0.1428571428571428 0.1428571428571428 0 0 0 0 1 0 0 0 0 0.6000000000000001 0.1 0 0.3 0 0.01694915254237288 0.01694915254237288 0.1694915254237288 0.2372881355932203 0.4406779661016949 0.1186440677966102 0 0 0 0 0.1111111111111111 0.2222222222222222 0.6666666666666666 0 0 0 0 0.5 0.1666666666666667 0.3333333333333333 0 0 0 0 0.3 0.3 0 0.4 0.1428571428571428 0.1428571428571428 0.1428571428571428 0.1428571428571428 0.1428571428571428 0.1428571428571428 0.1428571428571428 0.1428571428571428 0.1428571428571428 0.1428571428571428 0.1428571428571428 0.1428571428571428 0.1428571428571428 0.1428571428571428 0.1428571428571428 0.1428571428571428 0.1428571428571428 0.1428571428571428 0.1428571428571428 0.1428571428571428 0.1428571428571428 0.1428571428571428 0.1428571428571428 0.1428571428571428 0.1428571428571428 0.1428571428571428 0.1428571428571428 0.1428571428571428 0 0 0.3333333333333333 0.07142857142857142 0.4285714285714285 0.1666666666666667 0 0 0 0 0.1333333333333333 0.2 0.6666666666666666 0 0 0 0 0.1111111111111111 0 0.7777777777777777 0.1111111111111111 0.1428571428571428 0.1428571428571428 0.1428571428571428 0.1428571428571428 0.1428571428571428 0.1428571428571428 0.1428571428571428 0.1428571428571428 0.1428571428571428 0.1428571428571428 0.1428571428571428 0.1428571428571428 0.1428571428571428 0.1428571428571428 0.1428571428571428 0.1428571428571428 0.1428571428571428 0.1428571428571428 0.1428571428571428 0.1428571428571428 0.1428571428571428 0.1428571428571428 0.1428571428571428 0.1428571428571428 0.1428571428571428 0.1428571428571428 0.1428571428571428 0.1428571428571428 0.1428571428571428 0.1428571428571428 0.1428571428571428 0.1428571428571428 0.1428571428571428 0.1428571428571428 0.1428571428571428 0.1379310344827586 0 0.5172413793103449 0.1724137931034483 0.1379310344827586 0 0.03448275862068965 0 0 0 0.3333333333333333 0.6666666666666666 0 0 0 0 0 0 0.6000000000000001 0.4 0 0.1428571428571428 0.1428571428571428 0.1428571428571428 0.1428571428571428 0.1428571428571428 0.1428571428571428 0.1428571428571428 0.1428571428571428 0.1428571428571428 0.1428571428571428 0.1428571428571428 0.1428571428571428 0.1428571428571428 0.1428571428571428 0.1428571428571428 0.1428571428571428 0.1428571428571428 0.1428571428571428 0.1428571428571428 0.1428571428571428 0.1428571428571428 0.1428571428571428 0.1428571428571428 0.1428571428571428 0.1428571428571428 0.1428571428571428 0.1428571428571428 0.1428571428571428 0.1428571428571428 0.1428571428571428 0.1428571428571428 0.1428571428571428 0.1428571428571428 0.1428571428571428 0.1428571428571428 0 0 0.3333333333333333 0 0 0.6666666666666666 0 0.1428571428571428 0.1428571428571428 0.1428571428571428 0.1428571428571428 0.1428571428571428 0.1428571428571428 0.1428571428571428 0.1428571428571428 0.1428571428571428 0.1428571428571428 0.1428571428571428 0.1428571428571428 0.1428571428571428 0.1428571428571428 0.1428571428571428 0.1428571428571428 0.1428571428571428 0.1428571428571428 0.1428571428571428 0.1428571428571428 0.1428571428571428 0.1428571428571428 0.1428571428571428 0.1428571428571428 0.1428571428571428 0.1428571428571428 0.1428571428571428 0.1428571428571428 0.1428571428571428 0.1428571428571428 0.1428571428571428 0.1428571428571428 0.1428571428571428 0.1428571428571428 0.1428571428571428 0.1428571428571428 0.1428571428571428 0.1428571428571428 0.1428571428571428 0.1428571428571428 0.1428571428571428 0.1428571428571428 0.1428571428571428 0.1428571428571428 0.1428571428571428 0.1428571428571428 0.1428571428571428 0.1428571428571428 0.1428571428571428 0 0 0 0 0 1 0 0.1428571428571428 0.1428571428571428 0.1428571428571428 0.1428571428571428 0.1428571428571428 0.1428571428571428 0.1428571428571428 0.1428571428571428 0.1428571428571428 0.1428571428571428 0.1428571428571428 0.1428571428571428 0.1428571428571428 0.1428571428571428 0 0 0 0.6666666666666666 0.3333333333333333 0 0 0.1428571428571428 0.1428571428571428 0.1428571428571428 0.1428571428571428 0.1428571428571428 0.1428571428571428 0.1428571428571428 0.1428571428571428 0.1428571428571428 0.1428571428571428 0.1428571428571428 0.1428571428571428 0.1428571428571428 0.1428571428571428 0.1428571428571428 0.1428571428571428 0.1428571428571428 0.1428571428571428 0.1428571428571428 0.1428571428571428 0.1428571428571428 0.1428571428571428 0.1428571428571428 0.1428571428571428 0.1428571428571428 0.1428571428571428 0.1428571428571428 0.1428571428571428 0 0.2727272727272727 0.1818181818181818 0.09090909090909091 0.1818181818181818 0.2727272727272727 0 0 0.25 0.25 0 0.5 0 0 0 0 0 0 0.5 0.5 0 0 0 0 0.5882352941176471 0.2941176470588235 0.1176470588235294 0 0.1428571428571428 0.1428571428571428 0.1428571428571428 0.1428571428571428 0.1428571428571428 0.1428571428571428 0.1428571428571428 0.1428571428571428 0.1428571428571428 0.1428571428571428 0.1428571428571428 0.1428571428571428 0.1428571428571428 0.1428571428571428 0.1428571428571428 0.1428571428571428 0.1428571428571428 0.1428571428571428 0.1428571428571428 0.1428571428571428 0.1428571428571428 0.1428571428571428 0.1428571428571428 0.1428571428571428 0.1428571428571428 0.1428571428571428 0.1428571428571428 0.1428571428571428 0 0.0975609756097561 0.0975609756097561 0.3414634146341464 0.3902439024390244 0.07317073170731708 0 0 0.3043478260869565 0.1304347826086956 0.1739130434782609 0.2173913043478261 0.1304347826086956 0.04347826086956522 0 0 0 0 0.5714285714285714 0.4285714285714285 0 0.06666666666666667 0 0.06666666666666667 0.3333333333333333 0.4 0 0.1333333333333333 0.1428571428571428 0.1428571428571428 0.1428571428571428 0.1428571428571428 0.1428571428571428 0.1428571428571428 0.1428571428571428 0.1428571428571428 0.1428571428571428 0.1428571428571428 0.1428571428571428 0.1428571428571428 0.1428571428571428 0.1428571428571428 0.1428571428571428 0.1428571428571428 0.1428571428571428 0.1428571428571428 0.1428571428571428 0.1428571428571428 0.1428571428571428 0 0 0 0 1 0 0 0 0.07894736842105263 0.5789473684210527 0.131578947368421 0.1052631578947368 0.1052631578947368 0 0 0 0.1578947368421053 0 0.4210526315789473 0.3157894736842105 0.1052631578947368 0 0 0 0 0.3333333333333333 0.6666666666666666 0 0 0 0.07692307692307693 0.1153846153846154 0.3846153846153846 0.1538461538461539 0.2692307692307693 0.1428571428571428 0.1428571428571428 0.1428571428571428 0.1428571428571428 0.1428571428571428 0.1428571428571428 0.1428571428571428 0.1428571428571428 0.1428571428571428 0.1428571428571428 0.1428571428571428 0.1428571428571428 0.1428571428571428 0.1428571428571428 0.1428571428571428 0.1428571428571428 0.1428571428571428 0.1428571428571428 0.1428571428571428 0.1428571428571428 0.1428571428571428 0.1428571428571428 0.1428571428571428 0.1428571428571428 0.1428571428571428 0.1428571428571428 0.1428571428571428 0.1428571428571428 0.02631578947368421 0 0.1842105263157895 0.07894736842105263 0.5263157894736842 0.1842105263157895 0 0 0 0.1 0.05 0.2 0.3 0.35 0 0 0 0 0.5 0.375 0.125 0 0 0 0 0 0.8 0.2 0.1428571428571428 0.1428571428571428 0.1428571428571428 0.1428571428571428 0.1428571428571428 0.1428571428571428 0.1428571428571428 0.1428571428571428 0.1428571428571428 0.1428571428571428 0.1428571428571428 0.1428571428571428 0.1428571428571428 0.1428571428571428 0.1428571428571428 0.1428571428571428 0.1428571428571428 0.1428571428571428 0.1428571428571428 0.1428571428571428 0.1428571428571428 0.1428571428571428 0.1428571428571428 0.1428571428571428 0.1428571428571428 0.1428571428571428 0.1428571428571428 0.1428571428571428 0 0.1891891891891892 0.1351351351351351 0.1081081081081081 0.2972972972972973 0.2432432432432433 0.02702702702702703 0 0.09375 0.03125 0.21875 0.25 0.09375 0.3125 0 0.05263157894736842 0.4210526315789473 0.05263157894736842 0.1578947368421053 0.2631578947368421 0.05263157894736842 0 0 0 1 0 0 0 0.1428571428571428 0.1428571428571428 0.1428571428571428 0.1428571428571428 0.1428571428571428 0.1428571428571428 0.1428571428571428 0.1428571428571428 0.1428571428571428 0.1428571428571428 0.1428571428571428 0.1428571428571428 0.1428571428571428 0.1428571428571428 0.1428571428571428 0.1428571428571428 0.1428571428571428 0.1428571428571428 0.1428571428571428 0.1428571428571428 0.1428571428571428 0.1428571428571428 0.1428571428571428 0.1428571428571428 0.1428571428571428 0.1428571428571428 0.1428571428571428 0.1428571428571428 0 0 0.2 0 0.2 0.6000000000000001 0 0 0 0 0 0 1 0 0 0 0 0.8333333333333333 0 0.1111111111111111 0.05555555555555555 0.1428571428571428 0.1428571428571428 0.1428571428571428 0.1428571428571428 0.1428571428571428 0.1428571428571428 0.1428571428571428 0.1428571428571428 0.1428571428571428 0.1428571428571428 0.1428571428571428 0.1428571428571428 0.1428571428571428 0.1428571428571428 0.1428571428571428 0.1428571428571428 0.1428571428571428 0.1428571428571428 0.1428571428571428 0.1428571428571428 0.1428571428571428 0.1428571428571428 0.1428571428571428 0.1428571428571428 0.1428571428571428 0.1428571428571428 0.1428571428571428 0.1428571428571428 0.1428571428571428 0.1428571428571428 0.1428571428571428 0.1428571428571428 0.1428571428571428 0.1428571428571428 0.1428571428571428 0.1428571428571428 0.1428571428571428 0.1428571428571428 0.1428571428571428 0.1428571428571428 0.1428571428571428 0.1428571428571428 0.1428571428571428 0.1428571428571428 0.1428571428571428 0.1428571428571428 0.1428571428571428 0.1428571428571428 0.1428571428571428 0.1428571428571428 0.1428571428571428 0.1428571428571428 0.1428571428571428 0.1428571428571428 0.1428571428571428 0.1428571428571428 0.1428571428571428 0.1428571428571428 0.1428571428571428 0.1428571428571428 0.1428571428571428 0.1428571428571428 0.1428571428571428 0.1428571428571428 0.1428571428571428 0.1428571428571428 0.1428571428571428 0.1428571428571428 0.1428571428571428 0.1428571428571428 0.1428571428571428 0.1428571428571428 0.1428571428571428 0.1428571428571428 0.1428571428571428 0.1428571428571428 0.1428571428571428 0.1428571428571428 0.1428571428571428 0.1428571428571428 0.1428571428571428 0.1428571428571428 0.1428571428571428 0.1428571428571428 0.1428571428571428 0.1428571428571428 0.1428571428571428 0.1428571428571428 0.1428571428571428 0.1428571428571428 0.1428571428571428 0 0 0 0 1 0 0 0.1428571428571428 0.1428571428571428 0.1428571428571428 0.1428571428571428 0.1428571428571428 0.1428571428571428 0.1428571428571428 0 0 0 0 1 0 0 0 0 0 0.3333333333333333 0.3333333333333333 0.3333333333333333 0 0.1428571428571428 0.1428571428571428 0.1428571428571428 0.1428571428571428 0.1428571428571428 0.1428571428571428 0.1428571428571428 0.1428571428571428 0.1428571428571428 0.1428571428571428 0.1428571428571428 0.1428571428571428 0.1428571428571428 0.1428571428571428 0.1428571428571428 0.1428571428571428 0.1428571428571428 0.1428571428571428 0.1428571428571428 0.1428571428571428 0.1428571428571428 0.1428571428571428 0.1428571428571428 0.1428571428571428 0.1428571428571428 0.1428571428571428 0.1428571428571428 0.1428571428571428 0 0 0 0.25 0.25 0.25 0.25 0 0.2857142857142857 0 0 0 0.4285714285714285 0.2857142857142857 0 0 0.3333333333333333 0 0 0.6666666666666666 0 0 0 0 0.1428571428571428 0.1428571428571428 0.7142857142857142 0 0.1428571428571428 0.1428571428571428 0.1428571428571428 0.1428571428571428 0.1428571428571428 0.1428571428571428 0.1428571428571428 0.1428571428571428 0.1428571428571428 0.1428571428571428 0.1428571428571428 0.1428571428571428 0.1428571428571428 0.1428571428571428 0.1428571428571428 0.1428571428571428 0.1428571428571428 0.1428571428571428 0.1428571428571428 0.1428571428571428 0.1428571428571428 0.1428571428571428 0.1428571428571428 0.1428571428571428 0.1428571428571428 0.1428571428571428 0.1428571428571428 0.1428571428571428 0 0 0.25 0.25 0.125 0.375 0 0 0 0 0.25 0 0.25 0.5 0 0 0 0 0.25 0.4166666666666666 0.3333333333333333 0 0 0 0.5 0 0.4 0.1 0.1428571428571428 0.1428571428571428 0.1428571428571428 0.1428571428571428 0.1428571428571428 0.1428571428571428 0.1428571428571428 0.1428571428571428 0.1428571428571428 0.1428571428571428 0.1428571428571428 0.1428571428571428 0.1428571428571428 0.1428571428571428 0.1428571428571428 0.1428571428571428 0.1428571428571428 0.1428571428571428 0.1428571428571428 0.1428571428571428 0.1428571428571428 0.1428571428571428 0.1428571428571428 0.1428571428571428 0.1428571428571428 0.1428571428571428 0.1428571428571428 0.1428571428571428 0 0 0.3157894736842105 0 0.2631578947368421 0.4210526315789473 0 0 0 0 0.1052631578947368 0.4736842105263158 0.2631578947368421 0.1578947368421053 0 0 0 0 0.7142857142857142 0.1428571428571428 0.1428571428571428 0 0 0 0 0.25 0.75 0 0.1428571428571428 0.1428571428571428 0.1428571428571428 0.1428571428571428 0.1428571428571428 0.1428571428571428 0.1428571428571428 0.1428571428571428 0.1428571428571428 0.1428571428571428 0.1428571428571428 0.1428571428571428 0.1428571428571428 0.1428571428571428 0.1428571428571428 0.1428571428571428 0.1428571428571428 0.1428571428571428 0.1428571428571428 0.1428571428571428 0.1428571428571428 0.1428571428571428 0.1428571428571428 0.1428571428571428 0.1428571428571428 0.1428571428571428 0.1428571428571428 0.1428571428571428 0 0 0.1730769230769231 0.3461538461538461 0.4807692307692308 0 0 0 0.03703703703703703 0.03703703703703703 0.3333333333333333 0.3333333333333333 0.03703703703703703 0.2222222222222222 0 0.08333333333333333 0 0 0.1666666666666667 0.25 0.5 0 0 0 0 0.3333333333333333 0 0.6666666666666666 0.1428571428571428 0.1428571428571428 0.1428571428571428 0.1428571428571428 0.1428571428571428 0.1428571428571428 0.1428571428571428 0.1428571428571428 0.1428571428571428 0.1428571428571428 0.1428571428571428 0.1428571428571428 0.1428571428571428 0.1428571428571428 0.1428571428571428 0.1428571428571428 0.1428571428571428 0.1428571428571428 0.1428571428571428 0.1428571428571428 0.1428571428571428 0.1428571428571428 0.1428571428571428 0.1428571428571428 0.1428571428571428 0.1428571428571428 0.1428571428571428 0.1428571428571428 0 0 0.04 0.48 0 0.4 0.08 0 0 0 0.3333333333333333 0 0.6666666666666666 0 0 0 0.5 0 0 0 0.5 0.1428571428571428 0.1428571428571428 0.1428571428571428 0.1428571428571428 0.1428571428571428 0.1428571428571428 0.1428571428571428 0.1428571428571428 0.1428571428571428 0.1428571428571428 0.1428571428571428 0.1428571428571428 0.1428571428571428 0.1428571428571428 0.1428571428571428 0.1428571428571428 0.1428571428571428 0.1428571428571428 0.1428571428571428 0.1428571428571428 0.1428571428571428 0.1428571428571428 0.1428571428571428 0.1428571428571428 0.1428571428571428 0.1428571428571428 0.1428571428571428 0.1428571428571428 0.1428571428571428 0.1428571428571428 0.1428571428571428 0.1428571428571428 0.1428571428571428 0.1428571428571428 0.1428571428571428 0.1428571428571428 0.1428571428571428 0.1428571428571428 0.1428571428571428 0.1428571428571428 0.1428571428571428 0.1428571428571428 0.1428571428571428 0.1428571428571428 0.1428571428571428 0.1428571428571428 0.1428571428571428 0.1428571428571428 0.1428571428571428 0.1428571428571428 0.1428571428571428 0.1428571428571428 0.1428571428571428 0.1428571428571428 0.1428571428571428 0.1428571428571428 0.1428571428571428 0.1428571428571428 0.1428571428571428 0.1428571428571428 0.1428571428571428 0.1428571428571428 0.1428571428571428 0.1428571428571428 0.1428571428571428 0.1428571428571428 0.1428571428571428 0.1428571428571428 0.1428571428571428 0.1428571428571428 0.1428571428571428 0.1428571428571428 0.1428571428571428 0.1428571428571428 0.1428571428571428 0.1428571428571428 0.1428571428571428 0.1428571428571428 0.1428571428571428 0.1428571428571428 0.1428571428571428 0.1428571428571428 0.1428571428571428 0.1428571428571428 0.1428571428571428 0.1428571428571428 0.1428571428571428 0.1428571428571428 0.1428571428571428 0.1428571428571428 0.1428571428571428 0.1428571428571428 0.1428571428571428 0.1428571428571428 0.1428571428571428 0.1428571428571428 0.1428571428571428 0.1428571428571428 0.1428571428571428 0.1428571428571428 0.1428571428571428 0.1428571428571428 0.1428571428571428 0.1428571428571428 0.1428571428571428 0.1428571428571428 0.1428571428571428 0.1428571428571428 0.1428571428571428 0.1428571428571428 0.1428571428571428 0.1428571428571428 0 1 0 0 0 0 0 0.1428571428571428 0.1428571428571428 0.1428571428571428 0.1428571428571428 0.1428571428571428 0.1428571428571428 0.1428571428571428 0.1428571428571428 0.1428571428571428 0.1428571428571428 0.1428571428571428 0.1428571428571428 0.1428571428571428 0.1428571428571428 0.1428571428571428 0.1428571428571428 0.1428571428571428 0.1428571428571428 0.1428571428571428 0.1428571428571428 0.1428571428571428 0.1428571428571428 0.1428571428571428 0.1428571428571428 0.1428571428571428 0.1428571428571428 0.1428571428571428 0.1428571428571428 0 0 0 1 0 0 0 0 0 0 0 0 1 0 0.1428571428571428 0.1428571428571428 0.1428571428571428 0.1428571428571428 0.1428571428571428 0.1428571428571428 0.1428571428571428 0 0 0 0.3333333333333333 0.6666666666666666 0 0 0.1428571428571428 0.1428571428571428 0.1428571428571428 0.1428571428571428 0.1428571428571428 0.1428571428571428 0.1428571428571428 0.1428571428571428 0.1428571428571428 0.1428571428571428 0.1428571428571428 0.1428571428571428 0.1428571428571428 0.1428571428571428 0.1428571428571428 0.1428571428571428 0.1428571428571428 0.1428571428571428 0.1428571428571428 0.1428571428571428 0.1428571428571428 0.1428571428571428 0.1428571428571428 0.1428571428571428 0.1428571428571428 0.1428571428571428 0.1428571428571428 0.1428571428571428 0 0.125 0.25 0.5 0 0.125 0 0 0.5714285714285714 0 0 0 0.4285714285714285 0 0 0 0 0 0 1 0 0 0 0 0 0.25 0.75 0 0.1428571428571428 0.1428571428571428 0.1428571428571428 0.1428571428571428 0.1428571428571428 0.1428571428571428 0.1428571428571428 0.1428571428571428 0.1428571428571428 0.1428571428571428 0.1428571428571428 0.1428571428571428 0.1428571428571428 0.1428571428571428 0.1428571428571428 0.1428571428571428 0.1428571428571428 0.1428571428571428 0.1428571428571428 0.1428571428571428 0.1428571428571428 0.1428571428571428 0.1428571428571428 0.1428571428571428 0.1428571428571428 0.1428571428571428 0.1428571428571428 0.1428571428571428 0 0 0.2727272727272727 0.2727272727272727 0.2727272727272727 0.1818181818181818 0 0 0 0 0 0 0.4 0.6000000000000001 0 0 0.2 0 0 0.2 0.6000000000000001 0.1428571428571428 0.1428571428571428 0.1428571428571428 0.1428571428571428 0.1428571428571428 0.1428571428571428 0.1428571428571428 0.1428571428571428 0.1428571428571428 0.1428571428571428 0.1428571428571428 0.1428571428571428 0.1428571428571428 0.1428571428571428 0.1428571428571428 0.1428571428571428 0.1428571428571428 0.1428571428571428 0.1428571428571428 0.1428571428571428 0.1428571428571428 0.1428571428571428 0.1428571428571428 0.1428571428571428 0.1428571428571428 0.1428571428571428 0.1428571428571428 0.1428571428571428 0.1428571428571428 0.1428571428571428 0.1428571428571428 0.1428571428571428 0.1428571428571428 0.1428571428571428 0.1428571428571428 0 0.07142857142857142 0 0.3571428571428571 0.4285714285714285 0.07142857142857142 0.07142857142857142 0 0.03703703703703703 0 0 0.1111111111111111 0.6296296296296295 0.2222222222222222 0 0.2222222222222222 0 0 0.2222222222222222 0.3333333333333333 0.2222222222222222 0 0 0 0 1 0 0 0.1428571428571428 0.1428571428571428 0.1428571428571428 0.1428571428571428 0.1428571428571428 0.1428571428571428 0.1428571428571428 0.1428571428571428 0.1428571428571428 0.1428571428571428 0.1428571428571428 0.1428571428571428 0.1428571428571428 0.1428571428571428 0.1428571428571428 0.1428571428571428 0.1428571428571428 0.1428571428571428 0.1428571428571428 0.1428571428571428 0.1428571428571428 0.1428571428571428 0.1428571428571428 0.1428571428571428 0.1428571428571428 0.1428571428571428 0.1428571428571428 0.1428571428571428 0 0 0.2 0 0.3 0.45 0.05 0 0 0 0 0.1428571428571428 0.2857142857142857 0.5714285714285714 0 0.1578947368421053 0 0.2105263157894737 0.05263157894736842 0.3157894736842105 0.2631578947368421 0.1428571428571428 0.1428571428571428 0.1428571428571428 0.1428571428571428 0.1428571428571428 0.1428571428571428 0.1428571428571428 0.1428571428571428 0.1428571428571428 0.1428571428571428 0.1428571428571428 0.1428571428571428 0.1428571428571428 0.1428571428571428 0.1428571428571428 0.1428571428571428 0.1428571428571428 0.1428571428571428 0.1428571428571428 0.1428571428571428 0.1428571428571428 0.1428571428571428 0.1428571428571428 0.1428571428571428 0.1428571428571428 0.1428571428571428 0.1428571428571428 0.1428571428571428 0.1428571428571428 0.1428571428571428 0.1428571428571428 0.1428571428571428 0.1428571428571428 0.1428571428571428 0.1428571428571428 0.1428571428571428 0.1428571428571428 0.1428571428571428 0.1428571428571428 0.1428571428571428 0.1428571428571428 0.1428571428571428 0.1428571428571428 0.1428571428571428 0.1428571428571428 0.1428571428571428 0.1428571428571428 0.1428571428571428 0.1428571428571428 0.1428571428571428 0.1428571428571428 0.1428571428571428 0.1428571428571428 0.1428571428571428 0.1428571428571428 0.1428571428571428 0.1428571428571428 0.1428571428571428 0.1428571428571428 0.1428571428571428 0.1428571428571428 0.1428571428571428 0.1428571428571428 0.1428571428571428 0.1428571428571428 0.1428571428571428 0.1428571428571428 0.1428571428571428 0.1428571428571428 0.1428571428571428 0.1428571428571428 0.1428571428571428 0.1428571428571428 0.1428571428571428 0.1428571428571428 0.1428571428571428 0.1428571428571428 0.1428571428571428 0.1428571428571428 0.1428571428571428 0.1428571428571428 0.1428571428571428 0.1428571428571428 0.1428571428571428 0.1428571428571428 0.1428571428571428 0.1428571428571428 0.1428571428571428 0.1428571428571428 0.1428571428571428 0.1428571428571428 0.1428571428571428 0.1428571428571428 0.1428571428571428 0.1428571428571428 0.1428571428571428 0.1428571428571428 0.1428571428571428 0.1428571428571428 0.1428571428571428 0.1428571428571428 0.1428571428571428 0.1428571428571428 0.1428571428571428 0.1428571428571428 0.1428571428571428 0.1428571428571428 0.1428571428571428 0.1428571428571428 0.1428571428571428 0.1428571428571428 0.1428571428571428 0.1428571428571428 0.1428571428571428 0.1428571428571428 0.1428571428571428 0.1428571428571428 0.1428571428571428 0.1428571428571428 0.1428571428571428 0.1428571428571428 0.1428571428571428 0.1428571428571428 0.1428571428571428 0.1428571428571428 0.1428571428571428 0.1428571428571428 0.1428571428571428 0.1428571428571428 0.1428571428571428 0.1428571428571428 0.1428571428571428 0.1428571428571428 0.1428571428571428 0.1428571428571428 0.1428571428571428 0.1428571428571428 0.1428571428571428 0.1428571428571428 0.1428571428571428 0.1428571428571428 0.1428571428571428 0.1428571428571428 0.1428571428571428 0.1428571428571428 0.1428571428571428 0.1428571428571428 0.1428571428571428 0.1428571428571428 0.1428571428571428 0.1428571428571428 0.1428571428571428 0.1428571428571428 0.1428571428571428 0.1428571428571428 0.1428571428571428 0.1428571428571428 0.1428571428571428 0.1428571428571428 0.1428571428571428 0.1428571428571428 0 0 0 0 0 1 0 0 0 0 0 0.6666666666666666 0.3333333333333333 0 0.1428571428571428 0.1428571428571428 0.1428571428571428 0.1428571428571428 0.1428571428571428 0.1428571428571428 0.1428571428571428 0.1428571428571428 0.1428571428571428 0.1428571428571428 0.1428571428571428 0.1428571428571428 0.1428571428571428 0.1428571428571428 0.1428571428571428 0.1428571428571428 0.1428571428571428 0.1428571428571428 0.1428571428571428 0.1428571428571428 0.1428571428571428 0.1428571428571428 0.1428571428571428 0.1428571428571428 0.1428571428571428 0.1428571428571428 0.1428571428571428 0.1428571428571428 0 0 0 0 1 0 0 0.1428571428571428 0.1428571428571428 0.1428571428571428 0.1428571428571428 0.1428571428571428 0.1428571428571428 0.1428571428571428 0 0 0 0 1 0 0 0.1428571428571428 0.1428571428571428 0.1428571428571428 0.1428571428571428 0.1428571428571428 0.1428571428571428 0.1428571428571428 0.1428571428571428 0.1428571428571428 0.1428571428571428 0.1428571428571428 0.1428571428571428 0.1428571428571428 0.1428571428571428 0.1428571428571428 0.1428571428571428 0.1428571428571428 0.1428571428571428 0.1428571428571428 0.1428571428571428 0.1428571428571428 0.1428571428571428 0.1428571428571428 0.1428571428571428 0.1428571428571428 0.1428571428571428 0.1428571428571428 0.1428571428571428 0.1428571428571428 0.1428571428571428 0.1428571428571428 0.1428571428571428 0.1428571428571428 0.1428571428571428 0.1428571428571428 0 0 0 1 0 0 0 0 0 0 0 0 1 0 0 0 0 0 0.5 0.5 0 0.1428571428571428 0.1428571428571428 0.1428571428571428 0.1428571428571428 0.1428571428571428 0.1428571428571428 0.1428571428571428 0.1428571428571428 0.1428571428571428 0.1428571428571428 0.1428571428571428 0.1428571428571428 0.1428571428571428 0.1428571428571428 0.1428571428571428 0.1428571428571428 0.1428571428571428 0.1428571428571428 0.1428571428571428 0.1428571428571428 0.1428571428571428 0.1428571428571428 0.1428571428571428 0.1428571428571428 0.1428571428571428 0.1428571428571428 0.1428571428571428 0.1428571428571428 0.1428571428571428 0.1428571428571428 0.1428571428571428 0.1428571428571428 0.1428571428571428 0.1428571428571428 0.1428571428571428 0 0.5 0.5 0 0 0 0 0 0 0.375 0 0 0.375 0.25 0 0 0 0 0.4117647058823529 0.2352941176470588 0.3529411764705882 0.1428571428571428 0.1428571428571428 0.1428571428571428 0.1428571428571428 0.1428571428571428 0.1428571428571428 0.1428571428571428 0.1428571428571428 0.1428571428571428 0.1428571428571428 0.1428571428571428 0.1428571428571428 0.1428571428571428 0.1428571428571428 0.1428571428571428 0.1428571428571428 0.1428571428571428 0.1428571428571428 0.1428571428571428 0.1428571428571428 0.1428571428571428 0.1428571428571428 0.1428571428571428 0.1428571428571428 0.1428571428571428 0.1428571428571428 0.1428571428571428 0.1428571428571428 0.1428571428571428 0.1428571428571428 0.1428571428571428 0.1428571428571428 0.1428571428571428 0.1428571428571428 0.1428571428571428 0 0.1666666666666667 0.05555555555555555 0.05555555555555555 0.2777777777777778 0.3888888888888888 0.05555555555555555 0 0 0 0.09090909090909091 0 0.8636363636363636 0.04545454545454546 0 0.07142857142857142 0.1428571428571428 0.3571428571428571 0.07142857142857142 0.07142857142857142 0.2857142857142857 0.1428571428571428 0.1428571428571428 0.1428571428571428 0.1428571428571428 0.1428571428571428 0.1428571428571428 0.1428571428571428 0.1428571428571428 0.1428571428571428 0.1428571428571428 0.1428571428571428 0.1428571428571428 0.1428571428571428 0.1428571428571428 0.1428571428571428 0.1428571428571428 0.1428571428571428 0.1428571428571428 0.1428571428571428 0.1428571428571428 0.1428571428571428 0.1428571428571428 0.1428571428571428 0.1428571428571428 0.1428571428571428 0.1428571428571428 0.1428571428571428 0.1428571428571428 0.1428571428571428 0.1428571428571428 0.1428571428571428 0.1428571428571428 0.1428571428571428 0.1428571428571428 0.1428571428571428 0.1428571428571428 0.1428571428571428 0.1428571428571428 0.1428571428571428 0.1428571428571428 0.1428571428571428 0.1428571428571428 0.1428571428571428 0.1428571428571428 0.1428571428571428 0.1428571428571428 0.1428571428571428 0.1428571428571428 0.1428571428571428 0.1428571428571428 0.1428571428571428 0.1428571428571428 0.1428571428571428 0.1428571428571428 0.1428571428571428 0.1428571428571428 0.1428571428571428 0.1428571428571428 0.1428571428571428 0.1428571428571428 0.1428571428571428 0.1428571428571428 0.1428571428571428 0.1428571428571428 0.1428571428571428 0.1428571428571428 0.1428571428571428 0.1428571428571428 0.1428571428571428 0.1428571428571428 0.1428571428571428 0.1428571428571428 0.1428571428571428 0.1428571428571428 0.1428571428571428 0.1428571428571428 0.1428571428571428 0.1428571428571428 0.1428571428571428 0.1428571428571428 0.1428571428571428 0.1428571428571428 0.1428571428571428 0.1428571428571428 0.1428571428571428 0.1428571428571428 0.1428571428571428 0.1428571428571428 0.1428571428571428 0.1428571428571428 0.1428571428571428 0.1428571428571428 0.1428571428571428 0.1428571428571428 0.1428571428571428 0.1428571428571428 0.1428571428571428 0.1428571428571428 0.1428571428571428 0.1428571428571428 0.1428571428571428 0.1428571428571428 0.1428571428571428 0.1428571428571428 0.1428571428571428 0.1428571428571428 0.1428571428571428 0.1428571428571428 0.1428571428571428 0.1428571428571428 0.1428571428571428 0.1428571428571428 0.1428571428571428 0.1428571428571428 0.1428571428571428 0.1428571428571428 0.1428571428571428 0.1428571428571428 0.1428571428571428 0.1428571428571428 0.1428571428571428 0.1428571428571428 0.1428571428571428 0.1428571428571428 0.1428571428571428 0.1428571428571428 0.1428571428571428 0.1428571428571428 0.1428571428571428 0.1428571428571428 0.1428571428571428 0.1428571428571428 0.1428571428571428 0.1428571428571428 0.1428571428571428 0.1428571428571428 0.1428571428571428 0.1428571428571428 0.1428571428571428 0.1428571428571428 0.1428571428571428 0.1428571428571428 0.1428571428571428 0.1428571428571428 0.1428571428571428 0.1428571428571428 0.1428571428571428 0.1428571428571428 0.1428571428571428 0.1428571428571428 0.1428571428571428 0.1428571428571428 0.1428571428571428 0.1428571428571428 0.1428571428571428 0.1428571428571428 0.1428571428571428 0.1428571428571428 0.1428571428571428 0.1428571428571428 0.1428571428571428 0.1428571428571428 0.1428571428571428 0.1428571428571428 0.1428571428571428 0.1428571428571428 0.1428571428571428 0.1428571428571428 0.1428571428571428 0.1428571428571428 0.1428571428571428 0.1428571428571428 0.1428571428571428 0.1428571428571428 0.1428571428571428 0.1428571428571428 0.1428571428571428 0.1428571428571428 0.1428571428571428 0.1428571428571428 0.1428571428571428 0.1428571428571428 0.1428571428571428 0.1428571428571428 0.1428571428571428 0.1428571428571428 0.1428571428571428 0.1428571428571428 0.1428571428571428 0.1428571428571428 0.1428571428571428 0.1428571428571428 0.1428571428571428 0.1428571428571428 0.1428571428571428 0.1428571428571428 0.1428571428571428 0.1428571428571428 0.1428571428571428 0.1428571428571428 0.1428571428571428 0.1428571428571428 0.1428571428571428 0.1428571428571428 0.1428571428571428 0.1428571428571428 0.1428571428571428 0.1428571428571428 0.1428571428571428 0.1428571428571428 0.1428571428571428 0.1428571428571428 0.1428571428571428 0.1428571428571428 0.1428571428571428 0.1428571428571428 0.1428571428571428 0.1428571428571428 0.1428571428571428 0.1428571428571428 0.1428571428571428 0.1428571428571428 0.1428571428571428 0.1428571428571428 0 0 1 0 0 0 0 0.1428571428571428 0.1428571428571428 0.1428571428571428 0.1428571428571428 0.1428571428571428 0.1428571428571428 0.1428571428571428 0.1428571428571428 0.1428571428571428 0.1428571428571428 0.1428571428571428 0.1428571428571428 0.1428571428571428 0.1428571428571428 0.1428571428571428 0.1428571428571428 0.1428571428571428 0.1428571428571428 0.1428571428571428 0.1428571428571428 0.1428571428571428 0.1428571428571428 0.1428571428571428 0.1428571428571428 0.1428571428571428 0.1428571428571428 0.1428571428571428 0.1428571428571428 0.1428571428571428 0.1428571428571428 0.1428571428571428 0.1428571428571428 0.1428571428571428 0.1428571428571428 0.1428571428571428 0.1428571428571428 0.1428571428571428 0.1428571428571428 0.1428571428571428 0.1428571428571428 0.1428571428571428 0.1428571428571428 0 0 0 0 0 0 1 0 0 1 0 0 0 0 0.1428571428571428 0.1428571428571428 0.1428571428571428 0.1428571428571428 0.1428571428571428 0.1428571428571428 0.1428571428571428 0.1428571428571428 0.1428571428571428 0.1428571428571428 0.1428571428571428 0.1428571428571428 0.1428571428571428 0.1428571428571428 0.1428571428571428 0.1428571428571428 0.1428571428571428 0.1428571428571428 0.1428571428571428 0.1428571428571428 0.1428571428571428 0.1428571428571428 0.1428571428571428 0.1428571428571428 0.1428571428571428 0.1428571428571428 0.1428571428571428 0.1428571428571428 0.1428571428571428 0.1428571428571428 0.1428571428571428 0.1428571428571428 0.1428571428571428 0.1428571428571428 0.1428571428571428 0 0 0.7142857142857142 0 0 0.2142857142857143 0.07142857142857142 0 0 0 0 0 0 1 0 0 0 0 1 0 0 0.1428571428571428 0.1428571428571428 0.1428571428571428 0.1428571428571428 0.1428571428571428 0.1428571428571428 0.1428571428571428 0.1428571428571428 0.1428571428571428 0.1428571428571428 0.1428571428571428 0.1428571428571428 0.1428571428571428 0.1428571428571428 0.1428571428571428 0.1428571428571428 0.1428571428571428 0.1428571428571428 0.1428571428571428 0.1428571428571428 0.1428571428571428 0.1428571428571428 0.1428571428571428 0.1428571428571428 0.1428571428571428 0.1428571428571428 0.1428571428571428 0.1428571428571428 0 0 0 0 0 0.6666666666666666 0.3333333333333333 0 0 0.3333333333333333 0 0.5 0 0.1666666666666667 0 0 0 0 1 0 0 0.1428571428571428 0.1428571428571428 0.1428571428571428 0.1428571428571428 0.1428571428571428 0.1428571428571428 0.1428571428571428 0.1428571428571428 0.1428571428571428 0.1428571428571428 0.1428571428571428 0.1428571428571428 0.1428571428571428 0.1428571428571428 0.1428571428571428 0.1428571428571428 0.1428571428571428 0.1428571428571428 0.1428571428571428 0.1428571428571428 0.1428571428571428 0.1428571428571428 0.1428571428571428 0.1428571428571428 0.1428571428571428 0.1428571428571428 0.1428571428571428 0.1428571428571428 0.1428571428571428 0.1428571428571428 0.1428571428571428 0.1428571428571428 0.1428571428571428 0.1428571428571428 0.1428571428571428 0.1428571428571428 0.1428571428571428 0.1428571428571428 0.1428571428571428 0.1428571428571428 0.1428571428571428 0.1428571428571428 0.1428571428571428 0.1428571428571428 0.1428571428571428 0.1428571428571428 0.1428571428571428 0.1428571428571428 0.1428571428571428 0.1428571428571428 0.1428571428571428 0.1428571428571428 0.1428571428571428 0.1428571428571428 0.1428571428571428 0.1428571428571428 0.1428571428571428 0.1428571428571428 0.1428571428571428 0.1428571428571428 0.1428571428571428 0.1428571428571428 0.1428571428571428 0.1428571428571428 0.1428571428571428 0.1428571428571428 0.1428571428571428 0.1428571428571428 0.1428571428571428 0.1428571428571428 0.1428571428571428 0.1428571428571428 0.1428571428571428 0.1428571428571428 0.1428571428571428 0.1428571428571428 0.1428571428571428 0.1428571428571428 0.1428571428571428 0.1428571428571428 0.1428571428571428 0.1428571428571428 0.1428571428571428 0.1428571428571428 0.1428571428571428 0.1428571428571428 0.1428571428571428 0.1428571428571428 0.1428571428571428 0.1428571428571428 0.1428571428571428 0.1428571428571428 0.1428571428571428 0.1428571428571428 0.1428571428571428 0.1428571428571428 0.1428571428571428 0.1428571428571428 0.1428571428571428 0.1428571428571428 0.1428571428571428 0.1428571428571428 0.1428571428571428 0.1428571428571428 0.1428571428571428 0.1428571428571428 0.1428571428571428 0.1428571428571428 0.1428571428571428 0.1428571428571428 0.1428571428571428 0.1428571428571428 0.1428571428571428 0.1428571428571428 0.1428571428571428 0.1428571428571428 0.1428571428571428 0.1428571428571428 0.1428571428571428 0.1428571428571428 0.1428571428571428 0.1428571428571428 0.1428571428571428 0.1428571428571428 0.1428571428571428 0.1428571428571428 0.1428571428571428 0.1428571428571428 0.1428571428571428 0.1428571428571428 0.1428571428571428 0.1428571428571428 0.1428571428571428 0.1428571428571428 0.1428571428571428 0.1428571428571428 0.1428571428571428 0.1428571428571428 0.1428571428571428 0.1428571428571428 0.1428571428571428 0.1428571428571428 0.1428571428571428 0.1428571428571428 0.1428571428571428 0.1428571428571428 0.1428571428571428 0.1428571428571428 0.1428571428571428 0.1428571428571428 0.1428571428571428 0.1428571428571428 0.1428571428571428 0.1428571428571428 0.1428571428571428 0.1428571428571428 0.1428571428571428 0.1428571428571428 0.1428571428571428 0.1428571428571428 0.1428571428571428 0.1428571428571428 0.1428571428571428 0.1428571428571428 0.1428571428571428 0.1428571428571428 0.1428571428571428 0.1428571428571428 0.1428571428571428 0.1428571428571428 0.1428571428571428 0.1428571428571428 0.1428571428571428 0.1428571428571428 0.1428571428571428 0.1428571428571428 0.1428571428571428 0.1428571428571428 0.1428571428571428 0.1428571428571428 0.1428571428571428 0.1428571428571428 0.1428571428571428 0.1428571428571428 0.1428571428571428 0.1428571428571428 0.1428571428571428 0.1428571428571428 0.1428571428571428 0.1428571428571428 0.1428571428571428 0.1428571428571428 0.1428571428571428 0.1428571428571428 0.1428571428571428 0.1428571428571428 0.1428571428571428 0.1428571428571428 0.1428571428571428 0.1428571428571428 0.1428571428571428 0.1428571428571428 0.1428571428571428 0.1428571428571428 0.1428571428571428 0.1428571428571428 0.1428571428571428 0.1428571428571428 0.1428571428571428 0.1428571428571428 0.1428571428571428 0.1428571428571428 0.1428571428571428 0.1428571428571428 0.1428571428571428 0.1428571428571428 0.1428571428571428 0.1428571428571428 0.1428571428571428 0.1428571428571428 0.1428571428571428 0.1428571428571428 0.1428571428571428 0.1428571428571428 0.1428571428571428 0.1428571428571428 0.1428571428571428 0.1428571428571428 0.1428571428571428 0.1428571428571428 0.1428571428571428 0.1428571428571428 0.1428571428571428 0.1428571428571428 0.1428571428571428 0.1428571428571428 0.1428571428571428 0.1428571428571428 0.1428571428571428 0.1428571428571428 0.1428571428571428 0.1428571428571428 0.1428571428571428 0.1428571428571428 0.1428571428571428 0.1428571428571428 0.1428571428571428 0.1428571428571428 0.1428571428571428 0.1428571428571428 0.1428571428571428 0.1428571428571428 0.1428571428571428 0.1428571428571428 0.1428571428571428 0.1428571428571428 0.1428571428571428 0.1428571428571428 0.1428571428571428 0.1428571428571428 0.1428571428571428 0.1428571428571428 0.1428571428571428 0.1428571428571428 0.1428571428571428 0.1428571428571428 0.1428571428571428 0.1428571428571428 0.1428571428571428 0.1428571428571428 0.1428571428571428 0.1428571428571428 0.1428571428571428 0.1428571428571428 0.1428571428571428 0.1428571428571428 0.1428571428571428 0.1428571428571428 0.1428571428571428 0.1428571428571428 0.1428571428571428 0.1428571428571428 0.1428571428571428 0.1428571428571428 0.1428571428571428 0.1428571428571428 0.1428571428571428 0.1428571428571428 0.1428571428571428 0.1428571428571428 0.1428571428571428 0.1428571428571428 0.1428571428571428 0.1428571428571428 0.1428571428571428 0.1428571428571428 0.1428571428571428 0.1428571428571428 0.1428571428571428 0.1428571428571428 0.1428571428571428 0.1428571428571428 0.1428571428571428 0.1428571428571428 0.1428571428571428 0.1428571428571428 0.1428571428571428 0.1428571428571428 0.1428571428571428 0.1428571428571428 0.1428571428571428 0.1428571428571428 0.1428571428571428 0.1428571428571428 0.1428571428571428 0.1428571428571428 0.1428571428571428 0.1428571428571428 0.1428571428571428 0.1428571428571428 0.1428571428571428 0.1428571428571428 0.1428571428571428 0.1428571428571428 0.1428571428571428 0.1428571428571428 0.1428571428571428 0.1428571428571428 0.1428571428571428 0.1428571428571428 0.1428571428571428 0.1428571428571428 0.1428571428571428 0.1428571428571428 0.1428571428571428 0.1428571428571428 0.1428571428571428 0.1428571428571428 0.1428571428571428 0.1428571428571428 0.1428571428571428 0.1428571428571428 0.1428571428571428 0.1428571428571428 0.1428571428571428 0.1428571428571428 0.1428571428571428 0.1428571428571428 0.1428571428571428 0.1428571428571428 0.1428571428571428 0.1428571428571428 0.1428571428571428 0.1428571428571428 0.1428571428571428 0.1428571428571428 0.1428571428571428 0.1428571428571428 0.1428571428571428 0.1428571428571428 0.1428571428571428 0.1428571428571428 0.1428571428571428 0.1428571428571428 0.1428571428571428 0.1428571428571428 0.1428571428571428 0.1428571428571428 0.1428571428571428 0.1428571428571428 0.1428571428571428 0.1428571428571428 0.1428571428571428 0.1428571428571428 0.1428571428571428 0.1428571428571428 0.1428571428571428 0.1428571428571428 0.1428571428571428 0.1428571428571428 0.1428571428571428 0.1428571428571428 0.1428571428571428 0.1428571428571428 0.1428571428571428 0 0 0 0 0 0 1 0.1428571428571428 0.1428571428571428 0.1428571428571428 0.1428571428571428 0.1428571428571428 0.1428571428571428 0.1428571428571428 0.1428571428571428 0.1428571428571428 0.1428571428571428 0.1428571428571428 0.1428571428571428 0.1428571428571428 0.1428571428571428 0.1428571428571428 0.1428571428571428 0.1428571428571428 0.1428571428571428 0.1428571428571428 0.1428571428571428 0.1428571428571428 0 0 0 0 0 0 1 0.09523809523809523 0 0.3809523809523809 0.3809523809523809 0.1428571428571428 0 0 0.3125 0.1875 0.125 0.25 0.125 0 0 0 0 0 0.5 0.5 0 0 0 0 0 0.5 0 0.5 0 0.3333333333333333 0 0 0 0 0.3333333333333333 0.3333333333333333 0.1428571428571428 0.1428571428571428 0.1428571428571428 0.1428571428571428 0.1428571428571428 0.1428571428571428 0.1428571428571428 0.1428571428571428 0.1428571428571428 0.1428571428571428 0.1428571428571428 0.1428571428571428 0.1428571428571428 0.1428571428571428 0 0 0 0 1 0 0 0 0.375 0 0.125 0 0.5 0 0.125 0.0625 0.09375 0.1875 0.28125 0.171875 0.078125 0.1428571428571428 0 0 0.1428571428571428 0.2857142857142857 0.1428571428571428 0.2857142857142857 0 0 0 0.5 0.5 0 0 0 0 0 1 0 0 0 0.1428571428571428 0.1428571428571428 0.1428571428571428 0.1428571428571428 0.1428571428571428 0.1428571428571428 0.1428571428571428 0.1428571428571428 0.1428571428571428 0.1428571428571428 0.1428571428571428 0.1428571428571428 0.1428571428571428 0.1428571428571428 0 0 0.5 0 0.5 0 0 0 0.3333333333333333 0 0.6666666666666666 0 0 0 0.1111111111111111 0.04444444444444445 0.2666666666666667 0.1555555555555556 0.3111111111111111 0.1111111111111111 0 0 0 0 0 0.7272727272727273 0.09090909090909091 0.1818181818181818 0 0 0 0 0 1 0 0 0 0 0.1176470588235294 0.2352941176470588 0 0.6470588235294118 0 0 0 0 0.5 0 0.5 0.1428571428571428 0.1428571428571428 0.1428571428571428 0.1428571428571428 0.1428571428571428 0.1428571428571428 0.1428571428571428 0.1428571428571428 0.1428571428571428 0.1428571428571428 0.1428571428571428 0.1428571428571428 0.1428571428571428 0.1428571428571428 0 0 0 0.75 0 0.25 0 0 0.04444444444444445 0.1777777777777778 0.2444444444444445 0.3555555555555556 0.1111111111111111 0.06666666666666667 0 0.1333333333333333 0 0 0.4666666666666667 0.4 0 0 0 0.07692307692307693 0.07692307692307693 0.03846153846153846 0.5384615384615385 0.2692307692307693 0 0 0 0.5 0 0 0.5 0.1428571428571428 0.1428571428571428 0.1428571428571428 0.1428571428571428 0.1428571428571428 0.1428571428571428 0.1428571428571428 0.1428571428571428 0.1428571428571428 0.1428571428571428 0.1428571428571428 0.1428571428571428 0.1428571428571428 0.1428571428571428 0.1428571428571428 0.1428571428571428 0.1428571428571428 0.1428571428571428 0.1428571428571428 0.1428571428571428 0.1428571428571428 0 0 0 1 0 0 0 0 0 0.3225806451612903 0.1612903225806452 0.2258064516129032 0.2258064516129032 0.06451612903225806 0 0 0 0.05882352941176471 0.08823529411764705 0.7941176470588235 0.05882352941176471 0 0 0.1666666666666667 0 0.3333333333333333 0.3333333333333333 0.1666666666666667 0.1428571428571428 0.1428571428571428 0.1428571428571428 0.1428571428571428 0.1428571428571428 0.1428571428571428 0.1428571428571428 0.1428571428571428 0.1428571428571428 0.1428571428571428 0.1428571428571428 0.1428571428571428 0.1428571428571428 0.1428571428571428 0.1428571428571428 0.1428571428571428 0.1428571428571428 0.1428571428571428 0.1428571428571428 0.1428571428571428 0.1428571428571428 0.1428571428571428 0.1428571428571428 0.1428571428571428 0.1428571428571428 0.1428571428571428 0.1428571428571428 0.1428571428571428 0.1428571428571428 0.1428571428571428 0.1428571428571428 0.1428571428571428 0.1428571428571428 0.1428571428571428 0.1428571428571428 0.04545454545454546 0 0.5909090909090909 0.1363636363636364 0.1363636363636364 0 0.09090909090909091 0 0 0 0.1111111111111111 0.4444444444444444 0.4444444444444444 0 0 0 0 0.1428571428571428 0.8571428571428571 0 0 0 0 0 0 0 1 0 0.1428571428571428 0.1428571428571428 0.1428571428571428 0.1428571428571428 0.1428571428571428 0.1428571428571428 0.1428571428571428 0.1428571428571428 0.1428571428571428 0.1428571428571428 0.1428571428571428 0.1428571428571428 0.1428571428571428 0.1428571428571428 0.1428571428571428 0.1428571428571428 0.1428571428571428 0.1428571428571428 0.1428571428571428 0.1428571428571428 0.1428571428571428 0.1428571428571428 0.1428571428571428 0.1428571428571428 0.1428571428571428 0.1428571428571428 0.1428571428571428 0.1428571428571428 0 0 0 0 0 1 0 0.1428571428571428 0.1428571428571428 0.1428571428571428 0.1428571428571428 0.1428571428571428 0.1428571428571428 0.1428571428571428 0.1428571428571428 0.1428571428571428 0.1428571428571428 0.1428571428571428 0.1428571428571428 0.1428571428571428 0.1428571428571428 0.1428571428571428 0.1428571428571428 0.1428571428571428 0.1428571428571428 0.1428571428571428 0.1428571428571428 0.1428571428571428 0.1428571428571428 0.1428571428571428 0.1428571428571428 0.1428571428571428 0.1428571428571428 0.1428571428571428 0.1428571428571428 0.1428571428571428 0.1428571428571428 0.1428571428571428 0.1428571428571428 0.1428571428571428 0.1428571428571428 0.1428571428571428 0.1428571428571428 0.1428571428571428 0.1428571428571428 0.1428571428571428 0.1428571428571428 0.1428571428571428 0.1428571428571428 0.1428571428571428 0.1428571428571428 0.1428571428571428 0.1428571428571428 0.1428571428571428 0.1428571428571428 0.1428571428571428 0 0 0 0 0 1 0 0.1428571428571428 0.1428571428571428 0.1428571428571428 0.1428571428571428 0.1428571428571428 0.1428571428571428 0.1428571428571428 0.1428571428571428 0.1428571428571428 0.1428571428571428 0.1428571428571428 0.1428571428571428 0.1428571428571428 0.1428571428571428 0.1428571428571428 0.1428571428571428 0.1428571428571428 0.1428571428571428 0.1428571428571428 0.1428571428571428 0.1428571428571428 0.1428571428571428 0.1428571428571428 0.1428571428571428 0.1428571428571428 0.1428571428571428 0.1428571428571428 0.1428571428571428 0.1428571428571428 0.1428571428571428 0.1428571428571428 0.1428571428571428 0.1428571428571428 0.1428571428571428 0.1428571428571428 0.1428571428571428 0.1428571428571428 0.1428571428571428 0.1428571428571428 0.1428571428571428 0.1428571428571428 0.1428571428571428 0.1428571428571428 0.1428571428571428 0.1428571428571428 0.1428571428571428 0.1428571428571428 0.1428571428571428 0.1428571428571428 0 0.1666666666666667 0.5 0.1666666666666667 0 0.1666666666666667 0 0 0 0 0 0 0.5 0.5 0 0 0 0 0.5 0.5 0 0 0 0 0.5 0 0.5 0 0.1428571428571428 0.1428571428571428 0.1428571428571428 0.1428571428571428 0.1428571428571428 0.1428571428571428 0.1428571428571428 0.1428571428571428 0.1428571428571428 0.1428571428571428 0.1428571428571428 0.1428571428571428 0.1428571428571428 0.1428571428571428 0.1428571428571428 0.1428571428571428 0.1428571428571428 0.1428571428571428 0.1428571428571428 0.1428571428571428 0.1428571428571428 0.1428571428571428 0.1428571428571428 0.1428571428571428 0.1428571428571428 0.1428571428571428 0.1428571428571428 0.1428571428571428 0 0.1111111111111111 0.2777777777777778 0.2222222222222222 0.3333333333333333 0 0.05555555555555555 0 0 0.1111111111111111 0.3333333333333333 0 0.4444444444444444 0.1111111111111111 0 0 0 0 1 0 0 0 0 0.2727272727272727 0 0.3636363636363636 0 0.3636363636363636 0.1428571428571428 0.1428571428571428 0.1428571428571428 0.1428571428571428 0.1428571428571428 0.1428571428571428 0.1428571428571428 0.1428571428571428 0.1428571428571428 0.1428571428571428 0.1428571428571428 0.1428571428571428 0.1428571428571428 0.1428571428571428 0.1428571428571428 0.1428571428571428 0.1428571428571428 0.1428571428571428 0.1428571428571428 0.1428571428571428 0.1428571428571428 0.1428571428571428 0.1428571428571428 0.1428571428571428 0.1428571428571428 0.1428571428571428 0.1428571428571428 0.1428571428571428 0 0.02631578947368421 0.3157894736842105 0.2368421052631579 0.2894736842105263 0.07894736842105263 0.05263157894736842 0 0 0.08333333333333333 0 0.1666666666666667 0.75 0 0 0 0 0 0.5555555555555556 0.4444444444444444 0 0 0 0 0 0.2727272727272727 0.6363636363636364 0.09090909090909091 0.1428571428571428 0.1428571428571428 0.1428571428571428 0.1428571428571428 0.1428571428571428 0.1428571428571428 0.1428571428571428 0.1428571428571428 0.1428571428571428 0.1428571428571428 0.1428571428571428 0.1428571428571428 0.1428571428571428 0.1428571428571428 0.1428571428571428 0.1428571428571428 0.1428571428571428 0.1428571428571428 0.1428571428571428 0.1428571428571428 0.1428571428571428 0.1428571428571428 0.1428571428571428 0.1428571428571428 0.1428571428571428 0.1428571428571428 0.1428571428571428 0.1428571428571428 0.2222222222222222 0 0.1666666666666667 0 0.3333333333333333 0.2777777777777778 0 0 0 0.04 0 0.24 0.24 0.48 0 0 0.08333333333333333 0 0 0.75 0.1666666666666667 0 0 0 0.6666666666666666 0 0 0.3333333333333333 0.1428571428571428 0.1428571428571428 0.1428571428571428 0.1428571428571428 0.1428571428571428 0.1428571428571428 0.1428571428571428 0.1428571428571428 0.1428571428571428 0.1428571428571428 0.1428571428571428 0.1428571428571428 0.1428571428571428 0.1428571428571428 0.1428571428571428 0.1428571428571428 0.1428571428571428 0.1428571428571428 0.1428571428571428 0.1428571428571428 0.1428571428571428 0.1428571428571428 0.1428571428571428 0.1428571428571428 0.1428571428571428 0.1428571428571428 0.1428571428571428 0.1428571428571428 0 0 0.3333333333333333 0.1403508771929824 0.2456140350877193 0.2280701754385965 0.05263157894736842 0 0 0.02631578947368421 0.1842105263157895 0.3684210526315789 0.2631578947368421 0.1578947368421053 0 0 0.4583333333333333 0 0.08333333333333333 0.4166666666666666 0.04166666666666666 0 0 0 1 0 0 0 0.1428571428571428 0.1428571428571428 0.1428571428571428 0.1428571428571428 0.1428571428571428 0.1428571428571428 0.1428571428571428 0.1428571428571428 0.1428571428571428 0.1428571428571428 0.1428571428571428 0.1428571428571428 0.1428571428571428 0.1428571428571428 0.1428571428571428 0.1428571428571428 0.1428571428571428 0.1428571428571428 0.1428571428571428 0.1428571428571428 0.1428571428571428 0.1428571428571428 0.1428571428571428 0.1428571428571428 0.1428571428571428 0.1428571428571428 0.1428571428571428 0.1428571428571428 0 0 0.5 0 0.25 0 0.25 0 0 0 0 0.2 0.8 0 0 0 0 0.6153846153846154 0 0.3846153846153846 0 0.1428571428571428 0.1428571428571428 0.1428571428571428 0.1428571428571428 0.1428571428571428 0.1428571428571428 0.1428571428571428 0.1428571428571428 0.1428571428571428 0.1428571428571428 0.1428571428571428 0.1428571428571428 0.1428571428571428 0.1428571428571428 0.1428571428571428 0.1428571428571428 0.1428571428571428 0.1428571428571428 0.1428571428571428 0.1428571428571428 0.1428571428571428 0.1428571428571428 0.1428571428571428 0.1428571428571428 0.1428571428571428 0.1428571428571428 0.1428571428571428 0.1428571428571428 0.1428571428571428 0.1428571428571428 0.1428571428571428 0.1428571428571428 0.1428571428571428 0.1428571428571428 0.1428571428571428 0.1428571428571428 0.1428571428571428 0.1428571428571428 0.1428571428571428 0.1428571428571428 0.1428571428571428 0.1428571428571428 0.1428571428571428 0.1428571428571428 0.1428571428571428 0.1428571428571428 0.1428571428571428 0.1428571428571428 0.1428571428571428 0.1428571428571428 0.1428571428571428 0.1428571428571428 0.1428571428571428 0.1428571428571428 0.1428571428571428 0.1428571428571428 0.1428571428571428 0.1428571428571428 0.1428571428571428 0.1428571428571428 0.1428571428571428 0.1428571428571428 0.1428571428571428 0.1428571428571428 0.1428571428571428 0.1428571428571428 0.1428571428571428 0.1428571428571428 0.1428571428571428 0.1428571428571428 0.1428571428571428 0.1428571428571428 0.1428571428571428 0.1428571428571428 0.1428571428571428 0.1428571428571428 0.1428571428571428 0.1428571428571428 0.1428571428571428 0.1428571428571428 0.1428571428571428 0.1428571428571428 0.1428571428571428 0.1428571428571428 0.1428571428571428 0.1428571428571428 0.1428571428571428 0.1428571428571428 0.1428571428571428 0.1428571428571428 0.1428571428571428 0.1428571428571428 0.1428571428571428 0.1428571428571428 0.1428571428571428 0.1428571428571428 0.1428571428571428 0.1428571428571428 0.1428571428571428 0.1428571428571428 0.1428571428571428 0.1428571428571428 0.1428571428571428 0.1428571428571428 0.1428571428571428 0.1428571428571428 0.1428571428571428 0.1428571428571428 0.1428571428571428 0.1428571428571428 0.1428571428571428 0.1428571428571428 0 0 0.3333333333333333 0 0.3333333333333333 0.3333333333333333 0 0.1428571428571428 0.1428571428571428 0.1428571428571428 0.1428571428571428 0.1428571428571428 0.1428571428571428 0.1428571428571428 0.1428571428571428 0.1428571428571428 0.1428571428571428 0.1428571428571428 0.1428571428571428 0.1428571428571428 0.1428571428571428 0.1428571428571428 0.1428571428571428 0.1428571428571428 0.1428571428571428 0.1428571428571428 0.1428571428571428 0.1428571428571428 0.1428571428571428 0.1428571428571428 0.1428571428571428 0.1428571428571428 0.1428571428571428 0.1428571428571428 0.1428571428571428 0 0 0 0 0.3333333333333333 0.3333333333333333 0.3333333333333333 0 0 0 0 0 0.4 0.6000000000000001 0 0 0 0 0.3333333333333333 0.6666666666666666 0 0 0 0 0.6666666666666666 0.3333333333333333 0 0 0.1428571428571428 0.1428571428571428 0.1428571428571428 0.1428571428571428 0.1428571428571428 0.1428571428571428 0.1428571428571428 0.1428571428571428 0.1428571428571428 0.1428571428571428 0.1428571428571428 0.1428571428571428 0.1428571428571428 0.1428571428571428 0.1428571428571428 0.1428571428571428 0.1428571428571428 0.1428571428571428 0.1428571428571428 0.1428571428571428 0.1428571428571428 0 0 0 0 1 0 0 0 0 0.3076923076923077 0.1538461538461539 0.1538461538461539 0.2307692307692308 0.1538461538461539 0 0.1428571428571428 0 0.1428571428571428 0 0.7142857142857142 0 0 0 0 0 0.125 0.375 0.5 0 0 0 0.3 0.2 0.3 0.2 0.1428571428571428 0.1428571428571428 0.1428571428571428 0.1428571428571428 0.1428571428571428 0.1428571428571428 0.1428571428571428 0.1428571428571428 0.1428571428571428 0.1428571428571428 0.1428571428571428 0.1428571428571428 0.1428571428571428 0.1428571428571428 0.1428571428571428 0.1428571428571428 0.1428571428571428 0.1428571428571428 0.1428571428571428 0.1428571428571428 0.1428571428571428 0.1428571428571428 0.1428571428571428 0.1428571428571428 0.1428571428571428 0.1428571428571428 0.1428571428571428 0.1428571428571428 0 0 0.5 0 0.2142857142857143 0.1428571428571428 0.1428571428571428 0 0.07692307692307693 0.07692307692307693 0 0.3846153846153846 0.3846153846153846 0.07692307692307693 0 0 0 0 0.375 0.125 0.5 0 0 0 0 0.7777777777777777 0.2222222222222222 0 0.1428571428571428 0.1428571428571428 0.1428571428571428 0.1428571428571428 0.1428571428571428 0.1428571428571428 0.1428571428571428 0.1428571428571428 0.1428571428571428 0.1428571428571428 0.1428571428571428 0.1428571428571428 0.1428571428571428 0.1428571428571428 0.1428571428571428 0.1428571428571428 0.1428571428571428 0.1428571428571428 0.1428571428571428 0.1428571428571428 0.1428571428571428 0.1428571428571428 0.1428571428571428 0.1428571428571428 0.1428571428571428 0.1428571428571428 0.1428571428571428 0.1428571428571428 0 0 0.08571428571428572 0.05714285714285714 0.7142857142857143 0.1142857142857143 0.02857142857142857 0 0.06060606060606061 0.2121212121212121 0.06060606060606061 0.3939393939393939 0.06060606060606061 0.2121212121212121 0 0.16 0 0 0.28 0.36 0.2 0 0 0 0 0 0.5 0.5 0.1428571428571428 0.1428571428571428 0.1428571428571428 0.1428571428571428 0.1428571428571428 0.1428571428571428 0.1428571428571428 0.1428571428571428 0.1428571428571428 0.1428571428571428 0.1428571428571428 0.1428571428571428 0.1428571428571428 0.1428571428571428 0.1428571428571428 0.1428571428571428 0.1428571428571428 0.1428571428571428 0.1428571428571428 0.1428571428571428 0.1428571428571428 0.1428571428571428 0.1428571428571428 0.1428571428571428 0.1428571428571428 0.1428571428571428 0.1428571428571428 0.1428571428571428 0 0 0 0.2352941176470588 0 0.5882352941176471 0.1764705882352941 0 0 0 0 0 1 0 0 0 0.6363636363636364 0 0 0.3636363636363636 0 0 0 0 0 0 0 1 0.1428571428571428 0.1428571428571428 0.1428571428571428 0.1428571428571428 0.1428571428571428 0.1428571428571428 0.1428571428571428 0.1428571428571428 0.1428571428571428 0.1428571428571428 0.1428571428571428 0.1428571428571428 0.1428571428571428 0.1428571428571428 0.1428571428571428 0.1428571428571428 0.1428571428571428 0.1428571428571428 0.1428571428571428 0.1428571428571428 0.1428571428571428 0.1428571428571428 0.1428571428571428 0.1428571428571428 0.1428571428571428 0.1428571428571428 0.1428571428571428 0.1428571428571428 0.1428571428571428 0.1428571428571428 0.1428571428571428 0.1428571428571428 0.1428571428571428 0.1428571428571428 0.1428571428571428 0.1428571428571428 0.1428571428571428 0.1428571428571428 0.1428571428571428 0.1428571428571428 0.1428571428571428 0.1428571428571428 0.1428571428571428 0.1428571428571428 0.1428571428571428 0.1428571428571428 0.1428571428571428 0.1428571428571428 0.1428571428571428 0.1428571428571428 0.1428571428571428 0.1428571428571428 0.1428571428571428 0.1428571428571428 0.1428571428571428 0.1428571428571428 0.1428571428571428 0.1428571428571428 0.1428571428571428 0.1428571428571428 0.1428571428571428 0.1428571428571428 0.1428571428571428 0.1428571428571428 0.1428571428571428 0.1428571428571428 0.1428571428571428 0.1428571428571428 0.1428571428571428 0.1428571428571428 0.1428571428571428 0.1428571428571428 0.1428571428571428 0.1428571428571428 0.1428571428571428 0.1428571428571428 0.1428571428571428 0.1428571428571428 0.1428571428571428 0.1428571428571428 0.1428571428571428 0.1428571428571428 0.1428571428571428 0.1428571428571428 0.1428571428571428 0.1428571428571428 0.1428571428571428 0.1428571428571428 0.1428571428571428 0.1428571428571428 0.1428571428571428 0.1428571428571428 0.1428571428571428 0.1428571428571428 0.1428571428571428 0.1428571428571428 0.1428571428571428 0.1428571428571428 0.1428571428571428 0.1428571428571428 0.1428571428571428 0.1428571428571428 0.1428571428571428 0.1428571428571428 0.1428571428571428 0.1428571428571428 0.1428571428571428 0.1428571428571428 0.1428571428571428 0.1428571428571428 0.1428571428571428 0.1428571428571428 0.1428571428571428 0.1428571428571428 0.1428571428571428 0.1428571428571428 0.1428571428571428 0.1428571428571428 0.1428571428571428 0.1428571428571428 0.1428571428571428 0.1428571428571428 0.1428571428571428 0.1428571428571428 0.1428571428571428 0.1428571428571428 0.1428571428571428 0.1428571428571428 0.1428571428571428 0.1428571428571428 0.1428571428571428 0.1428571428571428 0.1428571428571428 0.1428571428571428 0.1428571428571428 0.1428571428571428 0.1428571428571428 0.1428571428571428 0.1428571428571428 0.1428571428571428 0 0 0 0 0 1 0 0.1428571428571428 0.1428571428571428 0.1428571428571428 0.1428571428571428 0.1428571428571428 0.1428571428571428 0.1428571428571428 0.1428571428571428 0.1428571428571428 0.1428571428571428 0.1428571428571428 0.1428571428571428 0.1428571428571428 0.1428571428571428 0.1428571428571428 0.1428571428571428 0.1428571428571428 0.1428571428571428 0.1428571428571428 0.1428571428571428 0.1428571428571428 0.1428571428571428 0.1428571428571428 0.1428571428571428 0.1428571428571428 0.1428571428571428 0.1428571428571428 0.1428571428571428 0.1428571428571428 0.1428571428571428 0.1428571428571428 0.1428571428571428 0.1428571428571428 0.1428571428571428 0.1428571428571428 0.1428571428571428 0.1428571428571428 0.1428571428571428 0.1428571428571428 0.1428571428571428 0.1428571428571428 0.1428571428571428 0.1428571428571428 0.1428571428571428 0.1428571428571428 0.1428571428571428 0.1428571428571428 0.1428571428571428 0.1428571428571428 0 0.3 0 0.7000000000000001 0 0 0 0 0.1428571428571428 0 0 0.5714285714285714 0.2857142857142857 0 0 0 0 0 0.3333333333333333 0.3333333333333333 0.3333333333333333 0 0 0 0 0.6000000000000001 0.4 0 0.1428571428571428 0.1428571428571428 0.1428571428571428 0.1428571428571428 0.1428571428571428 0.1428571428571428 0.1428571428571428 0.1428571428571428 0.1428571428571428 0.1428571428571428 0.1428571428571428 0.1428571428571428 0.1428571428571428 0.1428571428571428 0.1428571428571428 0.1428571428571428 0.1428571428571428 0.1428571428571428 0.1428571428571428 0.1428571428571428 0.1428571428571428 0.1428571428571428 0.1428571428571428 0.1428571428571428 0.1428571428571428 0.1428571428571428 0.1428571428571428 0.1428571428571428 0 0 0 0.5 0.5 0 0 0 0 0 0 0.3571428571428571 0.07142857142857142 0.5714285714285714 0.1111111111111111 0 0.1111111111111111 0 0.1111111111111111 0.1111111111111111 0.5555555555555556 0 0 0 0 1 0 0 0.1428571428571428 0.1428571428571428 0.1428571428571428 0.1428571428571428 0.1428571428571428 0.1428571428571428 0.1428571428571428 0.1428571428571428 0.1428571428571428 0.1428571428571428 0.1428571428571428 0.1428571428571428 0.1428571428571428 0.1428571428571428 0.1428571428571428 0.1428571428571428 0.1428571428571428 0.1428571428571428 0.1428571428571428 0.1428571428571428 0.1428571428571428 0.1428571428571428 0.1428571428571428 0.1428571428571428 0.1428571428571428 0.1428571428571428 0.1428571428571428 0.1428571428571428 0 0 0 0 0.6666666666666666 0.1666666666666667 0.1666666666666667 0 0 0.1851851851851852 0.07407407407407407 0.2222222222222222 0.4074074074074074 0.1111111111111111 0 0.125 0 0.125 0.3125 0.1875 0.25 0 0 0 0 0 1 0 0.1428571428571428 0.1428571428571428 0.1428571428571428 0.1428571428571428 0.1428571428571428 0.1428571428571428 0.1428571428571428 0.1428571428571428 0.1428571428571428 0.1428571428571428 0.1428571428571428 0.1428571428571428 0.1428571428571428 0.1428571428571428 0.1428571428571428 0.1428571428571428 0.1428571428571428 0.1428571428571428 0.1428571428571428 0.1428571428571428 0.1428571428571428 0.1428571428571428 0.1428571428571428 0.1428571428571428 0.1428571428571428 0.1428571428571428 0.1428571428571428 0.1428571428571428 0 0 0 0.05263157894736842 0.05263157894736842 0.7894736842105263 0.1052631578947368 0 0 0 0 0 0.75 0.25 0 0 0.07692307692307693 0.3846153846153846 0.03846153846153846 0.3846153846153846 0.1153846153846154 0 0 0 0 0 0 1 0.1428571428571428 0.1428571428571428 0.1428571428571428 0.1428571428571428 0.1428571428571428 0.1428571428571428 0.1428571428571428 0.1428571428571428 0.1428571428571428 0.1428571428571428 0.1428571428571428 0.1428571428571428 0.1428571428571428 0.1428571428571428 0.1428571428571428 0.1428571428571428 0.1428571428571428 0.1428571428571428 0.1428571428571428 0.1428571428571428 0.1428571428571428 0.1428571428571428 0.1428571428571428 0.1428571428571428 0.1428571428571428 0.1428571428571428 0.1428571428571428 0.1428571428571428 0.1428571428571428 0.1428571428571428 0.1428571428571428 0.1428571428571428 0.1428571428571428 0.1428571428571428 0.1428571428571428 0.1428571428571428 0.1428571428571428 0.1428571428571428 0.1428571428571428 0.1428571428571428 0.1428571428571428 0.1428571428571428 0.1428571428571428 0.1428571428571428 0.1428571428571428 0.1428571428571428 0.1428571428571428 0.1428571428571428 0.1428571428571428 0.1428571428571428 0.1428571428571428 0.1428571428571428 0.1428571428571428 0.1428571428571428 0.1428571428571428 0.1428571428571428 0.1428571428571428 0.1428571428571428 0.1428571428571428 0.1428571428571428 0.1428571428571428 0.1428571428571428 0.1428571428571428 0.1428571428571428 0.1428571428571428 0.1428571428571428 0.1428571428571428 0.1428571428571428 0.1428571428571428 0.1428571428571428 0.1428571428571428 0.1428571428571428 0.1428571428571428 0.1428571428571428 0.1428571428571428 0.1428571428571428 0.1428571428571428 0.1428571428571428 0.1428571428571428 0.1428571428571428 0.1428571428571428 0.1428571428571428 0.1428571428571428 0.1428571428571428 0.1428571428571428 0.1428571428571428 0.1428571428571428 0.1428571428571428 0.1428571428571428 0.1428571428571428 0.1428571428571428 0.1428571428571428 0.1428571428571428 0.1428571428571428 0.1428571428571428 0.1428571428571428 0.1428571428571428 0.1428571428571428 0.1428571428571428 0.1428571428571428 0.1428571428571428 0.1428571428571428 0.1428571428571428 0.1428571428571428 0.1428571428571428 0.1428571428571428 0.1428571428571428 0.1428571428571428 0.1428571428571428 0.1428571428571428 0.1428571428571428 0.1428571428571428 0.1428571428571428 0.1428571428571428 0.1428571428571428 0.1428571428571428 0.1428571428571428 0.1428571428571428 0.1428571428571428 0.1428571428571428 0.1428571428571428 0.1428571428571428 0.1428571428571428 0.1428571428571428 0.1428571428571428 0.1428571428571428 0.1428571428571428 0.1428571428571428 0.1428571428571428 0.1428571428571428 0.1428571428571428 0.1428571428571428 0.1428571428571428 0.1428571428571428 0.1428571428571428 0.1428571428571428 0.1428571428571428 0.1428571428571428 0.1428571428571428 0.1428571428571428 0.1428571428571428 0.1428571428571428 0.1428571428571428 0.1428571428571428 0.1428571428571428 0.1428571428571428 0.1428571428571428 0.1428571428571428 0.1428571428571428 0.1428571428571428 0.1428571428571428 0.1428571428571428 0.1428571428571428 0.1428571428571428 0 0 0 0 0 1 0 0 0 0 0 0.5 0.5 0 0.1428571428571428 0.1428571428571428 0.1428571428571428 0.1428571428571428 0.1428571428571428 0.1428571428571428 0.1428571428571428 0.1428571428571428 0.1428571428571428 0.1428571428571428 0.1428571428571428 0.1428571428571428 0.1428571428571428 0.1428571428571428 0.1428571428571428 0.1428571428571428 0.1428571428571428 0.1428571428571428 0.1428571428571428 0.1428571428571428 0.1428571428571428 0.1428571428571428 0.1428571428571428 0.1428571428571428 0.1428571428571428 0.1428571428571428 0.1428571428571428 0.1428571428571428 0.1428571428571428 0.1428571428571428 0.1428571428571428 0.1428571428571428 0.1428571428571428 0.1428571428571428 0.1428571428571428 0 0 0 0 1 0 0 0 0 0 0 0.25 0.75 0 0 0 0 0 0 1 0 0.1428571428571428 0.1428571428571428 0.1428571428571428 0.1428571428571428 0.1428571428571428 0.1428571428571428 0.1428571428571428 0.1428571428571428 0.1428571428571428 0.1428571428571428 0.1428571428571428 0.1428571428571428 0.1428571428571428 0.1428571428571428 0.1428571428571428 0.1428571428571428 0.1428571428571428 0.1428571428571428 0.1428571428571428 0.1428571428571428 0.1428571428571428 0.1428571428571428 0.1428571428571428 0.1428571428571428 0.1428571428571428 0.1428571428571428 0.1428571428571428 0.1428571428571428 0 0.5 0 0.5 0 0 0 0 0 0 0 0.5 0.5 0 0 0 0 0 0.3333333333333333 0.6666666666666666 0 0 0 0 0 0.5 0.5 0 0.1428571428571428 0.1428571428571428 0.1428571428571428 0.1428571428571428 0.1428571428571428 0.1428571428571428 0.1428571428571428 0.1428571428571428 0.1428571428571428 0.1428571428571428 0.1428571428571428 0.1428571428571428 0.1428571428571428 0.1428571428571428 0.1428571428571428 0.1428571428571428 0.1428571428571428 0.1428571428571428 0.1428571428571428 0.1428571428571428 0.1428571428571428 0.1428571428571428 0.1428571428571428 0.1428571428571428 0.1428571428571428 0.1428571428571428 0.1428571428571428 0.1428571428571428 0 0 0 1 0 0 0 0 0 0.09677419354838709 0 0.1290322580645161 0.5483870967741935 0.2258064516129032 0 0 0 0.06666666666666667 0.2666666666666667 0.2 0.4666666666666667 0 0 0 0 1 0 0 0.1428571428571428 0.1428571428571428 0.1428571428571428 0.1428571428571428 0.1428571428571428 0.1428571428571428 0.1428571428571428 0.1428571428571428 0.1428571428571428 0.1428571428571428 0.1428571428571428 0.1428571428571428 0.1428571428571428 0.1428571428571428 0.1428571428571428 0.1428571428571428 0.1428571428571428 0.1428571428571428 0.1428571428571428 0.1428571428571428 0.1428571428571428 0.1428571428571428 0.1428571428571428 0.1428571428571428 0.1428571428571428 0.1428571428571428 0.1428571428571428 0.1428571428571428 0 0 0 0.2222222222222222 0.2222222222222222 0.5555555555555556 0 0 0 0 0.5714285714285714 0 0.4285714285714285 0 0 0 0.04761904761904762 0.09523809523809523 0.3333333333333333 0.4285714285714285 0.09523809523809523 0.1428571428571428 0.1428571428571428 0.1428571428571428 0.1428571428571428 0.1428571428571428 0.1428571428571428 0.1428571428571428 0.1428571428571428 0.1428571428571428 0.1428571428571428 0.1428571428571428 0.1428571428571428 0.1428571428571428 0.1428571428571428 0.1428571428571428 0.1428571428571428 0.1428571428571428 0.1428571428571428 0.1428571428571428 0.1428571428571428 0.1428571428571428 0.1428571428571428 0.1428571428571428 0.1428571428571428 0.1428571428571428 0.1428571428571428 0.1428571428571428 0.1428571428571428 0.1428571428571428 0.1428571428571428 0.1428571428571428 0.1428571428571428 0.1428571428571428 0.1428571428571428 0.1428571428571428 0.1428571428571428 0.1428571428571428 0.1428571428571428 0.1428571428571428 0.1428571428571428 0.1428571428571428 0.1428571428571428 0.1428571428571428 0.1428571428571428 0.1428571428571428 0.1428571428571428 0.1428571428571428 0.1428571428571428 0.1428571428571428 0.1428571428571428 0.1428571428571428 0.1428571428571428 0.1428571428571428 0.1428571428571428 0.1428571428571428 0.1428571428571428 0.1428571428571428 0.1428571428571428 0.1428571428571428 0.1428571428571428 0.1428571428571428 0.1428571428571428 0.1428571428571428 0.1428571428571428 0.1428571428571428 0.1428571428571428 0.1428571428571428 0.1428571428571428 0.1428571428571428 0.1428571428571428 0.1428571428571428 0.1428571428571428 0.1428571428571428 0.1428571428571428 0.1428571428571428 0.1428571428571428 0.1428571428571428 0.1428571428571428 0.1428571428571428 0.1428571428571428 0.1428571428571428 0.1428571428571428 0.1428571428571428 0.1428571428571428 0.1428571428571428 0.1428571428571428 0.1428571428571428 0.1428571428571428 0.1428571428571428 0.1428571428571428 0.1428571428571428 0.1428571428571428 0.1428571428571428 0.1428571428571428 0.1428571428571428 0.1428571428571428 0.1428571428571428 0.1428571428571428 0.1428571428571428 0.1428571428571428 0.1428571428571428 0.1428571428571428 0.1428571428571428 0.1428571428571428 0.1428571428571428 0.1428571428571428 0.1428571428571428 0.1428571428571428 0.1428571428571428 0.1428571428571428 0.1428571428571428 0.1428571428571428 0.1428571428571428 0.1428571428571428 0.1428571428571428 0.1428571428571428 0.1428571428571428 0.1428571428571428 0.1428571428571428 0.1428571428571428 0.1428571428571428 0.1428571428571428 0.1428571428571428 0.1428571428571428 0.1428571428571428 0.1428571428571428 0.1428571428571428 0.1428571428571428 0.1428571428571428 0.1428571428571428 0.1428571428571428 0.1428571428571428 0.1428571428571428 0.1428571428571428 0.1428571428571428 0.1428571428571428 0.1428571428571428 0.1428571428571428 0.1428571428571428 0.1428571428571428 0.1428571428571428 0.1428571428571428 0.1428571428571428 0.1428571428571428 0.1428571428571428 0.1428571428571428 0.1428571428571428 0.1428571428571428 0.1428571428571428 0.1428571428571428 0.1428571428571428 0.1428571428571428 0.1428571428571428 0.1428571428571428 0.1428571428571428 0.1428571428571428 0.1428571428571428 0.1428571428571428 0.1428571428571428 0.1428571428571428 0.1428571428571428 0.1428571428571428 0.1428571428571428 0.1428571428571428 0.1428571428571428 0.1428571428571428 0.1428571428571428 0.1428571428571428 0.1428571428571428 0.1428571428571428 0.1428571428571428 0.1428571428571428 0.1428571428571428 0.1428571428571428 0.1428571428571428 0.1428571428571428 0.1428571428571428 0.1428571428571428 0.1428571428571428 0.1428571428571428 0.1428571428571428 0.1428571428571428 0.1428571428571428 0.1428571428571428 0.1428571428571428 0.1428571428571428 0.1428571428571428 0.1428571428571428 0.1428571428571428 0.1428571428571428 0.1428571428571428 0.1428571428571428 0.1428571428571428 0.1428571428571428 0.1428571428571428 0.1428571428571428 0.1428571428571428 0.1428571428571428 0.1428571428571428 0.1428571428571428 0.1428571428571428 0.1428571428571428 0.1428571428571428 0.1428571428571428 0.1428571428571428 0.1428571428571428 0.1428571428571428 0.1428571428571428 0.1428571428571428 0.1428571428571428 0.1428571428571428 0.1428571428571428 0.1428571428571428 0.1428571428571428 0.1428571428571428 0.1428571428571428 0.1428571428571428 0.1428571428571428 0.1428571428571428 0.1428571428571428 0.1428571428571428 0.1428571428571428 0.1428571428571428 0.1428571428571428 0 0 1 0 0 0 0 0.1428571428571428 0.1428571428571428 0.1428571428571428 0.1428571428571428 0.1428571428571428 0.1428571428571428 0.1428571428571428 0.1428571428571428 0.1428571428571428 0.1428571428571428 0.1428571428571428 0.1428571428571428 0.1428571428571428 0.1428571428571428 0.1428571428571428 0.1428571428571428 0.1428571428571428 0.1428571428571428 0.1428571428571428 0.1428571428571428 0.1428571428571428 0.1428571428571428 0.1428571428571428 0.1428571428571428 0.1428571428571428 0.1428571428571428 0.1428571428571428 0.1428571428571428 0 0 1 0 0 0 0 0.1428571428571428 0.1428571428571428 0.1428571428571428 0.1428571428571428 0.1428571428571428 0.1428571428571428 0.1428571428571428 0.1428571428571428 0.1428571428571428 0.1428571428571428 0.1428571428571428 0.1428571428571428 0.1428571428571428 0.1428571428571428 0.1428571428571428 0.1428571428571428 0.1428571428571428 0.1428571428571428 0.1428571428571428 0.1428571428571428 0.1428571428571428 0.1428571428571428 0.1428571428571428 0.1428571428571428 0.1428571428571428 0.1428571428571428 0.1428571428571428 0.1428571428571428 0.1428571428571428 0.1428571428571428 0.1428571428571428 0.1428571428571428 0.1428571428571428 0.1428571428571428 0.1428571428571428 0.1428571428571428 0.1428571428571428 0.1428571428571428 0.1428571428571428 0.1428571428571428 0.1428571428571428 0.1428571428571428 0.1428571428571428 0.1428571428571428 0.1428571428571428 0.1428571428571428 0.1428571428571428 0.1428571428571428 0.1428571428571428 0.1428571428571428 0.1428571428571428 0.1428571428571428 0.1428571428571428 0.1428571428571428 0.1428571428571428 0.1428571428571428 0 0 0.3076923076923077 0.2307692307692308 0 0.2307692307692308 0.2307692307692308 0.1428571428571428 0.1428571428571428 0.1428571428571428 0.1428571428571428 0.1428571428571428 0.1428571428571428 0.1428571428571428 0.1428571428571428 0.1428571428571428 0.1428571428571428 0.1428571428571428 0.1428571428571428 0.1428571428571428 0.1428571428571428 0.1428571428571428 0.1428571428571428 0.1428571428571428 0.1428571428571428 0.1428571428571428 0.1428571428571428 0.1428571428571428 0.1428571428571428 0.1428571428571428 0.1428571428571428 0.1428571428571428 0.1428571428571428 0.1428571428571428 0.1428571428571428 0.1428571428571428 0.1428571428571428 0.1428571428571428 0.1428571428571428 0.1428571428571428 0.1428571428571428 0.1428571428571428 0.1428571428571428 0.1428571428571428 0.1428571428571428 0.1428571428571428 0.1428571428571428 0.1428571428571428 0.1428571428571428 0 0 0.3333333333333333 0.1111111111111111 0 0.1111111111111111 0.4444444444444444 0 0 0 0 0.6666666666666666 0.3333333333333333 0 0 0 0 0 0.7777777777777777 0.1111111111111111 0.1111111111111111 0.1428571428571428 0.1428571428571428 0.1428571428571428 0.1428571428571428 0.1428571428571428 0.1428571428571428 0.1428571428571428 0.1428571428571428 0.1428571428571428 0.1428571428571428 0.1428571428571428 0.1428571428571428 0.1428571428571428 0.1428571428571428 0.1428571428571428 0.1428571428571428 0.1428571428571428 0.1428571428571428 0.1428571428571428 0.1428571428571428 0.1428571428571428 0.1428571428571428 0.1428571428571428 0.1428571428571428 0.1428571428571428 0.1428571428571428 0.1428571428571428 0.1428571428571428 0.1428571428571428 0.1428571428571428 0.1428571428571428 0.1428571428571428 0.1428571428571428 0.1428571428571428 0.1428571428571428 0.1428571428571428 0.1428571428571428 0.1428571428571428 0.1428571428571428 0.1428571428571428 0.1428571428571428 0.1428571428571428 0.1428571428571428 0.1428571428571428 0.1428571428571428 0.1428571428571428 0.1428571428571428 0.1428571428571428 0.1428571428571428 0.1428571428571428 0.1428571428571428 0.1428571428571428 0.1428571428571428 0.1428571428571428 0.1428571428571428 0.1428571428571428 0.1428571428571428 0.1428571428571428 0.1428571428571428 0.1428571428571428 0.1428571428571428 0.1428571428571428 0.1428571428571428 0.1428571428571428 0.1428571428571428 0.1428571428571428 0.1428571428571428 0.1428571428571428 0.1428571428571428 0.1428571428571428 0.1428571428571428 0.1428571428571428 0.1428571428571428 0.1428571428571428 0.1428571428571428 0.1428571428571428 0.1428571428571428 0.1428571428571428 0.1428571428571428 0.1428571428571428 0.1428571428571428 0.1428571428571428 0.1428571428571428 0.1428571428571428 0.1428571428571428 0.1428571428571428 0.1428571428571428 0.1428571428571428 0.1428571428571428 0.1428571428571428 0.1428571428571428 0.1428571428571428 0.1428571428571428 0.1428571428571428 0.1428571428571428 0.1428571428571428 0.1428571428571428 0.1428571428571428 0.1428571428571428 0.1428571428571428 0.1428571428571428 0.1428571428571428 0.1428571428571428 0.1428571428571428 0.1428571428571428 0.1428571428571428 0.1428571428571428 0.1428571428571428 0.1428571428571428 0.1428571428571428 0.1428571428571428 0.1428571428571428 0.1428571428571428 0.1428571428571428 0.1428571428571428 0.1428571428571428 0.1428571428571428 0.1428571428571428 0.1428571428571428 0.1428571428571428 0.1428571428571428 0.1428571428571428 0.1428571428571428 0.1428571428571428 0.1428571428571428 0.1428571428571428 0.1428571428571428 0.1428571428571428 0.1428571428571428 0.1428571428571428 0.1428571428571428 0.1428571428571428 0.1428571428571428 0.1428571428571428 0.1428571428571428 0.1428571428571428 0.1428571428571428 0.1428571428571428 0.1428571428571428 0.1428571428571428 0.1428571428571428 0.1428571428571428 0.1428571428571428 0.1428571428571428 0.1428571428571428 0.1428571428571428 0.1428571428571428 0.1428571428571428 0.1428571428571428 0.1428571428571428 0.1428571428571428 0.1428571428571428 0.1428571428571428 0.1428571428571428 0.1428571428571428 0.1428571428571428 0.1428571428571428 0.1428571428571428 0.1428571428571428 0.1428571428571428 0.1428571428571428 0.1428571428571428 0.1428571428571428 0.1428571428571428 0.1428571428571428 0.1428571428571428 0.1428571428571428 0.1428571428571428 0.1428571428571428 0.1428571428571428 0.1428571428571428 0.1428571428571428 0.1428571428571428 0.1428571428571428 0.1428571428571428 0.1428571428571428 0.1428571428571428 0.1428571428571428 0.1428571428571428 0.1428571428571428 0.1428571428571428 0.1428571428571428 0.1428571428571428 0.1428571428571428 0.1428571428571428 0.1428571428571428 0.1428571428571428 0.1428571428571428 0.1428571428571428 0.1428571428571428 0.1428571428571428 0.1428571428571428 0.1428571428571428 0.1428571428571428 0.1428571428571428 0.1428571428571428 0.1428571428571428 0.1428571428571428 0.1428571428571428 0.1428571428571428 0.1428571428571428 0.1428571428571428 0.1428571428571428 0.1428571428571428 0.1428571428571428 0.1428571428571428 0.1428571428571428 0.1428571428571428 0.1428571428571428 0.1428571428571428 0.1428571428571428 0.1428571428571428 0.1428571428571428 0.1428571428571428 0.1428571428571428 0.1428571428571428 0.1428571428571428 0.1428571428571428 0.1428571428571428 0.1428571428571428 0.1428571428571428 0.1428571428571428 0.1428571428571428 0.1428571428571428 0.1428571428571428 0.1428571428571428 0.1428571428571428 0.1428571428571428 0.1428571428571428 0.1428571428571428 0.1428571428571428 0.1428571428571428 0.1428571428571428 0.1428571428571428 0.1428571428571428 0.1428571428571428 0.1428571428571428 0.1428571428571428 0.1428571428571428 0.1428571428571428 0.1428571428571428 0.1428571428571428 0.1428571428571428 0.1428571428571428 0.1428571428571428 0.1428571428571428 0.1428571428571428 0.1428571428571428 0.1428571428571428 0.1428571428571428 0.1428571428571428 0.1428571428571428 0.1428571428571428 0.1428571428571428 0.1428571428571428 0.1428571428571428 0.1428571428571428 0.1428571428571428 0.1428571428571428 0.1428571428571428 0.1428571428571428 0.1428571428571428 0.1428571428571428 0.1428571428571428 0.1428571428571428 0.1428571428571428 0.1428571428571428 0.1428571428571428 0.1428571428571428 0.1428571428571428 0.1428571428571428 0.1428571428571428 0.1428571428571428 0.1428571428571428 0.1428571428571428 0.1428571428571428 0.1428571428571428 0.1428571428571428 0.1428571428571428 0.1428571428571428 0.1428571428571428 0.1428571428571428 0.1428571428571428 0.1428571428571428 0.1428571428571428 0.1428571428571428 0.1428571428571428 0.1428571428571428 0.1428571428571428 0.1428571428571428 0.1428571428571428 0.1428571428571428 0.1428571428571428 0.1428571428571428 0.1428571428571428 0.1428571428571428 0.1428571428571428 0.1428571428571428 0.1428571428571428 0.1428571428571428 0.1428571428571428 0.1428571428571428 0.1428571428571428 0.1428571428571428 0.1428571428571428 0.1428571428571428 0.1428571428571428 0.1428571428571428 0.1428571428571428 0.1428571428571428 0.1428571428571428 0.1428571428571428 0.1428571428571428 0.1428571428571428 0.1428571428571428 0.1428571428571428 0.1428571428571428 0.1428571428571428 0.1428571428571428 0.1428571428571428 0.1428571428571428 0.1428571428571428 0.1428571428571428 0.1428571428571428 0.1428571428571428 0.1428571428571428 0.1428571428571428 0.1428571428571428 0.1428571428571428 0.1428571428571428 0.1428571428571428 0.1428571428571428 0.1428571428571428 0.1428571428571428 0.1428571428571428 0.1428571428571428 0.1428571428571428 0.1428571428571428 0.1428571428571428 0.1428571428571428 0.1428571428571428 0.1428571428571428 0.1428571428571428 0.1428571428571428 0.1428571428571428 0.1428571428571428 0.1428571428571428 0.1428571428571428 0.1428571428571428 0.1428571428571428 0.1428571428571428 0.1428571428571428 0.1428571428571428 0.1428571428571428 0.1428571428571428 0.1428571428571428 0.1428571428571428 0.1428571428571428 0.1428571428571428 0.1428571428571428 0.1428571428571428 0.1428571428571428 0.1428571428571428 0.1428571428571428 0.1428571428571428 0.1428571428571428 0.1428571428571428 0.1428571428571428 0.1428571428571428 0.1428571428571428 0.1428571428571428 0.1428571428571428 0.1428571428571428 0.1428571428571428 0.1428571428571428 0.1428571428571428 0.1428571428571428 0.1428571428571428 0 0 0 0 0.6666666666666666 0 0.3333333333333333 0.1428571428571428 0.1428571428571428 0.1428571428571428 0.1428571428571428 0.1428571428571428 0.1428571428571428 0.1428571428571428 0.1428571428571428 0.1428571428571428 0.1428571428571428 0.1428571428571428 0.1428571428571428 0.1428571428571428 0.1428571428571428 0.1428571428571428 0.1428571428571428 0.1428571428571428 0.1428571428571428 0.1428571428571428 0.1428571428571428 0.1428571428571428 0 0 0 0 1 0 0 0 0 1 0 0 0 0 0.07692307692307693 0.2307692307692308 0.2307692307692308 0.2307692307692308 0.2307692307692308 0 0 0.1111111111111111 0 0.1666666666666667 0.2777777777777778 0.2777777777777778 0.1666666666666667 0 0 0 0 0 1 0 0 0.25 0 0 0.25 0.5 0 0 0.3333333333333333 0.3333333333333333 0 0 0.1666666666666667 0.1666666666666667 0 0.6666666666666666 0 0 0 0 0 0.3333333333333333 0.1428571428571428 0.1428571428571428 0.1428571428571428 0.1428571428571428 0.1428571428571428 0.1428571428571428 0.1428571428571428 0 0 0 0 1 0 0 0 0.2222222222222222 0 0.05555555555555555 0.2777777777777778 0.4444444444444444 0 0.0847457627118644 0.06779661016949153 0.1016949152542373 0.2542372881355932 0.2542372881355932 0.1864406779661017 0.05084745762711865 0.1 0 0 0.2 0.5 0.2 0 0 0 0 0 0 1 0 0.125 0 0 0.0625 0.5625 0 0.25 0 0 0 0 0 0 1 0.1428571428571428 0.1428571428571428 0.1428571428571428 0.1428571428571428 0.1428571428571428 0.1428571428571428 0.1428571428571428 0 0 0.6000000000000001 0 0.4 0 0 0 0 0.1111111111111111 0.8888888888888888 0 0 0 0.02083333333333333 0 0.3541666666666666 0.2083333333333333 0.125 0.2708333333333333 0.02083333333333333 0 0 0 0 0.5333333333333333 0.4666666666666667 0 0 0 1 0 0 0 0 0.05 0 0 0 0.15 0.2 0.6000000000000001 0 0 0 0 0 0 1 0 0 0 0 1 0 0 0.1428571428571428 0.1428571428571428 0.1428571428571428 0.1428571428571428 0.1428571428571428 0.1428571428571428 0.1428571428571428 0 0 0 1 0 0 0 0 0.1111111111111111 0.05555555555555555 0.5833333333333333 0.2222222222222222 0.02777777777777778 0 0 0.06666666666666667 0 0 0.06666666666666667 0.8 0.06666666666666667 0 0 0.3076923076923077 0 0.07692307692307693 0.3076923076923077 0.3076923076923077 0 0 0 0.2 0 0.8 0 0.1428571428571428 0.1428571428571428 0.1428571428571428 0.1428571428571428 0.1428571428571428 0.1428571428571428 0.1428571428571428 0.1428571428571428 0.1428571428571428 0.1428571428571428 0.1428571428571428 0.1428571428571428 0.1428571428571428 0.1428571428571428 0 0 0 0 1 0 0 0.1428571428571428 0.1428571428571428 0.1428571428571428 0.1428571428571428 0.1428571428571428 0.1428571428571428 0.1428571428571428 0 0.03571428571428571 0.1071428571428571 0.1785714285714285 0.3571428571428571 0.25 0.07142857142857142 0 0 0 0.07692307692307693 0.282051282051282 0.5384615384615384 0.1025641025641026 0 0 0.1333333333333333 0 0.2 0.6 0.06666666666666667 0.1428571428571428 0.1428571428571428 0.1428571428571428 0.1428571428571428 0.1428571428571428 0.1428571428571428 0.1428571428571428 0.1428571428571428 0.1428571428571428 0.1428571428571428 0.1428571428571428 0.1428571428571428 0.1428571428571428 0.1428571428571428 0.1428571428571428 0.1428571428571428 0.1428571428571428 0.1428571428571428 0.1428571428571428 0.1428571428571428 0.1428571428571428 0.1428571428571428 0.1428571428571428 0.1428571428571428 0.1428571428571428 0.1428571428571428 0.1428571428571428 0.1428571428571428 0.1428571428571428 0.1428571428571428 0.1428571428571428 0.1428571428571428 0.1428571428571428 0.1428571428571428 0.1428571428571428 0.09090909090909091 0 0.09090909090909091 0.3636363636363636 0.04545454545454546 0.2727272727272727 0.1363636363636364 0 0 0 0 0.5882352941176471 0.2352941176470588 0.1764705882352941 0 0 0 0.3333333333333333 0.3333333333333333 0.3333333333333333 0 0 0 0 0 0 1 0 0.1428571428571428 0.1428571428571428 0.1428571428571428 0.1428571428571428 0.1428571428571428 0.1428571428571428 0.1428571428571428 0.1428571428571428 0.1428571428571428 0.1428571428571428 0.1428571428571428 0.1428571428571428 0.1428571428571428 0.1428571428571428 0.1428571428571428 0.1428571428571428 0.1428571428571428 0.1428571428571428 0.1428571428571428 0.1428571428571428 0.1428571428571428 0.1428571428571428 0.1428571428571428 0.1428571428571428 0.1428571428571428 0.1428571428571428 0.1428571428571428 0.1428571428571428 0 0 0 0 0 1 0 0.1428571428571428 0.1428571428571428 0.1428571428571428 0.1428571428571428 0.1428571428571428 0.1428571428571428 0.1428571428571428 0.1428571428571428 0.1428571428571428 0.1428571428571428 0.1428571428571428 0.1428571428571428 0.1428571428571428 0.1428571428571428 0.1428571428571428 0.1428571428571428 0.1428571428571428 0.1428571428571428 0.1428571428571428 0.1428571428571428 0.1428571428571428 0 0 0 0 1 0 0 0.1428571428571428 0.1428571428571428 0.1428571428571428 0.1428571428571428 0.1428571428571428 0.1428571428571428 0.1428571428571428 0.1428571428571428 0.1428571428571428 0.1428571428571428 0.1428571428571428 0.1428571428571428 0.1428571428571428 0.1428571428571428 0.1428571428571428 0.1428571428571428 0.1428571428571428 0.1428571428571428 0.1428571428571428 0.1428571428571428 0.1428571428571428 0.1428571428571428 0.1428571428571428 0.1428571428571428 0.1428571428571428 0.1428571428571428 0.1428571428571428 0.1428571428571428 0.1428571428571428 0.1428571428571428 0.1428571428571428 0.1428571428571428 0.1428571428571428 0.1428571428571428 0.1428571428571428 0.1428571428571428 0.1428571428571428 0.1428571428571428 0.1428571428571428 0.1428571428571428 0.1428571428571428 0.1428571428571428 0 0 0 0 1 0 0 0.1428571428571428 0.1428571428571428 0.1428571428571428 0.1428571428571428 0.1428571428571428 0.1428571428571428 0.1428571428571428 0.1428571428571428 0.1428571428571428 0.1428571428571428 0.1428571428571428 0.1428571428571428 0.1428571428571428 0.1428571428571428 0.1428571428571428 0.1428571428571428 0.1428571428571428 0.1428571428571428 0.1428571428571428 0.1428571428571428 0.1428571428571428 0 0 1 0 0 0 0 0 0.3333333333333333 0.3333333333333333 0.1111111111111111 0.1111111111111111 0.1111111111111111 0 0 0 0 0 0 0.6000000000000001 0.4 0 0 0 0 0.3333333333333333 0.6666666666666666 0 0 0 0.2 0.4 0.2 0 0.2 0.1428571428571428 0.1428571428571428 0.1428571428571428 0.1428571428571428 0.1428571428571428 0.1428571428571428 0.1428571428571428 0.1428571428571428 0.1428571428571428 0.1428571428571428 0.1428571428571428 0.1428571428571428 0.1428571428571428 0.1428571428571428 0.1428571428571428 0.1428571428571428 0.1428571428571428 0.1428571428571428 0.1428571428571428 0.1428571428571428 0.1428571428571428 0 0 0 0 1 0 0 0 0 0.2777777777777778 0.2777777777777778 0.1944444444444444 0.08333333333333333 0.1666666666666667 0 0 0.125 0.125 0.375 0.25 0.125 0 0 0 0.1666666666666667 0.1666666666666667 0.6666666666666666 0 0.1052631578947368 0 0.1052631578947368 0 0.5789473684210527 0.05263157894736842 0.1578947368421053 0.1428571428571428 0.1428571428571428 0.1428571428571428 0.1428571428571428 0.1428571428571428 0.1428571428571428 0.1428571428571428 0.1428571428571428 0.1428571428571428 0.1428571428571428 0.1428571428571428 0.1428571428571428 0.1428571428571428 0.1428571428571428 0.1428571428571428 0.1428571428571428 0.1428571428571428 0.1428571428571428 0.1428571428571428 0.1428571428571428 0.1428571428571428 0.1428571428571428 0.1428571428571428 0.1428571428571428 0.1428571428571428 0.1428571428571428 0.1428571428571428 0.1428571428571428 0 0.05 0.45 0.175 0.2 0.1 0.025 0 0 0.1111111111111111 0 0.4444444444444444 0.2222222222222222 0.2222222222222222 0 0 0 0 0.3333333333333333 0.5833333333333333 0.08333333333333333 0 0 0 0.125 0.3125 0.25 0.3125 0.1428571428571428 0.1428571428571428 0.1428571428571428 0.1428571428571428 0.1428571428571428 0.1428571428571428 0.1428571428571428 0.1428571428571428 0.1428571428571428 0.1428571428571428 0.1428571428571428 0.1428571428571428 0.1428571428571428 0.1428571428571428 0.1428571428571428 0.1428571428571428 0.1428571428571428 0.1428571428571428 0.1428571428571428 0.1428571428571428 0.1428571428571428 0.1428571428571428 0.1428571428571428 0.1428571428571428 0.1428571428571428 0.1428571428571428 0.1428571428571428 0.1428571428571428 0 0.1153846153846154 0.1538461538461539 0.07692307692307693 0.5384615384615385 0.03846153846153846 0.07692307692307693 0 0 0 0.08695652173913043 0.3913043478260869 0.1739130434782609 0.3478260869565217 0 0 0.1 0.1 0.1 0.7000000000000001 0 0.1428571428571428 0.1428571428571428 0.1428571428571428 0.1428571428571428 0.1428571428571428 0.1428571428571428 0.1428571428571428 0.1428571428571428 0.1428571428571428 0.1428571428571428 0.1428571428571428 0.1428571428571428 0.1428571428571428 0.1428571428571428 0.1428571428571428 0.1428571428571428 0.1428571428571428 0.1428571428571428 0.1428571428571428 0.1428571428571428 0.1428571428571428 0.1428571428571428 0.1428571428571428 0.1428571428571428 0.1428571428571428 0.1428571428571428 0.1428571428571428 0.1428571428571428 0.1428571428571428 0.1428571428571428 0.1428571428571428 0.1428571428571428 0.1428571428571428 0.1428571428571428 0.1428571428571428 0 0.03508771929824561 0.2105263157894737 0.1228070175438596 0.2456140350877193 0.1578947368421053 0.2280701754385965 0 0.06451612903225806 0.09677419354838709 0.09677419354838709 0.5806451612903225 0.09677419354838709 0.06451612903225806 0 0 0 0.1875 0.25 0.25 0.3125 0.1428571428571428 0.1428571428571428 0.1428571428571428 0.1428571428571428 0.1428571428571428 0.1428571428571428 0.1428571428571428 0.1428571428571428 0.1428571428571428 0.1428571428571428 0.1428571428571428 0.1428571428571428 0.1428571428571428 0.1428571428571428 0.1428571428571428 0.1428571428571428 0.1428571428571428 0.1428571428571428 0.1428571428571428 0.1428571428571428 0.1428571428571428 0.1428571428571428 0.1428571428571428 0.1428571428571428 0.1428571428571428 0.1428571428571428 0.1428571428571428 0.1428571428571428 0.1428571428571428 0.1428571428571428 0.1428571428571428 0.1428571428571428 0.1428571428571428 0.1428571428571428 0.1428571428571428 0 0 0.4285714285714285 0 0.1428571428571428 0 0.4285714285714285 0.1428571428571428 0.1428571428571428 0.1428571428571428 0.1428571428571428 0.1428571428571428 0.1428571428571428 0.1428571428571428 0 0 0 0.5 0 0.5 0 0.1428571428571428 0.1428571428571428 0.1428571428571428 0.1428571428571428 0.1428571428571428 0.1428571428571428 0.1428571428571428 0.1428571428571428 0.1428571428571428 0.1428571428571428 0.1428571428571428 0.1428571428571428 0.1428571428571428 0.1428571428571428 0.1428571428571428 0.1428571428571428 0.1428571428571428 0.1428571428571428 0.1428571428571428 0.1428571428571428 0.1428571428571428 0.1428571428571428 0.1428571428571428 0.1428571428571428 0.1428571428571428 0.1428571428571428 0.1428571428571428 0.1428571428571428 0.1428571428571428 0.1428571428571428 0.1428571428571428 0.1428571428571428 0.1428571428571428 0.1428571428571428 0.1428571428571428 0.1428571428571428 0.1428571428571428 0.1428571428571428 0.1428571428571428 0.1428571428571428 0.1428571428571428 0.1428571428571428 0.1428571428571428 0.1428571428571428 0.1428571428571428 0.1428571428571428 0.1428571428571428 0.1428571428571428 0.1428571428571428 0.1428571428571428 0.1428571428571428 0.1428571428571428 0.1428571428571428 0.1428571428571428 0.1428571428571428 0.1428571428571428 0.1428571428571428 0.1428571428571428 0.1428571428571428 0.1428571428571428 0.1428571428571428 0.1428571428571428 0.1428571428571428 0.1428571428571428 0.1428571428571428 0.1428571428571428 0.1428571428571428 0.1428571428571428 0.1428571428571428 0.1428571428571428 0.1428571428571428 0.1428571428571428 0.1428571428571428 0.1428571428571428 0.1428571428571428 0.1428571428571428 0.1428571428571428 0.1428571428571428 0.1428571428571428 0.1428571428571428 0.1428571428571428 0.1428571428571428 0.1428571428571428 0.1428571428571428 0.1428571428571428 0.1428571428571428 0.1428571428571428 0.1428571428571428 0.1428571428571428 0.1428571428571428 0.1428571428571428 0 0 0 0 0 0 1 0.1428571428571428 0.1428571428571428 0.1428571428571428 0.1428571428571428 0.1428571428571428 0.1428571428571428 0.1428571428571428 0.1428571428571428 0.1428571428571428 0.1428571428571428 0.1428571428571428 0.1428571428571428 0.1428571428571428 0.1428571428571428 0 0 0 0 0 1 0 0.1428571428571428 0.1428571428571428 0.1428571428571428 0.1428571428571428 0.1428571428571428 0.1428571428571428 0.1428571428571428 0.1428571428571428 0.1428571428571428 0.1428571428571428 0.1428571428571428 0.1428571428571428 0.1428571428571428 0.1428571428571428 0.1428571428571428 0.1428571428571428 0.1428571428571428 0.1428571428571428 0.1428571428571428 0.1428571428571428 0.1428571428571428 0.1428571428571428 0.1428571428571428 0.1428571428571428 0.1428571428571428 0.1428571428571428 0.1428571428571428 0.1428571428571428 0 0 0.4285714285714285 0.1428571428571428 0.1428571428571428 0.1428571428571428 0.1428571428571428 0 0 0 0 0 0.6666666666666666 0.3333333333333333 0 0 0 0 0 0 1 0 0 0 0.6000000000000001 0 0.2 0.2 0.1428571428571428 0.1428571428571428 0.1428571428571428 0.1428571428571428 0.1428571428571428 0.1428571428571428 0.1428571428571428 0.1428571428571428 0.1428571428571428 0.1428571428571428 0.1428571428571428 0.1428571428571428 0.1428571428571428 0.1428571428571428 0.1428571428571428 0.1428571428571428 0.1428571428571428 0.1428571428571428 0.1428571428571428 0.1428571428571428 0.1428571428571428 0.1428571428571428 0.1428571428571428 0.1428571428571428 0.1428571428571428 0.1428571428571428 0.1428571428571428 0.1428571428571428 0 0 0.5 0 0.125 0.125 0.25 0 0 0 0 0.5 0.25 0.25 0 0 0 0 0.1666666666666667 0.6666666666666666 0.1666666666666667 0 0 0 0 0.5555555555555556 0.3333333333333333 0.1111111111111111 0.1428571428571428 