<?xml version="1.0" encoding="UTF-8"?>
<smile version="1.0" id="Unnamed" numsamples="10000" discsamples="10000">
	<nodes>
		<cpt id="Tm_point_218">
			<state id="VeryLow" />
			<state id="Low" />
			<state id="LowMid" />
			<state id="Mid" />
			<state id="HighMid" />
			<state id="High" />
			<state id="VeryHigh" />
			<probabilities>0.3552925302896508 0.4179450754978801 0.1689638718099198 0.04048309867652463 0.008430093844440909 0.007848708062065675 0.001036621819518108</probabilities>
		</cpt>
		<cpt id="Hs_point_218">
			<state id="VeryLow" />
			<state id="Low" />
			<state id="LowMid" />
			<state id="Mid" />
			<state id="HighMid" />
			<state id="High" />
			<state id="VeryHigh" />
			<probabilities>0.1372399532697466 0.2295925363228995 0.2481530031866523 0.2034685695167368 0.1203249178655463 0.05079446915638729 0.01042655068203134</probabilities>
		</cpt>
		<cpt id="MSL">
			<state id="VeryLow" />
			<state id="Low" />
			<state id="LowMid" />
			<state id="Mid" />
			<state id="HighMid" />
			<state id="High" />
			<state id="VeryHigh" />
			<probabilities>0.05179818234671435 0.08496459579976197 0.2144655364380797 0.2393609144211098 0.205958655792193 0.1487415191720189 0.05471059603012236</probabilities>
		</cpt>
		<cpt id="Tide">
			<state id="VeryLow" />
			<state id="Low" />
			<state id="LowMid" />
			<state id="Mid" />
			<state id="HighMid" />
			<state id="High" />
			<state id="VeryHigh" />
			<probabilities>0.1078964255743927 0.152761856704859 0.1853304300609358 0.1684428185143948 0.1727977271106772 0.1340258771520872 0.07874486488265331</probabilities>
		</cpt>
		<cpt id="TWL_point_218">
			<state id="VeryLow" />
			<state id="Low" />
			<state id="LowMid" />
			<state id="Mid" />
			<state id="HighMid" />
			<state id="High" />
			<state id="VeryHigh" />
			<parents>Tm_point_218 Hs_point_218 MSL Tide</parents>
			<probabilities>0.9850746268656716 0.01492537313432836 0 0 0 0 0 0.7282608695652174 0.25 0.02173913043478261 0 0 0 0 0.01829268292682927 0.8780487804878049 0.1036585365853659 0 0 0 0 0 0.1858407079646018 0.7168141592920354 0.07964601769911504 0.01769911504424779 0 0 0 0 0.1833333333333333 0.775 0.04166666666666666 0 0 0 0 0 0.2959183673469388 0.6326530612244897 0.07142857142857142 0 0 0 0 0 0.08333333333333333 0.7916666666666666 0.125 0.9581151832460734 0.0418848167539267 0 0 0 0 0 0.5581395348837209 0.4119601328903655 0.02990033222591362 0 0 0 0 0.003787878787878788 0.7462121212121212 0.2462121212121212 0.003787878787878788 0 0 0 0 0.06030150753768844 0.8291457286432161 0.1055276381909548 0.005025125628140704 0 0 0 0 0.08333333333333334 0.8055555555555556 0.1 0.01111111111111111 0 0 0 0 0.1111111111111111 0.8034188034188035 0.07692307692307693 0.008547008547008548 0 0 0 0 0.125 0.671875 0.203125 0.9500000000000001 0.05 0 0 0 0 0 0.4761904761904762 0.5006105006105006 0.02075702075702076 0.002442002442002442 0 0 0 0 0.7359617682198327 0.2377538829151732 0.02270011947431302 0.003584229390681004 0 0 0 0.01505016722408027 0.7826086956521739 0.1822742474916388 0.01839464882943144 0.001672240802675585 0 0 0 0.04006968641114982 0.7857142857142857 0.1672473867595819 0.006968641114982578 0 0 0 0 0.05540166204986149 0.775623268698061 0.1689750692520776 0 0 0 0 0 0.02339181286549707 0.8187134502923976 0.1578947368421053 0.9293739967897271 0.05457463884430176 0.01284109149277689 0.001605136436597111 0.001605136436597111 0 0 0.3529411764705883 0.5678733031674209 0.07352941176470588 0.004524886877828055 0.001131221719457014 0 0 0 0.6105882352941175 0.3670588235294117 0.02117647058823529 0.001176470588235294 0 0 0 0 0.6814814814814815 0.2962962962962963 0.02222222222222222 0 0 0 0 0.001658374792703151 0.7296849087893864 0.2553897180762852 0.01326699834162521 0 0 0 0 0.01522842639593909 0.7233502538071065 0.2512690355329949 0.01015228426395939 0 0 0 0 0.04123711340206185 0.7216494845360825 0.2371134020618557 0.7777777777777777 0.1649305555555556 0.05555555555555555 0.001736111111111111 0 0 0 0.2194513715710723 0.6321695760598504 0.1271820448877805 0.0199501246882793 0.001246882793017456 0 0 0 0.4228432563791008 0.4544349939246658 0.1069258809234508 0.0157958687727825 0 0 0 0 0.5210526315789473 0.3964912280701754 0.0736842105263158 0.008771929824561403 0 0 0 0 0.5424063116370809 0.3708086785009862 0.08086785009861934 0.00591715976331361 0 0 0 0 0.5206611570247934 0.4214876033057852 0.05785123966942149 0 0 0 0 0 0.6011904761904762 0.3988095238095238 0.782716049382716 0.1358024691358025 0.06172839506172839 0.01728395061728395 0.002469135802469136 0 0 0.1520833333333333 0.6979166666666666 0.1333333333333333 0.01666666666666667 0 0 0 0 0.316628701594533 0.5854214123006833 0.0888382687927107 0.00683371298405467 0.002277904328018223 0 0 0 0.3809523809523809 0.546031746031746 0.06666666666666667 0.006349206349206349 0 0 0 0 0.4151624548736462 0.5090252707581228 0.06498194945848376 0.01083032490974729 0 0 0 0 0.4482758620689655 0.478448275862069 0.07327586206896551 0 0 0 0 0 0.5 0.5 0.6299212598425197 0.2913385826771653 0.05511811023622047 0.02362204724409449 0 0 0 0.04629629629629629 0.7314814814814814 0.1759259259259259 0.04629629629629629 0 0 0 0 0.1075268817204301 0.7204301075268817 0.1397849462365592 0.03225806451612903 0 0 0 0 0.1692307692307692 0.6307692307692307 0.1538461538461539 0.04615384615384616 0 0 0 0 0.2222222222222222 0.6349206349206349 0.1111111111111111 0.03174603174603174 0 0 0 0 0.2352941176470588 0.6666666666666666 0.09803921568627451 0 0 0 0 0 0.2758620689655172 0.7241379310344828 0.9118942731277534 0.08370044052863437 0.004405286343612335 0 0 0 0 0.5993975903614458 0.3734939759036145 0.02710843373493976 0 0 0 0 0.02028985507246377 0.8434782608695652 0.1304347826086956 0.005797101449275362 0 0 0 0 0.1158301158301158 0.7644787644787645 0.1158301158301158 0.003861003861003861 0 0 0 0 0.2516339869281046 0.6633986928104575 0.07843137254901961 0.006535947712418301 0 0 0 0 0.25 0.6201923076923077 0.125 0.004807692307692308 0 0 0 0 0.1509433962264151 0.6792452830188679 0.169811320754717 0.8737864077669902 0.1092233009708738 0.01699029126213592 0 0 0 0 0.4408014571948998 0.4936247723132969 0.06375227686703097 0.001821493624772313 0 0 0 0.001730103806228374 0.615916955017301 0.370242214532872 0.01211072664359862 0 0 0 0 0.06358381502890173 0.6936416184971098 0.233140655105973 0.009633911368015413 0 0 0 0 0.1 0.7254901960784313 0.1666666666666667 0.007843137254901961 0 0 0 0 0.09359605911330049 0.7142857142857143 0.1822660098522167 0.009852216748768473 0 0 0 0 0.06481481481481481 0.7037037037037037 0.2314814814814815 0.9184652278177458 0.07913669064748201 0.002398081534772182 0 0 0 0 0.3515981735159817 0.5814307458143074 0.060882800608828 0.0060882800608828 0 0 0 0 0.6503541532517707 0.3187379265936896 0.02962009014810045 0.00128783000643915 0 0 0 0.01236476043276661 0.7024729520865534 0.2527047913446677 0.03245749613601236 0 0 0 0 0.03184713375796178 0.7173566878980893 0.231687898089172 0.01910828025477707 0 0 0 0 0.04530386740331492 0.7116022099447514 0.2287292817679558 0.0143646408839779 0 0 0 0 0.01986754966887417 0.7615894039735099 0.2185430463576159 0.847457627118644 0.1385842472582253 0.01395812562313061 0 0 0 0 0.2744479495268139 0.6290220820189275 0.0858044164037855 0.00694006309148265 0.003154574132492114 0.0006309148264984228 0 0 0.5216121495327103 0.4369158878504673 0.03913551401869159 0.001752336448598131 0.0005841121495327102 0 0 0 0.6037037037037036 0.3607407407407407 0.03333333333333333 0.002222222222222222 0 0 0 0.005805515239477504 0.6313497822931785 0.3345428156748911 0.02685050798258345 0.001451378809869376 0 0 0 0.009182736455463728 0.6345270890725436 0.3461891643709826 0.0101010101010101 0 0 0 0 0.0148619957537155 0.6475583864118896 0.3375796178343949 0.7753164556962024 0.1909282700421941 0.03164556962025316 0.002109704641350211 0 0 0 0.1634208298052498 0.6350550381033022 0.1761219305673158 0.02455546147332769 0.000846740050804403 0 0 0 0.3600583090379009 0.5102040816326531 0.1093294460641399 0.01967930029154519 0.0007288629737609329 0 0 0 0.4227353463587922 0.4493783303730018 0.1181172291296625 0.009769094138543518 0 0 0 0 0.4539473684210526 0.4360902255639098 0.106203007518797 0.003759398496240601 0 0 0 0.00258732212160414 0.5161707632600259 0.4049159120310479 0.07632600258732213 0 0 0 0 0.002325581395348837 0.4953488372093023 0.5023255813953489 0.736111111111111 0.1736111111111111 0.08101851851851852 0.009259259259259259 0 0 0 0.1336336336336336 0.6411411411411412 0.1801801801801802 0.04204204204204204 0.003003003003003003 0 0 0 0.2888583218707015 0.5859697386519945 0.1114167812929849 0.01375515818431912 0 0 0 0 0.372168284789644 0.5016181229773463 0.1132686084142395 0.01294498381877023 0 0 0 0 0.4154929577464789 0.5 0.08450704225352113 0 0 0 0 0 0.3972972972972973 0.5459459459459459 0.05675675675675676 0 0 0 0 0 0.5321100917431193 0.4678899082568808 0.5912408759124087 0.3284671532846715 0.06569343065693431 0.0145985401459854 0 0 0 0.03333333333333333 0.6533333333333333 0.2666666666666667 0.04 0.006666666666666667 0 0 0 0.1338028169014085 0.6267605633802817 0.2112676056338028 0.02112676056338028 0.007042253521126761 0 0 0 0.2095238095238096 0.6190476190476191 0.1333333333333334 0.0380952380952381 0 0 0 0 0.1326530612244898 0.6326530612244897 0.1836734693877551 0.0510204081632653 0 0 0 0 0.1463414634146342 0.7073170731707318 0.1463414634146342 0 0 0 0 0 0.2 0.8 0.8852459016393444 0.09836065573770492 0.01639344262295082 0 0 0 0 0.5 0.4555555555555555 0.04444444444444445 0 0 0 0 0 0.7699115044247787 0.2212389380530974 0.008849557522123894 0 0 0 0 0.05494505494505495 0.8241758241758242 0.1208791208791209 0 0 0 0 0 0.1428571428571429 0.761904761904762 0.08571428571428572 0.009523809523809525 0 0 0 0 0.1842105263157895 0.7017543859649122 0.1140350877192982 0 0 0 0 0 0.07936507936507936 0.7777777777777777 0.1428571428571428 0.8857142857142857 0.1071428571428571 0.007142857142857143 0 0 0 0 0.3362831858407079 0.584070796460177 0.07964601769911504 0 0 0 0 0 0.6556776556776557 0.2967032967032967 0.04761904761904762 0 0 0 0 0.02083333333333333 0.6833333333333333 0.2625 0.03333333333333333 0 0 0 0 0.06607929515418502 0.709251101321586 0.2158590308370044 0.00881057268722467 0 0 0 0 0.07035175879396985 0.6834170854271356 0.2311557788944724 0.01507537688442211 0 0 0 0 0.02631578947368421 0.5350877192982456 0.4385964912280702 0.8583815028901733 0.1358381502890173 0.005780346820809248 0 0 0 0 0.3244274809160305 0.6125954198473282 0.06106870229007633 0.001908396946564885 0 0 0 0 0.5728862973760933 0.3979591836734694 0.02915451895043732 0 0 0 0 0.001557632398753894 0.6464174454828661 0.3271028037383177 0.02336448598130841 0.001557632398753894 0 0 0 0.01967213114754098 0.639344262295082 0.3245901639344262 0.01639344262295082 0 0 0 0 0.02844638949671772 0.6717724288840262 0.299781181619256 0 0 0 0 0 0.007434944237918215 0.6579925650557621 0.3345724907063197 0.8043478260869565 0.1608695652173913 0.03043478260869565 0.004347826086956522 0 0 0 0.1761363636363636 0.6619318181818182 0.1363636363636364 0.02414772727272727 0.001420454545454545 0 0 0 0.4171779141104295 0.4760736196319019 0.09815950920245399 0.00736196319018405 0.001226993865030675 0 0 0 0.4694708276797829 0.457259158751696 0.06512890094979647 0.008141112618724558 0 0 0 0.004155124653739612 0.5457063711911357 0.3947368421052632 0.05401662049861496 0.001385041551246537 0 0 0 0.003676470588235294 0.5661764705882353 0.3933823529411765 0.03676470588235294 0 0 0 0 0.006872852233676976 0.5567010309278351 0.436426116838488 0.7252475247524752 0.254950495049505 0.01485148514851485 0.004950495049504951 0 0 0 0.1288566243194192 0.6533575317604355 0.1887477313974592 0.02722323049001815 0.001814882032667877 0 0 0 0.2983606557377049 0.5491803278688525 0.1278688524590164 0.02459016393442623 0 0 0 0 0.3456310679611651 0.4932038834951456 0.1398058252427185 0.02135922330097087 0 0 0 0 0.41015625 0.474609375 0.109375 0.005859375 0 0 0 0 0.3722397476340694 0.5678233438485805 0.05993690851735015 0 0 0 0 0.004587155963302753 0.444954128440367 0.5504587155963303 0.6685393258426966 0.2808988764044944 0.03932584269662921 0.01123595505617977 0 0 0 0.08125 0.61875 0.259375 0.03750000000000001 0.003125 0 0 0 0.2292263610315186 0.5988538681948424 0.1375358166189112 0.03438395415472779 0 0 0 0 0.3129770992366412 0.5419847328244275 0.1145038167938931 0.03053435114503817 0 0 0 0 0.3482142857142857 0.4776785714285714 0.1473214285714286 0.02678571428571428 0 0 0 0 0.2926829268292683 0.6097560975609756 0.0975609756097561 0 0 0 0 0 0.4117647058823529 0.5882352941176471 0.5254237288135594 0.3898305084745763 0.05084745762711865 0.01694915254237288 0.01694915254237288 0 0 0.03488372093023256 0.5 0.4418604651162791 0.02325581395348837 0 0 0 0 0.1296296296296296 0.5555555555555556 0.3148148148148148 0 0 0 0 0 0.1304347826086956 0.6739130434782609 0.1956521739130435 0 0 0 0 0 0.1363636363636364 0.5454545454545454 0.2954545454545455 0.02272727272727273 0 0 0 0 0.09375 0.65625 0.25 0 0 0 0 0 0 1 0.1428571428571429 0.1428571428571429 0.1428571428571429 0.1428571428571429 0.1428571428571429 0.1428571428571429 0.1428571428571429 0 1 0 0 0 0 0 0 1 0 0 0 0 0 0 0 0.5 0.5 0 0 0 0 0 0 1 0 0 0 0 0 0 0 1 0 0 0.1428571428571429 0.1428571428571429 0.1428571428571429 0.1428571428571429 0.1428571428571429 0.1428571428571429 0.1428571428571429 1 0 0 0 0 0 0 0.375 0.625 0 0 0 0 0 0 0.5 0.375 0.125 0 0 0 0 0 1 0 0 0 0 0 0 0.25 0.5 0.25 0 0 0 0 0 0 1 0 0 0 0 0 0 0 1 0 0.7692307692307693 0.2307692307692308 0 0 0 0 0 0.1666666666666667 0.7222222222222222 0.1111111111111111 0 0 0 0 0 0.4230769230769231 0.5 0.07692307692307693 0 0 0 0 0 0.35 0.6000000000000001 0.05 0 0 0 0 0 0.5 0.5 0 0 0 0 0 0 0.6666666666666666 0.3333333333333333 0 0 0 0 0 0 1 0 0.9285714285714285 0.07142857142857142 0 0 0 0 0 0.1724137931034483 0.6206896551724138 0.2068965517241379 0 0 0 0 0 0.5263157894736842 0.2631578947368421 0.2105263157894737 0 0 0 0 0 0.5 0.4375 0.0625 0 0 0 0 0 0.5 0.4230769230769231 0.07692307692307693 0 0 0 0 0 0.5238095238095237 0.3809523809523809 0.09523809523809523 0 0 0 0 0 0.3076923076923077 0.6923076923076923 0.5384615384615385 0.3076923076923077 0.1538461538461539 0 0 0 0 0.09523809523809523 0.7142857142857142 0.1904761904761905 0 0 0 0 0 0.24 0.5600000000000001 0.2 0 0 0 0 0 0.375 0.46875 0.15625 0 0 0 0 0 0.2352941176470588 0.6470588235294118 0.1176470588235294 0 0 0 0 0 0.4375 0.5 0.0625 0 0 0 0 0 1 0 0.7333333333333333 0.2666666666666667 0 0 0 0 0 0.125 0.6875 0.1875 0 0 0 0 0 0.2 0.65 0.15 0 0 0 0 0 0.3636363636363636 0.4545454545454546 0.1818181818181818 0 0 0 0 0 0.5384615384615385 0.3846153846153846 0.07692307692307693 0 0 0 0 0 0.6666666666666666 0.3333333333333333 0 0 0 0 0 0 0.75 0.25 0.6666666666666666 0.3333333333333333 0 0 0 0 0 0.1666666666666667 0.5 0.3333333333333333 0 0 0 0 0 0 0.8 0.2 0 0 0 0 0 0 1 0 0 0 0 0 0 0 1 0 0 0 0 0 0 0 1 0 0 0 0 0 0 0 1 0.1428571428571429 0.1428571428571429 0.1428571428571429 0.1428571428571429 0.1428571428571429 0.1428571428571429 0.1428571428571429 0.1428571428571429 0.1428571428571429 0.1428571428571429 0.1428571428571429 0.1428571428571429 0.1428571428571429 0.1428571428571429 0.1428571428571429 0.1428571428571429 0.1428571428571429 0.1428571428571429 0.1428571428571429 0.1428571428571429 0.1428571428571429 0.1428571428571429 0.1428571428571429 0.1428571428571429 0.1428571428571429 0.1428571428571429 0.1428571428571429 0.1428571428571429 0.1428571428571429 0.1428571428571429 0.1428571428571429 0.1428571428571429 0.1428571428571429 0.1428571428571429 0.1428571428571429 0.1428571428571429 0.1428571428571429 0.1428571428571429 0.1428571428571429 0.1428571428571429 0.1428571428571429 0.1428571428571429 0.1428571428571429 0.1428571428571429 0.1428571428571429 0.1428571428571429 0.1428571428571429 0.1428571428571429 0.1428571428571429 0.1428571428571429 0.1428571428571429 0.1428571428571429 0.1428571428571429 0.1428571428571429 0.1428571428571429 0.1428571428571429 0.1428571428571429 0.1428571428571429 0.1428571428571429 0.1428571428571429 0.1428571428571429 0.1428571428571429 0.1428571428571429 0.1428571428571429 0.1428571428571429 0.1428571428571429 0.1428571428571429 0.1428571428571429 0.1428571428571429 0.1428571428571429 0.1428571428571429 0.1428571428571429 0.1428571428571429 0.1428571428571429 0.1428571428571429 0.1428571428571429 0.1428571428571429 0.1428571428571429 0.1428571428571429 0.1428571428571429 0.1428571428571429 0.1428571428571429 0.1428571428571429 0.1428571428571429 0.1428571428571429 0.1428571428571429 0.1428571428571429 0.1428571428571429 0.1428571428571429 0.1428571428571429 0.1428571428571429 0.1428571428571429 0.1428571428571429 0.1428571428571429 0.1428571428571429 0.1428571428571429 0.1428571428571429 0.1428571428571429 0.1428571428571429 0.1428571428571429 0.1428571428571429 0.1428571428571429 0.1428571428571429 0.1428571428571429 0.1428571428571429 0.1428571428571429 0.1428571428571429 0.1428571428571429 0.1428571428571429 0.1428571428571429 0.1428571428571429 0.1428571428571429 0.1428571428571429 0.1428571428571429 0.1428571428571429 0.1428571428571429 0.1428571428571429 0.1428571428571429 0.1428571428571429 0.1428571428571429 0.1428571428571429 0.1428571428571429 0.1428571428571429 0.1428571428571429 0.1428571428571429 0.1428571428571429 0.1428571428571429 0.1428571428571429 0.1428571428571429 0.1428571428571429 0.1428571428571429 0.1428571428571429 0.1428571428571429 0.1428571428571429 0.1428571428571429 0.1428571428571429 0.1428571428571429 0.1428571428571429 0.1428571428571429 0.1428571428571429 0.1428571428571429 0.1428571428571429 0.1428571428571429 0.1428571428571429 0.1428571428571429 0.1428571428571429 0.1428571428571429 0.1428571428571429 0.1428571428571429 0.1428571428571429 0.1428571428571429 0.1428571428571429 0.1428571428571429 0.1428571428571429 0.1428571428571429 0.1428571428571429 0.1428571428571429 0.1428571428571429 0.1428571428571429 0.1428571428571429 0.1428571428571429 0.1428571428571429 0.1428571428571429 0.1428571428571429 0.1428571428571429 0.1428571428571429 0.1428571428571429 0.1428571428571429 0.1428571428571429 0.1428571428571429 0.1428571428571429 0.1428571428571429 0.1428571428571429 0.1428571428571429 0.1428571428571429 0.1428571428571429 0.1428571428571429 0.1428571428571429 0.1428571428571429 0.1428571428571429 0.1428571428571429 0.1428571428571429 0.1428571428571429 0.1428571428571429 0.1428571428571429 0.1428571428571429 0.1428571428571429 0.1428571428571429 0.1428571428571429 0.1428571428571429 0.1428571428571429 0.1428571428571429 0.1428571428571429 0.1428571428571429 0.1428571428571429 0.1428571428571429 0.1428571428571429 0.1428571428571429 0.1428571428571429 0.1428571428571429 0.1428571428571429 0.1428571428571429 0.1428571428571429 0.1428571428571429 0.1428571428571429 0.1428571428571429 0.1428571428571429 0.1428571428571429 0.1428571428571429 0.1428571428571429 0.1428571428571429 0.1428571428571429 0.1428571428571429 0.1428571428571429 0.1428571428571429 0.1428571428571429 0.1428571428571429 0.1428571428571429 0.1428571428571429 0.1428571428571429 0.1428571428571429 0.1428571428571429 0.1428571428571429 0.1428571428571429 0.1428571428571429 0.1428571428571429 0.1428571428571429 0.1428571428571429 0.1428571428571429 0.1428571428571429 0.1428571428571429 0.1428571428571429 0.1428571428571429 0.1428571428571429 0.1428571428571429 0.1428571428571429 0.1428571428571429 0.1428571428571429 0.1428571428571429 0.1428571428571429 0.1428571428571429 0.1428571428571429 0.1428571428571429 0.1428571428571429 0.1428571428571429 0.1428571428571429 0.1428571428571429 0.1428571428571429 0.1428571428571429 0.1428571428571429 0.1428571428571429 0.1428571428571429 0.1428571428571429 0.1428571428571429 0.1428571428571429 0.1428571428571429 0.1428571428571429 0.1428571428571429 0.1428571428571429 0.1428571428571429 0.1428571428571429 0.1428571428571429 0.1428571428571429 0.1428571428571429 0.1428571428571429 0.1428571428571429 0.1428571428571429 0.1428571428571429 0.1428571428571429 0.1428571428571429 0.1428571428571429 0.1428571428571429 0.1428571428571429 0.1428571428571429 0.1428571428571429 0.1428571428571429 0.1428571428571429 0.1428571428571429 0.1428571428571429 0.1428571428571429 0.1428571428571429 0.1428571428571429 0.1428571428571429 0.1428571428571429 0.1428571428571429 0.1428571428571429 0.1428571428571429 0.1428571428571429 0.1428571428571429 0.1428571428571429 0.1428571428571429 0.1428571428571429 0.1428571428571429 0.1428571428571429 0.1428571428571429 0.1428571428571429 0.1428571428571429 0.1428571428571429 0.1428571428571429 0.1428571428571429 0.1428571428571429 0.1428571428571429 0.1428571428571429 0.1428571428571429 0.1428571428571429 0.1428571428571429 0.1428571428571429 0.1428571428571429 0.1428571428571429 0.1428571428571429 0.1428571428571429 0.1428571428571429 0.1428571428571429 0.1428571428571429 0.1428571428571429 0.1428571428571429 0.1428571428571429 0.1428571428571429 0.1428571428571429 0.1428571428571429 0.1428571428571429 0.1428571428571429 0.1428571428571429 0.1428571428571429 0.1428571428571429 0.1428571428571429 0.1428571428571429 0.1428571428571429 0.1428571428571429 0.1428571428571429 0.1428571428571429 0.1428571428571429 0.1428571428571429 0.1428571428571429 0.1428571428571429 0.1428571428571429 0.1428571428571429 0.1428571428571429 0.1428571428571429 0.1428571428571429 0.1428571428571429 0.1428571428571429 0.1428571428571429 0.1428571428571429 0.1428571428571429 0.1428571428571429 0.1428571428571429 0.1428571428571429 0.1428571428571429 0.1428571428571429 0.1428571428571429 0.1428571428571429 0.1428571428571429 0.1428571428571429 0.1428571428571429 0.1428571428571429 0.1428571428571429 0.1428571428571429 0.1428571428571429 0.1428571428571429 0.1428571428571429 0.1428571428571429 0.1428571428571429 0.1428571428571429 0.1428571428571429 0.1428571428571429 0.1428571428571429 0.1428571428571429 0.1428571428571429 0.1428571428571429 0.1428571428571429 0.1428571428571429 0.1428571428571429 0.1428571428571429 0.1428571428571429 0.1428571428571429 0.1428571428571429 0.1428571428571429 0.1428571428571429 0.1428571428571429 0.1428571428571429 0.1428571428571429 0.1428571428571429 0.1428571428571429 0.1428571428571429 0.1428571428571429 0.1428571428571429 0.1428571428571429 0.1428571428571429 0.1428571428571429 0.1428571428571429 0.1428571428571429 0.1428571428571429 0.1428571428571429 0.1428571428571429 0.1428571428571429 0.1428571428571429 0.1428571428571429 0.1428571428571429 0.1428571428571429 0.1428571428571429 0.1428571428571429 0.1428571428571429 0.1428571428571429 0.1428571428571429 0.1428571428571429 0.1428571428571429 0.1428571428571429 0.1428571428571429 0.1428571428571429 0.1428571428571429 0.1428571428571429 0.1428571428571429 0.1428571428571429 0.1428571428571429 0.1428571428571429 0.1428571428571429 0.1428571428571429 0.1428571428571429 0.1428571428571429 0.1428571428571429 0.1428571428571429 0.1428571428571429 0.1428571428571429 0.1428571428571429 0.1428571428571429 0.1428571428571429 0.1428571428571429 0.1428571428571429 0.1428571428571429 0.1428571428571429 0.1428571428571429 0.1428571428571429 0.1428571428571429 0.1428571428571429 0.1428571428571429 0.1428571428571429 0.1428571428571429 0.1428571428571429 0.1428571428571429 0.1428571428571429 0.1428571428571429 0.1428571428571429 0.1428571428571429 0.1428571428571429 0.1428571428571429 0.1428571428571429 0.1428571428571429 0.1428571428571429 0.1428571428571429 0.1428571428571429 0.1428571428571429 0.1428571428571429 0.1428571428571429 0.1428571428571429 0.1428571428571429 0.1428571428571429 0.1428571428571429 0.1428571428571429 0.1428571428571429 0.1428571428571429 0.1428571428571429 0.1428571428571429 0.1428571428571429 0.1428571428571429 0.1428571428571429 0.1428571428571429 0.1428571428571429 0.1428571428571429 0.1428571428571429 0.1428571428571429 0.1428571428571429 0.1428571428571429 0.1428571428571429 0.1428571428571429 0.1428571428571429 0.1428571428571429 0.1428571428571429 0.1428571428571429 0.1428571428571429 0.1428571428571429 0.1428571428571429 0.1428571428571429 0.1428571428571429 0.1428571428571429 0.1428571428571429 0.1428571428571429 0.1428571428571429 0.1428571428571429 0.1428571428571429 0.1428571428571429 0.1428571428571429 0.1428571428571429 0.1428571428571429 0.1428571428571429 0.1428571428571429 0.1428571428571429 0.1428571428571429 0.1428571428571429 0.1428571428571429 0.1428571428571429 0.1428571428571429 0.1428571428571429 0.1428571428571429 0.1428571428571429 0.1428571428571429 0.1428571428571429 0.1428571428571429 0.1428571428571429 0.1428571428571429 0.1428571428571429 0.1428571428571429 0.1428571428571429 0.1428571428571429 0.1428571428571429 0.1428571428571429 0.1428571428571429 0.1428571428571429 0.1428571428571429 0.1428571428571429 0.1428571428571429 0.1428571428571429 0.1428571428571429 0.1428571428571429 0.1428571428571429 0.1428571428571429 0.1428571428571429 0.1428571428571429 0.1428571428571429 0.1428571428571429 0.1428571428571429 0.1428571428571429 0.1428571428571429 0.1428571428571429 0.1428571428571429 0.1428571428571429 0.1428571428571429 0.1428571428571429 0.1428571428571429 0.1428571428571429 0.1428571428571429 0.1428571428571429 0.1428571428571429 0.1428571428571429 0.1428571428571429 0.1428571428571429 0.1428571428571429 0.1428571428571429 0.1428571428571429 0.1428571428571429 0.1428571428571429 0.1428571428571429 0.1428571428571429 0.1428571428571429 0.1428571428571429 0.1428571428571429 0.1428571428571429 0.1428571428571429 0.1428571428571429 0.1428571428571429 0.1428571428571429 0.1428571428571429 0.1428571428571429 0.1428571428571429 0.1428571428571429 0.1428571428571429 0.1428571428571429 0.1428571428571429 0.1428571428571429 0.1428571428571429 0.1428571428571429 0.1428571428571429 0.1428571428571429 0.1428571428571429 0.1428571428571429 0.1428571428571429 0.1428571428571429 0.1428571428571429 0.1428571428571429 0.1428571428571429 0.1428571428571429 0.1428571428571429 0.1428571428571429 0.1428571428571429 0.1428571428571429 0.1428571428571429 0.1428571428571429 0.1428571428571429 0.1428571428571429 0.1428571428571429 0.1428571428571429 0.1428571428571429 0.1428571428571429 0.1428571428571429 0.1428571428571429 0.1428571428571429 0.1428571428571429 0.1428571428571429 0.1428571428571429 0.1428571428571429 0.1428571428571429 0.1428571428571429 0.1428571428571429 0.1428571428571429 0.1428571428571429 0.1428571428571429 0.1428571428571429 0.1428571428571429 0.1428571428571429 0.1428571428571429 0.1428571428571429 0.1428571428571429 0.1428571428571429 0.1428571428571429 0.1428571428571429 0.1428571428571429 0.1428571428571429 0.1428571428571429 0.1428571428571429 0.1428571428571429 0.1428571428571429 0.1428571428571429 0.1428571428571429 0.1428571428571429 0.1428571428571429 0.1428571428571429 0.1428571428571429 0.1428571428571429 0.1428571428571429 0.1428571428571429 0.1428571428571429 0.1428571428571429 0.1428571428571429 0.1428571428571429 0.1428571428571429 0.1428571428571429 0.1428571428571429 0.1428571428571429 0.1428571428571429 0.1428571428571429 0.1428571428571429 0.1428571428571429 0.1428571428571429 0.1428571428571429 0.1428571428571429 0.1428571428571429 0.1428571428571429 0.1428571428571429 0.1428571428571429 0.1428571428571429 0.1428571428571429 0.1428571428571429 0.1428571428571429 0.1428571428571429 0.1428571428571429 0.1428571428571429 0.1428571428571429 0.1428571428571429 0.1428571428571429 0.1428571428571429 0.1428571428571429 0.1428571428571429 0.1428571428571429 0.1428571428571429 0.1428571428571429 0.1428571428571429 0.1428571428571429 0.1428571428571429 0.1428571428571429 0.1428571428571429 0.1428571428571429 0.1428571428571429 0.1428571428571429 0.1428571428571429 0.1428571428571429 0.1428571428571429 0.1428571428571429 0.1428571428571429 0.1428571428571429 0.1428571428571429 0.1428571428571429 0.1428571428571429 0.1428571428571429 0.1428571428571429 0.1428571428571429 0.1428571428571429 0.1428571428571429 0.1428571428571429 0.1428571428571429 0.1428571428571429 0.1428571428571429 0.1428571428571429 0.1428571428571429 0.1428571428571429 0.1428571428571429 0.1428571428571429 0.1428571428571429 0.1428571428571429 0.1428571428571429 0.1428571428571429 0.1428571428571429 0.1428571428571429 0.1428571428571429 0.1428571428571429 0.1428571428571429 0.1428571428571429 0.1428571428571429 0.1428571428571429 0.1428571428571429 0.1428571428571429 0.1428571428571429 0.1428571428571429 0.1428571428571429 0.1428571428571429 0.1428571428571429 0.1428571428571429 0.1428571428571429 0.1428571428571429 0.1428571428571429 0.1428571428571429 0.1428571428571429 0.1428571428571429 0.1428571428571429 0.1428571428571429 0.1428571428571429 0.1428571428571429 0.1428571428571429 0.1428571428571429 0.1428571428571429 0.1428571428571429 0.1428571428571429 0.1428571428571429 0.1428571428571429 0.1428571428571429 0.1428571428571429 0.1428571428571429 0.1428571428571429 0.1428571428571429 0.1428571428571429 0.1428571428571429 0.1428571428571429 0.1428571428571429 0.1428571428571429 0.1428571428571429 0.1428571428571429 0.1428571428571429 0.1428571428571429 0.1428571428571429 0.1428571428571429 0.1428571428571429 0.1428571428571429 0.1428571428571429 0.1428571428571429 0.1428571428571429 0.1428571428571429 0.1428571428571429 0.1428571428571429 0.1428571428571429 0.1428571428571429 0.1428571428571429 0.1428571428571429 0.1428571428571429 0.1428571428571429 0.1428571428571429 0.1428571428571429 0.1428571428571429 0.1428571428571429 0.1428571428571429 0.1428571428571429 0.1428571428571429 0.1428571428571429 0.1428571428571429 0.1428571428571429 0.1428571428571429 0.1428571428571429 0.1428571428571429 0.1428571428571429 0.1428571428571429 0.1428571428571429 0.1428571428571429 0.1428571428571429 0.1428571428571429 0.1428571428571429 0.1428571428571429 0.1428571428571429 0.1428571428571429 0.1428571428571429 0.1428571428571429 0.1428571428571429 0.1428571428571429 0.1428571428571429 0.1428571428571429 0.1428571428571429 0.1428571428571429 0.1428571428571429 0.1428571428571429 0.1428571428571429 0.1428571428571429 0.1428571428571429 0.1428571428571429 0.1428571428571429 0.1428571428571429 0.1428571428571429 0.1428571428571429 0.1428571428571429 0.1428571428571429 0.1428571428571429 0.1428571428571429 0.1428571428571429 0.1428571428571429 0.1428571428571429 0.1428571428571429 0.1428571428571429 0.1428571428571429 0.1428571428571429 0.1428571428571429 0.1428571428571429 0.1428571428571429 0.1428571428571429 0.1428571428571429 0.1428571428571429 0.1428571428571429 0.1428571428571429 0.1428571428571429 0.1428571428571429 0.1428571428571429 0.1428571428571429 0.1428571428571429 0.1428571428571429 0.1428571428571429 0.1428571428571429 0.1428571428571429 0.1428571428571429 0.1428571428571429 0.1428571428571429 0.1428571428571429 0.1428571428571429 0.1428571428571429 0.1428571428571429 0.1428571428571429 0.1428571428571429 0.1428571428571429 0.1428571428571429 0.1428571428571429 0.1428571428571429 0.1428571428571429 0.1428571428571429 0.1428571428571429 0.1428571428571429 0.1428571428571429 0.1428571428571429 0.1428571428571429 0.1428571428571429 0.1428571428571429 0.1428571428571429 0.1428571428571429 0.1428571428571429 0.1428571428571429 0.1428571428571429 0.1428571428571429 0.1428571428571429 0.1428571428571429 0.1428571428571429 0.1428571428571429 0.1428571428571429 0.1428571428571429 0.1428571428571429 0.1428571428571429 0.1428571428571429 0.1428571428571429 0.1428571428571429 0.1428571428571429 0.1428571428571429 0.1428571428571429 0.1428571428571429 0.1428571428571429 0.1428571428571429 0.1428571428571429 0.1428571428571429 0.1428571428571429 0.1428571428571429 0.1428571428571429 0.1428571428571429 0.1428571428571429 0.1428571428571429 0.1428571428571429 0.1428571428571429 0.1428571428571429 0.1428571428571429 0.1428571428571429 0.1428571428571429 0.1428571428571429 0.1428571428571429 0.1428571428571429 0.1428571428571429 0.1428571428571429 0.1428571428571429 0.1428571428571429 0.1428571428571429 0.1428571428571429 0.1428571428571429 0.1428571428571429 0.1428571428571429 0.1428571428571429 0.1428571428571429 0.1428571428571429 0.1428571428571429 0.1428571428571429 0.1428571428571429 0.1428571428571429 0.1428571428571429 0.1428571428571429 0.1428571428571429 0.1428571428571429 0.1428571428571429 0.1428571428571429 0.1428571428571429 0.1428571428571429 0.1428571428571429 0.1428571428571429 0.1428571428571429 0.1428571428571429 0.1428571428571429 0.1428571428571429 0.1428571428571429 0.1428571428571429 0.1428571428571429 0.1428571428571429 0.1428571428571429 0.1428571428571429 0.1428571428571429 0.1428571428571429 0.1428571428571429 0.1428571428571429 0.1428571428571429 0.1428571428571429 0.1428571428571429 0.1428571428571429 0.1428571428571429 0.1428571428571429 0.1428571428571429 0.1428571428571429 0.1428571428571429 0.1428571428571429 0.1428571428571429 0.1428571428571429 0.1428571428571429 0.1428571428571429 0.1428571428571429 0.1428571428571429 0.1428571428571429 0.1428571428571429 0.1428571428571429 0.1428571428571429 0.1428571428571429 0.1428571428571429 0.1428571428571429 0.1428571428571429 0.1428571428571429 0.1428571428571429 0.1428571428571429 0.1428571428571429 0.1428571428571429 0.1428571428571429 0.1428571428571429 0.1428571428571429 0.1428571428571429 0.1428571428571429 0.1428571428571429 0.1428571428571429 0.1428571428571429 0.1428571428571429 0.1428571428571429 0.1428571428571429 0.1428571428571429 0.1428571428571429 0.1428571428571429 0.1428571428571429 0.1428571428571429 0.1428571428571429 0.1428571428571429 0.1428571428571429 0.1428571428571429 0.1428571428571429 0.1428571428571429 0.1428571428571429 0.1428571428571429 0.1428571428571429 0.1428571428571429 0.1428571428571429 0.1428571428571429 0.1428571428571429 0.1428571428571429 0.1428571428571429 0.1428571428571429 0.1428571428571429 0.1428571428571429 0.1428571428571429 0.1428571428571429 0.1428571428571429 0.1428571428571429 0.1428571428571429 0.1428571428571429 0.1428571428571429 0.1428571428571429 0.1428571428571429 0.1428571428571429 0.1428571428571429 0.1428571428571429 0.1428571428571429 0.1428571428571429 0.1428571428571429 0.1428571428571429 0.1428571428571429 0.1428571428571429 0.1428571428571429 0.1428571428571429 0.1428571428571429 0.1428571428571429 0.1428571428571429 0.1428571428571429 0.1428571428571429 0.1428571428571429 0.1428571428571429 0.1428571428571429 0.1428571428571429 0.1428571428571429 0.1428571428571429 0.1428571428571429 1 0 0 0 0 0 0 0.9285714285714285 0.07142857142857142 0 0 0 0 0 0 0.7586206896551724 0.2413793103448276 0 0 0 0 0 0.1515151515151515 0.6666666666666667 0.1818181818181818 0 0 0 0 0 0.2162162162162162 0.6756756756756757 0.1081081081081081 0 0 0 0 0 0.1142857142857143 0.8285714285714285 0.05714285714285714 0 0 0 0 0 0.3333333333333333 0.5185185185185185 0.1481481481481481 1 0 0 0 0 0 0 0.3513513513513514 0.6216216216216217 0.02702702702702703 0 0 0 0 0 0.6792452830188679 0.3207547169811321 0 0 0 0 0 0.04761904761904762 0.7142857142857142 0.1904761904761905 0.04761904761904762 0 0 0 0 0.08196721311475411 0.8032786885245902 0.1147540983606557 0 0 0 0 0 0.1282051282051282 0.6923076923076923 0.1794871794871795 0 0 0 0 0 0.07142857142857142 0.8571428571428571 0.07142857142857142 0.986111111111111 0.01388888888888889 0 0 0 0 0 0.4861111111111111 0.5 0.01388888888888889 0 0 0 0 0 0.759090909090909 0.2090909090909091 0.03181818181818181 0 0 0 0 0.004878048780487805 0.7853658536585366 0.1707317073170732 0.02926829268292683 0.00975609756097561 0 0 0 0.0392156862745098 0.8480392156862745 0.08333333333333333 0.02941176470588235 0 0 0 0 0.07462686567164178 0.835820895522388 0.08955223880597014 0 0 0 0 0 0 0.8333333333333333 0.1666666666666667 0.8791208791208792 0.08791208791208792 0.02197802197802198 0.01098901098901099 0 0 0 0.2945205479452054 0.6301369863013698 0.0684931506849315 0.00684931506849315 0 0 0 0 0.6111111111111112 0.3535353535353536 0.03535353535353536 0 0 0 0 0.004926108374384237 0.6896551724137931 0.270935960591133 0.03448275862068965 0 0 0 0 0.01025641025641026 0.7692307692307693 0.2102564102564103 0.01025641025641026 0 0 0 0 0.02097902097902098 0.7412587412587412 0.2167832167832168 0.02097902097902098 0 0 0 0 0.04054054054054054 0.6891891891891893 0.2702702702702703 0.6821192052980133 0.2582781456953642 0.05960264900662252 0 0 0 0 0.1807692307692308 0.6846153846153846 0.1 0.03461538461538462 0 0 0 0 0.3410852713178295 0.5387596899224806 0.1085271317829457 0.01162790697674419 0 0 0 0 0.4675925925925926 0.4351851851851852 0.09259259259259259 0.004629629629629629 0 0 0 0 0.5348837209302325 0.3953488372093023 0.06511627906976744 0.004651162790697674 0 0 0 0 0.5128205128205128 0.4102564102564102 0.07692307692307693 0 0 0 0 0.01176470588235294 0.4588235294117647 0.5294117647058824 0.8581560283687943 0.0851063829787234 0.04964539007092199 0.007092198581560284 0 0 0 0.09139784946236559 0.7688172043010754 0.1021505376344086 0.02688172043010753 0.01075268817204301 0 0 0 0.3947368421052632 0.5684210526315789 0.02631578947368421 0.005263157894736842 0.005263157894736842 0 0 0 0.3802816901408451 0.5915492957746479 0.02816901408450704 0 0 0 0 0 0.4047619047619048 0.5476190476190476 0.03174603174603174 0.01587301587301587 0 0 0 0 0.5681818181818182 0.4090909090909091 0.02272727272727273 0 0 0 0 0 0.5740740740740741 0.4259259259259259 0.5128205128205128 0.2307692307692308 0.2051282051282051 0.05128205128205128 0 0 0 0.0392156862745098 0.6274509803921569 0.2745098039215687 0.05882352941176471 0 0 0 0 0.0851063829787234 0.6595744680851063 0.2340425531914894 0 0.02127659574468085 0 0 0 0.2941176470588235 0.5490196078431373 0.1372549019607843 0.0196078431372549 0 0 0 0 0.1951219512195122 0.6097560975609756 0.1707317073170732 0.02439024390243903 0 0 0 0 0.24 0.64 0.12 0 0 0 0 0 0.5333333333333333 0.4666666666666667 0.8125 0.1875 0 0 0 0 0 0.3333333333333333 0.6666666666666666 0 0 0 0 0 0.02702702702702703 0.4594594594594595 0.5135135135135136 0 0 0 0 0 0.03225806451612903 0.8064516129032258 0.1612903225806452 0 0 0 0 0 0.15625 0.65625 0.1875 0 0 0 0 0 0.1739130434782609 0.6086956521739131 0.2173913043478261 0 0 0 0 0 0.1666666666666667 0.611111111111111 0.2222222222222222 0.9 0.1 0 0 0 0 0 0.25 0.6041666666666666 0.1458333333333333 0 0 0 0 0 0.5681818181818182 0.3636363636363636 0.06818181818181818 0 0 0 0 0 0.625 0.325 0.05 0 0 0 0 0.02380952380952381 0.5714285714285714 0.3095238095238095 0.09523809523809523 0 0 0 0 0.1538461538461539 0.6153846153846154 0.2307692307692308 0 0 0 0 0 0.05 0.65 0.3 0.8490566037735848 0.1320754716981132 0.01886792452830189 0 0 0 0 0.3669724770642202 0.5596330275229358 0.07339449541284404 0 0 0 0 0 0.5666666666666667 0.35 0.08333333333333333 0 0 0 0 0.01351351351351351 0.7027027027027027 0.2162162162162162 0.06756756756756757 0 0 0 0 0.04761904761904762 0.6571428571428573 0.2380952380952381 0.05714285714285715 0 0 0 0 0.04878048780487805 0.7317073170731707 0.2195121951219512 0 0 0 0 0 0.01851851851851852 0.7222222222222222 0.2592592592592592 0.7058823529411764 0.25 0.04411764705882353 0 0 0 0 0.2042253521126761 0.619718309859155 0.176056338028169 0 0 0 0 0 0.4857142857142858 0.4380952380952381 0.06666666666666668 0.009523809523809525 0 0 0 0 0.5529411764705883 0.3764705882352941 0.06470588235294117 0.005882352941176471 0 0 0 0.0108695652173913 0.625 0.3206521739130435 0.03260869565217391 0.0108695652173913 0 0 0 0.0072992700729927 0.6204379562043796 0.3357664233576642 0.0364963503649635 0 0 0 0 0 0.6125 0.3875 0.7344632768361582 0.2429378531073446 0.01694915254237288 0.005649717514124294 0 0 0 0.1037735849056604 0.6839622641509434 0.1839622641509434 0.02830188679245283 0 0 0 0 0.3891213389121339 0.5104602510460251 0.08786610878661087 0.01255230125523012 0 0 0 0 0.4292929292929293 0.4696969696969697 0.09090909090909091 0.0101010101010101 0 0 0 0 0.4356435643564356 0.4554455445544555 0.1089108910891089 0 0 0 0 0 0.4233128834355828 0.4785276073619632 0.09815950920245399 0 0 0 0 0 0.5789473684210527 0.4210526315789473 0.7409638554216867 0.1746987951807229 0.08433734939759037 0 0 0 0 0.1165919282511211 0.7174887892376681 0.1255605381165919 0.03587443946188341 0.004484304932735426 0 0 0 0.3387096774193548 0.5685483870967741 0.0846774193548387 0.008064516129032258 0 0 0 0 0.4198113207547169 0.4905660377358491 0.07547169811320754 0.01415094339622642 0 0 0 0 0.4139784946236559 0.4731182795698925 0.1075268817204301 0.005376344086021506 0 0 0 0 0.3507462686567164 0.5298507462686567 0.1194029850746269 0 0 0 0 0.01075268817204301 0.5161290322580645 0.4731182795698925 0.6935483870967741 0.2741935483870968 0.03225806451612903 0 0 0 0 0.05882352941176471 0.5784313725490196 0.303921568627451 0.05882352941176471 0 0 0 0 0.3055555555555555 0.5694444444444444 0.125 0 0 0 0 0 0.3090909090909091 0.5636363636363636 0.1272727272727273 0 0 0 0 0 0.09677419354838709 0.7580645161290323 0.1290322580645161 0.01612903225806452 0 0 0 0 0.1739130434782609 0.6739130434782609 0.1521739130434783 0 0 0 0 0 0.25 0.75 0.8333333333333334 0.1555555555555556 0.01111111111111111 0 0 0 0 0.3098039215686275 0.6039215686274509 0.07450980392156863 0.01176470588235294 0 0 0 0.006644518272425249 0.6179401993355482 0.3521594684385382 0.02325581395348837 0 0 0 0 0.03717472118959107 0.6654275092936802 0.275092936802974 0.02230483271375465 0 0 0 0 0.07801418439716312 0.6737588652482269 0.2340425531914894 0.01418439716312057 0 0 0 0 0.07843137254901961 0.7107843137254902 0.2058823529411765 0.004901960784313725 0 0 0 0 0.02150537634408602 0.7419354838709677 0.2365591397849462 0.7849462365591398 0.2007168458781362 0.01433691756272401 0 0 0 0 0.2559808612440191 0.6172248803827751 0.1148325358851675 0.01196172248803828 0 0 0 0 0.4908088235294117 0.4411764705882353 0.06801470588235294 0 0 0 0 0.009009009009009009 0.5653153153153153 0.3738738738738739 0.0518018018018018 0 0 0 0 0.03044496487119438 0.5925058548009368 0.3325526932084309 0.04215456674473068 0.00234192037470726 0 0 0 0.02346041055718475 0.6041055718475073 0.3225806451612903 0.04985337243401759 0 0 0 0 0.02409638554216868 0.6265060240963856 0.3493975903614458 0.7640603566529491 0.2181069958847736 0.01783264746227709 0 0 0 0 0.1618381618381618 0.6763236763236763 0.1548451548451548 0.006993006993006993 0 0 0 0 0.3898163606010017 0.503338898163606 0.1010016694490818 0.005843071786310518 0 0 0 0.003603603603603604 0.4963963963963964 0.4315315315315316 0.06756756756756757 0.0009009009009009009 0 0 0 0.01480111008325624 0.5448658649398705 0.4005550416281221 0.03977798334875116 0 0 0 0 0.01517067003792668 0.549936788874842 0.4146649810366625 0.0202275600505689 0 0 0 0 0 0.5147783251231527 0.4852216748768473 0.7553648068669527 0.2203147353361946 0.02432045779685265 0 0 0 0 0.1272015655577299 0.684931506849315 0.1731898238747554 0.01467710371819961 0 0 0 0 0.3375912408759124 0.5593065693430657 0.09306569343065693 0.01003649635036496 0 0 0 0 0.4623871614844534 0.4613841524573721 0.0712136409227683 0.005015045135406218 0 0 0 0.0009505703422053232 0.4619771863117871 0.4600760456273764 0.07509505703422054 0.001901140684410646 0 0 0 0.003432494279176202 0.4610983981693364 0.482837528604119 0.05263157894736842 0 0 0 0 0.008928571428571428 0.4888392857142857 0.5022321428571428 0.6441605839416058 0.3047445255474452 0.04744525547445255 0.001824817518248175 0.001824817518248175 0 0 0.103448275862069 0.6445623342175066 0.2135278514588859 0.03315649867374005 0.005305039787798408 0 0 0 0.2406639004149378 0.558091286307054 0.1680497925311203 0.03215767634854771 0.001037344398340249 0 0 0 0.3357400722021661 0.5042117930204573 0.1359807460890493 0.02406738868832732 0 0 0 0 0.3554987212276215 0.5191815856777494 0.1074168797953964 0.01790281329923274 0 0 0 0 0.3376623376623377 0.5844155844155845 0.07792207792207792 0 0 0 0 0 0.391812865497076 0.6081871345029239 0.6293103448275862 0.2873563218390804 0.08045977011494253 0.002873563218390805 0 0 0 0.06839186691312385 0.5951940850277264 0.288354898336414 0.04436229205175601 0.003696857670979667 0 0 0 0.1942336874051593 0.5993930197268589 0.1578148710166919 0.04248861911987861 0.006069802731411229 0 0 0 0.3097643097643097 0.5286195286195285 0.1346801346801347 0.02693602693602693 0 0 0 0 0.2997987927565393 0.5372233400402415 0.1408450704225352 0.02213279678068411 0 0 0 0.003164556962025316 0.3575949367088608 0.5316455696202531 0.1075949367088608 0 0 0 0 0.005649717514124294 0.3559322033898305 0.6384180790960452 0.6644736842105263 0.3026315789473684 0.03289473684210526 0 0 0 0 0.03278688524590164 0.6338797814207651 0.2622950819672131 0.07103825136612021 0 0 0 0 0.1182795698924731 0.6129032258064516 0.2688172043010753 0 0 0 0 0 0.1167883211678832 0.635036496350365 0.2116788321167883 0.0364963503649635 0 0 0 0 0.1478260869565217 0.6521739130434783 0.2 0 0 0 0 0 0.2075471698113207 0.6792452830188679 0.1132075471698113 0 0 0 0 0 0.2535211267605634 0.7464788732394366 0.7651006711409396 0.2147651006711409 0.02013422818791946 0 0 0 0 0.1753554502369668 0.6777251184834123 0.1469194312796209 0 0 0 0 0 0.4483985765124555 0.4768683274021352 0.07117437722419928 0.003558718861209964 0 0 0 0.01158301158301158 0.4594594594594595 0.4633204633204633 0.06177606177606178 0.003861003861003861 0 0 0 0.03007518796992481 0.537593984962406 0.4022556390977443 0.03007518796992481 0 0 0 0 0.06030150753768844 0.5226130653266332 0.407035175879397 0.01005025125628141 0 0 0 0 0 0.5725190839694656 0.4274809160305343 0.7324840764331211 0.2388535031847134 0.02866242038216561 0 0 0 0 0.1312217194570136 0.6719457013574661 0.1787330316742081 0.01583710407239819 0.002262443438914027 0 0 0 0.2667757774140753 0.574468085106383 0.1358428805237316 0.02127659574468085 0.001636661211129296 0 0 0.00505902192242833 0.3996627318718381 0.4940978077571669 0.09106239460370995 0.008431703204047217 0.001686340640809443 0 0 0.01594896331738437 0.481658692185008 0.4545454545454545 0.04465709728867624 0.003189792663476874 0 0 0 0.009195402298850575 0.5241379310344827 0.4459770114942528 0.02068965517241379 0 0 0 0 0.01123595505617977 0.5093632958801498 0.4794007490636704 0.6737193763919822 0.3073496659242761 0.01893095768374165 0 0 0 0 0.09728308501314636 0.6292725679228747 0.252410166520596 0.021034180543383 0 0 0 0 0.2455089820359282 0.5696107784431138 0.1691616766467066 0.0157185628742515 0 0 0 0.0007558578987150416 0.3227513227513227 0.527588813303099 0.1390778533635676 0.009826152683295541 0 0 0 0.002917578409919767 0.3661560904449307 0.5280816921954777 0.100656455142232 0.002188183807439825 0 0 0 0.002624671916010499 0.373578302712161 0.5765529308836396 0.04724409448818898 0 0 0 0 0 0.4291609353507566 0.5708390646492435 0.6218787158145065 0.3234244946492271 0.04518430439952437 0.009512485136741973 0 0 0 0.0718132854578097 0.6157989228007181 0.2755834829443447 0.03141831238779174 0.005385996409335727 0 0 0 0.2048022598870056 0.6257062146892656 0.1596045197740113 0.009180790960451978 0.0007062146892655367 0 0 0.0007473841554559044 0.2795216741405082 0.5799701046337817 0.1285500747384155 0.01046337817638266 0.0007473841554559044 0 0 0.0007002801120448179 0.3151260504201681 0.5679271708683473 0.1120448179271709 0.004201680672268907 0 0 0 0.002575107296137339 0.3630901287553648 0.5656652360515021 0.06866952789699571 0 0 0 0 0.001501501501501501 0.3828828828828829 0.6156156156156156 0.5891783567134268 0.3286573146292585 0.07014028056112225 0.01202404809619238 0 0 0 0.03421052631578948 0.5868421052631578 0.3065789473684211 0.06578947368421052 0.006578947368421052 0 0 0 0.1544885177453027 0.5897703549060542 0.2004175365344467 0.0521920668058455 0.00313152400835073 0 0 0 0.2069339111592633 0.5666305525460454 0.2015167930660888 0.02491874322860238 0 0 0 0 0.2370225269343781 0.584720861900098 0.1674828599412341 0.01077375122428991 0 0 0 0 0.253315649867374 0.6445623342175066 0.1021220159151194 0 0 0 0 0 0.3348314606741573 0.6651685393258427 0.5638297872340425 0.3546099290780142 0.07092198581560283 0.01063829787234043 0 0 0 0.04554079696394687 0.5009487666034156 0.3870967741935484 0.05882352941176471 0.007590132827324478 0 0 0 0.1581325301204819 0.552710843373494 0.2454819277108434 0.04216867469879518 0.001506024096385542 0 0 0 0.2076069730586371 0.5435816164817749 0.2123613312202853 0.03328050713153724 0.003169572107765452 0 0 0 0.2238095238095238 0.5095238095238095 0.2333333333333333 0.03333333333333333 0 0 0 0 0.2216981132075471 0.6863207547169811 0.09198113207547169 0 0 0 0 0 0.2894736842105263 0.7105263157894737 0.5428571428571428 0.4142857142857143 0.04285714285714286 0 0 0 0 0.01204819277108434 0.427710843373494 0.463855421686747 0.09036144578313253 0.006024096385542169 0 0 0 0.09392265193370165 0.580110497237569 0.287292817679558 0.03867403314917127 0 0 0 0 0.1012658227848101 0.5822784810126582 0.2911392405063291 0.02531645569620253 0 0 0 0 0.1168831168831169 0.564935064935065 0.3051948051948052 0.01298701298701299 0 0 0 0 0.1098901098901099 0.6923076923076924 0.1978021978021978 0 0 0 0 0 0.1914893617021277 0.8085106382978723 0.4545454545454546 0.4090909090909091 0.1363636363636364 0 0 0 0 0.1111111111111111 0.3888888888888888 0.4444444444444444 0.05555555555555555 0 0 0 0 0.5625 0.375 0.0625 0 0 0 0 0 0.4583333333333333 0.4166666666666666 0.125 0 0 0 0 0 0.4347826086956522 0.5652173913043478 0 0 0 0 0 0 0.2222222222222222 0.7777777777777777 0 0 0 0 0 0 0.5714285714285714 0.4285714285714285 0.46875 0.5 0.03125 0 0 0 0 0.04123711340206185 0.5567010309278351 0.3402061855670103 0.06185567010309279 0 0 0 0 0.1655629139072848 0.5827814569536424 0.2384105960264901 0.01324503311258278 0 0 0 0.005617977528089887 0.3707865168539326 0.4662921348314606 0.1404494382022472 0.01685393258426966 0 0 0 0 0.3333333333333334 0.5600000000000001 0.1066666666666667 0 0 0 0 0.008547008547008548 0.4102564102564103 0.4700854700854701 0.1111111111111111 0 0 0 0 0 0.5172413793103449 0.4827586206896551 0.551440329218107 0.4074074074074074 0.03292181069958848 0.00823045267489712 0 0 0 0.03418803418803419 0.5641025641025642 0.3632478632478633 0.03846153846153846 0 0 0 0 0.1564245810055866 0.5810055865921788 0.2206703910614525 0.04189944134078213 0 0 0 0 0.2148760330578512 0.5757575757575758 0.1735537190082645 0.03581267217630854 0 0 0 0 0.2487046632124352 0.5958549222797928 0.1476683937823834 0.007772020725388601 0 0 0 0 0.264 0.656 0.08 0 0 0 0 0 0.2861635220125786 0.7138364779874214 0.5253623188405797 0.4130434782608696 0.06159420289855073 0 0 0 0 0.03761755485893417 0.4952978056426332 0.4294670846394984 0.03761755485893417 0 0 0 0 0.126338329764454 0.5974304068522485 0.2633832976445396 0.01284796573875803 0 0 0 0 0.16796875 0.630859375 0.1953125 0.005859375 0 0 0 0 0.1740890688259109 0.6457489878542511 0.1781376518218624 0.002024291497975709 0 0 0 0.006666666666666666 0.2044444444444445 0.6555555555555556 0.1333333333333333 0 0 0 0 0.003215434083601286 0.2765273311897106 0.7202572347266881 0.4709302325581395 0.4534883720930232 0.05813953488372093 0.01744186046511628 0 0 0 0.01132075471698113 0.4716981132075472 0.4264150943396227 0.07924528301886792 0.01132075471698113 0 0 0 0.06824146981627296 0.6587926509186351 0.2440944881889764 0.02624671916010499 0.002624671916010499 0 0 0 0.1169590643274854 0.6345029239766081 0.2222222222222222 0.01754385964912281 0.008771929824561403 0 0 0 0.1333333333333333 0.6307692307692307 0.2102564102564103 0.02564102564102564 0 0 0 0 0.1776315789473684 0.6743421052631579 0.1480263157894737 0 0 0 0 0 0.2281879194630873 0.7718120805369127 0.4367816091954023 0.3908045977011494 0.1609195402298851 0.01149425287356322 0 0 0 0 0.4609929078014184 0.425531914893617 0.1134751773049645 0 0 0 0 0.109452736318408 0.5223880597014925 0.3383084577114428 0.02985074626865672 0 0 0 0 0.1421319796954315 0.5228426395939086 0.3197969543147208 0.01522842639593909 0 0 0 0 0.1228070175438596 0.5833333333333333 0.2850877192982456 0.008771929824561403 0 0 0 0 0.160427807486631 0.6470588235294117 0.1925133689839572 0 0 0 0 0 0.12 0.88 0.2162162162162162 0.6216216216216217 0.1621621621621622 0 0 0 0 0 0.4615384615384616 0.3653846153846154 0.1730769230769231 0 0 0 0 0.05434782608695652 0.5326086956521739 0.3695652173913043 0.04347826086956522 0 0 0 0 0.04838709677419355 0.6129032258064516 0.2419354838709677 0.09677419354838709 0 0 0 0 0.1694915254237288 0.6101694915254238 0.2203389830508475 0 0 0 0 0 0.1142857142857143 0.6857142857142857 0.2 0 0 0 0 0 0.07142857142857142 0.9285714285714285 0.1428571428571429 0.1428571428571429 0.1428571428571429 0.1428571428571429 0.1428571428571429 0.1428571428571429 0.1428571428571429 0.1428571428571429 0.1428571428571429 0.1428571428571429 0.1428571428571429 0.1428571428571429 0.1428571428571429 0.1428571428571429 0.1428571428571429 0.1428571428571429 0.1428571428571429 0.1428571428571429 0.1428571428571429 0.1428571428571429 0.1428571428571429 0 0 0 0 1 0 0 0 0 0 0 0.5 0.5 0 0.1428571428571429 0.1428571428571429 0.1428571428571429 0.1428571428571429 0.1428571428571429 0.1428571428571429 0.1428571428571429 0.1428571428571429 0.1428571428571429 0.1428571428571429 0.1428571428571429 0.1428571428571429 0.1428571428571429 0.1428571428571429 0.3333333333333333 0.6666666666666666 0 0 0 0 0 0 1 0 0 0 0 0 0 0.1 0.2 0.7000000000000001 0 0 0 0 0 0.3 0.2 0.5 0 0 0 0 0 0.3333333333333333 0.5833333333333333 0.08333333333333333 0 0 0 0 0 0.1666666666666667 0.6666666666666666 0.1666666666666667 0 0 0 0 0 0.2 0.8 0.4444444444444444 0.5555555555555556 0 0 0 0 0 0 0.5333333333333333 0.4 0.06666666666666667 0 0 0 0 0.07407407407407407 0.5555555555555556 0.2962962962962963 0.03703703703703703 0.03703703703703703 0 0 0 0.16 0.6 0.2 0.04 0 0 0 0 0.3421052631578947 0.6052631578947368 0.05263157894736842 0 0 0 0 0 0.25 0.59375 0.15625 0 0 0 0 0 0.25 0.75 0.2 0.8 0 0 0 0 0 0 0.3 0.7000000000000001 0 0 0 0 0 0.03333333333333333 0.6333333333333333 0.2666666666666667 0.06666666666666667 0 0 0 0 0.09375 0.6875 0.21875 0 0 0 0 0 0.1176470588235294 0.6470588235294118 0.2352941176470588 0 0 0 0 0 0.2 0.6666666666666666 0.1333333333333333 0 0 0 0 0 0.1333333333333333 0.8666666666666667 0.5 0.4285714285714285 0 0.07142857142857142 0 0 0 0 0.4074074074074074 0.3703703703703703 0.07407407407407407 0.1111111111111111 0.03703703703703703 0 0 0.02222222222222222 0.5333333333333333 0.4222222222222222 0 0.02222222222222222 0 0 0 0.05714285714285714 0.7714285714285714 0.1428571428571428 0.02857142857142857 0 0 0 0 0.06060606060606061 0.9090909090909092 0.0303030303030303 0 0 0 0 0 0.02702702702702703 0.6756756756756757 0.2972972972972973 0 0 0 0 0 0.3333333333333333 0.6666666666666666 0.2857142857142857 0.2857142857142857 0.4285714285714285 0 0 0 0 0 0.1333333333333333 0.6666666666666666 0.2 0 0 0 0 0.1111111111111111 0.5555555555555556 0.2222222222222222 0.1111111111111111 0 0 0 0 0 0.4 0.4 0.2 0 0 0 0 0.1428571428571428 0.7142857142857142 0.1428571428571428 0 0 0 0 0 0.08333333333333333 0.6666666666666666 0.25 0 0 0 0 0 0 1 0.2857142857142857 0.7142857142857142 0 0 0 0 0 0 0.2 0.8 0 0 0 0 0 0.06666666666666667 0.4 0.4666666666666667 0.06666666666666667 0 0 0 0 0.1428571428571428 0.5714285714285714 0.1428571428571428 0.1428571428571428 0 0 0 0 0.4285714285714285 0.2857142857142857 0.2857142857142857 0 0 0 0 0 0.1666666666666667 0.5 0.3333333333333333 0.1428571428571429 0.1428571428571429 0.1428571428571429 0.1428571428571429 0.1428571428571429 0.1428571428571429 0.1428571428571429 0.1428571428571429 0.1428571428571429 0.1428571428571429 0.1428571428571429 0.1428571428571429 0.1428571428571429 0.1428571428571429 0.1428571428571429 0.1428571428571429 0.1428571428571429 0.1428571428571429 0.1428571428571429 0.1428571428571429 0.1428571428571429 0.1428571428571429 0.1428571428571429 0.1428571428571429 0.1428571428571429 0.1428571428571429 0.1428571428571429 0.1428571428571429 0.1428571428571429 0.1428571428571429 0.1428571428571429 0.1428571428571429 0.1428571428571429 0.1428571428571429 0.1428571428571429 0.1428571428571429 0.1428571428571429 0.1428571428571429 0.1428571428571429 0.1428571428571429 0.1428571428571429 0.1428571428571429 0.1428571428571429 0.1428571428571429 0.1428571428571429 0.1428571428571429 0.1428571428571429 0.1428571428571429 0.1428571428571429 0.1428571428571429 0.1428571428571429 0.1428571428571429 0.1428571428571429 0.1428571428571429 0.1428571428571429 0.1428571428571429 0.1428571428571429 0.1428571428571429 0.1428571428571429 0.1428571428571429 0.1428571428571429 0.1428571428571429 0.1428571428571429 0.1428571428571429 0.1428571428571429 0.1428571428571429 0.1428571428571429 0.1428571428571429 0.1428571428571429 0.1428571428571429 0.1428571428571429 0.1428571428571429 0.1428571428571429 0.1428571428571429 0.1428571428571429 0.1428571428571429 0.1428571428571429 0.1428571428571429 0.1428571428571429 0.1428571428571429 0.1428571428571429 0.1428571428571429 0.1428571428571429 0.1428571428571429 0.1428571428571429 0.1428571428571429 0.1428571428571429 0.1428571428571429 0.1428571428571429 0.1428571428571429 0.1428571428571429 0.1428571428571429 0.1428571428571429 0.1428571428571429 0.1428571428571429 0.1428571428571429 0.1428571428571429 0.1428571428571429 0.1428571428571429 0.1428571428571429 0.1428571428571429 0.1428571428571429 0.1428571428571429 0.1428571428571429 0.1428571428571429 0.1428571428571429 0.1428571428571429 0.1428571428571429 0.1428571428571429 0.1428571428571429 0.1428571428571429 0.1428571428571429 0.1428571428571429 0.1428571428571429 0.1428571428571429 0.1428571428571429 0.1428571428571429 0.1428571428571429 0.1428571428571429 0.1428571428571429 0.1428571428571429 0.1428571428571429 0.1428571428571429 0.1428571428571429 0.1428571428571429 0.1428571428571429 0.1428571428571429 0.1428571428571429 0.1428571428571429 0.1428571428571429 0.1428571428571429 0.1428571428571429 0.1428571428571429 0.1428571428571429 0.1428571428571429 0.1428571428571429 0.1428571428571429 0.1428571428571429 0.1428571428571429 0.1428571428571429 0.1428571428571429 0.1428571428571429 0.1428571428571429 0.1428571428571429 0.1428571428571429 0.1428571428571429 0.1428571428571429 0.1428571428571429 0.1428571428571429 0.1428571428571429 0.1428571428571429 0.1428571428571429 0.1428571428571429 0.1428571428571429 0.1428571428571429 0.1428571428571429 0.1428571428571429 0.1428571428571429 0.1428571428571429 0.1428571428571429 0.1428571428571429 0.1428571428571429 0.1428571428571429 0.1428571428571429 0.1428571428571429 0.1428571428571429 0.1428571428571429 0.1428571428571429 0.1428571428571429 0.1428571428571429 0.1428571428571429 0.1428571428571429 0.1428571428571429 0.1428571428571429 0.1428571428571429 0.1428571428571429 0.1428571428571429 0.1428571428571429 0.1428571428571429 0.1428571428571429 0.1428571428571429 0.1428571428571429 0.1428571428571429 0.1428571428571429 0.1428571428571429 0.1428571428571429 0.1428571428571429 0.1428571428571429 0.1428571428571429 0.1428571428571429 0.1428571428571429 0.1428571428571429 0.1428571428571429 0.1428571428571429 0.1428571428571429 0.1428571428571429 0.1428571428571429 0.1428571428571429 0.1428571428571429 0.1428571428571429 0.1428571428571429 0.1428571428571429 0.1428571428571429 0.1428571428571429 0.1428571428571429 0.1428571428571429 0.1428571428571429 0.1428571428571429 0.1428571428571429 0.1428571428571429 0.1428571428571429 0.1428571428571429 0.1428571428571429 0.1428571428571429 0.1428571428571429 0.1428571428571429 0.1428571428571429 0.1428571428571429 0.1428571428571429 0.1428571428571429 0.1428571428571429 0.1428571428571429 0.1428571428571429 0.1428571428571429 0.1428571428571429 0.1428571428571429 0.1428571428571429 0.1428571428571429 0.1428571428571429 0.1428571428571429 0.1428571428571429 0.1428571428571429 0.1428571428571429 0.1428571428571429 0.1428571428571429 0.1428571428571429 0.1428571428571429 0.1428571428571429 0.1428571428571429 0.1428571428571429 0.1428571428571429 0.1428571428571429 0.1428571428571429 0.1428571428571429 0.1428571428571429 0.1428571428571429 0.1428571428571429 0.1428571428571429 0.1428571428571429 0.1428571428571429 0.1428571428571429 0.1428571428571429 0.1428571428571429 0.1428571428571429 0.1428571428571429 0.1428571428571429 0.1428571428571429 0.1428571428571429 0.1428571428571429 0.1428571428571429 0.1428571428571429 0.1428571428571429 0.1428571428571429 0.1428571428571429 0.1428571428571429 0.1428571428571429 0.1428571428571429 0.1428571428571429 0.1428571428571429 0.1428571428571429 0.1428571428571429 0.1428571428571429 0.1428571428571429 0.1428571428571429 0.1428571428571429 0.1428571428571429 0.1428571428571429 0.1428571428571429 0.1428571428571429 0.1428571428571429 0.1428571428571429 0.1428571428571429 0.1428571428571429 0.1428571428571429 0.1428571428571429 0.1428571428571429 0.1428571428571429 0.1428571428571429 0.1428571428571429 0.1428571428571429 0.1428571428571429 0.1428571428571429 0.1428571428571429 0.1428571428571429 0.1428571428571429 0.1428571428571429 0.1428571428571429 0.1428571428571429 0.1428571428571429 0.1428571428571429 0.1428571428571429 0.1428571428571429 0.1428571428571429 0.1428571428571429 0.1428571428571429 0.1428571428571429 0.1428571428571429 0.1428571428571429 0.1428571428571429 0.1428571428571429 0.1428571428571429 0.1428571428571429 0.1428571428571429 0.1428571428571429 0.1428571428571429 0.1428571428571429 0.1428571428571429 0.1428571428571429 0.1428571428571429 0.1428571428571429 0.1428571428571429 0.1428571428571429 0.1428571428571429 0.1428571428571429 0.1428571428571429 0.1428571428571429 0.1428571428571429 0.1428571428571429 0.1428571428571429 0.1428571428571429 0.1428571428571429 0.1428571428571429 0.1428571428571429 0.1428571428571429 0.1428571428571429 0.1428571428571429 0.1428571428571429 0.1428571428571429 0.1428571428571429 0.1428571428571429 0.1428571428571429 0.1428571428571429 0.1428571428571429 0.1428571428571429 0.1428571428571429 0.1428571428571429 0.1428571428571429 0.1428571428571429 0.1428571428571429 0.1428571428571429 0.1428571428571429 0.1428571428571429 0.1428571428571429 0.1428571428571429 0.1428571428571429 0.1428571428571429 0.1428571428571429 0 1 0 0 0 0 0 0 0.25 0.75 0 0 0 0 0 0 1 0 0 0 0 0 0 0.4 0.4 0.2 0 0 0 0 0 0.6666666666666666 0.3333333333333333 0 0 0 0 0 0 0 0.5714285714285714 0.4285714285714285 1 0 0 0 0 0 0 0.2857142857142857 0.4285714285714285 0.2857142857142857 0 0 0 0 0 0.8571428571428571 0 0.1428571428571428 0 0 0 0 0.06666666666666667 0.7333333333333333 0.2 0 0 0 0 0 0 1 0 0 0 0 0 0 0.1739130434782609 0.6086956521739131 0.2173913043478261 0 0 0 0 0 0.2105263157894737 0.631578947368421 0.1578947368421053 1 0 0 0 0 0 0 0.3684210526315789 0.4736842105263158 0.1578947368421053 0 0 0 0 0 0.8333333333333334 0.1 0.06666666666666667 0 0 0 0 0 0.7755102040816326 0.2244897959183673 0 0 0 0 0 0.01204819277108434 0.855421686746988 0.1325301204819277 0 0 0 0 0 0.05555555555555555 0.8194444444444444 0.125 0 0 0 0 0 0.05263157894736842 0.8771929824561403 0.07017543859649122 1 0 0 0 0 0 0 0.1724137931034483 0.7586206896551724 0.03448275862068965 0 0.03448275862068965 0 0 0 0.4909090909090909 0.4363636363636363 0.07272727272727272 0 0 0 0 0 0.5737704918032788 0.3114754098360656 0.09836065573770492 0.01639344262295082 0 0 0 0 0.691358024691358 0.2716049382716049 0.03703703703703703 0 0 0 0 0 0.6000000000000001 0.3538461538461539 0.04615384615384616 0 0 0 0 0 0.6530612244897959 0.3469387755102041 0.7659574468085106 0.1914893617021277 0.0425531914893617 0 0 0 0 0.1509433962264151 0.7169811320754716 0.09433962264150943 0.03773584905660377 0 0 0 0 0.358974358974359 0.6025641025641025 0.02564102564102564 0.01282051282051282 0 0 0 0 0.4693877551020408 0.3979591836734693 0.1224489795918367 0.01020408163265306 0 0 0 0 0.4786324786324787 0.3931623931623932 0.1282051282051282 0 0 0 0 0 0.4787234042553191 0.4148936170212766 0.1063829787234043 0 0 0 0 0.05172413793103448 0.4310344827586207 0.5172413793103449 0.8909090909090909 0.05454545454545454 0.03636363636363636 0.01818181818181818 0 0 0 0.2253521126760563 0.676056338028169 0.08450704225352113 0.01408450704225352 0 0 0 0 0.2021276595744681 0.7127659574468085 0.07446808510638298 0.01063829787234043 0 0 0 0 0.2380952380952381 0.6984126984126984 0.04761904761904762 0.01587301587301587 0 0 0 0 0.4239130434782609 0.5 0.07608695652173914 0 0 0 0 0 0.5074626865671642 0.4925373134328358 0 0 0 0 0 0 0.6000000000000001 0.4 0.4615384615384616 0.1538461538461539 0.3846153846153846 0 0 0 0 0 0.5652173913043478 0.4347826086956522 0 0 0 0 0 0.1818181818181818 0.3636363636363636 0.2727272727272727 0.1818181818181818 0 0 0 0 0.2 0.5333333333333333 0.1333333333333333 0.1333333333333333 0 0 0 0 0.3076923076923077 0.6153846153846154 0.07692307692307693 0 0 0 0 0 0.5 0.3333333333333333 0.1666666666666667 0 0 0 0 0 0.3333333333333333 0.6666666666666666 1 0 0 0 0 0 0 0 1 0 0 0 0 0 0 0.5 0.3333333333333333 0.1666666666666667 0 0 0 0 0 0.8 0.2 0 0 0 0 0 0 0.7142857142857142 0.2857142857142857 0 0 0 0 0 0 0.8333333333333333 0.1666666666666667 0 0 0 0 0 0 1 0 1 0 0 0 0 0 0 0.5555555555555556 0.4444444444444444 0 0 0 0 0 0 0.5384615384615385 0.3846153846153846 0.07692307692307693 0 0 0 0 0.05555555555555555 0.7222222222222222 0.2222222222222222 0 0 0 0 0 0.07407407407407407 0.6296296296296295 0.2592592592592592 0.03703703703703703 0 0 0 0 0.04761904761904762 0.8095238095238095 0.1428571428571428 0 0 0 0 0 0.2727272727272727 0.5454545454545454 0.1818181818181818 1 0 0 0 0 0 0 0.5 0.4444444444444444 0.05555555555555555 0 0 0 0 0 0.7674418604651163 0.2093023255813953 0.02325581395348837 0 0 0 0 0 0.5625 0.34375 0.09375 0 0 0 0 0.04166666666666666 0.75 0.1458333333333333 0.0625 0 0 0 0 0.04878048780487805 0.7560975609756098 0.1951219512195122 0 0 0 0 0 0 0.7142857142857143 0.2857142857142857 0.9545454545454546 0.04545454545454546 0 0 0 0 0 0.4594594594594595 0.4864864864864865 0.05405405405405406 0 0 0 0 0 0.5238095238095237 0.3492063492063492 0.126984126984127 0 0 0 0 0 0.6417910447761194 0.2985074626865671 0.05970149253731343 0 0 0 0 0.01265822784810127 0.5949367088607594 0.3164556962025317 0.0759493670886076 0 0 0 0 0 0.5671641791044776 0.3432835820895522 0.08955223880597014 0 0 0 0 0.03448275862068965 0.6206896551724138 0.3448275862068966 0.9473684210526315 0.05263157894736842 0 0 0 0 0 0.15625 0.7083333333333333 0.1145833333333333 0.02083333333333333 0 0 0 0 0.3846153846153846 0.5307692307692308 0.07692307692307693 0.007692307692307693 0 0 0 0 0.4416666666666667 0.4583333333333333 0.09166666666666666 0.008333333333333333 0 0 0 0 0.4645669291338583 0.4645669291338583 0.07086614173228346 0 0 0 0 0 0.4645669291338583 0.4645669291338583 0.07086614173228346 0 0 0 0 0 0.358974358974359 0.641025641025641 0.8591549295774648 0.09859154929577466 0.04225352112676056 0 0 0 0 0.126984126984127 0.6904761904761905 0.1507936507936508 0.02380952380952381 0.007936507936507936 0 0 0 0.3775510204081632 0.5102040816326531 0.09183673469387754 0.02040816326530612 0 0 0 0 0.4302325581395349 0.5116279069767442 0.04069767441860465 0.01744186046511628 0 0 0 0 0.4893617021276596 0.4326241134751773 0.05673758865248227 0.02127659574468085 0 0 0 0.01111111111111111 0.4222222222222222 0.5111111111111112 0.05555555555555556 0 0 0 0 0 0.5689655172413793 0.4310344827586207 0.8250000000000001 0.175 0 0 0 0 0 0.07272727272727272 0.6363636363636364 0.2181818181818182 0.05454545454545454 0.01818181818181818 0 0 0 0.08045977011494253 0.7241379310344828 0.1724137931034483 0.02298850574712644 0 0 0 0 0.1754385964912281 0.7368421052631579 0.08771929824561403 0 0 0 0 0 0.1176470588235294 0.7647058823529411 0.1176470588235294 0 0 0 0 0 0.1666666666666667 0.7916666666666666 0.04166666666666666 0 0 0 0 0 0.1333333333333333 0.8666666666666667 1 0 0 0 0 0 0 0.2 0.8 0 0 0 0 0 0 0.3333333333333333 0.5 0.1666666666666667 0 0 0 0 0 0.3333333333333333 0.6666666666666666 0 0 0 0 0 0 1 0 0 0 0 0 0 0 0.6000000000000001 0.4 0 0 0 0 0 0 1 0 1 0 0 0 0 0 0 0.7058823529411764 0.2941176470588235 0 0 0 0 0 0 0.7777777777777777 0.2222222222222222 0 0 0 0 0 0 0.8181818181818182 0.1818181818181818 0 0 0 0 0 0 0.6428571428571428 0.3571428571428571 0 0 0 0 0 0.1333333333333333 0.5333333333333333 0.3333333333333333 0 0 0 0 0 0.2222222222222222 0.4444444444444444 0.3333333333333333 1 0 0 0 0 0 0 0.4 0.6 0 0 0 0 0 0 0.3636363636363636 0.6363636363636364 0 0 0 0 0 0 0.7450980392156863 0.2549019607843137 0 0 0 0 0 0.05882352941176471 0.7058823529411764 0.1764705882352941 0.05882352941176471 0 0 0 0 0.0975609756097561 0.6829268292682927 0.2195121951219512 0 0 0 0 0 0.2 0.6666666666666666 0.1333333333333333 0.9285714285714285 0.07142857142857142 0 0 0 0 0 0.25 0.6428571428571428 0.1071428571428571 0 0 0 0 0 0.4516129032258064 0.4838709677419355 0.06451612903225806 0 0 0 0 0.0136986301369863 0.6575342465753424 0.2465753424657534 0.0684931506849315 0.0136986301369863 0 0 0 0.01388888888888889 0.5277777777777778 0.375 0.06944444444444445 0.01388888888888889 0 0 0 0.04 0.46 0.46 0.04 0 0 0 0 0.03448275862068965 0.3793103448275862 0.5862068965517241 0.972972972972973 0.02702702702702703 0 0 0 0 0 0.1458333333333333 0.7291666666666666 0.125 0 0 0 0 0 0.2719298245614035 0.5526315789473684 0.1228070175438596 0.05263157894736842 0 0 0 0 0.4342105263157894 0.5 0.03289473684210526 0.03289473684210526 0 0 0 0 0.3865030674846626 0.5337423312883436 0.07975460122699386 0 0 0 0 0 0.4778761061946902 0.4690265486725664 0.05309734513274336 0 0 0 0 0 0.4133333333333334 0.5866666666666667 0.6309523809523809 0.1785714285714285 0.1785714285714285 0.0119047619047619 0 0 0 0.1282051282051282 0.7008547008547009 0.09401709401709403 0.05982905982905984 0.0170940170940171 0 0 0 0.2918660287081339 0.6028708133971291 0.08612440191387559 0.01913875598086124 0 0 0 0 0.3567567567567568 0.5243243243243243 0.1027027027027027 0.01621621621621622 0 0 0 0 0.4840425531914894 0.425531914893617 0.0797872340425532 0.01063829787234043 0 0 0 0 0.4728682170542636 0.4573643410852713 0.06976744186046512 0 0 0 0 0 0.5853658536585367 0.4146341463414634 0.6486486486486487 0.3513513513513514 0 0 0 0 0 0.01538461538461539 0.6923076923076923 0.2615384615384616 0.03076923076923077 0 0 0 0 0.2061855670103093 0.5979381443298969 0.1752577319587629 0.02061855670103093 0 0 0 0 0.2424242424242424 0.595959595959596 0.1212121212121212 0.04040404040404041 0 0 0 0 0.2444444444444445 0.5333333333333333 0.2222222222222222 0 0 0 0 0 0.2372881355932203 0.559322033898305 0.2033898305084746 0 0 0 0 0 0.2857142857142857 0.7142857142857143 0.625 0.3035714285714285 0.07142857142857142 0 0 0 0 0.08333333333333333 0.4305555555555555 0.4444444444444444 0.04166666666666666 0 0 0 0 0.1911764705882353 0.7058823529411764 0.07352941176470588 0.02941176470588235 0 0 0 0 0.3125 0.515625 0.171875 0 0 0 0 0 0.3220338983050847 0.5084745762711864 0.1694915254237288 0 0 0 0 0 0.375 0.5714285714285714 0.05357142857142857 0 0 0 0 0 0.6551724137931034 0.3448275862068966 0.6875 0.28125 0.03125 0 0 0 0 0.06666666666666667 0.7111111111111111 0.2222222222222222 0 0 0 0 0 0.1777777777777778 0.5333333333333333 0.1777777777777778 0.1111111111111111 0 0 0 0.03846153846153846 0.3653846153846154 0.5192307692307693 0.0576923076923077 0.01923076923076923 0 0 0 0.0851063829787234 0.5957446808510638 0.2553191489361702 0.06382978723404255 0 0 0 0 0.03225806451612903 0.5161290322580645 0.4516129032258064 0 0 0 0 0 0.1666666666666667 0.5555555555555556 0.2777777777777778 0.6 0.2857142857142857 0.1142857142857143 0 0 0 0 0.1616161616161616 0.4646464646464647 0.2525252525252525 0.1212121212121212 0 0 0 0 0.2846153846153846 0.3538461538461539 0.2769230769230769 0.08461538461538462 0 0 0 0 0.3333333333333333 0.4324324324324325 0.2252252252252252 0.009009009009009009 0 0 0 0 0.3364485981308411 0.4579439252336448 0.1775700934579439 0.02803738317757009 0 0 0 0 0.3372093023255814 0.5813953488372093 0.08139534883720931 0 0 0 0 0 0.5588235294117647 0.4411764705882353 0.4626865671641791 0.3134328358208955 0.2238805970149254 0 0 0 0 0.1157894736842105 0.4631578947368421 0.3789473684210526 0.03157894736842105 0.01052631578947368 0 0 0 0.361344537815126 0.319327731092437 0.3025210084033613 0.01680672268907563 0 0 0 0.008695652173913044 0.3130434782608696 0.4260869565217391 0.2347826086956522 0.01739130434782609 0 0 0 0.0072992700729927 0.3284671532846715 0.4160583941605839 0.2262773722627737 0.0218978102189781 0 0 0 0 0.4150943396226415 0.3773584905660377 0.2075471698113207 0 0 0 0 0 0.5416666666666666 0.4583333333333333 0.4666666666666667 0.2666666666666667 0.1666666666666667 0.08333333333333333 0.01666666666666667 0 0 0.0576923076923077 0.5961538461538461 0.2596153846153846 0.06730769230769232 0.01923076923076923 0 0 0 0.2294117647058823 0.5294117647058824 0.1941176470588235 0.04705882352941176 0 0 0 0 0.2631578947368421 0.5592105263157895 0.131578947368421 0.03289473684210526 0.0131578947368421 0 0 0.00546448087431694 0.360655737704918 0.4918032786885246 0.1256830601092896 0.01639344262295082 0 0 0 0 0.3875 0.5 0.1125 0 0 0 0 0.02 0.44 0.54 0.7931034482758621 0.1839080459770115 0.02298850574712644 0 0 0 0 0.07874015748031496 0.6771653543307087 0.1653543307086614 0.07874015748031496 0 0 0 0 0.2307692307692308 0.5846153846153846 0.1538461538461539 0.02564102564102564 0.005128205128205128 0 0 0 0.2941176470588235 0.5176470588235293 0.1470588235294118 0.04117647058823529 0 0 0 0 0.3529411764705882 0.5133689839572192 0.1176470588235294 0.0160427807486631 0 0 0 0 0.3743016759776536 0.553072625698324 0.07262569832402235 0 0 0 0 0 0.4432989690721649 0.5567010309278351 0.8095238095238095 0.1666666666666667 0.02380952380952381 0 0 0 0 0.03614457831325302 0.7951807228915663 0.1325301204819277 0.02409638554216868 0.01204819277108434 0 0 0 0.06617647058823529 0.7205882352941176 0.1985294117647059 0.01470588235294118 0 0 0 0 0.282442748091603 0.5267175572519084 0.1603053435114504 0.03053435114503817 0 0 0 0 0.2338709677419355 0.5403225806451613 0.2096774193548387 0.01612903225806452 0 0 0 0 0.2125 0.675 0.1125 0 0 0 0 0 0.2280701754385965 0.7719298245614035 0.5 0.4259259259259259 0.07407407407407407 0 0 0 0 0.06015037593984962 0.4962406015037594 0.3684210526315789 0.07518796992481203 0 0 0 0 0.1025641025641026 0.6 0.2974358974358974 0 0 0 0 0 0.1855670103092784 0.5824742268041238 0.2216494845360825 0.01030927835051546 0 0 0 0.004975124378109453 0.2985074626865671 0.582089552238806 0.1144278606965174 0 0 0 0 0.007142857142857143 0.3214285714285714 0.5499999999999999 0.1214285714285714 0 0 0 0 0 0.425531914893617 0.5744680851063829 0.5632183908045977 0.3333333333333333 0.103448275862069 0 0 0 0 0.1578947368421053 0.4736842105263158 0.3263157894736842 0.04210526315789474 0 0 0 0 0.2356687898089172 0.5414012738853503 0.1910828025477707 0.03184713375796178 0 0 0 0.00625 0.225 0.5437500000000001 0.19375 0.03125 0 0 0 0.01025641025641026 0.2461538461538462 0.4820512820512821 0.2205128205128205 0.04102564102564103 0 0 0 0.007194244604316547 0.3453237410071943 0.539568345323741 0.1079136690647482 0 0 0 0 0.02061855670103093 0.4639175257731959 0.5154639175257731 0.5238095238095237 0.3611111111111111 0.0992063492063492 0.01587301587301587 0 0 0 0.06910569105691057 0.3699186991869919 0.475609756097561 0.07317073170731708 0.01219512195121951 0 0 0 0.1310541310541311 0.49002849002849 0.3219373219373219 0.05413105413105413 0.002849002849002849 0 0 0.002597402597402597 0.1350649350649351 0.4857142857142857 0.3272727272727273 0.04935064935064935 0 0 0 0.005698005698005698 0.1652421652421653 0.5213675213675214 0.2763532763532764 0.03133903133903134 0 0 0 0.003003003003003003 0.1921921921921922 0.6516516516516516 0.1531531531531531 0 0 0 0 0 0.2352941176470588 0.7647058823529411 0.4137931034482759 0.4099616858237548 0.157088122605364 0.01915708812260536 0 0 0 0.05660377358490566 0.3423180592991914 0.4663072776280324 0.1347708894878706 0 0 0 0 0.1200980392156863 0.4338235294117647 0.3848039215686275 0.06127450980392157 0 0 0 0 0.1218961625282167 0.4356659142212189 0.3792325056433408 0.06320541760722347 0 0 0 0 0.1756756756756757 0.4594594594594594 0.3378378378378378 0.02702702702702703 0 0 0 0.005115089514066497 0.1790281329923274 0.5907928388746804 0.2250639386189258 0 0 0 0 0.004291845493562232 0.2360515021459227 0.7596566523605151 0.4426229508196721 0.3715846994535519 0.1420765027322404 0.03825136612021858 0.00546448087431694 0 0 0.07661290322580645 0.3790322580645161 0.3911290322580645 0.1491935483870968 0.004032258064516129 0 0 0 0.12 0.4571428571428571 0.3028571428571429 0.09714285714285714 0.02285714285714286 0 0 0 0.1666666666666667 0.459016393442623 0.273224043715847 0.08469945355191257 0.01639344262295082 0 0 0 0.2076923076923077 0.5025641025641026 0.241025641025641 0.04871794871794872 0 0 0 0.003205128205128205 0.2403846153846154 0.5833333333333333 0.1730769230769231 0 0 0 0 0 0.2407407407407407 0.7592592592592592 0.61 0.26 0.09 0.04 0 0 0 0.04294478527607362 0.5030674846625767 0.3374233128834356 0.09202453987730061 0.0245398773006135 0 0 0 0.1535433070866142 0.5866141732283464 0.2125984251968504 0.04330708661417323 0.003937007874015748 0 0 0 0.2114695340501792 0.5770609318996416 0.1720430107526882 0.03225806451612903 0.007168458781362007 0 0 0 0.2632978723404255 0.5372340425531915 0.1728723404255319 0.02659574468085106 0 0 0 0 0.368 0.5 0.132 0 0 0 0 0 0.3333333333333333 0.6666666666666666 0.5303030303030303 0.3636363636363636 0.09090909090909091 0.01515151515151515 0 0 0 0.009708737864077669 0.4757281553398058 0.4466019417475728 0.06796116504854369 0 0 0 0 0.08163265306122448 0.6122448979591837 0.2721088435374149 0.03401360544217687 0 0 0 0 0.1180124223602484 0.5714285714285714 0.2981366459627329 0.0124223602484472 0 0 0 0 0.2034883720930233 0.5523255813953488 0.2151162790697674 0.02906976744186046 0 0 0 0 0.176 0.616 0.208 0 0 0 0 0 0.1944444444444444 0.8055555555555555 0.5660377358490566 0.3962264150943396 0.03773584905660377 0 0 0 0 0.02247191011235955 0.4719101123595505 0.4157303370786517 0.07865168539325842 0.01123595505617977 0 0 0 0.09375 0.578125 0.2890625 0.0390625 0 0 0 0 0.25 0.4354838709677419 0.2741935483870968 0.04032258064516129 0 0 0 0 0.1888111888111888 0.6433566433566433 0.1678321678321678 0 0 0 0 0.008064516129032258 0.282258064516129 0.5967741935483871 0.1129032258064516 0 0 0 0 0 0.3369565217391304 0.6630434782608695 0.6153846153846154 0.3846153846153846 0 0 0 0 0 0.4054054054054054 0.3243243243243243 0.2432432432432433 0.02702702702702703 0 0 0 0 0.4693877551020408 0.2857142857142857 0.2244897959183673 0.02040816326530612 0 0 0 0.08333333333333333 0.3194444444444444 0.375 0.2083333333333333 0.01388888888888889 0 0 0 0 0.25 0.5333333333333333 0.2 0.01666666666666667 0 0 0 0 0.2916666666666666 0.5 0.2083333333333333 0 0 0 0 0 0.186046511627907 0.813953488372093 0.5490196078431373 0.2156862745098039 0.196078431372549 0.0392156862745098 0 0 0 0.08771929824561403 0.2894736842105263 0.4649122807017544 0.1228070175438596 0.03508771929824561 0 0 0 0.1235294117647059 0.3176470588235294 0.3411764705882353 0.2058823529411765 0.01176470588235294 0 0 0 0.1530612244897959 0.3979591836734693 0.3163265306122449 0.1275510204081633 0.00510204081632653 0 0 0.004807692307692308 0.1923076923076923 0.4230769230769231 0.3269230769230769 0.05288461538461539 0 0 0 0.00546448087431694 0.2513661202185792 0.4972677595628415 0.2459016393442623 0 0 0 0 0.0119047619047619 0.2678571428571428 0.7202380952380952 0.3440860215053764 0.5161290322580645 0.1290322580645161 0.01075268817204301 0 0 0 0.05357142857142857 0.3214285714285714 0.5178571428571428 0.08928571428571427 0.01785714285714286 0 0 0 0.1216730038022814 0.3954372623574144 0.3688212927756654 0.1102661596958175 0.003802281368821293 0 0 0 0.1157894736842105 0.4350877192982456 0.3684210526315789 0.08070175438596491 0 0 0 0 0.141566265060241 0.5632530120481928 0.286144578313253 0.009036144578313254 0 0 0 0 0.180722891566265 0.57429718875502 0.2449799196787148 0 0 0 0 0 0.1422018348623853 0.8577981651376148 0.4716981132075472 0.3490566037735849 0.160377358490566 0.01886792452830189 0 0 0 0.03355704697986577 0.4429530201342282 0.3892617449664429 0.1208053691275168 0.01342281879194631 0 0 0 0.09844559585492228 0.3989637305699482 0.38860103626943 0.1036269430051814 0.01036269430051814 0 0 0 0.08860759493670885 0.4852320675105485 0.3628691983122362 0.06329113924050632 0 0 0 0 0.1033434650455927 0.5197568389057751 0.3556231003039514 0.02127659574468085 0 0 0 0 0.1563636363636364 0.5418181818181819 0.3018181818181818 0 0 0 0 0 0.1437125748502994 0.8562874251497007 0.6477272727272727 0.2840909090909091 0.04545454545454546 0.02272727272727273 0 0 0 0.04285714285714286 0.35 0.3785714285714286 0.2071428571428571 0.02142857142857143 0 0 0 0.1090909090909091 0.5863636363636363 0.2090909090909091 0.09545454545454544 0 0 0 0 0.1538461538461539 0.5470085470085471 0.217948717948718 0.0811965811965812 0 0 0 0 0.1387755102040816 0.4979591836734694 0.3183673469387756 0.04489795918367347 0 0 0 0 0.2022471910112359 0.6179775280898876 0.1797752808988764 0 0 0 0 0 0.1875 0.8125 0.45 0.4125 0.1375 0 0 0 0 0.01123595505617977 0.4269662921348314 0.4157303370786517 0.1460674157303371 0 0 0 0 0.08843537414965986 0.4081632653061225 0.3265306122448979 0.1768707482993197 0 0 0 0 0.09248554913294797 0.4393063583815029 0.3757225433526011 0.09248554913294797 0 0 0 0 0.1024096385542169 0.5240963855421688 0.3493975903614458 0.02409638554216868 0 0 0 0 0.07142857142857142 0.6696428571428571 0.2589285714285714 0 0 0 0 0 0.2264150943396226 0.7735849056603773 0.1428571428571429 0.1428571428571429 0.1428571428571429 0.1428571428571429 0.1428571428571429 0.1428571428571429 0.1428571428571429 0 0.3333333333333333 0.6666666666666666 0 0 0 0 0 0.1111111111111111 0.4444444444444444 0.2222222222222222 0.2222222222222222 0 0 0 0 0.1 0.4 0.2 0.3 0 0 0 0 0.1111111111111111 0.2222222222222222 0.2222222222222222 0.4444444444444444 0 0 0 0 0.2222222222222222 0.5555555555555556 0.2222222222222222 0 0 0 0 0 0.4 0.6000000000000001 0.1428571428571429 0.1428571428571429 0.1428571428571429 0.1428571428571429 0.1428571428571429 0.1428571428571429 0.1428571428571429 1 0 0 0 0 0 0 0.1428571428571429 0.1428571428571429 0.1428571428571429 0.1428571428571429 0.1428571428571429 0.1428571428571429 0.1428571428571429 0.1428571428571429 0.1428571428571429 0.1428571428571429 0.1428571428571429 0.1428571428571429 0.1428571428571429 0.1428571428571429 0 0 0 0 1 0 0 0 0 0 0 1 0 0 0 0 0 0 0 0 1 1 0 0 0 0 0 0 0.5 0 0.5 0 0 0 0 0 0 0.3333333333333333 0.6666666666666666 0 0 0 0 0 0.2 0.2 0.4 0.2 0 0 0 0 0.1666666666666667 0.6666666666666666 0.1666666666666667 0 0 0 0 0 0.1 0.6000000000000001 0.3 0 0 0 0 0 0 1 0.3333333333333333 0.3333333333333333 0 0.3333333333333333 0 0 0 0 0.1666666666666667 0 0.1666666666666667 0.6666666666666666 0 0 0 0.25 0.125 0.375 0.125 0.125 0 0 0 0.2222222222222222 0.3333333333333333 0.4444444444444444 0 0 0 0 0 0 0.2142857142857143 0.6428571428571428 0.1428571428571428 0 0 0 0 0 0.375 0.625 0 0 0 0 0 0 1 0 1 0 0 0 0 0 0 0.3333333333333333 0.5 0.1666666666666667 0 0 0 0 0.1428571428571428 0.2857142857142857 0.4285714285714285 0.1428571428571428 0 0 0 0 0.1 0.4 0.4 0.1 0 0 0 0 0 0.6 0.2666666666666667 0.1333333333333333 0 0 0 0 0.07142857142857142 0.5714285714285714 0.3571428571428571 0 0 0 0 0 0.1111111111111111 0.8888888888888888 0 0.6666666666666666 0.3333333333333333 0 0 0 0 0 0.3333333333333333 0.2 0.4666666666666667 0 0 0 0 0 0.4615384615384616 0.4615384615384616 0.07692307692307693 0 0 0 0 0.06666666666666667 0.2 0.6666666666666666 0.06666666666666667 0 0 0 0 0 0.2105263157894737 0.6842105263157894 0.1052631578947368 0 0 0 0 0 0.6666666666666666 0.3333333333333333 0 0 0 0 0 0.07692307692307693 0.9230769230769231 0 0.5 0 0.5 0 0 0 0 0 1 0 0 0 0 0 0 0.3333333333333333 0.4444444444444444 0.2222222222222222 0 0 0 0 0.04166666666666666 0.2083333333333333 0.375 0.375 0 0 0 0 0 0.25 0.6000000000000001 0.15 0 0 0 0 0 0.5882352941176471 0.4117647058823529 0 0 0 0 0 0 1 0.1428571428571429 0.1428571428571429 0.1428571428571429 0.1428571428571429 0.1428571428571429 0.1428571428571429 0.1428571428571429 0.1428571428571429 0.1428571428571429 0.1428571428571429 0.1428571428571429 0.1428571428571429 0.1428571428571429 0.1428571428571429 0.1428571428571429 0.1428571428571429 0.1428571428571429 0.1428571428571429 0.1428571428571429 0.1428571428571429 0.1428571428571429 0.1428571428571429 0.1428571428571429 0.1428571428571429 0.1428571428571429 0.1428571428571429 0.1428571428571429 0.1428571428571429 0.1428571428571429 0.1428571428571429 0.1428571428571429 0.1428571428571429 0.1428571428571429 0.1428571428571429 0.1428571428571429 0.1428571428571429 0.1428571428571429 0.1428571428571429 0.1428571428571429 0.1428571428571429 0.1428571428571429 0.1428571428571429 0.1428571428571429 0.1428571428571429 0.1428571428571429 0.1428571428571429 0.1428571428571429 0.1428571428571429 0.1428571428571429 0.1428571428571429 0.1428571428571429 0.1428571428571429 0.1428571428571429 0.1428571428571429 0.1428571428571429 0.1428571428571429 0.5 0.5 0 0 0 0 0 0 0 1 0 0 0 0 0 0.5 0.5 0 0 0 0 0 0 0 1 0 0 0 0 0 0 0 1 0 0 0 0 0 0 0 0.8 0.2 1 0 0 0 0 0 0 0.6000000000000001 0.4 0 0 0 0 0 0 0.7142857142857142 0.2857142857142857 0 0 0 0 0 0 1 0 0 0 0 0 0 0.2 0.8 0 0 0 0 0 0 0.1428571428571428 0.8571428571428571 0 0 0 0 0 0 0 1 0 0.8 0.2 0 0 0 0 0 0.4 0.5 0.1 0 0 0 0 0 0.5 0.5 0 0 0 0 0 0 0.6666666666666666 0.3333333333333333 0 0 0 0 0 0.125 0.5 0.25 0.125 0 0 0 0 0 1 0 0 0 0 0 0 0 1 0 0.7142857142857142 0.2142857142857143 0.07142857142857142 0 0 0 0 0.3157894736842105 0.4736842105263158 0.2105263157894737 0 0 0 0 0 0.3888888888888888 0.5555555555555556 0.05555555555555555 0 0 0 0 0 0.375 0.625 0 0 0 0 0 0 0.4666666666666667 0.3333333333333333 0.2 0 0 0 0 0 0.4545454545454546 0.3636363636363636 0.1818181818181818 0 0 0 0 0 0.5294117647058824 0.4705882352941176 0.8823529411764706 0.05882352941176471 0.05882352941176471 0 0 0 0 0.1428571428571428 0.6666666666666666 0.1904761904761905 0 0 0 0 0 0.3214285714285714 0.6428571428571428 0.03571428571428571 0 0 0 0 0 0.2105263157894737 0.7368421052631579 0.05263157894736842 0 0 0 0 0 0.75 0.25 0 0 0 0 0 0 0.4666666666666667 0.5333333333333333 0 0 0 0 0 0 0.7777777777777777 0.2222222222222222 0.5555555555555556 0.3333333333333333 0.1111111111111111 0 0 0 0 0 0.75 0.25 0 0 0 0 0 0.1428571428571428 0.4285714285714285 0.2857142857142857 0.1428571428571428 0 0 0 0 0.6666666666666666 0.3333333333333333 0 0 0 0 0 0 0.4 0.2 0.4 0 0 0 0 0 0.5 0 0.5 0 0 0 0 0 0.2 0.8 1 0 0 0 0 0 0 0 1 0 0 0 0 0 0.1428571428571429 0.1428571428571429 0.1428571428571429 0.1428571428571429 0.1428571428571429 0.1428571428571429 0.1428571428571429 0.1428571428571429 0.1428571428571429 0.1428571428571429 0.1428571428571429 0.1428571428571429 0.1428571428571429 0.1428571428571429 0.1428571428571429 0.1428571428571429 0.1428571428571429 0.1428571428571429 0.1428571428571429 0.1428571428571429 0.1428571428571429 0.1428571428571429 0.1428571428571429 0.1428571428571429 0.1428571428571429 0.1428571428571429 0.1428571428571429 0.1428571428571429 0.1428571428571429 0.1428571428571429 0.1428571428571429 0.1428571428571429 0.1428571428571429 0.1428571428571429 0.1428571428571429 1 0 0 0 0 0 0 0.6666666666666666 0.3333333333333333 0 0 0 0 0 0 0 1 0 0 0 0 0 0 1 0 0 0 0 0 0 0 0.6666666666666666 0.3333333333333333 0 0 0 0 0 0 0.75 0.25 0 0 0 0 0 0 0.5714285714285714 0.4285714285714285 1 0 0 0 0 0 0 0.3 0.7000000000000001 0 0 0 0 0 0 1 0 0 0 0 0 0 0 0.75 0.25 0 0 0 0 0 0 1 0 0 0 0 0 0 0 0.8571428571428571 0.1428571428571428 0 0 0 0 0 0 0.8333333333333333 0.1666666666666667 1 0 0 0 0 0 0 0.5454545454545454 0.4545454545454546 0 0 0 0 0 0 0.6785714285714285 0.25 0.07142857142857142 0 0 0 0 0 0.7142857142857142 0.2857142857142857 0 0 0 0 0 0 0.8095238095238095 0.1904761904761905 0 0 0 0 0 0.08695652173913043 0.7826086956521738 0.1304347826086956 0 0 0 0 0 0.03703703703703703 0.4444444444444444 0.5185185185185185 0.9333333333333333 0.06666666666666667 0 0 0 0 0 0.1176470588235294 0.7647058823529411 0.1176470588235294 0 0 0 0 0 0.5 0.4318181818181818 0.06818181818181818 0 0 0 0 0 0.4166666666666666 0.5277777777777778 0.05555555555555555 0 0 0 0 0 0.4666666666666667 0.4444444444444445 0.08888888888888889 0 0 0 0 0 0.4615384615384616 0.3846153846153846 0.1538461538461539 0 0 0 0 0 0.5 0.5 0.8636363636363636 0.1363636363636364 0 0 0 0 0 0.125 0.6875 0.15625 0.03125 0 0 0 0 0.4307692307692308 0.5230769230769231 0.04615384615384616 0 0 0 0 0 0.3787878787878788 0.5151515151515151 0.09090909090909091 0.01515151515151515 0 0 0 0 0.513157894736842 0.4078947368421053 0.06578947368421052 0.0131578947368421 0 0 0 0 0.5272727272727272 0.4 0.07272727272727272 0 0 0 0 0 0.6363636363636364 0.3636363636363636 0.75 0.25 0 0 0 0 0 0.1304347826086956 0.7391304347826086 0.08695652173913043 0.04347826086956522 0 0 0 0 0.1481481481481481 0.7407407407407407 0.1111111111111111 0 0 0 0 0 0.1666666666666667 0.4444444444444444 0.3333333333333333 0.05555555555555555 0 0 0 0 0 0.6428571428571428 0.3571428571428571 0 0 0 0 0 0.1111111111111111 0.8333333333333333 0.05555555555555555 0 0 0 0 0 0.2222222222222222 0.7777777777777777 0.1428571428571429 0.1428571428571429 0.1428571428571429 0.1428571428571429 0.1428571428571429 0.1428571428571429 0.1428571428571429 0 1 0 0 0 0 0 0 0.5 0.5 0 0 0 0 0 0 0 1 0 0 0 0 0 0 1 0 0 0 0 0 0 0 1 0 0 0 0 0 0 0 1 0 1 0 0 0 0 0 0 1 0 0 0 0 0 0 0 1 0 0 0 0 0 0 0.25 0.75 0 0 0 0 0 0 0 1 0 0 0 0 0 0 0 0.5 0.5 0 0 0 0 0 0 0.8 0.2 1 0 0 0 0 0 0 0.1428571428571428 0.8571428571428571 0 0 0 0 0 0 0.5714285714285714 0.4285714285714285 0 0 0 0 0 0 0.7777777777777777 0.2222222222222222 0 0 0 0 0 0 0.8 0.2 0 0 0 0 0 0 0.8888888888888888 0.1111111111111111 0 0 0 0 0 0 0.6923076923076923 0.3076923076923077 1 0 0 0 0 0 0 0.07692307692307693 0.9230769230769231 0 0 0 0 0 0 0.7 0.2 0.06666666666666667 0.03333333333333333 0 0 0 0 0.64 0.28 0.08 0 0 0 0 0 0.6451612903225806 0.3225806451612903 0.03225806451612903 0 0 0 0 0 0.8064516129032258 0.1935483870967742 0 0 0 0 0 0 0.65 0.35 0.9230769230769231 0.07692307692307693 0 0 0 0 0 0.1764705882352941 0.7647058823529411 0.05882352941176471 0 0 0 0 0 0.4583333333333333 0.5 0.04166666666666666 0 0 0 0 0 0.4444444444444445 0.5111111111111112 0.04444444444444445 0 0 0 0 0 0.5172413793103449 0.4482758620689655 0.03448275862068965 0 0 0 0 0 0.6229508196721312 0.3770491803278689 0 0 0 0 0 0 0.4418604651162791 0.5581395348837209 0.8095238095238095 0.1428571428571428 0 0.04761904761904762 0 0 0 0.2093023255813953 0.6511627906976745 0.1395348837209302 0 0 0 0 0 0.2456140350877193 0.7192982456140351 0.03508771929824561 0 0 0 0 0 0.3670886075949367 0.5822784810126582 0.0379746835443038 0.01265822784810127 0 0 0 0 0.4347826086956522 0.4608695652173913 0.1043478260869565 0 0 0 0 0 0.4302325581395349 0.5 0.06976744186046512 0 0 0 0 0 0.5897435897435898 0.4102564102564102 0.92 0.08 0 0 0 0 0 0 0.8 0.2 0 0 0 0 0 0.2647058823529412 0.7058823529411764 0.02941176470588235 0 0 0 0 0 0.3157894736842105 0.631578947368421 0.05263157894736842 0 0 0 0 0 0.3695652173913043 0.5652173913043478 0.06521739130434782 0 0 0 0 0 0.3478260869565217 0.5652173913043478 0.08695652173913043 0 0 0 0 0 0.3333333333333333 0.6666666666666666 0.1428571428571429 0.1428571428571429 0.1428571428571429 0.1428571428571429 0.1428571428571429 0.1428571428571429 0.1428571428571429 0 1 0 0 0 0 0 0.1428571428571429 0.1428571428571429 0.1428571428571429 0.1428571428571429 0.1428571428571429 0.1428571428571429 0.1428571428571429 0 0 0.5 0.5 0 0 0 0 0 0 0.5 0.5 0 0 0 0 0 0 0.7142857142857142 0.2857142857142857 0 0 0 0 0 0 0.6666666666666666 0.3333333333333333 0.1428571428571429 0.1428571428571429 0.1428571428571429 0.1428571428571429 0.1428571428571429 0.1428571428571429 0.1428571428571429 0.1428571428571429 0.1428571428571429 0.1428571428571429 0.1428571428571429 0.1428571428571429 0.1428571428571429 0.1428571428571429 0 1 0 0 0 0 0 0 0.2 0.8 0 0 0 0 0 0 0.2608695652173913 0.7391304347826086 0 0 0 0 0 0 0.4210526315789473 0.5263157894736842 0.05263157894736842 0 0 0 0 0 0.3333333333333333 0.6666666666666666 0 1 0 0 0 0 0 0 0.75 0.25 0 0 0 0 0 0 0.7692307692307693 0.2307692307692308 0 0 0 0 0 0 0.9047619047619047 0.09523809523809523 0 0 0 0 0 0 1 0 0 0 0 0 0 0 1 0 0 0 0 0 0 0 0.5 0.5 1 0 0 0 0 0 0 0.6666666666666666 0.3333333333333333 0 0 0 0 0 0 0.84 0.16 0 0 0 0 0 0 0.717948717948718 0.2564102564102564 0.02564102564102564 0 0 0 0 0.02380952380952381 0.8095238095238095 0.1428571428571428 0.02380952380952381 0 0 0 0 0 0.5882352941176471 0.3529411764705882 0.05882352941176471 0 0 0 0 0.07142857142857142 0.4285714285714285 0.5 0.875 0.125 0 0 0 0 0 0.3333333333333333 0.6 0.06666666666666667 0 0 0 0 0 0.3 0.6000000000000001 0.1 0 0 0 0 0 0.4210526315789473 0.5789473684210527 0 0 0 0 0 0 0.5641025641025641 0.4358974358974359 0 0 0 0 0 0 0.7272727272727273 0.2727272727272727 0 0 0 0 0 0 0.4848484848484849 0.5151515151515151 0.7777777777777777 0.05555555555555555 0.1666666666666667 0 0 0 0 0.04166666666666666 0.875 0.08333333333333333 0 0 0 0 0 0.2448979591836735 0.673469387755102 0.06122448979591837 0.02040816326530612 0 0 0 0 0.3863636363636364 0.5227272727272727 0.09090909090909091 0 0 0 0 0 0.5047619047619049 0.4190476190476191 0.06666666666666668 0.009523809523809525 0 0 0 0 0.4787234042553191 0.4148936170212766 0.1063829787234043 0 0 0 0 0 0.4545454545454546 0.5454545454545454 0.8 0.2 0 0 0 0 0 0.1428571428571428 0.6428571428571428 0.2142857142857143 0 0 0 0 0 0.1666666666666667 0.7083333333333333 0.125 0 0 0 0 0 0.2075471698113207 0.7169811320754716 0.07547169811320754 0 0 0 0 0 0.2258064516129032 0.6935483870967741 0.08064516129032258 0 0 0 0 0 0.5405405405405406 0.3513513513513514 0.1081081081081081 0 0 0 0 0 0.3809523809523809 0.6190476190476191 0.1428571428571429 0.1428571428571429 0.1428571428571429 0.1428571428571429 0.1428571428571429 0.1428571428571429 0.1428571428571429 0.1428571428571429 0.1428571428571429 0.1428571428571429 0.1428571428571429 0.1428571428571429 0.1428571428571429 0.1428571428571429 0.1428571428571429 0.1428571428571429 0.1428571428571429 0.1428571428571429 0.1428571428571429 0.1428571428571429 0.1428571428571429 0.1428571428571429 0.1428571428571429 0.1428571428571429 0.1428571428571429 0.1428571428571429 0.1428571428571429 0.1428571428571429 0 0 0 0.6666666666666666 0.3333333333333333 0 0 0 0 0 0 0.375 0.625 0 0 0 0 0 0 1 0 1 0 0 0 0 0 0 0.1428571428571429 0.1428571428571429 0.1428571428571429 0.1428571428571429 0.1428571428571429 0.1428571428571429 0.1428571428571429 0.1428571428571429 0.1428571428571429 0.1428571428571429 0.1428571428571429 0.1428571428571429 0.1428571428571429 0.1428571428571429 0 0 0.3333333333333333 0.6666666666666666 0 0 0 0 0 0 0.5 0.5 0 0 0 0 0 0 1 0 0 0 0 0 0 0.1 0.4 0.5 1 0 0 0 0 0 0 0.1428571428571429 0.1428571428571429 0.1428571428571429 0.1428571428571429 0.1428571428571429 0.1428571428571429 0.1428571428571429 0 1 0 0 0 0 0 0 0 0.8 0.2 0 0 0 0 0 0 0.8823529411764706 0.1176470588235294 0 0 0 0 0 0 0.8947368421052631 0.1052631578947368 0 0 0 0 0 0 0.7777777777777777 0.2222222222222222 1 0 0 0 0 0 0 0.1428571428571429 0.1428571428571429 0.1428571428571429 0.1428571428571429 0.1428571428571429 0.1428571428571429 0.1428571428571429 0 0.4444444444444444 0.3333333333333333 0.2222222222222222 0 0 0 0 0 0.5294117647058824 0.2941176470588235 0.1176470588235294 0.05882352941176471 0 0 0 0 0.6785714285714285 0.2142857142857143 0.1071428571428571 0 0 0 0 0 0.7741935483870968 0.2258064516129032 0 0 0 0 0 0 1 0 1 0 0 0 0 0 0 0.25 0.625 0.125 0 0 0 0 0 0.576923076923077 0.4230769230769231 0 0 0 0 0 0 0.76 0.24 0 0 0 0 0 0 0.673469387755102 0.3061224489795918 0.02040816326530612 0 0 0 0 0 0.5 0.4722222222222222 0.02777777777777778 0 0 0 0 0 0.4444444444444444 0.5555555555555556 1 0 0 0 0 0 0 0 1 0 0 0 0 0 0 0.1153846153846154 0.8076923076923077 0.07692307692307693 0 0 0 0 0 0.2272727272727273 0.7272727272727273 0.02272727272727273 0.02272727272727273 0 0 0 0 0.3942307692307693 0.4519230769230769 0.1442307692307692 0.009615384615384616 0 0 0 0 0.3770491803278689 0.5 0.1229508196721312 0 0 0 0 0 0.359375 0.640625 0.875 0.125 0 0 0 0 0 0 0.7142857142857142 0.2857142857142857 0 0 0 0 0 0.25 0.65 0.1 0 0 0 0 0 0.2058823529411765 0.6176470588235294 0.1764705882352941 0 0 0 0 0 0.2380952380952381 0.6190476190476191 0.119047619047619 0.02380952380952381 0 0 0 0 0.3333333333333333 0.5416666666666666 0.125 0 0 0 0 0 0.3666666666666666 0.6333333333333333 0.2 0.4 0.4 0 0 0 0 0 0 0.6666666666666666 0.3333333333333333 0 0 0 0 0 0.3846153846153846 0.6153846153846154 0 0 0 0 0 0 0.5 0.5 0 0 0 0 0 0 0.5882352941176471 0.3529411764705882 0.05882352941176471 0 0 0 0 0.1428571428571428 0.5714285714285714 0.2857142857142857 0 0 0 0 0 0.6666666666666666 0.3333333333333333 0.1428571428571429 0.1428571428571429 0.1428571428571429 0.1428571428571429 0.1428571428571429 0.1428571428571429 0.1428571428571429 1 0 0 0 0 0 0 0 0.5555555555555556 0.2222222222222222 0.2222222222222222 0 0 0 0 0.3 0.7000000000000001 0 0 0 0 0 0 0.125 0.8125 0.0625 0 0 0 0 0 0.0625 0.6875 0.25 0 0 0 0 0 0 0.7777777777777777 0.2222222222222222 0.7142857142857142 0.1428571428571428 0 0.1428571428571428 0 0 0 0.5 0.5 0 0 0 0 0 0 0.5 0 0.375 0.125 0 0 0 0 0.3333333333333333 0.4166666666666666 0.25 0 0 0 0 0 0.5161290322580645 0.3870967741935484 0.09677419354838709 0 0 0 0 0.04 0.6 0.36 0 0 0 0 0 0.03225806451612903 0.6774193548387096 0.2903225806451613 0.5 0.5 0 0 0 0 0 0 0.3333333333333333 0.6666666666666666 0 0 0 0 0 0.25 0.5 0.25 0 0 0 0 0 0.5 0.3333333333333333 0.1666666666666667 0 0 0 0 0 0.6226415094339622 0.3018867924528302 0.07547169811320754 0 0 0 0 0 0.675 0.25 0.07500000000000001 0 0 0 0 0 0.5294117647058824 0.4705882352941176 0.5 0.1666666666666667 0.3333333333333333 0 0 0 0 0.1428571428571429 0.1428571428571429 0.1428571428571429 0.1428571428571429 0.1428571428571429 0.1428571428571429 0.1428571428571429 0 0.2222222222222222 0.2222222222222222 0.1111111111111111 0.4444444444444444 0 0 0 0 0.375 0.375 0.2083333333333333 0.04166666666666666 0 0 0 0 0.4262295081967213 0.3770491803278689 0.1639344262295082 0.03278688524590164 0 0 0 0 0.4464285714285714 0.4107142857142857 0.1428571428571428 0 0 0 0 0.01818181818181818 0.4545454545454545 0.5272727272727272 0.6666666666666666 0.3333333333333333 0 0 0 0 0 0.1666666666666667 0.6666666666666666 0 0.1666666666666667 0 0 0 0 0.21875 0.5625 0.09375 0.125 0 0 0 0 0.3061224489795918 0.4693877551020408 0.1020408163265306 0.08163265306122448 0.04081632653061224 0 0 0 0.3544303797468354 0.4683544303797468 0.1012658227848101 0.0759493670886076 0 0 0 0 0.4 0.4 0.2 0 0 0 0 0 0.3913043478260869 0.6086956521739131 0.7692307692307693 0.07692307692307693 0 0.07692307692307693 0.07692307692307693 0 0 0.2 0.4 0.2 0.2 0 0 0 0 0.08333333333333333 0.9166666666666666 0 0 0 0 0 0 0.2758620689655172 0.5172413793103449 0.2068965517241379 0 0 0 0 0 0.2388059701492537 0.582089552238806 0.1791044776119403 0 0 0 0 0 0.2428571428571429 0.6714285714285714 0.08571428571428572 0 0 0 0 0 0.3137254901960784 0.6862745098039216 0.1428571428571429 0.1428571428571429 0.1428571428571429 0.1428571428571429 0.1428571428571429 0.1428571428571429 0.1428571428571429 0.375 0 0.375 0.25 0 0 0 0 0.1666666666666667 0.08333333333333333 0.75 0 0 0 0 0 0.1818181818181818 0.1818181818181818 0.6363636363636364 0 0 0 0 0 0.09677419354838709 0.4516129032258064 0.3548387096774194 0.09677419354838709 0 0 0 0 0.09090909090909091 0.6818181818181819 0.2272727272727273 0 0 0 0 0 0.25 0.75 0.1428571428571429 0.1428571428571429 0.1428571428571429 0.1428571428571429 0.1428571428571429 0.1428571428571429 0.1428571428571429 0 0.8 0.2 0 0 0 0 0 0.375 0.5625 0.0625 0 0 0 0 0.03571428571428571 0.5714285714285714 0.3571428571428571 0.03571428571428571 0 0 0 0 0.08571428571428572 0.5714285714285714 0.2857142857142857 0.05714285714285714 0 0 0 0 0.08333333333333333 0.8333333333333333 0.08333333333333333 0 0 0 0 0 0 1 0 1 0 0 0 0 0 0 0.2962962962962963 0.5925925925925926 0.07407407407407407 0.03703703703703703 0 0 0 0.06666666666666667 0.5 0.4 0 0.03333333333333333 0 0 0 0.03703703703703703 0.6666666666666666 0.2592592592592592 0.03703703703703703 0 0 0 0 0.09090909090909091 0.6060606060606061 0.303030303030303 0 0 0 0 0 0.02083333333333333 0.7708333333333333 