<?xml version="1.0" encoding="UTF-8"?>
<!-- This file was created by ACADEMIC version of SMILE -->
<smile version="1.0" id="Unnamed" numsamples="10000" discsamples="10000">
	<nodes>
		<cpt id="Wind">
			<state id="High" />
			<state id="Low" />
			<state id="Mid" />
			<probabilities>0.3042816273518675 0.2766384091547318 0.4190799634934007</probabilities>
		</cpt>
		<cpt id="WindDir">
			<state id="High" />
			<state id="Low" />
			<state id="Mid" />
			<probabilities>0.5025010530749789 0.1070055812973884 0.3904933656276327</probabilities>
		</cpt>
		<cpt id="Hs_offshore">
			<state id="High" />
			<state id="Low" />
			<state id="Mid" />
			<parents>Wind WindDir</parents>
			<probabilities>0.215427275018906 0.1449458028737081 0.6396269221073859 0.8012854847348688 0.01017675415104446 0.1885377611140868 0.2053347723856146 0.171568438499788 0.6230967891145974 0.05555776180453516 0.6760652873198046 0.2683769508756602 0.1214458560193587 0.5417422867513612 0.3368118572292801 0.05101046992938885 0.6669507345183021 0.282038795552309 0.07346338910027984 0.4978357592961688 0.4287008516035514 0.3993808049535604 0.1972001615291425 0.4034190335172971 0.06139026295235616 0.5291330382712836 0.4094766987763603</probabilities>
		</cpt>
		<cpt id="Tm_offshore">
			<state id="High" />
			<state id="Low" />
			<state id="Mid" />
			<parents>Wind WindDir</parents>
			<probabilities>0.001386438114444164 0.9551550289891606 0.04345853289639526 0.06079271558650241 0.1652383502945902 0.7739689341189073 0.0004625525189839263 0.9700882704390394 0.02944917704197664 0.1546801159604464 0.5728922600373297 0.2724276240022239 0.3969298245614035 0.2398669086509377 0.3632032667876588 0.1804642480318156 0.5522279035792549 0.2673078483889295 0.01018703066175434 0.9096052022306779 0.0802077671075678 0.1716247139588101 0.3118858527392651 0.5164894333019249 0.01127310596198907 0.9110908617547514 0.07763603228325956</probabilities>
		</cpt>
		<cpt id="Dir_offshore">
			<state id="High" />
			<state id="Low" />
			<state id="Mid" />
			<parents>Wind WindDir</parents>
			<probabilities>0.08953869422737586 0.6657675825560877 0.2446937232165364 0.8940651494868361 8.924587237840248e-05 0.1058456046407854 0.01927302162433026 0.3000038546043249 0.6807231237713449 0.3144831420515468 0.05087168897184385 0.6346451689766094 0.4506957047791894 0.006125226860254083 0.5431790683605565 0.2550929307686065 0.03356058761464167 0.7113464816167518 0.2027541221235731 0.2872098407521491 0.5100360371242777 0.7381881814510701 0.00188450666307713 0.2599273118858527 0.1082530590991929 0.128221817235095 0.763525123665712</probabilities>
		</cpt>
		<cpt id="Hs_point_110">
			<state id="High" />
			<state id="Low" />
			<state id="Mid" />
			<parents>Hs_offshore Tm_offshore Dir_offshore</parents>
			<probabilities>0.07937562271670541 0.6808369312520757 0.2397874460312189 0.3333333333333333 0.3333333333333333 0.3333333333333333 0.02061281337047354 0.6796657381615598 0.2997214484679666 0.3552966872952312 0.07790316709137241 0.5668001456133964 0.8651664837175266 0.001463593121112331 0.1333699231613611 0.504390694808196 0.03774456940378986 0.4578647357880142 0.1529279595562421 0.555539952253897 0.291532088189861 0.895895895895896 0.001001001001001001 0.1031031031031031 0.1663479923518164 0.387189292543021 0.4464627151051625 0.06324666198172874 0.6380885453267744 0.2986647926914968 0.03333333333333333 0.9333333333333332 0.03333333333333333 0.01374045801526718 0.751145038167939 0.2351145038167939 0.06878781088953619 0.5132198073045037 0.4179923818059601 0.2539197719405417 0.1703319079617186 0.5757483200977398 0.0888822940238157 0.3974292391586601 0.5136884668175242 0.02964719833975689 0.6842573376815891 0.286095463978654 0.005208333333333333 0.6927083333333334 0.3020833333333333 0.02943161873903065 0.639935196435804 0.3306331848251654 0.04161712247324614 0.6991676575505351 0.2592152199762188 0.3333333333333333 0.3333333333333333 0.3333333333333333 0.01857106009801393 0.7407789527985555 0.2406499871034305 0.115928715781738 0.3194929266948374 0.5645783575234246 0.5996406946569964 0.02395368953356843 0.3764056158094351 0.2669333876968554 0.1700728810967841 0.5629937312063605 0.0442505453412278 0.660174509192895 0.2955749454658772 0.8431372549019608 0.0196078431372549 0.1372549019607843 0.02559804967240591 0.6490934024074356 0.3253085479201585</probabilities>
		</cpt>
		<cpt id="MSL">
			<state id="High" />
			<state id="Low" />
			<state id="Mid" />
			<probabilities>0.3366768463914631 0.1382775203594496 0.5250456332490874</probabilities>
		</cpt>
		<cpt id="TWL_point_110">
			<state id="High" />
			<state id="Low" />
			<state id="Mid" />
			<parents>Wind WindDir Hs_point_110 MSL</parents>
			<probabilities>0.3403540903540904 0.3018925518925519 0.3577533577533578 0.1945893719806763 0.4083091787439613 0.3971014492753623 0.2787017167381974 0.3505901287553648 0.3707081545064378 0.3175355450236967 0.2464454976303317 0.4360189573459716 0.1886792452830189 0.5471698113207547 0.2641509433962264 0.2378640776699029 0.3592233009708738 0.4029126213592233 0.3232519422863485 0.275527192008879 0.4012208657047725 0.2035087719298246 0.411578947368421 0.3849122807017544 0.277715815302253 0.3455275485166183 0.3767566361811287 0.3818897637795275 0.2716535433070866 0.3464566929133858 0.02083333333333333 0.4583333333333333 0.5208333333333334 0.3488372093023256 0.09302325581395349 0.5581395348837209 0.3701923076923077 0.2156593406593407 0.4141483516483517 0.2119205298013245 0.271523178807947 0.5165562913907285 0.3359288097886541 0.3070077864293659 0.35706340378198 0.4435483870967742 0.2358870967741936 0.3205645161290323 0.186046511627907 0.3643410852713178 0.4496124031007752 0.2785714285714286 0.35 0.3714285714285714 0.3228971962616822 0.3009345794392523 0.3761682242990654 0.2073011734028683 0.4015645371577575 0.3911342894393742 0.2754648342764753 0.355800323362975 0.3687348423605497 0.3080808080808081 0.3308080808080808 0.3611111111111111 0.32 0.28 0.4 0.2892768079800499 0.3591022443890274 0.3516209476309227 0.318337617823479 0.2866323907455013 0.3950299914310197 0.2199292452830189 0.3944575471698113 0.3856132075471698 0.2579212318626 0.3474977790938703 0.3945809890435298 0.3499170812603649 0.318407960199005 0.3316749585406302 0.178343949044586 0.4713375796178344 0.3503184713375796 0.2785388127853881 0.3729071537290715 0.3485540334855403 0.3612002791346825 0.2489881367759944 0.3898115840893231 0.2567829457364341 0.4234496124031008 0.3197674418604651 0.3067407673001076 0.3201864467551094 0.3730727859447831 0.3484553298079599 0.2699693849151127 0.3815752852769274 0.260424286759327 0.3855157278712509 0.3540599853694221 0.2865380791409823 0.3241201034002784 0.3893418174587393 0.319672131147541 0.319672131147541 0.360655737704918 0.1578947368421053 0.1052631578947368 0.7368421052631579 0.2102272727272727 0.3238636363636364 0.4659090909090909 0.3507617728531856 0.2539819944598338 0.3952562326869806 0.3058035714285715 0.3482142857142857 0.3459821428571428 0.3104010433648516 0.3175741767199218 0.3720247799152266 0.3615428900402994 0.2573402417962004 0.3811168681635003 0.2453416149068323 0.3881987577639752 0.3664596273291926 0.2885017421602787 0.2996515679442509 0.4118466898954704 0.369928400954654 0.279236276849642 0.3508353221957041 0.1888111888111888 0.3426573426573427 0.4685314685314685 0.2627906976744186 0.3511627906976744 0.386046511627907 0.345930964978584 0.2705971277399849 0.3834719072814311 0.2244444444444444 0.3944444444444444 0.3811111111111111 0.2902807074476716 0.3254908323868246 0.3842284601655038 0.3467796610169491 0.3003389830508474 0.3528813559322034 0.2691244239631336 0.3797235023041475 0.3511520737327189 0.2828348504551366 0.3066753359341136 0.4104898136107499 0.3459037711313394 0.2906371911573472 0.3634590377113134 0.2241770715096481 0.3916004540295119 0.38422247446084 0.2974750131509732 0.3540241977906365 0.3485007890583903 0.3254909225639125 0.264542423119674 0.4099666543164135 0.2401315789473684 0.4128289473684211 0.3470394736842105 0.2684148989477201 0.3395690663103391 0.3920160347419409 0.3313711062055433 0.2740986019131714 0.3945302918812852 0.2232710460412252 0.4010787902138316 0.3756501637449431 0.2843650363953558 0.3286410395235517 0.3869939240810925 0.3708333333333333 0.3208333333333334 0.3083333333333333 0.08333333333333333 0.5833333333333334 0.3333333333333333 0.2272727272727273 0.196969696969697 0.5757575757575758 0.3829406501640322 0.230838055472711 0.3862212943632568 0.2352941176470588 0.4044117647058824 0.3602941176470588 0.3238758029978587 0.3217344753747323 0.354389721627409 0.3644859813084112 0.2596053997923157 0.3759086188992731 0.2674418604651163 0.3604651162790697 0.3720930232558139 0.2981366459627329 0.3250517598343685 0.3768115942028986 0.2827735644637053 0.2416034669555796 0.4756229685807151 0.2460431654676259 0.3798561151079137 0.3741007194244604 0.2670074714903657 0.3303185214313802 0.402674007078254 0.3257112934194449 0.2674114156048176 0.4068772909757375 0.2312834224598931 0.3542780748663101 0.4144385026737968 0.2985586822237474 0.3143445435827042 0.3870967741935484 0.348729792147806 0.2753597441819151 0.3759104636702789 0.2348993288590604 0.3942223519112927 0.3708783192296469 0.2880198634388578 0.3265828677839851 0.385397268777157</probabilities>
		</cpt>
	</nodes>
	<extensions>
		<genie version="1.0" app="SMILE_ACADEMIC 1.6.0" name="Unnamed">
			<node id="Wind">
				<name>Wind</name>
				<interior color="e5f6f7" />
				<outline color="0000bb" />
				<font color="000000" name="MS Sans Serif" size="8" />
				<position>-38 -18 38 18</position>
			</node>
			<node id="WindDir">
				<name>WindDir</name>
				<interior color="e5f6f7" />
				<outline color="0000bb" />
				<font color="000000" name="MS Sans Serif" size="8" />
				<position>-38 -18 38 18</position>
			</node>
			<node id="Hs_offshore">
				<name>Hs_offshore</name>
				<interior color="e5f6f7" />
				<outline color="0000bb" />
				<font color="000000" name="MS Sans Serif" size="8" />
				<position>-38 -18 38 18</position>
			</node>
			<node id="Tm_offshore">
				<name>Tm_offshore</name>
				<interior color="e5f6f7" />
				<outline color="0000bb" />
				<font color="000000" name="MS Sans Serif" size="8" />
				<position>-38 -18 38 18</position>
			</node>
			<node id="Dir_offshore">
				<name>Dir_offshore</name>
				<interior color="e5f6f7" />
				<outline color="0000bb" />
				<font color="000000" name="MS Sans Serif" size="8" />
				<position>-38 -18 38 18</position>
			</node>
			<node id="TWL_point_110">
				<name>TWL_point_110</name>
				<interior color="e5f6f7" />
				<outline color="0000bb" />
				<font color="000000" name="MS Sans Serif" size="8" />
				<position>-38 -18 38 18</position>
			</node>
			<node id="Hs_point_110">
				<name>Hs_point_110</name>
				<interior color="e5f6f7" />
				<outline color="0000bb" />
				<font color="000000" name="MS Sans Serif" size="8" />
				<position>-38 -18 38 18</position>
			</node>
			<node id="MSL">
				<name>MSL</name>
				<interior color="e5f6f7" />
				<outline color="0000bb" />
				<font color="000000" name="MS Sans Serif" size="8" />
				<position>-38 -18 38 18</position>
			</node>
		</genie>
	</extensions>
</smile>
